{"type":"LSTM","options":{"inputSize":16,"inputRange":16,"hiddenLayers":[20,20,20],"outputSize":16,"decayRate":0.999,"smoothEps":1e-8,"regc":0.000001,"clipval":5,"maxPredictionLength":100,"dataFormatter":{"indexTable":{"b":0,"a":1,"n":2," ":3,"g":4,"m":5,"p":6,"l":7,"s":8,"h":9,"e":10,"o":11,"!":12,"stop-input":13,"start-output":14,"unrecognized":15},"characterTable":{"0":"b","1":"a","2":"n","3":" ","4":"g","5":"m","6":"p","7":"l","8":"s","9":"h","10":"e","11":"o","12":"!","13":null,"14":null,"15":null},"values":[["b","a","n"," ","a","g","m","a","n"," ","p","l","s"],["h","e","l","l","o","!"]],"characters":["b","a","n"," ","g","m","p","l","s","h","e","o","!","stop-input","start-output","unrecognized"],"specialIndexes":[13,14,15]}},"input":{"rows":17,"columns":16,"weights":{"0":0.0874858945608139,"1":-0.9816592931747437,"2":0.5316651463508606,"3":-0.7110820412635803,"4":-0.8466105461120605,"5":-0.5991070866584778,"6":0.32976943254470825,"7":0.1365954726934433,"8":0.8911172747612,"9":0.5024755597114563,"10":0.23434381186962128,"11":0.07203018665313721,"12":-0.18465887010097504,"13":3.049032211303711,"14":0.315639853477478,"15":-0.9702523350715637,"16":-0.43629828095436096,"17":-0.6580060720443726,"18":0.001452447148039937,"19":-0.6106083989143372,"20":-0.5169816613197327,"21":-0.14352849125862122,"22":0.07844379544258118,"23":0.9566710591316223,"24":0.42286166548728943,"25":0.35860395431518555,"26":-2.289205551147461,"27":0.6932658553123474,"28":0.01825658604502678,"29":0.17072896659374237,"30":-0.16108380258083344,"31":-0.158824160695076,"32":-0.6024488806724548,"33":0.8099784851074219,"34":1.0297223329544067,"35":0.2925170660018921,"36":-0.9596239924430847,"37":-0.41499385237693787,"38":-1.0465385913848877,"39":0.3530135452747345,"40":0.8170785903930664,"41":0.6390991806983948,"42":1.4873605966567993,"43":0.7643200159072876,"44":0.5964796543121338,"45":0.46446648240089417,"46":-1.6379059553146362,"47":-0.9698092937469482,"48":-1.4040249586105347,"49":-0.49115145206451416,"50":-0.695557177066803,"51":0.2622431218624115,"52":1.4989500045776367,"53":1.5766066312789917,"54":-1.0888803005218506,"55":1.1556262969970703,"56":0.2612714469432831,"57":-0.8077408671379089,"58":-0.07100825011730194,"59":-0.7729524374008179,"60":1.943285584449768,"61":0.7339788675308228,"62":1.1135807037353516,"63":0.8035906553268433,"64":0.370524525642395,"65":-0.18061238527297974,"66":-0.6886277794837952,"67":0.638298749923706,"68":0.9662193655967712,"69":1.4578801393508911,"70":-0.529003918170929,"71":0.46821245551109314,"72":0.935182511806488,"73":-1.6184072494506836,"74":0.6365874409675598,"75":-0.765030026435852,"76":0.26097869873046875,"77":0.3691074252128601,"78":1.425523042678833,"79":1.4428551197052002,"80":-0.7060204744338989,"81":-0.0931026041507721,"82":0.6774479746818542,"83":0.25340917706489563,"84":-1.2169814109802246,"85":-1.0161319971084595,"86":-1.6727241277694702,"87":0.21593189239501953,"88":0.21675220131874084,"89":1.2754251956939697,"90":0.4749886691570282,"91":1.4179809093475342,"92":-0.20341745018959045,"93":0.9825059771537781,"94":-1.255277395248413,"95":-1.1098741292953491,"96":0.5990656018257141,"97":-0.3218865692615509,"98":-1.131127119064331,"99":-0.18097323179244995,"100":0.5266779065132141,"101":1.5111782550811768,"102":-0.08232419937849045,"103":-0.2760607600212097,"104":0.3851921558380127,"105":-0.845109760761261,"106":0.5117291808128357,"107":-0.6602181196212769,"108":0.17944742739200592,"109":-0.4926716089248657,"110":0.5315797328948975,"111":1.3723958730697632,"112":-0.06044495850801468,"113":0.1102202758193016,"114":-0.6644107699394226,"115":0.5424041748046875,"116":-0.8792877793312073,"117":0.616110622882843,"118":-0.481788694858551,"119":-1.0564721822738647,"120":-0.9707411527633667,"121":-0.38734742999076843,"122":-1.824962854385376,"123":0.6049404144287109,"124":-2.3069887161254883,"125":-0.83028244972229,"126":-0.22085875272750854,"127":0.7042160630226135,"128":-0.34048157930374146,"129":0.042171455919742584,"130":-0.7492802739143372,"131":0.18976163864135742,"132":0.09722413867712021,"133":0.27414485812187195,"134":-0.3128371834754944,"135":2.344912052154541,"136":0.16576361656188965,"137":-0.6241815090179443,"138":-0.33935612440109253,"139":0.21289505064487457,"140":0.5951703190803528,"141":-0.7157991528511047,"142":0.21519573032855988,"143":0.40177080035209656,"144":-0.19343669712543488,"145":0.11250485479831696,"146":0.9392186999320984,"147":0.44819891452789307,"148":-0.584976851940155,"149":-0.36569249629974365,"150":0.07603272050619125,"151":-0.3448501229286194,"152":-1.3070772886276245,"153":0.2052958905696869,"154":-1.603237271308899,"155":1.12588369846344,"156":-0.1445770412683487,"157":0.12390415370464325,"158":-0.9321715235710144,"159":-1.189967155456543,"160":1.4985544681549072,"161":0.3495613634586334,"162":0.7090238332748413,"163":-0.8850060105323792,"164":0.7357535362243652,"165":0.23768605291843414,"166":1.3733701705932617,"167":-3.3471031188964844,"168":0.5252660512924194,"169":0.3267742991447449,"170":1.2539023160934448,"171":-1.7148792743682861,"172":0.5648417472839355,"173":1.2371433973312378,"174":-0.3220004141330719,"175":-0.10365277528762817,"176":0.19108523428440094,"177":-2.9535067081451416,"178":0.6223465800285339,"179":-3.096865653991699,"180":-0.7326468229293823,"181":-0.8105470538139343,"182":0.6610231399536133,"183":1.0274723768234253,"184":2.156494379043579,"185":0.19458246231079102,"186":-0.8313526511192322,"187":0.5099653005599976,"188":-1.56627357006073,"189":1.3155715465545654,"190":-1.2244560718536377,"191":-1.1138691902160645,"192":1.4251095056533813,"193":0.5399851202964783,"194":-0.48420166969299316,"195":0.20304137468338013,"196":0.40758782625198364,"197":0.35473114252090454,"198":0.38474082946777344,"199":-0.5259548425674438,"200":0.15991219878196716,"201":-1.4779375791549683,"202":0.43674978613853455,"203":-1.3544692993164062,"204":0.3857249617576599,"205":-0.7169342637062073,"206":0.69521164894104,"207":0.8152532577514648,"208":0.9090052247047424,"209":-0.30338042974472046,"210":-1.1471874713897705,"211":0.5277661681175232,"212":1.550957441329956,"213":0.7306398153305054,"214":0.7317489981651306,"215":0.4037659168243408,"216":-0.2726030945777893,"217":0.22205661237239838,"218":0.15022821724414825,"219":-1.2908401489257812,"220":-0.4207228124141693,"221":-0.6148570775985718,"222":1.467692494392395,"223":0.8570089340209961,"224":-1.1245263814926147,"225":0.8448832631111145,"226":0.1461523473262787,"227":0.6090388298034668,"228":-0.5775643587112427,"229":-1.5463464260101318,"230":-1.3613206148147583,"231":0.891187310218811,"232":-0.8473878502845764,"233":1.5794566869735718,"234":0.518226683139801,"235":1.402093529701233,"236":0.8769933581352234,"237":-0.1679479330778122,"238":-0.9411140084266663,"239":-0.49664708971977234,"240":0.5277261137962341,"241":-1.2405591011047363,"242":-0.6151696443557739,"243":-1.2380701303482056,"244":-0.10301953554153442,"245":0.8229020237922668,"246":0.9724693894386292,"247":0.25890210270881653,"248":0.6682450175285339,"249":-0.7725515365600586,"250":-0.5824412107467651,"251":-0.6779852509498596,"252":-0.18872007727622986,"253":0.21163254976272583,"254":0.9759201407432556,"255":1.4920095205307007,"256":-0.018123643472790718,"257":-0.3531903922557831,"258":0.24926340579986572,"259":-0.41945701837539673,"260":-0.10845930874347687,"261":-0.3252289295196533,"262":-0.0192073043435812,"263":-0.1846916675567627,"264":0.4405243992805481,"265":0.29177960753440857,"266":0.033348992466926575,"267":0.028377268463373184,"268":0.05344201996922493,"269":0.5266191959381104,"270":-0.30559462308883667,"271":-0.20471550524234772}},"hiddenLayers":[{"inputMatrix":{"rows":20,"columns":16,"weights":{"0":1.1084543466567993,"1":1.4695584774017334,"2":-0.10062349587678909,"3":0.9432684183120728,"4":0.9427700042724609,"5":0.21053022146224976,"6":-0.23104722797870636,"7":-1.370722770690918,"8":-0.2676447629928589,"9":0.2656812071800232,"10":0.1926877647638321,"11":-1.5752137899398804,"12":0.30356675386428833,"13":-0.7791507840156555,"14":0.32308265566825867,"15":0.14419597387313843,"16":-0.15395212173461914,"17":0.12456019967794418,"18":2.1346261501312256,"19":0.1029108464717865,"20":0.029432373121380806,"21":-0.891621470451355,"22":-0.05248856544494629,"23":-0.6626870632171631,"24":0.668050229549408,"25":0.9240902066230774,"26":0.6555356979370117,"27":-0.1449180245399475,"28":-0.00509260268881917,"29":2.0904266834259033,"30":-2.1896984577178955,"31":-1.9413028955459595,"32":-0.06036236882209778,"33":-1.351392388343811,"34":0.744745135307312,"35":-0.5741888284683228,"36":-0.33793482184410095,"37":-0.4720397889614105,"38":-0.8292487263679504,"39":0.5898181796073914,"40":1.640501618385315,"41":0.3587707579135895,"42":0.789059579372406,"43":-0.7758695483207703,"44":0.12630490958690643,"45":1.3682563304901123,"46":-0.23331834375858307,"47":0.02075323462486267,"48":-0.68885737657547,"49":0.21504077315330505,"50":0.7392660975456238,"51":-0.16579078137874603,"52":-0.6148675084114075,"53":-1.2716816663742065,"54":0.5911514759063721,"55":-0.04329909756779671,"56":1.0921190977096558,"57":1.2428258657455444,"58":0.49352777004241943,"59":0.6798325777053833,"60":0.07185502350330353,"61":1.3076870441436768,"62":-1.2604608535766602,"63":-1.6705790758132935,"64":-0.20781123638153076,"65":0.41832637786865234,"66":-0.10942620038986206,"67":0.3680345416069031,"68":0.5379714369773865,"69":0.739590585231781,"70":0.22193840146064758,"71":0.5156120657920837,"72":0.3782729506492615,"73":-0.31124407052993774,"74":1.4161900281906128,"75":-0.9080045223236084,"76":1.1705652475357056,"77":-0.014367576688528061,"78":0.49811851978302,"79":0.11142268776893616,"80":-0.2916386127471924,"81":-0.02973839081823826,"82":0.5237783193588257,"83":-0.11069026589393616,"84":-3.147855520248413,"85":-2.002249002456665,"86":0.2021050751209259,"87":-0.25292229652404785,"88":-0.8400582075119019,"89":1.1193013191223145,"90":-1.4141901731491089,"91":1.5312739610671997,"92":-1.1555248498916626,"93":1.10102379322052,"94":-1.69556725025177,"95":-1.2298617362976074,"96":-1.5938478708267212,"97":0.369160532951355,"98":-0.3715987205505371,"99":0.3977699279785156,"100":-0.6086916327476501,"101":-1.6214569807052612,"102":-1.179629921913147,"103":1.2491379976272583,"104":-0.5687426924705505,"105":1.3905599117279053,"106":-0.6757426857948303,"107":1.2093524932861328,"108":-0.27713075280189514,"109":-1.6108016967773438,"110":-0.7795327305793762,"111":-0.9766075611114502,"112":0.7525202035903931,"113":1.024868130683899,"114":1.0780562162399292,"115":0.6683831810951233,"116":0.5818532109260559,"117":-0.6596782207489014,"118":0.8521788716316223,"119":-0.8514950275421143,"120":0.5711329579353333,"121":0.21057435870170593,"122":1.9144974946975708,"123":-0.45540502667427063,"124":0.7452428340911865,"125":0.6699586510658264,"126":-0.14679503440856934,"127":-1.6267437934875488,"128":-0.27729812264442444,"129":0.006037781946361065,"130":0.7383085489273071,"131":-0.6546247601509094,"132":-1.7634081840515137,"133":-1.201370120048523,"134":0.5683811902999878,"135":-0.12186675518751144,"136":-0.36720478534698486,"137":0.7138446569442749,"138":-0.22058048844337463,"139":0.7447530031204224,"140":-1.5085594654083252,"141":1.7008628845214844,"142":-1.8976306915283203,"143":-1.5310965776443481,"144":-0.1667954921722412,"145":-0.5470042824745178,"146":0.2968836724758148,"147":-1.296400547027588,"148":-1.7114503383636475,"149":-1.093179702758789,"150":-1.1175824403762817,"151":0.1854105442762375,"152":0.1289675235748291,"153":0.4346745014190674,"154":0.17083153128623962,"155":1.8088985681533813,"156":-0.16070619225502014,"157":0.017078479751944542,"158":-1.4772593975067139,"159":-1.3673627376556396,"160":-1.0347485542297363,"161":2.1905276775360107,"162":-0.7135297656059265,"163":1.1859652996063232,"164":0.05630038306117058,"165":-0.3658657371997833,"166":-1.6485427618026733,"167":0.7292279601097107,"168":-2.5377748012542725,"169":0.4273822009563446,"170":0.3508254289627075,"171":1.2956464290618896,"172":-2.0503056049346924,"173":-1.2466572523117065,"174":-1.21046781539917,"175":-0.5189191102981567,"176":-0.9260078072547913,"177":-1.1668384075164795,"178":-0.043222904205322266,"179":-0.6056402325630188,"180":-0.43989384174346924,"181":-0.05996374040842056,"182":-0.5038889646530151,"183":1.9320563077926636,"184":1.3937331438064575,"185":-0.11782590299844742,"186":1.149467945098877,"187":0.6047071814537048,"188":0.6880241632461548,"189":0.8739291429519653,"190":-0.3206547200679779,"191":-0.4555684030056,"192":-0.34831419587135315,"193":0.06481009721755981,"194":-0.1729453057050705,"195":-0.26257163286209106,"196":-1.7079564332962036,"197":-0.9472616910934448,"198":-0.9805403351783752,"199":0.0627485066652298,"200":-0.1470731645822525,"201":1.06784188747406,"202":-0.9772064685821533,"203":1.5561963319778442,"204":-1.554319977760315,"205":-1.0161100625991821,"206":-2.176121473312378,"207":-1.167367935180664,"208":-0.882548451423645,"209":-1.6808744668960571,"210":0.9262128472328186,"211":-1.7497079372406006,"212":-2.1189355850219727,"213":-1.9852851629257202,"214":-0.32513657212257385,"215":0.2824479043483734,"216":0.21360038220882416,"217":1.4527654647827148,"218":-0.5578255653381348,"219":1.4431180953979492,"220":-0.5769142508506775,"221":0.9632523059844971,"222":-1.515869379043579,"223":-1.6909829378128052,"224":1.147213339805603,"225":0.6977846026420593,"226":0.17115701735019684,"227":0.602850079536438,"228":-0.02313995361328125,"229":-0.7503846287727356,"230":0.2582835853099823,"231":-0.7692083716392517,"232":0.38799452781677246,"233":0.3918069899082184,"234":1.8501578569412231,"235":-0.9320690035820007,"236":0.7790243029594421,"237":0.35830023884773254,"238":0.27487099170684814,"239":-0.17752201855182648,"240":-0.7005664110183716,"241":-0.5370004177093506,"242":0.3927910029888153,"243":-0.9702880382537842,"244":0.05801735445857048,"245":-0.42898988723754883,"246":0.41793063282966614,"247":1.0146307945251465,"248":0.44360488653182983,"249":0.5513489842414856,"250":1.360206127166748,"251":0.3078978359699249,"252":0.7600284814834595,"253":0.9757206439971924,"254":-0.9493916034698486,"255":-0.951533317565918,"256":0.9757512807846069,"257":-0.8037615418434143,"258":-1.0903613567352295,"259":-0.22716942429542542,"260":1.4684348106384277,"261":1.3201451301574707,"262":1.2843186855316162,"263":-0.4597811698913574,"264":0.05908772721886635,"265":-1.3844741582870483,"266":-1.3146475553512573,"267":-1.3031977415084839,"268":0.19964511692523956,"269":-0.42421674728393555,"270":0.8793911933898926,"271":0.8437544703483582,"272":-0.17062455415725708,"273":-0.783802330493927,"274":0.9982035756111145,"275":-0.843646228313446,"276":-1.6562016010284424,"277":-1.8766872882843018,"278":0.34203213453292847,"279":-0.6825424432754517,"280":1.0259734392166138,"281":2.189805269241333,"282":0.5688130259513855,"283":0.33955883979797363,"284":-0.1662093847990036,"285":1.5118274688720703,"286":-2.694906711578369,"287":-1.6612918376922607,"288":-1.1745479106903076,"289":-1.2886987924575806,"290":1.1129149198532104,"291":-1.0548083782196045,"292":-2.3520314693450928,"293":-2.0134146213531494,"294":-1.0489845275878906,"295":0.7690101265907288,"296":1.0362104177474976,"297":2.368722915649414,"298":-0.40400755405426025,"299":2.1921427249908447,"300":0.5398775339126587,"301":0.7961422801017761,"302":-1.477009892463684,"303":-2.249605655670166,"304":-0.32467949390411377,"305":1.129150629043579,"306":-1.9285365343093872,"307":1.6048738956451416,"308":0.6478652358055115,"309":0.23295710980892181,"310":-0.1481652408838272,"311":0.3699193000793457,"312":-1.6937601566314697,"313":-0.17606094479560852,"314":0.6135597229003906,"315":-0.23358041048049927,"316":0.6188629865646362,"317":-1.816222906112671,"318":0.7491624355316162,"319":0.6435089707374573}},"inputHidden":{"rows":20,"columns":20,"weights":{"0":-2.421450614929199,"1":0.7405955791473389,"2":-0.7439899444580078,"3":-0.5842428803443909,"4":1.2361522912979126,"5":1.962543249130249,"6":0.4133954346179962,"7":1.3848403692245483,"8":0.7684369683265686,"9":-0.5732132196426392,"10":0.8138741850852966,"11":0.039648786187171936,"12":2.0108463764190674,"13":1.6695448160171509,"14":1.432220697402954,"15":-0.9427205324172974,"16":0.07807565480470657,"17":1.9572901725769043,"18":0.8026700615882874,"19":0.29439112544059753,"20":-1.61069917678833,"21":0.21650098264217377,"22":-0.36889752745628357,"23":0.5374928712844849,"24":1.0426746606826782,"25":0.30131280422210693,"26":-0.08912714570760727,"27":0.004920237231999636,"28":0.09463147073984146,"29":-0.7741367220878601,"30":-0.31052395701408386,"31":-0.5745357275009155,"32":-0.26443594694137573,"33":0.4790377914905548,"34":0.02929343655705452,"35":0.04345063120126724,"36":-0.05532262101769447,"37":0.15561066567897797,"38":1.3148441314697266,"39":-0.5519631505012512,"40":-1.591987133026123,"41":0.8231848478317261,"42":0.2975998818874359,"43":-0.7395711541175842,"44":1.1707024574279785,"45":0.8240021467208862,"46":-2.396353244781494,"47":2.0031774044036865,"48":0.9570000171661377,"49":-1.4679502248764038,"50":1.060383677482605,"51":-1.2580746412277222,"52":1.1254264116287231,"53":1.877240777015686,"54":0.9650229811668396,"55":-0.5360664129257202,"56":-0.37436801195144653,"57":1.2493274211883545,"58":1.9713820219039917,"59":1.5777161121368408,"60":-0.35848814249038696,"61":0.3345324397087097,"62":-0.3279111385345459,"63":-0.8523769378662109,"64":0.7192307710647583,"65":1.101664423942566,"66":0.17668801546096802,"67":1.9286096096038818,"68":1.654541015625,"69":0.12702599167823792,"70":0.45584139227867126,"71":-2.0103986263275146,"72":0.47459128499031067,"73":0.43878236413002014,"74":1.3081068992614746,"75":-1.1378566026687622,"76":-0.643869936466217,"77":0.321781188249588,"78":0.5804740190505981,"79":0.7446149587631226,"80":-1.505386471748352,"81":1.5028234720230103,"82":-0.20013776421546936,"83":-0.2639687657356262,"84":0.04003719612956047,"85":1.915879249572754,"86":-1.0128413438796997,"87":0.580538809299469,"88":2.6823909282684326,"89":-1.1963744163513184,"90":0.896449863910675,"91":1.0920798778533936,"92":1.9599803686141968,"93":-0.08396156132221222,"94":-0.7059135437011719,"95":-0.05975612998008728,"96":-0.043669864535331726,"97":1.2561367750167847,"98":1.125675082206726,"99":1.09433913230896,"100":-0.6033809781074524,"101":-0.0025794915854930878,"102":0.2708507180213928,"103":0.2580256760120392,"104":-0.4825457036495209,"105":-0.9297146797180176,"106":0.3107079863548279,"107":0.675129771232605,"108":-0.6655444502830505,"109":-0.9968160390853882,"110":-0.0832463949918747,"111":-1.006844162940979,"112":-0.6435539126396179,"113":1.6009751558303833,"114":-0.31924232840538025,"115":0.9013044834136963,"116":-0.8392131924629211,"117":-0.8250318765640259,"118":-0.5402780175209045,"119":0.5321690440177917,"120":-0.7810992002487183,"121":0.059044379740953445,"122":-0.4181893467903137,"123":-0.8718862533569336,"124":1.026205062866211,"125":-1.7089654207229614,"126":0.30061566829681396,"127":-0.00887989904731512,"128":-2.117372512817383,"129":0.5062687993049622,"130":-1.4367042779922485,"131":-1.7243646383285522,"132":-1.8069065809249878,"133":0.3635171055793762,"134":0.6251073479652405,"135":-0.3403059244155884,"136":-1.0189636945724487,"137":0.22484570741653442,"138":-1.7622196674346924,"139":-1.1810226440429688,"140":-1.0006825923919678,"141":1.3046579360961914,"142":-1.2852685451507568,"143":-1.1863181591033936,"144":0.10335433483123779,"145":1.6996568441390991,"146":0.7614171504974365,"147":0.4281456470489502,"148":0.9952633380889893,"149":-0.9063300490379333,"150":0.0957961305975914,"151":-0.5344114899635315,"152":2.2690582275390625,"153":0.2925524115562439,"154":1.8154902458190918,"155":-0.7101796865463257,"156":-0.028720853850245476,"157":-0.2330680936574936,"158":1.260678768157959,"159":1.181997299194336,"160":0.7201985716819763,"161":0.7615220546722412,"162":0.6783812046051025,"163":-0.06523038446903229,"164":-1.0102711915969849,"165":-0.61507248878479,"166":1.6429193019866943,"167":-0.33762964606285095,"168":0.22954489290714264,"169":-0.88798987865448,"170":-1.0418039560317993,"171":-0.30859440565109253,"172":0.17560192942619324,"173":0.38351672887802124,"174":-0.546522855758667,"175":0.7941913604736328,"176":-0.3039918541908264,"177":-0.29549139738082886,"178":-0.039646342396736145,"179":-0.5116041898727417,"180":-1.6923937797546387,"181":-1.1267369985580444,"182":0.3897290527820587,"183":0.3249911367893219,"184":0.4329432249069214,"185":-0.4783184826374054,"186":1.085334062576294,"187":0.22243253886699677,"188":-0.4972101151943207,"189":-1.7387984991073608,"190":0.6279028654098511,"191":-0.49238312244415283,"192":-1.1583045721054077,"193":0.8527814745903015,"194":0.4233591556549072,"195":1.040100336074829,"196":0.821245551109314,"197":0.5539296269416809,"198":-1.439658761024475,"199":-0.8139337301254272,"200":-1.3881059885025024,"201":0.017685936763882637,"202":-0.2951143682003021,"203":-1.1065934896469116,"204":0.7670305371284485,"205":-0.1458602100610733,"206":1.4571837186813354,"207":1.0106713771820068,"208":-0.10783082991838455,"209":-1.4749161005020142,"210":1.2554513216018677,"211":-0.3504166603088379,"212":0.06929785758256912,"213":0.39126789569854736,"214":0.036412034183740616,"215":-0.5270701050758362,"216":-1.0188510417938232,"217":0.5753409266471863,"218":-0.25803935527801514,"219":-0.29247182607650757,"220":-0.49148064851760864,"221":-0.12406162917613983,"222":0.5592149496078491,"223":0.8781911730766296,"224":-0.726047158241272,"225":0.1593780219554901,"226":-0.9567556977272034,"227":0.3943089544773102,"228":-0.6722785830497742,"229":-0.13555951416492462,"230":1.4144361019134521,"231":0.3345617353916168,"232":1.3475861549377441,"233":0.009063906036317348,"234":-0.7649618983268738,"235":-0.1854017823934555,"236":-1.3638365268707275,"237":0.3968678414821625,"238":-0.029263364151120186,"239":0.9583390951156616,"240":-0.5529195070266724,"241":-1.4346188306808472,"242":0.6580374240875244,"243":-0.09502901136875153,"244":-1.1616425514221191,"245":-2.074808359146118,"246":1.2780390977859497,"247":0.16823925077915192,"248":-2.0097763538360596,"249":-0.3825002610683441,"250":-0.9832600951194763,"251":-1.2809666395187378,"252":-0.2188260704278946,"253":0.12201409041881561,"254":-0.934090256690979,"255":-0.36272698640823364,"256":-2.3086459636688232,"257":-0.6080940365791321,"258":-0.7808893322944641,"259":-0.15531906485557556,"260":-0.03412875905632973,"261":-0.17680159211158752,"262":0.3131440579891205,"263":0.8709219098091125,"264":-0.08307729661464691,"265":0.9523243308067322,"266":0.3708752393722534,"267":-0.08012926578521729,"268":0.8194673657417297,"269":0.07406504452228546,"270":0.05965713411569595,"271":-0.8890984654426575,"272":0.9046681523323059,"273":1.2719032764434814,"274":-0.17162975668907166,"275":0.7306430339813232,"276":-0.44556060433387756,"277":-0.3902672529220581,"278":-0.17103928327560425,"279":0.6598157286643982,"280":-1.9195873737335205,"281":-0.1413668841123581,"282":-1.3957805633544922,"283":-1.405012607574463,"284":1.1422199010849,"285":0.7849307060241699,"286":-0.9265925884246826,"287":1.205533742904663,"288":1.688421368598938,"289":-1.0034078359603882,"290":1.7889447212219238,"291":-0.619006872177124,"292":1.2415488958358765,"293":2.326647996902466,"294":1.4213241338729858,"295":-1.3032939434051514,"296":0.6288409233093262,"297":0.80975741147995,"298":0.23175813257694244,"299":1.6127703189849854,"300":-1.2732985019683838,"301":-0.1416664868593216,"302":-0.5749107003211975,"303":-0.3309578001499176,"304":1.3016437292099,"305":1.6148239374160767,"306":-0.9790299534797668,"307":1.9928017854690552,"308":1.1884709596633911,"309":0.3339778184890747,"310":0.7965512275695801,"311":-1.037797212600708,"312":0.5963912606239319,"313":2.4383249282836914,"314":1.2289034128189087,"315":-0.7985842823982239,"316":-1.0569236278533936,"317":-0.2538989186286926,"318":0.21258635818958282,"319":0.4051637053489685,"320":1.3271582126617432,"321":-0.1659070998430252,"322":0.780060350894928,"323":1.5497188568115234,"324":-0.6962412595748901,"325":0.10476884990930557,"326":-0.804572582244873,"327":-0.45995157957077026,"328":0.6295691728591919,"329":-0.267246276140213,"330":1.367844820022583,"331":-1.0324522256851196,"332":0.8293218016624451,"333":0.32810354232788086,"334":-0.17259924113750458,"335":1.3428529500961304,"336":-1.8452348709106445,"337":-0.4439111649990082,"338":-0.8521332740783691,"339":0.3641241490840912,"340":-0.3666958212852478,"341":0.6431500911712646,"342":0.2225898653268814,"343":0.07961603254079819,"344":0.21140240132808685,"345":0.285979688167572,"346":-0.020728835836052895,"347":-0.6469898223876953,"348":-0.3981364667415619,"349":-0.07310572266578674,"350":-0.06313980370759964,"351":0.018345637246966362,"352":0.7617331743240356,"353":0.3360061049461365,"354":-0.489371120929718,"355":0.10435502231121063,"356":0.3111172616481781,"357":0.5459210276603699,"358":-0.5355547666549683,"359":0.17293089628219604,"360":0.21334974467754364,"361":-0.2718579173088074,"362":-0.7780855298042297,"363":-0.8570588827133179,"364":0.2615410387516022,"365":0.46942374110221863,"366":-0.12086766958236694,"367":-0.7095871567726135,"368":0.6117103695869446,"369":0.9503123760223389,"370":-0.9454270601272583,"371":-0.19884537160396576,"372":0.06751231104135513,"373":-0.07020575553178787,"374":0.3155701160430908,"375":-0.3316735327243805,"376":-0.4065929651260376,"377":-0.3461844325065613,"378":-0.09941359609365463,"379":-1.0835003852844238,"380":0.17359378933906555,"381":-1.8170098066329956,"382":-0.5606151223182678,"383":-1.0749499797821045,"384":0.5881776213645935,"385":-0.3577708899974823,"386":0.15091127157211304,"387":0.0888761430978775,"388":0.05770513787865639,"389":1.3045438528060913,"390":-0.5958589911460876,"391":-0.7857524156570435,"392":-0.1312282830476761,"393":-0.8851627111434937,"394":2.1424899101257324,"395":-0.8961839079856873,"396":-0.09883543103933334,"397":-0.7279890179634094,"398":-0.8438702821731567,"399":-0.13254381716251373}},"inputBias":{"rows":20,"columns":1,"weights":{"0":-0.6052334308624268,"1":-1.9173426628112793,"2":0.7595733404159546,"3":1.2404993772506714,"4":-0.13710281252861023,"5":-1.2235347032546997,"6":-0.21938546001911163,"7":0.6008930802345276,"8":0.5305323600769043,"9":-0.7869599461555481,"10":0.14403627812862396,"11":0.9351588487625122,"12":-1.714394211769104,"13":-1.5606201887130737,"14":1.6885581016540527,"15":1.8398033380508423,"16":0.46056926250457764,"17":-1.2179490327835083,"18":-0.26759281754493713,"19":0.5972484350204468}},"forgetMatrix":{"rows":20,"columns":16,"weights":{"0":-0.861391007900238,"1":-0.9880897998809814,"2":0.9449031949043274,"3":-0.7298306822776794,"4":-1.2411525249481201,"5":-1.5252418518066406,"6":-1.4760695695877075,"7":0.8086425065994263,"8":-0.3120967149734497,"9":0.6128056049346924,"10":0.9969791769981384,"11":1.431459665298462,"12":0.6925519108772278,"13":0.3200262486934662,"14":-1.0836199522018433,"15":-1.3967907428741455,"16":0.022075142711400986,"17":1.1693390607833862,"18":-0.4524245858192444,"19":1.1404978036880493,"20":1.1381276845932007,"21":0.775556743144989,"22":0.889488697052002,"23":-0.34130552411079407,"24":-0.8287963271141052,"25":-0.8662329912185669,"26":0.0068252370692789555,"27":-1.233576774597168,"28":-1.278652310371399,"29":-0.3003843128681183,"30":0.6815759539604187,"31":0.6219778060913086,"32":1.0611519813537598,"33":-0.5025106072425842,"34":0.8226132988929749,"35":-0.6636262536048889,"36":1.144099235534668,"37":0.08106984943151474,"38":-0.6166813969612122,"39":-0.9677103757858276,"40":0.9019654393196106,"41":-0.9271398782730103,"42":2.2245187759399414,"43":-1.1522691249847412,"44":-0.15777820348739624,"45":1.1376206874847412,"46":0.2891925275325775,"47":-0.2035243660211563,"48":0.6529770493507385,"49":0.23050706088542938,"50":0.9496225118637085,"51":-0.1129668802022934,"52":0.5106990933418274,"53":-0.906654953956604,"54":0.45732879638671875,"55":-0.5879325866699219,"56":-0.27995795011520386,"57":1.081485629081726,"58":1.5424336194992065,"59":-1.0612860918045044,"60":0.6317975521087646,"61":0.7223820090293884,"62":-0.619243323802948,"63":-0.2996906042098999,"64":0.4735093116760254,"65":0.19908861815929413,"66":-0.6763177514076233,"67":0.0357634574174881,"68":1.1709336042404175,"69":1.4713354110717773,"70":0.07602305710315704,"71":-0.23461560904979706,"72":0.4959203004837036,"73":-1.0920729637145996,"74":0.02385835163295269,"75":-1.3263777494430542,"76":0.8870867490768433,"77":-0.45576032996177673,"78":1.0149255990982056,"79":1.136733055114746,"80":1.2623904943466187,"81":1.4308196306228638,"82":-0.6246428489685059,"83":0.9830484390258789,"84":1.7806000709533691,"85":0.9729015827178955,"86":2.2520439624786377,"87":-1.312825322151184,"88":-0.562451958656311,"89":-1.079624891281128,"90":-0.580826997756958,"91":-2.3724353313446045,"92":-1.9161183834075928,"93":0.2046923041343689,"94":1.2104074954986572,"95":0.19901534914970398,"96":1.2821732759475708,"97":1.2315998077392578,"98":-0.2667072117328644,"99":0.680939257144928,"100":-0.6708367466926575,"101":0.6565704345703125,"102":0.5375789403915405,"103":-2.451979875564575,"104":-1.0303704738616943,"105":0.13951905071735382,"106":1.5232453346252441,"107":0.4078475534915924,"108":0.418088436126709,"109":-0.5428086519241333,"110":0.36579766869544983,"111":0.27770811319351196,"112":0.1317082792520523,"113":-0.5488411784172058,"114":-1.084782361984253,"115":0.2990032136440277,"116":0.28234222531318665,"117":-0.18737825751304626,"118":0.04683053866028786,"119":0.09019994735717773,"120":-0.7359185218811035,"121":-0.9054522514343262,"122":-1.011212944984436,"123":-0.9655632972717285,"124":0.2392793446779251,"125":-1.6735377311706543,"126":1.2667264938354492,"127":0.8911104202270508,"128":2.013134717941284,"129":0.2238815426826477,"130":-0.09274779260158539,"131":-0.7159891724586487,"132":1.1969099044799805,"133":0.6164436340332031,"134":2.9118802547454834,"135":-1.7722556591033936,"136":-1.167473316192627,"137":-1.002523422241211,"138":-0.8578487038612366,"139":-1.913814902305603,"140":-2.0042924880981445,"141":0.5087695121765137,"142":0.4449522793292999,"143":-0.2698761224746704,"144":1.0097373723983765,"145":0.7041258811950684,"146":1.14833402633667,"147":-0.13490019738674164,"148":-1.137563705444336,"149":-1.7451165914535522,"150":1.0049493312835693,"151":-0.7839571833610535,"152":-0.7191436290740967,"153":1.6832892894744873,"154":1.4271066188812256,"155":0.4553595781326294,"156":-0.5281658172607422,"157":1.0186662673950195,"158":-0.9462794661521912,"159":-1.4088177680969238,"160":-0.20839308202266693,"161":0.46854308247566223,"162":1.180321216583252,"163":-0.4021671712398529,"164":-0.15070822834968567,"165":-0.12860837578773499,"166":1.0816737413406372,"167":-1.444766640663147,"168":0.8058895468711853,"169":0.014287326484918594,"170":0.559239387512207,"171":0.1548997163772583,"172":-1.0388041734695435,"173":1.0149167776107788,"174":-0.26084011793136597,"175":-1.004860520362854,"176":0.09167439490556717,"177":-0.6073312759399414,"178":-0.9985272884368896,"179":-0.7590851187705994,"180":0.5580268502235413,"181":0.6077236533164978,"182":1.0584945678710938,"183":0.25412479043006897,"184":0.7027906775474548,"185":-0.5569683909416199,"186":-0.6509541869163513,"187":-0.1627599149942398,"188":-0.5791338086128235,"189":0.06593242287635803,"190":0.1974380910396576,"191":0.8851157426834106,"192":-0.2945783734321594,"193":1.5250251293182373,"194":0.5087905526161194,"195":2.045811891555786,"196":-0.36986687779426575,"197":-0.007290979381650686,"198":-0.936819851398468,"199":0.14617086946964264,"200":-0.6106843948364258,"201":0.23984748125076294,"202":1.6677685976028442,"203":0.3048378825187683,"204":0.3159388601779938,"205":0.36970001459121704,"206":-0.3085622489452362,"207":-0.9275963306427002,"208":1.0430629253387451,"209":1.535908818244934,"210":-0.7340253591537476,"211":2.032529592514038,"212":0.9528186321258545,"213":-0.048256270587444305,"214":1.1062648296356201,"215":-0.7358018159866333,"216":-1.649184226989746,"217":-0.8654093146324158,"218":-0.8205017447471619,"219":-0.14291509985923767,"220":-1.816422939300537,"221":-1.8647873401641846,"222":0.5345580577850342,"223":-0.4940851032733917,"224":1.9876017570495605,"225":-0.5911218523979187,"226":-0.8976308107376099,"227":0.21155612170696259,"228":2.0737202167510986,"229":1.3872151374816895,"230":-0.1774032711982727,"231":-0.913952648639679,"232":0.5244259238243103,"233":-1.5121889114379883,"234":0.9741167426109314,"235":-1.7139533758163452,"236":0.2420041561126709,"237":0.0969090610742569,"238":1.0701912641525269,"239":0.798579752445221,"240":1.1251695156097412,"241":0.05760960280895233,"242":1.5918054580688477,"243":-0.11409233510494232,"244":-1.0943928956985474,"245":-2.2795863151550293,"246":0.2609546482563019,"247":-0.6882473230361938,"248":0.6438875198364258,"249":1.847941517829895,"250":1.3273637294769287,"251":0.682155191898346,"252":0.04205041378736496,"253":0.6414175629615784,"254":-1.8820158243179321,"255":-2.537775754928589,"256":-0.3258605897426605,"257":-0.6889834403991699,"258":-0.4402906000614166,"259":-1.016183853149414,"260":-0.02283422276377678,"261":0.48524078726768494,"262":0.5096721649169922,"263":0.2076680064201355,"264":-0.3509308397769928,"265":-0.4132775068283081,"266":-2.1337616443634033,"267":-0.22404703497886658,"268":-0.46516650915145874,"269":-0.05055844038724899,"270":0.1825331449508667,"271":0.6329282522201538,"272":0.8606116771697998,"273":-0.011508697643876076,"274":0.41070201992988586,"275":-0.09781361371278763,"276":0.0824522003531456,"277":0.49465155601501465,"278":1.0320783853530884,"279":-0.8712220191955566,"280":0.6805633306503296,"281":-0.30078527331352234,"282":-0.40803977847099304,"283":-0.0502360500395298,"284":-1.8919833898544312,"285":1.229049563407898,"286":0.09279448539018631,"287":-0.2421368956565857,"288":1.2994004487991333,"289":1.5883724689483643,"290":-0.29656127095222473,"291":0.9439677000045776,"292":1.1093621253967285,"293":1.4486234188079834,"294":2.3855159282684326,"295":-1.0044447183609009,"296":-0.7994637489318848,"297":-1.2695506811141968,"298":0.3466821610927582,"299":-1.5468732118606567,"300":-1.4395688772201538,"301":0.2113560438156128,"302":0.6202921271324158,"303":0.4633811116218567,"304":-0.4390791356563568,"305":-0.1964164525270462,"306":0.4888257086277008,"307":-0.5028212070465088,"308":-0.42296653985977173,"309":0.6660500764846802,"310":-0.3830054998397827,"311":0.02086072601377964,"312":-0.23840561509132385,"313":0.004416246898472309,"314":0.7019005417823792,"315":0.19358019530773163,"316":0.2321932464838028,"317":0.45371299982070923,"318":-0.012348266318440437,"319":-0.7685550451278687}},"forgetHidden":{"rows":20,"columns":20,"weights":{"0":-0.6362552046775818,"1":-1.089403748512268,"2":-1.0050218105316162,"3":-1.3871828317642212,"4":0.7234990000724792,"5":-0.5228947401046753,"6":-0.3251286447048187,"7":1.2529559135437012,"8":-0.04356801137328148,"9":0.09933532029390335,"10":0.045519378036260605,"11":0.8160182237625122,"12":-0.4023832678794861,"13":-0.5808579921722412,"14":1.0941945314407349,"15":-1.5872598886489868,"16":-0.4424930214881897,"17":-0.8615736365318298,"18":0.4070016145706177,"19":0.3774029016494751,"20":-1.0215201377868652,"21":-1.1095614433288574,"22":0.2900409996509552,"23":0.33716657757759094,"24":-0.4788051247596741,"25":0.05455586686730385,"26":-0.2255614995956421,"27":0.4983803331851959,"28":-0.9134972095489502,"29":-0.39361754059791565,"30":-1.5681126117706299,"31":-0.7729938626289368,"32":-0.6668069958686829,"33":-0.13438521325588226,"34":-0.045123301446437836,"35":-0.03847232088446617,"36":-0.7099713683128357,"37":-1.017378568649292,"38":-0.14305774867534637,"39":-0.04280034080147743,"40":0.7433050274848938,"41":0.6448152661323547,"42":0.5796650052070618,"43":0.6100301146507263,"44":0.5664564371109009,"45":-0.5219884514808655,"46":1.4124641418457031,"47":-0.8418945074081421,"48":-1.7123183012008667,"49":1.2358700037002563,"50":-1.8332939147949219,"51":-0.3953899145126343,"52":-0.8102414608001709,"53":-1.290015459060669,"54":-0.15648411214351654,"55":0.4255683422088623,"56":0.1829838752746582,"57":-1.508925199508667,"58":-1.307353138923645,"59":-0.29092100262641907,"60":-1.4579912424087524,"61":1.534463882446289,"62":-0.23570197820663452,"63":-0.5326899290084839,"64":-0.7303897142410278,"65":0.9897541403770447,"66":-1.279455542564392,"67":0.8417901992797852,"68":0.9938312768936157,"69":-0.5242340564727783,"70":0.32073986530303955,"71":0.3082456588745117,"72":1.063489317893982,"73":1.049559235572815,"74":0.6990386843681335,"75":-0.6189168691635132,"76":0.0515025295317173,"77":2.0446600914001465,"78":1.5103013515472412,"79":0.6950250864028931,"80":-1.3451824188232422,"81":0.05079079419374466,"82":-0.012855556793510914,"83":-0.21549230813980103,"84":0.3275291621685028,"85":1.0921164751052856,"86":-0.4315429925918579,"87":1.4687471389770508,"88":0.6953499913215637,"89":0.13353601098060608,"90":-0.36864781379699707,"91":-0.5991314053535461,"92":0.6793334484100342,"93":0.6542782187461853,"94":0.04580797627568245,"95":-0.3589262366294861,"96":-0.20183873176574707,"97":0.5267199277877808,"98":0.7513413429260254,"99":0.8629883527755737,"100":-0.7617725133895874,"101":-1.5865312814712524,"102":0.6334264278411865,"103":0.6739497780799866,"104":0.07830169796943665,"105":-1.2516169548034668,"106":-0.62810218334198,"107":1.3182379007339478,"108":-1.0241340398788452,"109":0.9336705207824707,"110":-0.14021234214305878,"111":-1.3152878284454346,"112":-0.5871967673301697,"113":0.5405513644218445,"114":-0.0018558537121862173,"115":1.0858741998672485,"116":0.1571177840232849,"117":-0.24172863364219666,"118":-1.2210348844528198,"119":0.7440972328186035,"120":-1.1839282512664795,"121":0.779853880405426,"122":0.265517920255661,"123":-0.5944421291351318,"124":2.1325008869171143,"125":0.8710354566574097,"126":-1.7613838911056519,"127":0.9486427307128906,"128":0.8262728452682495,"129":-0.12155722081661224,"130":1.4321541786193848,"131":-0.282732754945755,"132":1.2320441007614136,"133":0.9179624319076538,"134":0.05872342735528946,"135":-0.09997180849313736,"136":0.6994252800941467,"137":0.3906792402267456,"138":0.5516799688339233,"139":0.729045033454895,"140":-0.9377985000610352,"141":-0.05785214528441429,"142":-1.6734843254089355,"143":-0.916035532951355,"144":1.286468267440796,"145":0.5569420456886292,"146":0.2613883912563324,"147":-0.2853940427303314,"148":0.40676218271255493,"149":0.4191659688949585,"150":-0.24957236647605896,"151":-0.21692508459091187,"152":0.6681791543960571,"153":-0.4285167455673218,"154":1.5030827522277832,"155":-1.3494566679000854,"156":1.3864457607269287,"157":-0.23156428337097168,"158":-0.11819370090961456,"159":0.518588125705719,"160":0.04281879588961601,"161":0.2633417248725891,"162":0.6034903526306152,"163":0.402202844619751,"164":0.37129515409469604,"165":-1.4475045204162598,"166":1.0215317010879517,"167":0.9383269548416138,"168":-1.3211121559143066,"169":0.04017056152224541,"170":-0.686693012714386,"171":-0.06017768755555153,"172":-0.7076801061630249,"173":1.0220096111297607,"174":-1.4798338413238525,"175":0.913120448589325,"176":0.5876939296722412,"177":-0.016750069335103035,"178":0.16003482043743134,"179":0.25420674681663513,"180":0.7223763465881348,"181":-0.5201618671417236,"182":-0.982553243637085,"183":-0.7457681894302368,"184":1.260195255279541,"185":-0.30780503153800964,"186":0.36506563425064087,"187":0.7148827910423279,"188":0.10862751305103302,"189":0.4638642966747284,"190":-0.009479371830821037,"191":-0.2842634320259094,"192":-0.4506789743900299,"193":0.28732535243034363,"194":1.2046055793762207,"195":-0.5839351415634155,"196":0.9328289031982422,"197":0.2581615149974823,"198":0.4600107967853546,"199":0.6399176120758057,"200":-0.29140129685401917,"201":-0.5704795122146606,"202":-1.0264058113098145,"203":-1.6037328243255615,"204":0.6429766416549683,"205":-0.20588064193725586,"206":-0.5925233960151672,"207":2.309234380722046,"208":-0.22151008248329163,"209":-0.8019636273384094,"210":0.3602713644504547,"211":0.5300592184066772,"212":-0.1164066419005394,"213":0.16374792158603668,"214":0.5537601709365845,"215":-2.262455463409424,"216":-0.656272292137146,"217":-0.3642312288284302,"218":-0.584492027759552,"219":0.3502458333969116,"220":-1.7273143529891968,"221":0.09995210915803909,"222":1.5722970962524414,"223":0.8273565173149109,"224":-0.4466070234775543,"225":1.264241099357605,"226":-0.7026672959327698,"227":-0.6405526399612427,"228":1.391101360321045,"229":-1.331384301185608,"230":1.9901423454284668,"231":-0.2087390124797821,"232":0.6015841960906982,"233":0.651199460029602,"234":-0.5673445463180542,"235":0.08497685194015503,"236":-1.1993106603622437,"237":0.9407290816307068,"238":0.6465799808502197,"239":0.9865283370018005,"240":-1.2509886026382446,"241":-0.14054924249649048,"242":-0.3243575096130371,"243":-0.6275468468666077,"244":0.6938873529434204,"245":1.7682926654815674,"246":-1.4164965152740479,"247":1.6898512840270996,"248":1.5983589887619019,"249":-0.5426092743873596,"250":0.9618527293205261,"251":1.5858675241470337,"252":1.4130948781967163,"253":0.35336560010910034,"254":0.009022440761327744,"255":-1.7858245372772217,"256":-1.2130036354064941,"257":0.2307770848274231,"258":-0.05015018954873085,"259":1.9417316913604736,"260":0.39376357197761536,"261":-0.3716539740562439,"262":-1.5816513299942017,"263":-1.6386172771453857,"264":-0.5870978832244873,"265":-0.5552524328231812,"266":0.3633379638195038,"267":-0.9770275950431824,"268":-0.21328052878379822,"269":1.7539933919906616,"270":-0.5378115177154541,"271":-0.15711702406406403,"272":-0.16031713783740997,"273":-1.8470770120620728,"274":1.0638253688812256,"275":-1.439866065979004,"276":-0.35815542936325073,"277":-0.42718249559402466,"278":-0.3599480390548706,"279":-0.058264896273612976,"280":0.4209781587123871,"281":0.18781350553035736,"282":-0.5216397643089294,"283":-0.0053720129653811455,"284":0.4556836783885956,"285":-0.38511574268341064,"286":0.4396844804286957,"287":0.7514363527297974,"288":-0.6071358919143677,"289":0.011677008122205734,"290":-0.4511187672615051,"291":1.4342796802520752,"292":0.03665373474359512,"293":-0.1884087175130844,"294":0.300741970539093,"295":-0.1854243129491806,"296":0.8024072647094727,"297":-1.49129319190979,"298":-0.4167012870311737,"299":0.24619734287261963,"300":-0.05228954181075096,"301":1.5503112077713013,"302":-0.2618061304092407,"303":-0.2892414927482605,"304":0.4340656101703644,"305":0.5974302887916565,"306":-0.6203300356864929,"307":0.22862733900547028,"308":-0.48344889283180237,"309":0.6697319149971008,"310":-0.4586584270000458,"311":-0.39958474040031433,"312":0.5169320106506348,"313":-0.11153635382652283,"314":0.7369908094406128,"315":-0.3433431088924408,"316":-0.7663069367408752,"317":1.054468035697937,"318":-0.2888675928115845,"319":0.20144326984882355,"320":1.0215433835983276,"321":0.5247794985771179,"322":1.5987054109573364,"323":1.075849175453186,"324":-1.7886865139007568,"325":-0.4781447947025299,"326":0.09428311139345169,"327":-0.977993905544281,"328":0.6191630959510803,"329":-1.2578163146972656,"330":1.13418447971344,"331":1.869774341583252,"332":-0.3621908724308014,"333":0.7336286902427673,"334":-2.030526638031006,"335":1.2683861255645752,"336":0.20909267663955688,"337":0.7575857043266296,"338":-0.1216965913772583,"339":0.4250616729259491,"340":0.596004843711853,"341":-0.5616227984428406,"342":0.8856875896453857,"343":-0.0004385459760669619,"344":-1.2139626741409302,"345":-0.4259164035320282,"346":-0.9208946228027344,"347":-1.7534257173538208,"348":-0.5722284317016602,"349":-0.12687619030475616,"350":1.0197641849517822,"351":-1.101054072380066,"352":-0.5492029786109924,"353":-0.08132489025592804,"354":-1.3019635677337646,"355":0.6962648630142212,"356":-1.96193528175354,"357":-0.5600857138633728,"358":-0.652394711971283,"359":0.7878620028495789,"360":-0.5497696399688721,"361":-0.04282958805561066,"362":0.40474602580070496,"363":0.1378946453332901,"364":-0.6880995631217957,"365":-0.22776013612747192,"366":0.861667275428772,"367":-0.6055775880813599,"368":0.22937533259391785,"369":-1.0198904275894165,"370":-0.914322555065155,"371":-0.5746398568153381,"372":-0.46545886993408203,"373":0.10953065007925034,"374":-1.0060245990753174,"375":0.31054434180259705,"376":-0.5686583518981934,"377":-0.7515684962272644,"378":0.39735299348831177,"379":0.8047400116920471,"380":-0.8465306162834167,"381":1.1105320453643799,"382":0.8138806223869324,"383":-0.30524584650993347,"384":-0.02890750952064991,"385":1.9281026124954224,"386":-0.31866690516471863,"387":-0.2974880039691925,"388":2.4162895679473877,"389":-1.5212396383285522,"390":1.6190745830535889,"391":2.053563117980957,"392":2.6062068939208984,"393":1.7074253559112549,"394":-0.543487012386322,"395":0.33932051062583923,"396":-0.1790386587381363,"397":1.174140453338623,"398":2.1971352100372314,"399":2.172832727432251}},"forgetBias":{"rows":20,"columns":1,"weights":{"0":0,"1":0,"2":0,"3":0,"4":0,"5":0,"6":0,"7":0,"8":0,"9":0,"10":0,"11":0,"12":0,"13":0,"14":0,"15":0,"16":0,"17":0,"18":0,"19":0}},"outputMatrix":{"rows":20,"columns":16,"weights":{"0":1.5447804927825928,"1":2.3185062408447266,"2":0.6811023354530334,"3":1.713581919670105,"4":-0.051522739231586456,"5":-1.1393299102783203,"6":0.6216899156570435,"7":-1.8392677307128906,"8":-0.6232290863990784,"9":0.23856158554553986,"10":1.7699373960494995,"11":-0.6747754216194153,"12":1.566258192062378,"13":-0.17687274515628815,"14":-0.605096161365509,"15":-1.4962221384048462,"16":-0.3034946024417877,"17":-0.027420686557888985,"18":1.1174037456512451,"19":-1.1784158945083618,"20":-0.30153435468673706,"21":-0.0829697847366333,"22":0.5052298903465271,"23":-0.5326647162437439,"24":0.1580134779214859,"25":0.025307299569249153,"26":-0.5695831775665283,"27":0.2576073110103607,"28":-1.2873291969299316,"29":-0.10818672180175781,"30":-0.8221384882926941,"31":-0.759880781173706,"32":0.9938923120498657,"33":-1.0192956924438477,"34":0.7112798094749451,"35":-0.6142852306365967,"36":0.046991489827632904,"37":-0.5853331685066223,"38":-0.2873021364212036,"39":-0.25066807866096497,"40":1.673224925994873,"41":0.6973295211791992,"42":1.8643676042556763,"43":-1.6181086301803589,"44":0.595827043056488,"45":1.8661314249038696,"46":0.07686064392328262,"47":0.27134907245635986,"48":0.04982800781726837,"49":0.3473700284957886,"50":0.6293034553527832,"51":-0.24257293343544006,"52":-0.4289655387401581,"53":-1.966411828994751,"54":0.6101260781288147,"55":-0.20828020572662354,"56":1.0459275245666504,"57":1.1081197261810303,"58":1.7815812826156616,"59":0.797816276550293,"60":-0.023199157789349556,"61":0.8742926716804504,"62":-1.530347466468811,"63":-2.185415744781494,"64":0.4087184965610504,"65":0.3768448531627655,"66":-0.35155993700027466,"67":0.3919723629951477,"68":1.0768439769744873,"69":0.8640770316123962,"70":0.05049615353345871,"71":0.3686337471008301,"72":0.6143007874488831,"73":-0.4397925138473511,"74":1.724031925201416,"75":-0.8808426260948181,"76":1.6010000705718994,"77":0.043558139353990555,"78":1.02597975730896,"79":0.8424933552742004,"80":-0.004081924445927143,"81":0.4652709662914276,"82":0.3741811513900757,"83":0.26286906003952026,"84":-1.0235651731491089,"85":-0.9267423152923584,"86":0.6426931619644165,"87":0.13751870393753052,"88":-0.4520176649093628,"89":0.6335899829864502,"90":-0.33278581500053406,"91":0.45587158203125,"92":-0.8300769925117493,"93":-0.885337769985199,"94":-1.5799758434295654,"95":-0.6704769134521484,"96":0.06592680513858795,"97":-0.245405912399292,"98":0.010753748938441277,"99":1.0936617851257324,"100":-1.1992324590682983,"101":-0.9496801495552063,"102":0.08322858810424805,"103":0.8291805386543274,"104":0.40791359543800354,"105":0.8530070185661316,"106":-0.7412954568862915,"107":1.4596086740493774,"108":-0.836034893989563,"109":-0.4302154779434204,"110":-0.6148808598518372,"111":-0.3052961230278015,"112":0.7996025681495667,"113":0.9361317753791809,"114":0.5814548134803772,"115":0.8427795171737671,"116":-0.9507054686546326,"117":-1.1808388233184814,"118":-0.07118242233991623,"119":-1.019788384437561,"120":-0.15504387021064758,"121":0.5603060722351074,"122":1.464966058731079,"123":0.24453149735927582,"124":0.48122072219848633,"125":0.28003036975860596,"126":-0.8825930953025818,"127":-1.1812914609909058,"128":-0.35771647095680237,"129":-0.2543415427207947,"130":1.4525684118270874,"131":-0.9362692832946777,"132":-1.7579419612884521,"133":-1.320939540863037,"134":0.5396172404289246,"135":0.13247336447238922,"136":0.23625846207141876,"137":0.5904637575149536,"138":-0.39547085762023926,"139":0.8007992506027222,"140":-1.6178497076034546,"141":1.0003052949905396,"142":-1.398846983909607,"143":-1.6662654876708984,"144":-0.22113776206970215,"145":1.0010534524917603,"146":-0.27183961868286133,"147":0.6650373339653015,"148":0.37602460384368896,"149":-0.7452062964439392,"150":-1.3218361139297485,"151":0.4227188527584076,"152":-0.8487788438796997,"153":-0.1272565722465515,"154":0.815039336681366,"155":0.7256757020950317,"156":0.977096676826477,"157":-0.4625050723552704,"158":0.38741523027420044,"159":-0.9892225861549377,"160":-0.6245469450950623,"161":1.1804465055465698,"162":0.3574469983577728,"163":0.32305628061294556,"164":-1.1603261232376099,"165":-0.7979641556739807,"166":-0.44138145446777344,"167":-0.8662620186805725,"168":-2.3023998737335205,"169":1.0302793979644775,"170":-0.735222578048706,"171":0.8038269877433777,"172":-1.0653072595596313,"173":-0.37230384349823,"174":-1.1691515445709229,"175":-0.6547108292579651,"176":-1.2068945169448853,"177":-2.0719776153564453,"178":0.8148561120033264,"179":-1.1347882747650146,"180":-0.41024404764175415,"181":0.5810521245002747,"182":-0.42376551032066345,"183":0.03585024178028107,"184":0.05295013263821602,"185":0.3208464980125427,"186":-0.9585312008857727,"187":1.444090723991394,"188":-0.26965460181236267,"189":1.0053269863128662,"190":-0.18984003365039825,"191":-0.6944528222084045,"192":0.2584333121776581,"193":0.6666861176490784,"194":1.3666199445724487,"195":-0.21782362461090088,"196":-1.5676765441894531,"197":-1.6503812074661255,"198":-0.31350740790367126,"199":-0.22766610980033875,"200":-0.4730554521083832,"201":2.0108742713928223,"202":0.025346405804157257,"203":0.6909770369529724,"204":-1.7802529335021973,"205":-0.6174465417861938,"206":-1.2823017835617065,"207":-0.7640690207481384,"208":-1.0105421543121338,"209":0.10804536193609238,"210":1.2955913543701172,"211":-0.4491017758846283,"212":-1.5518414974212646,"213":-0.7020010948181152,"214":0.12048598378896713,"215":0.2939155697822571,"216":0.7164461612701416,"217":1.012424111366272,"218":-0.17048108577728271,"219":0.8175010681152344,"220":0.30268001556396484,"221":0.6262486577033997,"222":-1.3836175203323364,"223":-1.7066960334777832,"224":1.5626208782196045,"225":0.022796127945184708,"226":0.0859476700425148,"227":-0.15374168753623962,"228":0.06713820993900299,"229":-0.10287325829267502,"230":-0.8985057473182678,"231":-0.9567025899887085,"232":1.5214197635650635,"233":-0.4958644211292267,"234":2.1533193588256836,"235":-1.3726452589035034,"236":1.109696626663208,"237":0.6635800004005432,"238":0.520005464553833,"239":0.48636120557785034,"240":0.2556345760822296,"241":-0.9853751063346863,"242":0.36395615339279175,"243":-0.8871461749076843,"244":0.046749673783779144,"245":-0.43566960096359253,"246":0.2676909863948822,"247":0.6680616140365601,"248":1.4773386716842651,"249":0.40840646624565125,"250":1.6422526836395264,"251":0.17752328515052795,"252":0.18470413982868195,"253":1.0326930284500122,"254":-0.4751684069633484,"255":-0.4039311707019806,"256":0.36901140213012695,"257":0.0038113202899694443,"258":0.9602596163749695,"259":-0.4037126898765564,"260":-1.8302596807479858,"261":-0.8125723600387573,"262":1.2210493087768555,"263":-0.6265225410461426,"264":0.18343061208724976,"265":-0.3299223482608795,"266":-1.0809420347213745,"267":0.7962921857833862,"268":-0.450287401676178,"269":-0.4983554780483246,"270":-0.48017939925193787,"271":-0.10807783901691437,"272":-0.07326797395944595,"273":-0.48144087195396423,"274":1.4707393646240234,"275":0.13317547738552094,"276":-1.571571707725525,"277":-1.6999590396881104,"278":0.4079388976097107,"279":-0.8324570655822754,"280":0.39410996437072754,"281":1.1982883214950562,"282":-0.9157314896583557,"283":0.6110959649085999,"284":-1.5919162034988403,"285":1.0969982147216797,"286":-1.5892059803009033,"287":-2.482963800430298,"288":-0.2909189760684967,"289":-0.5401924848556519,"290":2.219125509262085,"291":0.21597373485565186,"292":-0.676962673664093,"293":-1.3590917587280273,"294":0.38603198528289795,"295":-0.3505750298500061,"296":1.0368328094482422,"297":1.2932122945785522,"298":-0.41098594665527344,"299":0.40574321150779724,"300":0.2515953779220581,"301":2.5412023067474365,"302":-1.3466049432754517,"303":-2.065744400024414,"304":-0.5891140699386597,"305":-0.04165605828166008,"306":0.31619158387184143,"307":-0.823936402797699,"308":-1.6697801351547241,"309":-1.7163578271865845,"310":-1.0085501670837402,"311":-0.26736587285995483,"312":-1.466004729270935,"313":1.6770870685577393,"314":0.773459255695343,"315":0.9591966867446899,"316":0.08953909575939178,"317":-0.2973977327346802,"318":-0.5543868541717529,"319":-0.549866795539856}},"outputHidden":{"rows":20,"columns":20,"weights":{"0":-0.9175629615783691,"1":1.736040711402893,"2":-2.038266897201538,"3":-0.871434211730957,"4":0.38458970189094543,"5":1.238006830215454,"6":0.941582977771759,"7":-0.05498305335640907,"8":1.0076680183410645,"9":0.3884124159812927,"10":-1.1526058912277222,"11":-0.6373867392539978,"12":1.0203255414962769,"13":-0.11885058879852295,"14":2.53153133392334,"15":-1.5752639770507812,"16":0.1523767113685608,"17":1.0470702648162842,"18":0.23038053512573242,"19":-0.9269241094589233,"20":-1.7154783010482788,"21":0.596108078956604,"22":-0.6266815066337585,"23":0.12272874265909195,"24":-0.7925312519073486,"25":-0.3353900909423828,"26":0.3911034166812897,"27":-1.211069941520691,"28":-0.4413292407989502,"29":-0.07949327677488327,"30":-0.3899630010128021,"31":-1.947874665260315,"32":-0.3952319622039795,"33":-0.27069684863090515,"34":0.23527227342128754,"35":0.10403981059789658,"36":-1.348076581954956,"37":-0.8966995477676392,"38":0.5439492464065552,"39":-0.2547893226146698,"40":-0.35569947957992554,"41":1.7688044309616089,"42":0.1974467933177948,"43":-0.11918417364358902,"44":0.5305821895599365,"45":0.3801790773868561,"46":-1.9840238094329834,"47":0.5792456269264221,"48":1.410866379737854,"49":-1.5588457584381104,"50":0.21392478048801422,"51":-0.0939708799123764,"52":0.9139180779457092,"53":1.0791665315628052,"54":0.5109134316444397,"55":0.5219497084617615,"56":-0.4766571819782257,"57":0.9429637789726257,"58":1.4044103622436523,"59":2.542713165283203,"60":0.22019709646701813,"61":0.2895124554634094,"62":-1.50861656665802,"63":-0.9893351793289185,"64":1.1486945152282715,"65":-0.04577067866921425,"66":0.7240503430366516,"67":-0.19074198603630066,"68":-0.3695123493671417,"69":0.5384300947189331,"70":-0.4301491379737854,"71":-1.6894481182098389,"72":0.0041776783764362335,"73":0.5059252977371216,"74":1.6342942714691162,"75":-0.6639503836631775,"76":-0.49407896399497986,"77":0.06912517547607422,"78":-0.7329925298690796,"79":0.29576918482780457,"80":-1.2223856449127197,"81":0.8100955486297607,"82":0.05308541655540466,"83":-0.2939472794532776,"84":-0.3740026652812958,"85":1.9757877588272095,"86":-0.7498317360877991,"87":0.6239657998085022,"88":2.5179314613342285,"89":-1.0859655141830444,"90":0.9350205659866333,"91":0.49920687079429626,"92":2.2855608463287354,"93":0.04897437244653702,"94":0.32932528853416443,"95":-0.10941551625728607,"96":0.6559118628501892,"97":1.1322847604751587,"98":1.3016109466552734,"99":1.538400411605835,"100":-1.148036241531372,"101":-1.861146330833435,"102":0.39292222261428833,"103":0.45112887024879456,"104":-0.7447876334190369,"105":-1.5105184316635132,"106":0.44249409437179565,"107":0.7530931234359741,"108":-1.4174760580062866,"109":-0.3167967200279236,"110":-1.0267363786697388,"111":-1.4234201908111572,"112":-1.4797463417053223,"113":0.4713926613330841,"114":-0.7460532188415527,"115":0.35275939106941223,"116":-0.9995464086532593,"117":-1.5415292978286743,"118":-1.0463989973068237,"119":0.8569760322570801,"120":-1.071618676185608,"121":-0.609190821647644,"122":0.45659011602401733,"123":-0.2613218426704407,"124":1.3704553842544556,"125":-0.15152403712272644,"126":-0.4691338837146759,"127":1.4020887613296509,"128":-1.0171418190002441,"129":0.3282184600830078,"130":-0.8584281206130981,"131":-1.5651135444641113,"132":-1.4885964393615723,"133":-0.6351999640464783,"134":0.14950354397296906,"135":-0.722536563873291,"136":-2.4264700412750244,"137":-2.379796028137207,"138":-1.130293369293213,"139":-1.0299046039581299,"140":-1.0864449739456177,"141":0.7752903699874878,"142":-1.2463215589523315,"143":-1.4402759075164795,"144":-0.6302130222320557,"145":1.3734309673309326,"146":1.0041979551315308,"147":-0.8429954648017883,"148":1.5050163269042969,"149":0.467429518699646,"150":-0.6532398462295532,"151":0.18184132874011993,"152":0.8724696040153503,"153":-1.0171895027160645,"154":1.4491658210754395,"155":-1.037922739982605,"156":-0.9450973272323608,"157":-0.8005375862121582,"158":0.8652965426445007,"159":0.3694949448108673,"160":-0.5431024432182312,"161":-1.0203346014022827,"162":0.683587908744812,"163":0.3897276222705841,"164":0.19413158297538757,"165":-1.0058051347732544,"166":0.9671454429626465,"167":0.0529010035097599,"168":-1.3391509056091309,"169":-0.4023939371109009,"170":-0.5761422514915466,"171":-1.4797227382659912,"172":-0.8133434057235718,"173":-0.5049181580543518,"174":-0.5948987007141113,"175":1.0950571298599243,"176":-1.0226497650146484,"177":0.10884254425764084,"178":-1.0353553295135498,"179":-0.07722410559654236,"180":-0.6449827551841736,"181":-1.0236108303070068,"182":-0.6127099394798279,"183":0.027514373883605003,"184":0.040875356644392014,"185":-0.25448840856552124,"186":0.8418046832084656,"187":0.5114618539810181,"188":0.05096182972192764,"189":-0.0626293420791626,"190":1.1358085870742798,"191":-1.4386229515075684,"192":-0.8114851117134094,"193":0.5304138660430908,"194":1.3917170763015747,"195":0.27392712235450745,"196":-0.09167651832103729,"197":0.7027576565742493,"198":-0.45421671867370605,"199":0.38294631242752075,"200":-1.3040279150009155,"201":0.8955089449882507,"202":-0.922839343547821,"203":-1.371030330657959,"204":0.07316574454307556,"205":0.10302101820707321,"206":1.6541019678115845,"207":0.9729613661766052,"208":0.6559804677963257,"209":-0.7308498620986938,"210":-0.047046225517988205,"211":-0.2940559983253479,"212":0.8697018623352051,"213":-0.714194655418396,"214":-0.027634190395474434,"215":-0.8959101438522339,"216":-0.7110971808433533,"217":0.7563222050666809,"218":-0.02616795152425766,"219":-0.14101432263851166,"220":-0.7067972421646118,"221":-0.1238231211900711,"222":-0.7754778861999512,"223":-0.17976947128772736,"224":0.7034896612167358,"225":1.6682989597320557,"226":-1.708876132965088,"227":-0.42224276065826416,"228":1.3748995065689087,"229":-0.9049193263053894,"230":2.1687493324279785,"231":-0.42964014410972595,"232":1.9124572277069092,"233":-0.45804309844970703,"234":0.31750282645225525,"235":-1.425647258758545,"236":-1.2602782249450684,"237":-0.5992310643196106,"238":-0.515105128288269,"239":0.8124801516532898,"240":-1.3502339124679565,"241":0.22870442271232605,"242":0.19042934477329254,"243":-1.0585687160491943,"244":-1.3705185651779175,"245":-0.08919482678174973,"246":0.3430744707584381,"247":0.31663066148757935,"248":-0.048694442957639694,"249":-0.7817429900169373,"250":0.5764512419700623,"251":-0.49982988834381104,"252":0.5726537108421326,"253":0.060468681156635284,"254":-1.1406841278076172,"255":-1.6599191427230835,"256":-0.9165295362472534,"257":-0.3785179853439331,"258":0.8103002905845642,"259":1.723615050315857,"260":-0.9674427509307861,"261":-1.4631705284118652,"262":0.8317070007324219,"263":1.7326152324676514,"264":-0.20738531649112701,"265":-1.2184323072433472,"266":-0.28474071621894836,"267":0.698686420917511,"268":-1.0137553215026855,"269":-0.5746484994888306,"270":0.114741250872612,"271":-2.173431634902954,"272":-0.903975784778595,"273":1.1611230373382568,"274":-0.459963321685791,"275":1.2895768880844116,"276":-0.8423205614089966,"277":-1.077945351600647,"278":-0.5586956739425659,"279":-0.03278425335884094,"280":-0.26601412892341614,"281":0.6684314012527466,"282":0.049469612538814545,"283":-1.124697208404541,"284":0.5640496015548706,"285":1.0965027809143066,"286":-1.3146700859069824,"287":1.2764616012573242,"288":1.549394130706787,"289":-0.9047503471374512,"290":1.2288274765014648,"291":-0.621440589427948,"292":0.7148333191871643,"293":0.7771193981170654,"294":0.28930094838142395,"295":-0.4695427417755127,"296":0.17286817729473114,"297":1.0356309413909912,"298":0.6049082279205322,"299":1.7313848733901978,"300":-1.0429346561431885,"301":-0.15959317982196808,"302":-0.5600202679634094,"303":0.15842856466770172,"304":1.11667799949646,"305":1.4395332336425781,"306":-1.5464287996292114,"307":1.4886003732681274,"308":1.3227940797805786,"309":0.04720340669155121,"310":1.4609698057174683,"311":-1.9712454080581665,"312":0.5584383606910706,"313":1.6873090267181396,"314":0.692788302898407,"315":-0.5361852645874023,"316":-1.1239148378372192,"317":0.6949148178100586,"318":-0.1784910261631012,"319":0.728237509727478,"320":0.20719432830810547,"321":0.09289989620447159,"322":1.3845038414001465,"323":1.406933069229126,"324":-0.7237172722816467,"325":1.6398897171020508,"326":-0.8562371134757996,"327":0.29035913944244385,"328":0.963848888874054,"329":-1.3987159729003906,"330":0.521352231502533,"331":1.016826868057251,"332":1.5548986196517944,"333":1.3195778131484985,"334":-0.44245287775993347,"335":1.3448301553726196,"336":-1.2550410032272339,"337":-0.4403696656227112,"338":-1.3844858407974243,"339":1.3272567987442017,"340":-1.3953086137771606,"341":-0.7345201373100281,"342":0.8611994385719299,"343":0.634752094745636,"344":-0.478635311126709,"345":-0.45020925998687744,"346":0.4382378160953522,"347":-1.157540202140808,"348":-0.30066728591918945,"349":0.448246568441391,"350":-0.1993221640586853,"351":-1.6230007410049438,"352":-0.3112832307815552,"353":-0.23205655813217163,"354":-1.1999423503875732,"355":0.946977436542511,"356":-1.157155156135559,"357":-0.5221942663192749,"358":-0.2622275948524475,"359":0.06843729317188263,"360":-0.9062868356704712,"361":0.5726100206375122,"362":0.7047979235649109,"363":0.9680168032646179,"364":-0.37515750527381897,"365":-0.5223410725593567,"366":0.4013792872428894,"367":0.08871608227491379,"368":-0.13294380903244019,"369":-0.3100307881832123,"370":-1.1760536432266235,"371":-1.1225391626358032,"372":-0.4013740122318268,"373":0.18408198654651642,"374":-0.245413675904274,"375":1.541427493095398,"376":-1.332080602645874,"377":-1.401794195175171,"378":-0.3580998182296753,"379":0.30200710892677307,"380":0.1467999666929245,"381":-0.10604782402515411,"382":-0.41048046946525574,"383":-1.0700403451919556,"384":-0.11001785844564438,"385":-0.23011934757232666,"386":0.2069825977087021,"387":-0.8469079732894897,"388":0.3244648575782776,"389":-0.11801861971616745,"390":1.977953314781189,"391":-0.42653363943099976,"392":-0.24853724241256714,"393":-0.8439880013465881,"394":0.7712855339050293,"395":-0.08095311373472214,"396":-0.4395371377468109,"397":-0.8403351306915283,"398":-1.3918087482452393,"399":0.9524173140525818}},"outputBias":{"rows":20,"columns":1,"weights":{"0":0.20359964668750763,"1":-2.448814868927002,"2":0.7726394534111023,"3":1.4263845682144165,"4":0.2970174551010132,"5":-1.3646665811538696,"6":-0.018506329506635666,"7":0.6971896290779114,"8":0.5442825555801392,"9":-1.0512558221817017,"10":0.13908541202545166,"11":0.9942595362663269,"12":-1.400860071182251,"13":-1.4733678102493286,"14":1.6039488315582275,"15":1.7004305124282837,"16":0.28836965560913086,"17":-1.3093751668930054,"18":-0.4274442493915558,"19":0.4991520941257477}},"cellActivationMatrix":{"rows":20,"columns":16,"weights":{"0":0.635090172290802,"1":-0.08696132153272629,"2":-0.5010514259338379,"3":-0.01713191717863083,"4":1.7802634239196777,"5":1.8868975639343262,"6":0.7318692803382874,"7":-0.6387218832969666,"8":-0.49435800313949585,"9":-2.003363609313965,"10":0.6868656873703003,"11":-2.244554042816162,"12":0.42444324493408203,"13":-1.2643564939498901,"14":1.1195032596588135,"15":1.0895887613296509,"16":0.04082842171192169,"17":1.4377062320709229,"18":-0.1831948161125183,"19":1.5230140686035156,"20":0.6790558695793152,"21":0.4875997304916382,"22":-0.04759395867586136,"23":-1.1780455112457275,"24":0.4243893623352051,"25":-0.6755752563476562,"26":2.059103488922119,"27":-0.37681281566619873,"28":1.3204323053359985,"29":0.2600981891155243,"30":-0.13335445523262024,"31":0.42032718658447266,"32":0.18418315052986145,"33":-0.8971227407455444,"34":0.811504602432251,"35":-0.7520410418510437,"36":-0.8258163928985596,"37":-0.37149691581726074,"38":0.8843877911567688,"39":-0.20164941251277924,"40":1.3259649276733398,"41":0.8921157121658325,"42":0.4561021327972412,"43":-0.20739947259426117,"44":0.1249101459980011,"45":0.9727650880813599,"46":-0.47691383957862854,"47":-0.32008564472198486,"48":2.0652060508728027,"49":-1.5295130014419556,"50":0.02154746651649475,"51":-2.2441697120666504,"52":-0.562735915184021,"53":-0.6111300587654114,"54":1.6335896253585815,"55":-0.467209130525589,"56":1.0052253007888794,"57":0.6670628190040588,"58":-0.8380748629570007,"59":-0.23465780913829803,"60":-1.6483172178268433,"61":0.7238795757293701,"62":-0.2790130078792572,"63":0.028874471783638,"64":-0.027383409440517426,"65":0.01411862950772047,"66":1.5863710641860962,"67":0.004769527819007635,"68":-0.5615510940551758,"69":-0.7582235932350159,"70":-0.8441876173019409,"71":-0.6630434393882751,"72":0.7478593587875366,"73":1.6670780181884766,"74":1.5091313123703003,"75":0.6842129826545715,"76":0.5517042875289917,"77":1.2246954441070557,"78":-1.7222044467926025,"79":-1.986556887626648,"80":-2.349709987640381,"81":0.5009655952453613,"82":-0.4483708143234253,"83":1.0185022354125977,"84":-0.10823909938335419,"85":0.4789287745952606,"86":-1.9793139696121216,"87":1.1000908613204956,"88":-0.11951284110546112,"89":-0.49714767932891846,"90":1.8161572217941284,"91":1.1845459938049316,"92":2.2823143005371094,"93":-0.5960831642150879,"94":0.37069326639175415,"95":0.44673120975494385,"96":-0.4079773724079132,"97":1.4642987251281738,"98":-1.7305474281311035,"99":2.8525912761688232,"100":2.7164690494537354,"101":1.5152621269226074,"102":-0.6837745308876038,"103":0.033473458141088486,"104":-1.1451497077941895,"105":-1.3393367528915405,"106":0.1429118663072586,"107":-0.6089787483215332,"108":1.2222877740859985,"109":-1.8487426042556763,"110":2.5615410804748535,"111":1.5759166479110718,"112":0.23602035641670227,"113":-0.9559087157249451,"114":2.106055974960327,"115":-1.2603739500045776,"116":-1.494400143623352,"117":-0.48093098402023315,"118":-0.34013283252716064,"119":-0.11032775789499283,"120":0.9646983742713928,"121":1.22781503200531,"122":1.2444350719451904,"123":1.425368309020996,"124":0.8023720979690552,"125":1.0774497985839844,"126":-1.3666704893112183,"127":-2.2761759757995605,"128":-1.6441824436187744,"129":1.4460047483444214,"130":-0.08632034063339233,"131":0.8872250318527222,"132":-0.899406909942627,"133":-0.48417481780052185,"134":-0.9008013606071472,"135":0.6985731720924377,"136":0.06147487461566925,"137":0.9079462289810181,"138":2.026139974594116,"139":0.8279378414154053,"140":1.2667582035064697,"141":-0.0957755371928215,"142":-0.47800344228744507,"143":0.08320526033639908,"144":0.03567306324839592,"145":1.006832480430603,"146":-0.2672119438648224,"147":0.44798576831817627,"148":0.38860487937927246,"149":1.0492966175079346,"150":1.3777058124542236,"151":0.5186775326728821,"152":-1.3806920051574707,"153":-0.7770826816558838,"154":-0.6042700409889221,"155":-0.42650511860847473,"156":-1.5217490196228027,"157":-0.5057644844055176,"158":0.24454320967197418,"159":0.11098708212375641,"160":-0.9584569931030273,"161":0.9241526126861572,"162":0.17544244229793549,"163":0.05024150758981705,"164":-0.288685142993927,"165":-0.6476256847381592,"166":-1.3631792068481445,"167":0.12041088938713074,"168":1.0682708024978638,"169":1.3801885843276978,"170":2.45412015914917,"171":0.5374522805213928,"172":1.5336127281188965,"173":0.367107093334198,"174":-0.05901563912630081,"175":-0.5334458947181702,"176":-2.020354986190796,"177":0.06019996479153633,"178":0.3025544583797455,"179":-0.44426229596138,"180":0.07945317029953003,"181":-0.16948848962783813,"182":-1.8437293767929077,"183":0.8294302225112915,"184":-0.3639521300792694,"185":-0.22735795378684998,"186":0.27638745307922363,"187":0.4400802254676819,"188":0.7168983221054077,"189":-1.0974864959716797,"190":-0.28373923897743225,"191":-0.6193679571151733,"192":-1.737156867980957,"193":0.49883386492729187,"194":-0.7879442572593689,"195":1.5110344886779785,"196":0.41427960991859436,"197":0.08272011578083038,"198":-2.085235595703125,"199":0.7647289037704468,"200":0.2473762482404709,"201":0.17437681555747986,"202":1.8083796501159668,"203":0.3404882550239563,"204":1.5394920110702515,"205":-0.32703927159309387,"206":0.5069677829742432,"207":0.7311369776725769,"208":0.34913015365600586,"209":-0.6133875250816345,"210":1.14629065990448,"211":-0.5563372373580933,"212":-1.366124153137207,"213":-1.5477852821350098,"214":0.57364821434021,"215":-0.606761634349823,"216":0.40275493264198303,"217":1.1222635507583618,"218":0.30909886956214905,"219":1.1116125583648682,"220":-0.7948608994483948,"221":0.9937968850135803,"222":-1.6796735525131226,"223":-1.2057445049285889,"224":-0.6698797345161438,"225":0.7824916839599609,"226":-0.6900088787078857,"227":0.1457434743642807,"228":0.42084574699401855,"229":0.018869252875447273,"230":-1.282518982887268,"231":0.6941654086112976,"232":-2.3211863040924072,"233":-0.18092703819274902,"234":0.29002293944358826,"235":0.16810797154903412,"236":-0.009398856200277805,"237":-0.9455757737159729,"238":0.12852494418621063,"239":-0.14384496212005615,"240":1.2614952325820923,"241":-0.7899174690246582,"242":0.3453763723373413,"243":-0.7886049151420593,"244":-0.7634596228599548,"245":-0.5211858153343201,"246":0.9175931811332703,"247":0.6319369673728943,"248":2.5200107097625732,"249":0.6191263794898987,"250":0.693651020526886,"251":0.2871258556842804,"252":-0.1866702139377594,"253":0.9352936148643494,"254":-0.06733037531375885,"255":-0.10929987579584122,"256":-0.9756407141685486,"257":-0.10454399138689041,"258":0.06573480367660522,"259":-1.184353232383728,"260":0.28489553928375244,"261":-0.30967995524406433,"262":-0.13416935503482819,"263":-0.4668618142604828,"264":0.41332781314849854,"265":0.37374651432037354,"266":-1.107128381729126,"267":-0.13232983648777008,"268":0.9466089010238647,"269":0.5426484942436218,"270":0.41477644443511963,"271":-1.2111791372299194,"272":-0.10475414246320724,"273":-0.39648252725601196,"274":0.3853260576725006,"275":0.2940029203891754,"276":-1.511871099472046,"277":-0.5841474533081055,"278":0.4007287621498108,"279":1.0302938222885132,"280":-0.1252254843711853,"281":-0.021336441859602928,"282":0.3175782859325409,"283":1.7481505870819092,"284":-0.33989572525024414,"285":1.035413384437561,"286":-0.3035741448402405,"287":-1.5182547569274902,"288":-0.5272462368011475,"289":0.9426190853118896,"290":0.47058483958244324,"291":1.0568525791168213,"292":-1.740511178970337,"293":0.038341302424669266,"294":0.24504686892032623,"295":-0.13432051241397858,"296":-1.1152520179748535,"297":0.1638953536748886,"298":0.8722095489501953,"299":0.9194416999816895,"300":0.8189453482627869,"301":-0.36665797233581543,"302":-1.4977340698242188,"303":-0.5426419973373413,"304":-0.13388784229755402,"305":0.9299789071083069,"306":-0.10763825476169586,"307":0.8430953621864319,"308":-1.6962037086486816,"309":-1.246201515197754,"310":-1.0686392784118652,"311":-0.33281707763671875,"312":0.5210359692573547,"313":2.167609214782715,"314":1.0939412117004395,"315":1.3859515190124512,"316":0.0598716177046299,"317":1.438984990119934,"318":-1.503618836402893,"319":-1.3228511810302734}},"cellActivationHidden":{"rows":20,"columns":20,"weights":{"0":-0.11646544933319092,"1":-0.2129829376935959,"2":0.17329688370227814,"3":-0.04031529650092125,"4":0.560178279876709,"5":0.12168005853891373,"6":-0.22602713108062744,"7":1.1893532276153564,"8":-0.1464894711971283,"9":0.6402034163475037,"10":0.08160794526338577,"11":0.19804660975933075,"12":0.5183285474777222,"13":-0.12187804281711578,"14":-0.021909335628151894,"15":-0.4176655113697052,"16":-0.6767064929008484,"17":-0.23256301879882812,"18":-0.2027917504310608,"19":0.9989431500434875,"20":-0.5997834801673889,"21":-0.46251729130744934,"22":-0.4415477216243744,"23":-0.9793057441711426,"24":-0.09030649065971375,"25":-0.6969407796859741,"26":-0.5230437517166138,"27":0.6431770920753479,"28":-0.41155803203582764,"29":0.454241544008255,"30":0.3191654086112976,"31":0.5612152814865112,"32":0.033891040831804276,"33":-0.1878334879875183,"34":0.07495728880167007,"35":-1.0103389024734497,"36":-0.6649680733680725,"37":-0.25492584705352783,"38":-0.04793088883161545,"39":0.7221948504447937,"40":-1.2526859045028687,"41":0.020390767604112625,"42":0.5199044942855835,"43":-0.11655043810606003,"44":0.8501806855201721,"45":1.7371759414672852,"46":-0.6125311851501465,"47":1.1338920593261719,"48":1.917797565460205,"49":0.6570978164672852,"50":0.5982983112335205,"51":0.36946603655815125,"52":1.4604864120483398,"53":0.6892825365066528,"54":-0.8516368865966797,"55":-0.3775644898414612,"56":0.023263204842805862,"57":1.3689155578613281,"58":0.6256362795829773,"59":-0.3502143919467926,"60":-0.6988786458969116,"61":0.45929154753685,"62":-1.3423869609832764,"63":-0.7946323752403259,"64":-0.2953517436981201,"65":1.7520455121994019,"66":0.8267146944999695,"67":0.17626242339611053,"68":1.5568263530731201,"69":0.2305082231760025,"70":0.3087283968925476,"71":2.019390106201172,"72":1.3278800249099731,"73":1.1214123964309692,"74":0.43155360221862793,"75":-0.6736852526664734,"76":0.7553051114082336,"77":1.218375563621521,"78":0.5225953459739685,"79":0.11744482070207596,"80":-0.16438572108745575,"81":0.6466192007064819,"82":0.4357590973377228,"83":0.36994990706443787,"84":0.4511457085609436,"85":-0.37650665640830994,"86":-0.3516288697719574,"87":0.531012237071991,"88":-1.079345464706421,"89":-0.04855547472834587,"90":-0.24446767568588257,"91":-0.9057549834251404,"92":-0.21544799208641052,"93":0.012440462596714497,"94":-0.0656595230102539,"95":0.396261990070343,"96":-0.5947349071502686,"97":0.2383725494146347,"98":0.20433132350444794,"99":-0.36548182368278503,"100":1.0342315435409546,"101":-0.8875024914741516,"102":-0.6250552535057068,"103":-0.9519928097724915,"104":1.339220404624939,"105":-0.6603894829750061,"106":-0.2725961208343506,"107":0.8270363211631775,"108":-0.3058309853076935,"109":0.6393147706985474,"110":-0.8824408054351807,"111":0.3212052881717682,"112":-0.6060905456542969,"113":-0.5208079218864441,"114":1.2316725254058838,"115":-0.804870069026947,"116":0.19027811288833618,"117":-0.41878843307495117,"118":-0.7506147623062134,"119":0.052382942289114,"120":-0.4614904224872589,"121":1.0111172199249268,"122":-0.8521115779876709,"123":-1.174306869506836,"124":-1.213226318359375,"125":-0.45261383056640625,"126":0.06191498041152954,"127":-0.2829274535179138,"128":-0.48005419969558716,"129":0.6184018850326538,"130":0.4859086275100708,"131":0.34476611018180847,"132":0.8347697854042053,"133":-0.257433146238327,"134":0.8179157972335815,"135":-0.9217404127120972,"136":-0.9645276665687561,"137":-0.26871344447135925,"138":0.4818836450576782,"139":-0.6375488042831421,"140":0.23714067041873932,"141":-0.07268278300762177,"142":0.27811506390571594,"143":0.23540343344211578,"144":0.05508833006024361,"145":-0.8220712542533875,"146":-0.5507397055625916,"147":0.2678905129432678,"148":-0.7403997778892517,"149":-0.614587128162384,"150":0.015138179063796997,"151":-1.3173588514328003,"152":-0.23979489505290985,"153":-0.45358067750930786,"154":-0.5345847010612488,"155":0.6128886938095093,"156":-0.9147154688835144,"157":0.5019320845603943,"158":-0.6312949061393738,"159":1.1016430854797363,"160":0.09588930755853653,"161":-1.212075114250183,"162":-0.5658326745033264,"163":-1.282800555229187,"164":1.8738374710083008,"165":-0.4006551206111908,"166":-0.5969783067703247,"167":1.697073221206665,"168":0.3563249111175537,"169":0.014864674769341946,"170":0.236552432179451,"171":0.0537387989461422,"172":0.5607268214225769,"173":-0.627192497253418,"174":0.78666752576828,"175":-1.0477921962738037,"176":0.23012007772922516,"177":-0.5545346140861511,"178":0.258168488740921,"179":0.7950892448425293,"180":0.8342390060424805,"181":1.2762460708618164,"182":1.504227876663208,"183":0.7501054406166077,"184":-0.9516615867614746,"185":-0.04214118421077728,"186":0.05386270210146904,"187":-0.4247334897518158,"188":0.4586546719074249,"189":-0.4026676118373871,"190":0.6743745803833008,"191":-0.1590362936258316,"192":0.6619851589202881,"193":1.0143157243728638,"194":-0.24722468852996826,"195":0.9885948896408081,"196":0.5241649150848389,"197":0.80564945936203,"198":1.0094603300094604,"199":0.5586114525794983,"200":-0.33385351300239563,"201":-0.23782780766487122,"202":0.21213988959789276,"203":0.30579984188079834,"204":1.4171421527862549,"205":0.25548723340034485,"206":-0.6701200604438782,"207":0.08237861096858978,"208":1.084093689918518,"209":0.8030667901039124,"210":0.4432065784931183,"211":0.26074284315109253,"212":0.6467856764793396,"213":0.5299464464187622,"214":0.5677160620689392,"215":0.7311522364616394,"216":1.3332902193069458,"217":0.34536388516426086,"218":-0.2847921848297119,"219":0.4944961965084076,"220":-0.9927058219909668,"221":-1.1250550746917725,"222":-1.7537719011306763,"223":-2.5998146533966064,"224":0.8854899406433105,"225":-0.009539381600916386,"226":-0.47734594345092773,"227":0.4343838393688202,"228":-0.14982950687408447,"229":0.5947428941726685,"230":0.3395187556743622,"231":0.11298315972089767,"232":0.6789708733558655,"233":-0.6568360328674316,"234":1.1978669166564941,"235":-2.842747211456299,"236":-1.156320571899414,"237":0.1974238008260727,"238":0.2233516424894333,"239":-0.3006148338317871,"240":0.33645394444465637,"241":-0.5732989311218262,"242":-0.5760340690612793,"243":-0.3113449513912201,"244":1.6225225925445557,"245":0.9589170813560486,"246":-0.3281978368759155,"247":1.9718918800354004,"248":1.1244378089904785,"249":0.13964152336120605,"250":-0.3823395073413849,"251":1.1935621500015259,"252":0.7166802883148193,"253":0.08844617754220963,"254":1.3604283332824707,"255":-0.4160580635070801,"256":0.47120407223701477,"257":1.1604011058807373,"258":0.3006507456302643,"259":0.06248681619763374,"260":-0.07639160752296448,"261":-0.47379380464553833,"262":-1.030993938446045,"263":-1.3512766361236572,"264":0.922007143497467,"265":-0.8523121476173401,"266":-0.2798040509223938,"267":0.01999724470078945,"268":-1.2173280715942383,"269":0.21288862824440002,"270":-1.347898006439209,"271":0.6231088042259216,"272":-0.20634321868419647,"273":-1.7784223556518555,"274":1.2310749292373657,"275":-1.305401086807251,"276":1.0645711421966553,"277":0.2334965616464615,"278":0.6662811040878296,"279":-0.9312121272087097,"280":0.6418526768684387,"281":0.31190380454063416,"282":0.2883208096027374,"283":-0.08570472151041031,"284":-0.10949781537055969,"285":-1.4182021617889404,"286":-0.4837168753147125,"287":-0.6706888675689697,"288":-0.946448802947998,"289":0.4742470979690552,"290":-0.838189959526062,"291":-0.8863468766212463,"292":-1.843854546546936,"293":-0.9987013339996338,"294":-0.1156671792268753,"295":-0.05439509451389313,"296":-1.3690526485443115,"297":-1.041630506515503,"298":-1.6805001497268677,"299":-1.1770678758621216,"300":-1.2214913368225098,"301":0.7351903915405273,"302":0.17158794403076172,"303":-0.4133435785770416,"304":-0.9962273836135864,"305":1.7697577476501465,"306":-0.5052518248558044,"307":0.6794252991676331,"308":2.484710216522217,"309":-0.08099301159381866,"310":1.3360096216201782,"311":1.3603543043136597,"312":1.3923431634902954,"313":1.4113398790359497,"314":-1.0271679162979126,"315":0.3380053639411926,"316":0.049197718501091,"317":1.207042932510376,"318":-0.10841347277164459,"319":-0.007037651259452105,"320":-0.29467204213142395,"321":-0.6161571741104126,"322":-1.743102788925171,"323":-0.43123650550842285,"324":1.0523983240127563,"325":-0.5484314560890198,"326":-0.5108612775802612,"327":-1.1567883491516113,"328":-1.6623879671096802,"329":2.0587382316589355,"330":-1.5394319295883179,"331":-1.0316753387451172,"332":-1.6277955770492554,"333":-2.9415032863616943,"334":1.4993598461151123,"335":-1.2046167850494385,"336":-0.7029699087142944,"337":-1.795457363128662,"338":-1.5188803672790527,"339":-1.129153847694397,"340":1.0581462383270264,"341":-0.6768988370895386,"342":-0.8159191608428955,"343":-1.627947211265564,"344":1.092184066772461,"345":-0.9878666996955872,"346":0.46836501359939575,"347":1.2067620754241943,"348":-1.2740569114685059,"349":1.1647586822509766,"350":-0.7582834959030151,"351":0.26535868644714355,"352":-0.5642690062522888,"353":-1.207456111907959,"354":0.34490472078323364,"355":-0.7029680609703064,"356":-0.10995355993509293,"357":-1.003324031829834,"358":-1.076114296913147,"359":-1.127489686012268,"360":1.2484174966812134,"361":-0.6403204202651978,"362":-0.20506541430950165,"363":-0.057408928871154785,"364":1.1146550178527832,"365":-1.8252726793289185,"366":0.7499678134918213,"367":0.9750159978866577,"368":-1.5795246362686157,"369":1.476832389831543,"370":-1.803038239479065,"371":-0.20443126559257507,"372":-1.09823477268219,"373":-1.5336403846740723,"374":0.29264673590660095,"375":-0.08458497375249863,"376":0.4404884874820709,"377":-1.3988949060440063,"378":-1.1880260705947876,"379":-1.8086137771606445,"380":0.0687112957239151,"381":-0.07734252512454987,"382":-0.5564606189727783,"383":-1.6889228820800781,"384":0.6989107728004456,"385":1.080257773399353,"386":0.5307954549789429,"387":0.49799925088882446,"388":0.7145290970802307,"389":0.1790812611579895,"390":-0.07493175566196442,"391":1.9657069444656372,"392":1.0542967319488525,"393":0.1826573759317398,"394":0.4082167446613312,"395":-1.3313847780227661,"396":0.5053223371505737,"397":0.4208924174308777,"398":-0.08082639425992966,"399":-0.41918155550956726}},"cellActivationBias":{"rows":20,"columns":1,"weights":{"0":0.7245543599128723,"1":-0.6061299443244934,"2":1.2648407220840454,"3":2.165959596633911,"4":-0.5256683826446533,"5":-0.656131386756897,"6":-1.1666241884231567,"7":-0.48502933979034424,"8":-3.2323968410491943,"9":-0.5395510196685791,"10":0.3221968412399292,"11":-1.799209475517273,"12":0.05785633623600006,"13":0.35824915766716003,"14":-1.7383116483688354,"15":1.7481259107589722,"16":-0.6397965550422668,"17":0.41160938143730164,"18":-0.5545104742050171,"19":0.890264093875885}}},{"inputMatrix":{"rows":20,"columns":20,"weights":{"0":0.1513492614030838,"1":0.14475181698799133,"2":-0.18407052755355835,"3":-0.17068783938884735,"4":-0.18997834622859955,"5":-1.30632746219635,"6":-0.389413982629776,"7":1.1728155612945557,"8":-0.8699160218238831,"9":-0.8375933766365051,"10":-0.5649206042289734,"11":-0.6665233373641968,"12":-1.8220493793487549,"13":-0.0417780727148056,"14":-0.27949002385139465,"15":-0.013396834954619408,"16":-0.6527631878852844,"17":-0.7209425568580627,"18":-0.9989332556724548,"19":-0.5078774690628052,"20":-0.5388588905334473,"21":-0.9588222503662109,"22":1.9124659299850464,"23":2.5149686336517334,"24":-1.4022924900054932,"25":-0.7663447260856628,"26":-0.19019517302513123,"27":-0.8123792409896851,"28":-0.6137314438819885,"29":-0.9641547203063965,"30":-0.44334542751312256,"31":-1.0811877250671387,"32":-1.4953478574752808,"33":-0.027484653517603874,"34":-2.511803150177002,"35":1.3315879106521606,"36":-1.575011968612671,"37":-0.25317588448524475,"38":-0.8639890551567078,"39":-1.2474051713943481,"40":0.5495797991752625,"41":-1.232988953590393,"42":2.1045682430267334,"43":1.3265049457550049,"44":-1.5246957540512085,"45":-1.487898349761963,"46":-0.9408206939697266,"47":-0.9535487294197083,"48":-1.1056100130081177,"49":-0.7463363409042358,"50":-0.6705462336540222,"51":-1.537235140800476,"52":-1.5428056716918945,"53":0.11838151514530182,"54":-2.555551052093506,"55":2.2532286643981934,"56":-0.9003845453262329,"57":-1.6873761415481567,"58":-0.5001503229141235,"59":-0.0270273145288229,"60":-2.5893499851226807,"61":0.32410091161727905,"62":-3.1238529682159424,"63":-2.0174851417541504,"64":0.3291739523410797,"65":0.2278740108013153,"66":0.7105363607406616,"67":0.32113078236579895,"68":-0.7280156016349792,"69":-0.14690884947776794,"70":-0.3742552101612091,"71":1.4760501384735107,"72":0.5047159790992737,"73":-0.04098103940486908,"74":2.8223936557769775,"75":-3.0321245193481445,"76":1.3218919038772583,"77":0.8761164546012878,"78":1.658299207687378,"79":-0.6190041899681091,"80":-0.06278660893440247,"81":-1.0317901372909546,"82":-2.4874331951141357,"83":-0.2969818413257599,"84":-0.7492771744728088,"85":-0.5784411430358887,"86":-0.3169190287590027,"87":0.04242508113384247,"88":-0.7751604318618774,"89":0.705858051776886,"90":-0.7194600701332092,"91":0.24442291259765625,"92":-1.0747145414352417,"93":0.4357272982597351,"94":2.6748127937316895,"95":-1.2334818840026855,"96":0.1696540266275406,"97":-0.616163969039917,"98":0.3467676341533661,"99":0.24117904901504517,"100":1.0736242532730103,"101":1.1020439863204956,"102":-0.3691777288913727,"103":-1.00090491771698,"104":-0.660877525806427,"105":-0.12363215535879135,"106":1.4574655294418335,"107":0.8129966855049133,"108":0.6271100044250488,"109":-1.1571252346038818,"110":-0.6986769437789917,"111":1.4168362617492676,"112":0.7612767219543457,"113":0.9535582661628723,"114":0.5938045382499695,"115":0.30012354254722595,"116":2.191063404083252,"117":0.8151164650917053,"118":0.7353434562683105,"119":-1.0499470233917236,"120":0.35142838954925537,"121":-1.3487557172775269,"122":-0.041173409670591354,"123":0.7042296528816223,"124":0.5680555105209351,"125":-2.4525671005249023,"126":0.8154719471931458,"127":-1.2683794498443604,"128":-1.0683529376983643,"129":0.27597641944885254,"130":-1.2028716802597046,"131":-1.4395816326141357,"132":-2.569575548171997,"133":-0.5610606670379639,"134":0.027495115995407104,"135":0.0007164960843510926,"136":-1.1136819124221802,"137":-0.49069204926490784,"138":-1.129071831703186,"139":-0.6791906356811523,"140":0.16997244954109192,"141":-1.8037420511245728,"142":0.52272629737854,"143":-0.3633182644844055,"144":1.3693469762802124,"145":-0.701227605342865,"146":-0.9409347176551819,"147":1.9208749532699585,"148":-1.276605248451233,"149":-1.5225050449371338,"150":0.24959397315979004,"151":-0.8126415014266968,"152":-0.7588379979133606,"153":0.5851899981498718,"154":0.1482742577791214,"155":-0.3811788260936737,"156":-0.9409258961677551,"157":-0.752761960029602,"158":-1.4385286569595337,"159":0.6194648146629333,"160":-0.21489006280899048,"161":-0.8201240301132202,"162":-0.8683540225028992,"163":-0.008099647238850594,"164":0.14425969123840332,"165":-2.3564839363098145,"166":1.075818419456482,"167":-0.013411995023488998,"168":-0.7709929347038269,"169":0.9016056656837463,"170":-0.521557092666626,"171":-1.0355207920074463,"172":-1.7157169580459595,"173":-1.2415690422058105,"174":0.3819161653518677,"175":-0.5615029335021973,"176":-1.427654504776001,"177":-1.2313908338546753,"178":-0.7618914842605591,"179":-0.47564733028411865,"180":-1.1002103090286255,"181":2.7172160148620605,"182":-1.2006827592849731,"183":-0.9570342302322388,"184":0.707615315914154,"185":1.252419114112854,"186":-0.5853065848350525,"187":1.0515602827072144,"188":1.4517594575881958,"189":-0.9655991196632385,"190":1.2095322608947754,"191":1.5421286821365356,"192":1.1552973985671997,"193":0.8258896470069885,"194":1.3068172931671143,"195":-1.5380207300186157,"196":0.5925989151000977,"197":0.7411777973175049,"198":1.4063844680786133,"199":1.4464213848114014,"200":0.03744981065392494,"201":-0.8083874583244324,"202":0.10651171207427979,"203":0.3416094481945038,"204":1.1964353322982788,"205":-1.379075288772583,"206":-0.4520459771156311,"207":1.5470982789993286,"208":-0.842585027217865,"209":-1.4521456956863403,"210":-0.3206174373626709,"211":-1.604225993156433,"212":-1.1773285865783691,"213":1.4632378816604614,"214":-0.3120821714401245,"215":0.5496167540550232,"216":-0.9710898399353027,"217":-0.563576340675354,"218":-0.7995462417602539,"219":0.5360386371612549,"220":-0.59785395860672,"221":1.1896089315414429,"222":0.9096001982688904,"223":0.32275182008743286,"224":1.3134255409240723,"225":-0.2365543246269226,"226":1.11618173122406,"227":2.7440760135650635,"228":0.8035916090011597,"229":-0.3483704626560211,"230":-0.33687978982925415,"231":0.19490975141525269,"232":-1.8698219060897827,"233":0.550575852394104,"234":0.6941675543785095,"235":-0.578734815120697,"236":0.5473534464836121,"237":0.46560564637184143,"238":0.5932746529579163,"239":-1.1913779973983765,"240":-0.5217795372009277,"241":-1.132981300354004,"242":0.2260885387659073,"243":0.4623722434043884,"244":1.3409589529037476,"245":-0.997672438621521,"246":0.6606263518333435,"247":1.4704935550689697,"248":-1.2117624282836914,"249":1.819413423538208,"250":-1.29038667678833,"251":-1.640695333480835,"252":-1.279342532157898,"253":-1.2121460437774658,"254":0.8055891990661621,"255":-0.3750065565109253,"256":-0.8239191770553589,"257":-1.0857654809951782,"258":-2.8065364360809326,"259":-1.2880218029022217,"260":-1.4065452814102173,"261":-0.1447443813085556,"262":0.11599324643611908,"263":0.561567485332489,"264":0.4857030510902405,"265":-0.6351943612098694,"266":0.6797887086868286,"267":-0.07954096794128418,"268":0.3913686275482178,"269":-0.3189699947834015,"270":0.35666680335998535,"271":-0.44771912693977356,"272":-0.11354384571313858,"273":-0.006034955382347107,"274":1.0893694162368774,"275":0.08725348860025406,"276":-0.024312427267432213,"277":-1.1141544580459595,"278":-1.8350352048873901,"279":0.7676935791969299,"280":-1.0328748226165771,"281":-0.9801965951919556,"282":-0.40512487292289734,"283":0.5944170951843262,"284":-0.7540081143379211,"285":0.35906869173049927,"286":0.8095715641975403,"287":-0.9645479917526245,"288":0.10965213924646378,"289":1.1998769044876099,"290":-0.8364165425300598,"291":-1.8641341924667358,"292":-1.4676859378814697,"293":-0.920570433139801,"294":0.02687634900212288,"295":0.27545976638793945,"296":-0.6181665062904358,"297":-1.6745507717132568,"298":-0.9306595921516418,"299":-1.866689682006836,"300":0.36959362030029297,"301":-0.5423077940940857,"302":-0.6508450508117676,"303":0.008498460985720158,"304":0.2357630580663681,"305":-1.3478529453277588,"306":1.442767858505249,"307":-1.585163950920105,"308":-1.3142147064208984,"309":0.77740079164505,"310":0.1631796658039093,"311":-0.9386878609657288,"312":-1.2499347925186157,"313":-3.2154505252838135,"314":0.30274102091789246,"315":0.18325920403003693,"316":0.7827196717262268,"317":-0.8232790231704712,"318":-1.8881428241729736,"319":-1.372024655342102,"320":-1.6015348434448242,"321":0.28519415855407715,"322":-2.194185495376587,"323":0.083330899477005,"324":-0.584661602973938,"325":0.2729441523551941,"326":-1.6206063032150269,"327":-0.1746375858783722,"328":-0.22185435891151428,"329":-0.7205429077148438,"330":0.3829823434352875,"331":-0.7997135519981384,"332":1.164456844329834,"333":-1.024725317955017,"334":1.0709470510482788,"335":-0.8060529232025146,"336":-0.4469045400619507,"337":-0.9022212624549866,"338":-0.5519443154335022,"339":0.9020183682441711,"340":1.9753154516220093,"341":-1.3274074792861938,"342":-0.4658348560333252,"343":0.8075214624404907,"344":-0.01083438191562891,"345":-2.919048547744751,"346":0.49859869480133057,"347":0.8985819816589355,"348":-1.2676072120666504,"349":1.602982521057129,"350":-2.0283000469207764,"351":-1.3630783557891846,"352":-2.611861228942871,"353":0.09356486797332764,"354":-0.28406333923339844,"355":0.45794108510017395,"356":-1.0325305461883545,"357":-0.44606924057006836,"358":-0.24766142666339874,"359":-0.8750098943710327,"360":0.7529524564743042,"361":-0.09587686508893967,"362":2.320326089859009,"363":2.290916919708252,"364":-0.9208383560180664,"365":-0.833067774772644,"366":0.4889700710773468,"367":-0.8507362604141235,"368":-0.3797869384288788,"369":-1.1500930786132812,"370":-1.5935696363449097,"371":-1.9317913055419922,"372":-1.9147312641143799,"373":0.3383398652076721,"374":-2.5450799465179443,"375":3.031039237976074,"376":-0.6181797981262207,"377":-1.309393048286438,"378":-0.13812702894210815,"379":0.10872247070074081,"380":-1.5129517316818237,"381":0.009833749383687973,"382":-1.7297353744506836,"383":-2.2118866443634033,"384":1.9228050708770752,"385":-0.5436872839927673,"386":0.7188572883605957,"387":0.7849406003952026,"388":-0.29098016023635864,"389":1.1690036058425903,"390":-0.1344023495912552,"391":-0.28191420435905457,"392":-0.05434447526931763,"393":-2.2959790229797363,"394":3.1257262229919434,"395":-2.9633772373199463,"396":0.9592430591583252,"397":-1.612013339996338,"398":-1.188706636428833,"399":-0.7856393456459045}},"inputHidden":{"rows":20,"columns":20,"weights":{"0":0.14410468935966492,"1":0.0903884544968605,"2":-0.9373869895935059,"3":0.9567140936851501,"4":-1.5266871452331543,"5":-0.14265500009059906,"6":-1.6290069818496704,"7":-1.511383056640625,"8":-1.468889832496643,"9":1.2476118803024292,"10":-1.1184519529342651,"11":-0.10242277383804321,"12":-1.6435158252716064,"13":1.0562124252319336,"14":0.6793882250785828,"15":1.9101272821426392,"16":1.1380884647369385,"17":-0.1868622899055481,"18":0.16029679775238037,"19":-0.1460971087217331,"20":-0.1887853592634201,"21":0.3201735317707062,"22":0.4134260416030884,"23":1.0454784631729126,"24":-0.469153493642807,"25":-0.5513932704925537,"26":-0.6519943475723267,"27":-0.8464334607124329,"28":0.22328223288059235,"29":0.4250345826148987,"30":0.9423190951347351,"31":1.7435317039489746,"32":0.22121012210845947,"33":0.7052842974662781,"34":0.37713342905044556,"35":1.2264723777770996,"36":0.7205856442451477,"37":-0.13020798563957214,"38":-1.1995431184768677,"39":-0.14646120369434357,"40":0.18159246444702148,"41":1.3669291734695435,"42":-0.7771124839782715,"43":1.5154222249984741,"44":0.7367515563964844,"45":-0.5144363045692444,"46":-0.20937614142894745,"47":0.11016328632831573,"48":-0.577481210231781,"49":0.4794299006462097,"50":-0.19006429612636566,"51":1.9378986358642578,"52":-1.37015962600708,"53":-0.4245981276035309,"54":0.19452421367168427,"55":0.9101723432540894,"56":1.7766904830932617,"57":-0.24679702520370483,"58":-0.3751555383205414,"59":0.4931553900241852,"60":0.08772885799407959,"61":-0.4096827507019043,"62":-0.5480190515518188,"63":-1.2222137451171875,"64":0.9086154699325562,"65":-0.25540661811828613,"66":0.20099470019340515,"67":0.12301459908485413,"68":0.14942538738250732,"69":-0.740760326385498,"70":0.45809146761894226,"71":1.6018818616867065,"72":0.1392621546983719,"73":0.6508182883262634,"74":-0.795407235622406,"75":-0.3730722665786743,"76":0.014558464288711548,"77":0.20150554180145264,"78":0.42688122391700745,"79":0.8308157324790955,"80":0.5870068669319153,"81":-0.026456546038389206,"82":0.7409348487854004,"83":-0.4785027801990509,"84":1.52336847782135,"85":0.6754368543624878,"86":-2.355719804763794,"87":-0.049240849912166595,"88":-2.216233015060425,"89":1.1816366910934448,"90":-1.6917754411697388,"91":-0.7467406392097473,"92":-1.0375038385391235,"93":-0.15814298391342163,"94":-0.41354137659072876,"95":1.4527753591537476,"96":-0.567473292350769,"97":-0.5086895227432251,"98":0.596025824546814,"99":-0.5664723515510559,"100":0.5206066966056824,"101":0.33152976632118225,"102":1.547322154045105,"103":-1.2132682800292969,"104":-0.005872571375221014,"105":-0.3562803268432617,"106":-1.3681977987289429,"107":-0.24732542037963867,"108":-1.4654687643051147,"109":0.6275821924209595,"110":-1.0204453468322754,"111":-0.4864201843738556,"112":0.09412159025669098,"113":0.11095820367336273,"114":0.03264167532324791,"115":1.0013025999069214,"116":1.796235203742981,"117":-0.9168164134025574,"118":0.5311428904533386,"119":-1.766713261604309,"120":-0.38934817910194397,"121":0.9312673807144165,"122":-1.0220626592636108,"123":-0.21444210410118103,"124":-0.04480066895484924,"125":0.19168204069137573,"126":-0.7653326392173767,"127":-1.6018810272216797,"128":-0.4873817563056946,"129":-0.30118319392204285,"130":-2.0172579288482666,"131":-0.6756764650344849,"132":-0.7301352024078369,"133":0.8442026376724243,"134":1.0989928245544434,"135":0.2739383280277252,"136":1.6462327241897583,"137":-0.2351568043231964,"138":0.3608579635620117,"139":-0.7392710447311401,"140":0.09164280444383621,"141":-0.7256460785865784,"142":-0.6109601259231567,"143":-0.4921208322048187,"144":2.455683946609497,"145":0.4990655779838562,"146":-1.9216786623001099,"147":-3.015026569366455,"148":-2.0069785118103027,"149":-0.41285374760627747,"150":-2.37434983253479,"151":1.0000040531158447,"152":-1.0004264116287231,"153":2.173358201980591,"154":-0.05595870688557625,"155":2.704332113265991,"156":-0.3289763331413269,"157":-0.4923427104949951,"158":-0.6661293506622314,"159":-1.8684213161468506,"160":0.22417128086090088,"161":0.35291045904159546,"162":-1.7114717960357666,"163":-2.0974225997924805,"164":0.09209743142127991,"165":0.6039370894432068,"166":-1.5634393692016602,"167":-0.6115033030509949,"168":-2.0075056552886963,"169":-0.9060600996017456,"170":-2.166569709777832,"171":-0.6527343392372131,"172":0.1234971433877945,"173":0.6144735217094421,"174":0.8612297177314758,"175":-1.1051228046417236,"176":1.2649098634719849,"177":-0.3257380425930023,"178":0.008644171059131622,"179":-1.4706276655197144,"180":0.010289674624800682,"181":0.6890528202056885,"182":-2.850980520248413,"183":-1.4315294027328491,"184":2.092114210128784,"185":1.1133978366851807,"186":-0.13127253949642181,"187":0.2765447795391083,"188":0.012229125946760178,"189":0.7012633681297302,"190":0.08761864900588989,"191":0.23891665041446686,"192":-0.8509909510612488,"193":0.6391285061836243,"194":-0.2849122881889343,"195":0.10273825377225876,"196":0.44273021817207336,"197":-0.9974651336669922,"198":-1.5790350437164307,"199":-1.222585916519165,"200":-0.2791142165660858,"201":0.3647193908691406,"202":0.7837305665016174,"203":-0.5302079916000366,"204":0.4289253056049347,"205":-0.8037377595901489,"206":-2.420107364654541,"207":-0.552776038646698,"208":-3.603360176086426,"209":-0.8708804249763489,"210":-1.8106601238250732,"211":0.9751031994819641,"212":-0.11389123648405075,"213":0.6020856499671936,"214":0.5129989385604858,"215":1.1122053861618042,"216":0.6491115093231201,"217":-1.3409109115600586,"218":-1.177268147468567,"219":-2.429870128631592,"220":-0.041405435651540756,"221":0.44543182849884033,"222":-2.052548408508301,"223":-0.6012850403785706,"224":1.3923628330230713,"225":0.42599132657051086,"226":-0.4007022976875305,"227":0.027029504999518394,"228":-0.2387896627187729,"229":1.5106455087661743,"230":-0.07787642627954483,"231":1.0034945011138916,"232":-0.6331380605697632,"233":0.2504274547100067,"234":1.5292348861694336,"235":-0.1519652009010315,"236":0.3256774842739105,"237":-0.0622793585062027,"238":-1.4511502981185913,"239":-0.3469182252883911,"240":-0.242424875497818,"241":-0.32206615805625916,"242":-1.5434696674346924,"243":-1.7735450267791748,"244":0.2833104133605957,"245":1.8152422904968262,"246":0.05415923520922661,"247":-3.4526264667510986,"248":-0.08279380202293396,"249":-0.29154086112976074,"250":-0.6410550475120544,"251":1.6226494312286377,"252":-1.7552787065505981,"253":1.446441650390625,"254":1.1961562633514404,"255":0.841947078704834,"256":0.7815994620323181,"257":-0.24704855680465698,"258":-0.6160476803779602,"259":-1.381022572517395,"260":-1.0992732048034668,"261":0.8369923233985901,"262":-0.5581429600715637,"263":0.6383563876152039,"264":-0.45265060663223267,"265":1.2168006896972656,"266":-0.4300496578216553,"267":-1.4648207426071167,"268":-0.6427931785583496,"269":-1.1656862497329712,"270":-0.48846015334129333,"271":0.13007909059524536,"272":-2.0372655391693115,"273":2.2678511142730713,"274":0.20564106106758118,