{"type":"LSTM","options":{"inputSize":16,"inputRange":16,"hiddenLayers":[20,20],"outputSize":16,"decayRate":0.999,"smoothEps":1e-8,"regc":0.000001,"clipval":5,"maxPredictionLength":100,"dataFormatter":{"values":[["W","h","a","t","s"," ","u","p","?"],["h","e","l","l","o","!"]],"indexTable":{"W":0,"h":1,"a":2,"t":3,"s":4," ":5,"u":6,"p":7,"?":8,"e":9,"l":10,"o":11,"!":12,"stop-input":13,"start-output":14,"unrecognized":15},"characterTable":{"0":"W","1":"h","2":"a","3":"t","4":"s","5":" ","6":"u","7":"p","8":"?","9":"e","10":"l","11":"o","12":"!","13":null,"14":null,"15":null},"characters":["W","h","a","t","s"," ","u","p","?","e","l","o","!","stop-input","start-output","unrecognized"],"specialIndexes":[13,14,15]}},"input":{"rows":17,"columns":16,"weights":{"0":0.09634743630886078,"1":0.42776596546173096,"2":1.155096411705017,"3":0.8292186260223389,"4":-0.25499895215034485,"5":-0.8324853777885437,"6":0.06558636575937271,"7":0.6809708476066589,"8":0.5999327301979065,"9":0.9024863243103027,"10":0.29068517684936523,"11":0.2837158441543579,"12":-0.21751117706298828,"13":-0.06705178320407867,"14":0.7193610668182373,"15":-0.6959139704704285,"16":-0.7594179511070251,"17":-0.7735466361045837,"18":0.5437412261962891,"19":0.277204304933548,"20":-0.12988197803497314,"21":-0.6910684704780579,"22":0.611706554889679,"23":-0.39963027834892273,"24":-0.5663697719573975,"25":-0.0795842856168747,"26":0.39182642102241516,"27":0.5593748688697815,"28":0.5013430118560791,"29":-0.1663501262664795,"30":-0.3325672447681427,"31":-1.119016170501709,"32":0.24928224086761475,"33":-1.1310592889785767,"34":-0.43495213985443115,"35":0.141127809882164,"36":-1.148268222808838,"37":0.230287104845047,"38":-0.3544432818889618,"39":0.020198555663228035,"40":-2.037623882293701,"41":0.07650472223758698,"42":0.6530395150184631,"43":0.03866845369338989,"44":-0.061998311430215836,"45":0.5709066390991211,"46":-1.5390925407409668,"47":0.46940046548843384,"48":0.38000011444091797,"49":0.027270173653960228,"50":-1.8481353521347046,"51":-0.2662102282047272,"52":-0.37202584743499756,"53":-0.11266431957483292,"54":-0.9477092027664185,"55":0.11873037368059158,"56":-0.008622722700238228,"57":-0.3870146572589874,"58":0.6310206651687622,"59":-0.082786925137043,"60":0.7778053879737854,"61":1.2128633260726929,"62":-0.058123357594013214,"63":0.4138871133327484,"64":-0.027447180822491646,"65":-0.6300352215766907,"66":-0.639072060585022,"67":1.2141729593276978,"68":1.3200188875198364,"69":0.6667826771736145,"70":-1.0036596059799194,"71":0.556059718132019,"72":-0.8180447816848755,"73":-0.7927835583686829,"74":-0.5045025944709778,"75":0.07156219333410263,"76":1.0928683280944824,"77":0.8383671641349792,"78":0.09597831964492798,"79":0.2941350042819977,"80":0.14686943590641022,"81":-0.6024989485740662,"82":-1.3897660970687866,"83":0.05599277839064598,"84":0.39230260252952576,"85":0.24944688379764557,"86":-0.21019205451011658,"87":0.05694360285997391,"88":-0.36158111691474915,"89":-1.29360830783844,"90":-0.16213254630565643,"91":1.2973871231079102,"92":-0.7772996425628662,"93":-1.301893949508667,"94":-0.954056978225708,"95":-0.2881094217300415,"96":1.4821521043777466,"97":-0.12545925378799438,"98":-0.74176424741745,"99":0.8038821816444397,"100":1.571075201034546,"101":-1.2950133085250854,"102":-1.0797752141952515,"103":0.8519973754882812,"104":0.47484517097473145,"105":-1.0420728921890259,"106":-0.8931080102920532,"107":-0.8409749269485474,"108":-0.041842926293611526,"109":-0.16618669033050537,"110":-0.5614191293716431,"111":1.514845848083496,"112":0.9361377954483032,"113":1.5604697465896606,"114":1.01033616065979,"115":1.6928930282592773,"116":-0.3769601285457611,"117":0.21084050834178925,"118":0.6858631372451782,"119":1.2678239345550537,"120":0.8895854949951172,"121":0.093380406498909,"122":-0.9529631733894348,"123":-1.1398074626922607,"124":0.41274362802505493,"125":0.3575573265552521,"126":1.303257942199707,"127":1.1866037845611572,"128":0.8085428476333618,"129":0.7779256701469421,"130":0.25119248032569885,"131":-0.5176101922988892,"132":-1.4548287391662598,"133":-1.2256789207458496,"134":1.7055608034133911,"135":0.9417850971221924,"136":1.0605545043945312,"137":-0.913211464881897,"138":-0.03753787651658058,"139":-0.7711349725723267,"140":-1.2165595293045044,"141":-0.554606020450592,"142":-0.2381623089313507,"143":0.5701797008514404,"144":-1.0484209060668945,"145":-0.1229323148727417,"146":0.05766281858086586,"147":-1.4344013929367065,"148":-0.6706169247627258,"149":0.5066272616386414,"150":0.6860182881355286,"151":-0.9820359945297241,"152":0.22371381521224976,"153":0.7340654730796814,"154":1.2581735849380493,"155":-0.03818470984697342,"156":-0.9819257855415344,"157":0.5350514054298401,"158":-0.20167362689971924,"159":-0.8173493146896362,"160":-0.2544603645801544,"161":0.08692999184131622,"162":-0.6176655292510986,"163":1.0829753875732422,"164":1.508231282234192,"165":1.8172545433044434,"166":-1.2393932342529297,"167":0.3161562979221344,"168":-0.8281518816947937,"169":-0.18583650887012482,"170":-1.018088459968567,"171":0.518135666847229,"172":1.743171215057373,"173":0.8877322673797607,"174":1.1056469678878784,"175":0.3248717784881592,"176":-0.36529383063316345,"177":-0.16168473660945892,"178":0.759768545627594,"179":-0.16864261031150818,"180":0.9091323018074036,"181":1.487396240234375,"182":-0.07960101217031479,"183":-0.3511718809604645,"184":-0.9301081895828247,"185":1.8493704795837402,"186":-0.335399329662323,"187":0.45741602778434753,"188":0.1571098119020462,"189":0.3567490577697754,"190":1.6870723962783813,"191":0.011289665475487709,"192":-0.0011673016706481576,"193":0.4438520669937134,"194":0.27484244108200073,"195":-0.5358400344848633,"196":-0.5495336055755615,"197":1.2196407318115234,"198":1.2360364198684692,"199":-0.8060728907585144,"200":0.6590539216995239,"201":-0.4561583995819092,"202":-0.6475162506103516,"203":-0.06737787276506424,"204":-0.868367612361908,"205":-2.2104439735412598,"206":-0.02018938958644867,"207":-0.46531394124031067,"208":0.29083237051963806,"209":-0.2406008243560791,"210":0.8557131290435791,"211":-1.1779251098632812,"212":-0.9989740252494812,"213":0.9620528221130371,"214":0.4289416968822479,"215":0.009986573830246925,"216":-0.1141946017742157,"217":-0.9375318288803101,"218":-0.8268032670021057,"219":0.34434327483177185,"220":-1.6818361282348633,"221":-1.6521855592727661,"222":-0.7778231501579285,"223":-0.4966077506542206,"224":-0.1646796017885208,"225":0.05497501417994499,"226":1.524191975593567,"227":1.1766976118087769,"228":0.9921537041664124,"229":1.0203936100006104,"230":0.40775588154792786,"231":0.7296019196510315,"232":-0.8759122490882874,"233":-0.6228795647621155,"234":-1.4677232503890991,"235":-0.39585721492767334,"236":-1.2830467224121094,"237":0.0580032542347908,"238":-0.825463056564331,"239":0.7640634775161743,"240":-0.8816871643066406,"241":1.648889422416687,"242":0.3106178939342499,"243":0.14186039566993713,"244":0.32189619541168213,"245":0.0077084871008992195,"246":1.530856728553772,"247":-0.577267050743103,"248":0.9042919874191284,"249":0.23952920734882355,"250":-0.7686194181442261,"251":-1.0552281141281128,"252":-0.27757835388183594,"253":-1.1797674894332886,"254":1.015304684638977,"255":-0.6310918927192688,"256":1.0485172271728516,"257":-0.03075619973242283,"258":-0.4299488067626953,"259":0.5500152707099915,"260":0.5937951803207397,"261":0.1062624603509903,"262":-0.43941932916641235,"263":0.865314245223999,"264":-0.5010338425636292,"265":-0.06494668126106262,"266":0.40261203050613403,"267":-0.24990171194076538,"268":0.8194198608398438,"269":1.0342975854873657,"270":0.07679616659879684,"271":0.4665635824203491}},"hiddenLayers":[{"inputMatrix":{"rows":20,"columns":16,"weights":{"0":0.10324884206056595,"1":-0.6345170736312866,"2":-0.5198661088943481,"3":-2.1636712551116943,"4":-2.1503634452819824,"5":-0.5059047341346741,"6":-0.23471078276634216,"7":-0.6573209166526794,"8":-0.14501437544822693,"9":-0.44530409574508667,"10":0.25094684958457947,"11":0.24159838259220123,"12":-1.079493522644043,"13":0.052082452923059464,"14":-1.3788974285125732,"15":-0.12899285554885864,"16":-0.7873926758766174,"17":-0.540503203868866,"18":0.7564802169799805,"19":0.15337686240673065,"20":0.01376628503203392,"21":1.9520918130874634,"22":0.2863394618034363,"23":-0.6050745248794556,"24":-0.9992630481719971,"25":-0.19613482058048248,"26":-0.4312800168991089,"27":1.1029733419418335,"28":-0.38112974166870117,"29":-0.19582687318325043,"30":0.2810509502887726,"31":-0.19857686758041382,"32":0.22767888009548187,"33":0.9902383685112,"34":-0.42339158058166504,"35":0.39580556750297546,"36":0.3613917827606201,"37":-0.19329479336738586,"38":-0.4313730001449585,"39":0.3782334625720978,"40":0.5672759413719177,"41":-0.7794898748397827,"42":-1.345588207244873,"43":-0.7058116793632507,"44":1.2609508037567139,"45":0.7217685580253601,"46":0.5518953204154968,"47":0.5522121787071228,"48":-0.39180734753608704,"49":-0.6996666789054871,"50":0.29671385884284973,"51":0.32351407408714294,"52":-0.7359316349029541,"53":-0.3861704468727112,"54":-0.0677461102604866,"55":0.5319850444793701,"56":-0.27356621623039246,"57":0.40605098009109497,"58":0.3245883882045746,"59":1.0604133605957031,"60":-0.43067845702171326,"61":0.5429815649986267,"62":-0.681082010269165,"63":-0.3952724039554596,"64":1.6188440322875977,"65":0.7847789525985718,"66":0.9901285767555237,"67":0.5791993141174316,"68":0.6857360005378723,"69":0.042472999542951584,"70":0.2614675760269165,"71":1.1562554836273193,"72":0.3661300539970398,"73":-0.7208435535430908,"74":-1.6087367534637451,"75":-0.905978262424469,"76":-0.7665287852287292,"77":-0.9461241960525513,"78":0.5614805221557617,"79":0.7932801842689514,"80":0.18007422983646393,"81":-0.2505907416343689,"82":-0.2943989634513855,"83":-0.3523952066898346,"84":-0.393025666475296,"85":0.9828982353210449,"86":-0.42508772015571594,"87":0.07885245233774185,"88":-0.8875879049301147,"89":0.22882387042045593,"90":-0.8918610215187073,"91":0.4557456970214844,"92":-0.4349763095378876,"93":-0.45467129349708557,"94":-0.019262732937932014,"95":0.3320080637931824,"96":-0.8258498311042786,"97":-0.49367135763168335,"98":1.1097102165222168,"99":-0.2736894488334656,"100":-0.04709070175886154,"101":0.4683768153190613,"102":0.966968297958374,"103":-0.31121206283569336,"104":-0.2918681204319,"105":0.04250173643231392,"106":-0.7141026258468628,"107":0.6344149112701416,"108":0.0670446828007698,"109":-0.3404024541378021,"110":-0.08487798273563385,"111":-0.19391575455665588,"112":-0.24661973118782043,"113":0.9800537824630737,"114":1.0502828359603882,"115":-0.5341448187828064,"116":-0.9597850441932678,"117":-0.2643420398235321,"118":1.5263291597366333,"119":-0.380119264125824,"120":1.1519147157669067,"121":0.15789799392223358,"122":-0.7192352414131165,"123":-0.9892076849937439,"124":-0.2205803543329239,"125":-0.731381356716156,"126":-0.10459719598293304,"127":-0.7030046582221985,"128":2.1075997352600098,"129":0.18458332121372223,"130":0.1816355139017105,"131":0.6444248557090759,"132":-0.005390900187194347,"133":-1.2242767810821533,"134":-0.11514447629451752,"135":1.2142351865768433,"136":0.1082826554775238,"137":0.45654740929603577,"138":0.7953691482543945,"139":-0.9992374777793884,"140":0.08336261659860611,"141":0.8974493741989136,"142":-0.1903926581144333,"143":1.1410287618637085,"144":0.5933705568313599,"145":0.8043783903121948,"146":0.1912112981081009,"147":0.8113206624984741,"148":0.4815931022167206,"149":-0.15330728888511658,"150":0.2722223103046417,"151":0.18013274669647217,"152":0.5716372728347778,"153":-0.47596508264541626,"154":-1.0369172096252441,"155":-1.3100553750991821,"156":0.25989261269569397,"157":0.013225924223661423,"158":-0.4030637741088867,"159":0.9943571090698242,"160":-0.6304645538330078,"161":-0.5343544483184814,"162":0.4018422067165375,"163":-0.06645195186138153,"164":-0.5813376903533936,"165":1.1630505323410034,"166":0.556002140045166,"167":-0.7660120129585266,"168":-0.9652607440948486,"169":-1.0086827278137207,"170":-0.7505104541778564,"171":0.9595898985862732,"172":-0.9874194860458374,"173":-0.7000949382781982,"174":-1.5489392280578613,"175":-0.6503652334213257,"176":-0.8118737936019897,"177":-0.31780511140823364,"178":0.5545880794525146,"179":0.4461267292499542,"180":-0.11876197904348373,"181":1.1834144592285156,"182":0.3531581163406372,"183":-1.1632089614868164,"184":-0.7824974060058594,"185":0.19994483888149261,"186":-1.1400395631790161,"187":-0.10649434477090836,"188":-1.1449464559555054,"189":-0.30489858984947205,"190":-1.0427898168563843,"191":-0.7478465437889099,"192":0.11838363856077194,"193":0.6617690324783325,"194":1.7048523426055908,"195":0.910036027431488,"196":0.6203932762145996,"197":0.059466972947120667,"198":0.9270676374435425,"199":0.4450626075267792,"200":0.5887491106987,"201":0.03169148787856102,"202":-0.592609167098999,"203":-0.009994235821068287,"204":-0.8440475463867188,"205":-0.9585312008857727,"206":0.43141797184944153,"207":-0.06533230096101761,"208":0.9727590680122375,"209":0.34959331154823303,"210":-0.5596937537193298,"211":1.0223627090454102,"212":0.24541962146759033,"213":0.2759130001068115,"214":-1.2323960065841675,"215":0.8452907800674438,"216":-0.18852049112319946,"217":0.23821569979190826,"218":-0.36064037680625916,"219":-0.20483435690402985,"220":1.1698964834213257,"221":1.7744827270507812,"222":0.48862412571907043,"223":1.0716477632522583,"224":0.1006426215171814,"225":-0.8475423455238342,"226":-0.570713460445404,"227":-0.42637529969215393,"228":1.3304998874664307,"229":0.7934077978134155,"230":-0.9122996926307678,"231":0.13397224247455597,"232":-0.29274052381515503,"233":0.10331389307975769,"234":0.0336499959230423,"235":0.1546037793159485,"236":-0.04631038010120392,"237":-0.4710114896297455,"238":-0.13030999898910522,"239":0.277977854013443,"240":-0.20504428446292877,"241":0.6143116354942322,"242":-0.4865552484989166,"243":-0.548389732837677,"244":0.19107453525066376,"245":0.3742329180240631,"246":0.34556344151496887,"247":-0.49015143513679504,"248":0.17491957545280457,"249":0.4744050204753876,"250":0.025022463873028755,"251":-0.25240397453308105,"252":0.013303578831255436,"253":-0.2749606668949127,"254":-0.13264591991901398,"255":-0.25451382994651794,"256":-0.6101926565170288,"257":-0.2922384440898895,"258":0.6076706051826477,"259":-0.21084317564964294,"260":-0.6587873101234436,"261":0.8023259043693542,"262":0.5762019753456116,"263":-0.8526430130004883,"264":-1.182905673980713,"265":1.0527479648590088,"266":0.25402992963790894,"267":-0.027884986251592636,"268":-0.8018270134925842,"269":0.24538885056972504,"270":-0.34203341603279114,"271":-0.571994423866272,"272":0.8858730792999268,"273":0.3878987729549408,"274":0.26770102977752686,"275":1.1488184928894043,"276":0.8094704151153564,"277":-0.47181078791618347,"278":-0.44046056270599365,"279":1.3603986501693726,"280":-0.054456207901239395,"281":-0.34705913066864014,"282":-1.0989511013031006,"283":-0.5463287234306335,"284":0.8403476476669312,"285":1.012138843536377,"286":0.5700430870056152,"287":0.6311315298080444,"288":-0.13595670461654663,"289":-0.22763948142528534,"290":-1.5995903015136719,"291":0.05457974225282669,"292":0.5940756797790527,"293":-0.6492988467216492,"294":-1.3107846975326538,"295":0.08572311699390411,"296":-0.019054284319281578,"297":-1.0338256359100342,"298":-0.20755739510059357,"299":-0.2844279706478119,"300":1.504359483718872,"301":0.626103937625885,"302":-0.19039827585220337,"303":0.10048732161521912,"304":-0.25692880153656006,"305":-0.7687975168228149,"306":0.7388438582420349,"307":0.44662046432495117,"308":-0.6147897839546204,"309":-0.7436978220939636,"310":-0.3930489718914032,"311":0.45934903621673584,"312":-1.093751072883606,"313":0.2334555983543396,"314":1.130199670791626,"315":-0.00007143217953853309,"316":0.007845736108720303,"317":0.5830211639404297,"318":-0.8856617212295532,"319":-0.04870162531733513}},"inputHidden":{"rows":20,"columns":20,"weights":{"0":1.1519536972045898,"1":-0.760947048664093,"2":1.3549772500991821,"3":0.19118964672088623,"4":-0.42299726605415344,"5":0.27504491806030273,"6":0.1533747911453247,"7":0.7909020185470581,"8":0.008825767785310745,"9":-0.4668583571910858,"10":-0.16434313356876373,"11":0.3218645453453064,"12":1.3301031589508057,"13":1.2889007329940796,"14":-1.191943645477295,"15":0.6250786185264587,"16":0.1807081252336502,"17":0.7113928198814392,"18":1.5472476482391357,"19":-0.45493194460868835,"20":0.8989197611808777,"21":-0.7002795338630676,"22":-0.9025328755378723,"23":-1.4725395441055298,"24":1.4658342599868774,"25":-0.9591034054756165,"26":-0.030529797077178955,"27":0.9272587895393372,"28":0.7883233428001404,"29":-0.9749528169631958,"30":0.11832080781459808,"31":0.3293006718158722,"32":-0.12024959176778793,"33":1.1275674104690552,"34":0.42346927523612976,"35":-1.4909504652023315,"36":-0.5776866674423218,"37":-0.9243202805519104,"38":0.396022230386734,"39":1.1462405920028687,"40":0.12736783921718597,"41":0.9366976618766785,"42":0.17149055004119873,"43":0.538148820400238,"44":0.3608427941799164,"45":-1.1754133701324463,"46":-0.08064959943294525,"47":1.1364666223526,"48":1.0256102085113525,"49":1.5125547647476196,"50":0.49697333574295044,"51":1.072069525718689,"52":0.33135345578193665,"53":1.1534643173217773,"54":0.7949974536895752,"55":-0.9649128317832947,"56":-0.39293789863586426,"57":-0.05966085568070412,"58":-0.11083652824163437,"59":0.0874437689781189,"60":-1.9404608011245728,"61":0.8718993067741394,"62":-0.7872085571289062,"63":1.3875412940979004,"64":0.22277846932411194,"65":-0.06227794662117958,"66":0.1675349771976471,"67":-0.1818021833896637,"68":0.21436402201652527,"69":-1.043066382408142,"70":0.4764920473098755,"71":-1.1530548334121704,"72":-1.3549654483795166,"73":0.6849371194839478,"74":0.21320001780986786,"75":0.10524109750986099,"76":-0.15859955549240112,"77":-2.7954330444335938,"78":-1.1171610355377197,"79":0.3019409477710724,"80":0.16303029656410217,"81":-0.15093660354614258,"82":0.5157303214073181,"83":-1.5686453580856323,"84":-2.1077685356140137,"85":-0.3929128646850586,"86":0.07366905361413956,"87":-0.20753298699855804,"88":-1.7013280391693115,"89":-1.0573891401290894,"90":-0.7965729832649231,"91":-0.12065103650093079,"92":-1.0126844644546509,"93":-0.593956708908081,"94":1.0712080001831055,"95":0.19480572640895844,"96":0.40229636430740356,"97":-0.58537757396698,"98":-0.16368618607521057,"99":0.5240068435668945,"100":1.2459596395492554,"101":-1.9693793058395386,"102":-0.15730854868888855,"103":-1.132464051246643,"104":0.1882610023021698,"105":0.29346930980682373,"106":-0.7351571917533875,"107":0.862550675868988,"108":0.6747715473175049,"109":-1.3358123302459717,"110":-1.0892776250839233,"111":0.4364103376865387,"112":0.9432996511459351,"113":0.5991674065589905,"114":-1.8316538333892822,"115":0.0959639698266983,"116":-0.5406550765037537,"117":0.22800195217132568,"118":0.41356566548347473,"119":1.5933914184570312,"120":-0.4799903929233551,"121":-0.5915126800537109,"122":-0.6455056071281433,"123":-0.6926383972167969,"124":0.06173837557435036,"125":1.466722846031189,"126":-0.43319711089134216,"127":0.5203021168708801,"128":-0.4869636297225952,"129":-1.3145544528961182,"130":0.6506670117378235,"131":-0.2571246325969696,"132":-0.6873087882995605,"133":-0.650147020816803,"134":0.3317466676235199,"135":-0.7700657248497009,"136":0.6613180041313171,"137":-1.6464011669158936,"138":-0.9896337985992432,"139":1.1183335781097412,"140":-0.18135632574558258,"141":0.29070478677749634,"142":0.3211801052093506,"143":1.5124422311782837,"144":0.34987637400627136,"145":1.4408127069473267,"146":1.3057893514633179,"147":-0.2770712673664093,"148":0.31011471152305603,"149":0.022945355623960495,"150":0.5200375318527222,"151":-0.38188105821609497,"152":0.08184809237718582,"153":0.4340454936027527,"154":-0.9051583409309387,"155":-0.34124404191970825,"156":0.10614803433418274,"157":-0.13763092458248138,"158":0.15855786204338074,"159":-1.3542665243148804,"160":0.2909584939479828,"161":0.008653402328491211,"162":-0.19265207648277283,"163":-0.407079815864563,"164":0.793476402759552,"165":-1.0301684141159058,"166":0.2474507838487625,"167":-0.06884171068668365,"168":0.1434376835823059,"169":-1.1805298328399658,"170":-0.11906777322292328,"171":0.1123996153473854,"172":-0.61457759141922,"173":0.08446916937828064,"174":0.3807980418205261,"175":-0.3313152492046356,"176":-1.1854196786880493,"177":0.33497118949890137,"178":0.8874282836914062,"179":0.5112260580062866,"180":1.3933265209197998,"181":-1.6325260400772095,"182":0.11789882183074951,"183":-0.6588113903999329,"184":0.8588275909423828,"185":-0.7747339606285095,"186":-0.8976971507072449,"187":-0.41143524646759033,"188":0.25444239377975464,"189":-1.8295069932937622,"190":0.23865550756454468,"191":0.26641902327537537,"192":0.036051567643880844,"193":-0.7848829627037048,"194":-0.06182561814785004,"195":-0.9022939205169678,"196":-0.368100643157959,"197":-0.49211230874061584,"198":0.25254079699516296,"199":0.1889447271823883,"200":-0.8872092962265015,"201":0.7961152791976929,"202":-0.25396987795829773,"203":-0.2570388615131378,"204":0.6039326190948486,"205":-0.049381837248802185,"206":-0.6924116015434265,"207":-0.5557965040206909,"208":1.0868338346481323,"209":-0.26141640543937683,"210":0.7479436993598938,"211":0.5526192784309387,"212":0.28269684314727783,"213":0.17489871382713318,"214":0.6043932437896729,"215":-0.9680277705192566,"216":-0.3041180968284607,"217":-0.26011520624160767,"218":-0.1289527714252472,"219":0.9945120811462402,"220":-0.2248348891735077,"221":-0.9740034937858582,"222":-0.23207250237464905,"223":-0.9970564246177673,"224":-0.21832989156246185,"225":1.0167313814163208,"226":-0.43316856026649475,"227":0.20024673640727997,"228":-0.4528700113296509,"229":-0.9958981275558472,"230":-0.053911447525024414,"231":-0.49609217047691345,"232":0.2739170491695404,"233":-0.44699615240097046,"234":-0.12884050607681274,"235":1.1374549865722656,"236":0.6806047558784485,"237":-0.8055930733680725,"238":-0.104385606944561,"239":0.48553335666656494,"240":-0.09315776824951172,"241":0.6279435753822327,"242":0.11122681945562363,"243":0.43194207549095154,"244":0.46619555354118347,"245":0.041919976472854614,"246":0.027099065482616425,"247":-0.6481454968452454,"248":0.7215322256088257,"249":0.6496400833129883,"250":1.2568304538726807,"251":-0.29763495922088623,"252":-1.3315200805664062,"253":-0.802700936794281,"254":0.9906497001647949,"255":-0.3912668824195862,"256":0.7796986103057861,"257":-2.1407268047332764,"258":-0.9688487648963928,"259":1.27934992313385,"260":1.593982458114624,"261":-0.14508700370788574,"262":1.2885551452636719,"263":-0.7510256767272949,"264":0.2763805389404297,"265":-0.20751219987869263,"266":-0.7790841460227966,"267":1.5161986351013184,"268":0.13148675858974457,"269":1.0335667133331299,"270":-0.4367198050022125,"271":0.38877323269844055,"272":0.2768828272819519,"273":-0.095472052693367,"274":-0.9142833352088928,"275":0.9704909324645996,"276":1.0911548137664795,"277":0.36332935094833374,"278":0.23292994499206543,"279":0.32290026545524597,"280":0.17243759334087372,"281":0.205252006649971,"282":1.138655185699463,"283":-1.6190065145492554,"284":0.45289772748947144,"285":-0.8548612594604492,"286":-0.5618640184402466,"287":0.7620745301246643,"288":-0.5000113248825073,"289":0.11218423396348953,"290":-0.9058728814125061,"291":0.4540635943412781,"292":0.21561908721923828,"293":-1.0672248601913452,"294":0.6194058060646057,"295":-0.5295299291610718,"296":0.27662381529808044,"297":0.28218337893486023,"298":0.38430842757225037,"299":0.5271633863449097,"300":-0.37705186009407043,"301":0.7117824554443359,"302":-0.8793020844459534,"303":0.5224468111991882,"304":-0.7475986480712891,"305":-0.24137566983699799,"306":0.8896551132202148,"307":-0.26517951488494873,"308":-0.9636471271514893,"309":-1.875930905342102,"310":0.3398418724536896,"311":-1.4364871978759766,"312":-0.7926687598228455,"313":-0.6967893838882446,"314":0.9030083417892456,"315":0.31977295875549316,"316":0.350015252828598,"317":-3.2826101779937744,"318":-1.7195087671279907,"319":0.06278297305107117,"320":0.9552010893821716,"321":-0.42951226234436035,"322":0.15114280581474304,"323":-0.2328457087278366,"324":-2.588629961013794,"325":0.04358263686299324,"326":0.27419835329055786,"327":0.7057653069496155,"328":-0.607846736907959,"329":-0.7405968904495239,"330":-0.202529177069664,"331":-0.3641728460788727,"332":-0.06442531198263168,"333":-0.15703248977661133,"334":-0.16058915853500366,"335":0.499870628118515,"336":0.350136935710907,"337":-0.7358477115631104,"338":-0.5119532346725464,"339":0.4169834554195404,"340":-0.6391705274581909,"341":0.7518343329429626,"342":-0.6458464860916138,"343":-1.047790288925171,"344":-0.7041502594947815,"345":-0.07805604487657547,"346":-0.8376345038414001,"347":0.27298563718795776,"348":0.2575761079788208,"349":1.0479153394699097,"350":-0.5710850358009338,"351":0.7081840634346008,"352":-0.004588112700730562,"353":-1.0507628917694092,"354":0.793578565120697,"355":-0.9341405630111694,"356":-0.2865849435329437,"357":-0.4274101257324219,"358":-1.1828703880310059,"359":0.3713754117488861,"360":0.03258197009563446,"361":-0.4087883234024048,"362":0.12616662681102753,"363":1.0029222965240479,"364":0.3800021708011627,"365":-0.05031436309218407,"366":0.2331329733133316,"367":0.3858318328857422,"368":1.2655565738677979,"369":0.9384538531303406,"370":-0.4264715313911438,"371":0.920423686504364,"372":0.09905342757701874,"373":-0.08776804804801941,"374":0.2984240651130676,"375":-0.6544056534767151,"376":0.261835515499115,"377":-0.22584593296051025,"378":-0.3402821123600006,"379":1.0896652936935425,"380":0.30581727623939514,"381":0.16048525273799896,"382":-1.3390161991119385,"383":-0.3011384904384613,"384":1.2908614873886108,"385":0.012736322358250618,"386":1.1366183757781982,"387":0.09486262500286102,"388":-1.1892495155334473,"389":-1.1117193698883057,"390":1.3351835012435913,"391":-1.1198152303695679,"392":-1.1634942293167114,"393":1.0972390174865723,"394":0.3006556034088135,"395":-0.25739920139312744,"396":0.14947587251663208,"397":-1.913320779800415,"398":-0.9010834097862244,"399":-0.17567458748817444}},"inputBias":{"rows":20,"columns":1,"weights":{"0":-0.5868440270423889,"1":-0.22963032126426697,"2":-0.9555515050888062,"3":0.8603204488754272,"4":-1.039203405380249,"5":0.49582844972610474,"6":-0.8713483810424805,"7":-0.7654002904891968,"8":0.6736617684364319,"9":-1.248512625694275,"10":-0.7933747172355652,"11":-1.0587011575698853,"12":1.4669109582901,"13":1.0436251163482666,"14":0.23253707587718964,"15":-1.3615760803222656,"16":0.629375696182251,"17":-0.19807562232017517,"18":0.16874688863754272,"19":1.1516423225402832}},"forgetMatrix":{"rows":20,"columns":16,"weights":{"0":1.3307374715805054,"1":0.5849368572235107,"2":0.30433735251426697,"3":0.8880003094673157,"4":0.6153623461723328,"5":0.1992003321647644,"6":-0.5871967673301697,"7":1.3547176122665405,"8":0.05408719554543495,"9":0.5952886343002319,"10":0.0792340636253357,"11":-1.0616645812988281,"12":0.07989262789487839,"13":0.42559871077537537,"14":0.19335730373859406,"15":1.1289360523223877,"16":-0.6978427171707153,"17":0.46247315406799316,"18":1.0378721952438354,"19":0.2820914387702942,"20":-0.6438314318656921,"21":0.2117481380701065,"22":0.7535446882247925,"23":0.017220862209796906,"24":-0.4544714391231537,"25":0.14777123928070068,"26":-0.19592846930027008,"27":0.13387632369995117,"28":-0.28654855489730835,"29":0.462873637676239,"30":0.12995684146881104,"31":-0.12777909636497498,"32":-0.667020320892334,"33":-0.10985138267278671,"34":0.15202035009860992,"35":-0.4028562605381012,"36":0.06291580945253372,"37":1.1503962278366089,"38":0.8376731276512146,"39":-0.43392619490623474,"40":-0.5009196400642395,"41":0.7528305053710938,"42":0.08257944881916046,"43":0.2917928397655487,"44":-0.5965468883514404,"45":0.024985438212752342,"46":0.1801171451807022,"47":-0.572808563709259,"48":0.13509447872638702,"49":-0.5329450368881226,"50":0.8749263286590576,"51":-0.6057108640670776,"52":-1.081615924835205,"53":0.11007455736398697,"54":1.561679720878601,"55":0.3407640755176544,"56":0.3975277543067932,"57":-1.0596848726272583,"58":-1.3492252826690674,"59":0.08369381725788116,"60":-2.2540996074676514,"61":-0.9632894396781921,"62":-1.095292091369629,"63":0.5214260220527649,"64":-0.132253959774971,"65":0.16031406819820404,"66":1.5724021196365356,"67":-0.9748843908309937,"68":-1.8004227876663208,"69":0.06337781995534897,"70":1.8521878719329834,"71":0.6036511659622192,"72":1.0165265798568726,"73":-0.1595660001039505,"74":-0.8121047616004944,"75":-0.08634188771247864,"76":-1.0521867275238037,"77":-0.2701292932033539,"78":-0.35737788677215576,"79":0.02168154902756214,"80":-1.2009423971176147,"81":-0.09384090453386307,"82":-1.1310478448867798,"83":-0.01792362704873085,"84":-0.1493847668170929,"85":-0.08456826210021973,"86":-0.12672989070415497,"87":-0.6036532521247864,"88":0.7630345225334167,"89":-0.4588139057159424,"90":-0.021953247487545013,"91":-0.005133640952408314,"92":0.06685619056224823,"93":-0.1296153962612152,"94":-0.3860180974006653,"95":-0.5455772876739502,"96":-1.3693420886993408,"97":-0.47063925862312317,"98":0.8608433604240417,"99":-0.6060248613357544,"100":-1.0987427234649658,"101":0.7452836632728577,"102":0.9980180263519287,"103":-1.293635368347168,"104":-0.4933570921421051,"105":-0.1199868768453598,"106":-0.659844160079956,"107":0.4713217318058014,"108":-1.1639577150344849,"109":-0.7727189064025879,"110":-0.10257574915885925,"111":-1.2164356708526611,"112":0.6694055199623108,"113":-1.1463053226470947,"114":-0.24763481318950653,"115":-0.14296482503414154,"116":-0.40862521529197693,"117":-0.9978365898132324,"118":-0.5859240293502808,"119":0.5283800959587097,"120":-0.9118831753730774,"121":-0.44426336884498596,"122":0.3976493775844574,"123":0.4716624617576599,"124":-0.4664790630340576,"125":0.05500512197613716,"126":-0.6793387532234192,"127":0.4169776737689972,"128":0.188589408993721,"129":1.0822025537490845,"130":0.6197466254234314,"131":1.4978166818618774,"132":1.1319388151168823,"133":0.40610218048095703,"134":0.11539997905492783,"135":1.052329182624817,"136":0.6798092722892761,"137":0.5777962803840637,"138":-1.0913300514221191,"139":-0.025416042655706406,"140":0.290234237909317,"141":-0.2573249340057373,"142":1.2474744319915771,"143":1.218774676322937,"144":0.1708100438117981,"145":0.30063942074775696,"146":0.32585620880126953,"147":-0.40806907415390015,"148":-0.13823707401752472,"149":0.9777697324752808,"150":0.12905503809452057,"151":-0.004457736387848854,"152":-0.5551661252975464,"153":2.0549893379211426,"154":1.5854679346084595,"155":0.6992980241775513,"156":0.27144014835357666,"157":1.0597021579742432,"158":1.3627125024795532,"159":-0.2180429995059967,"160":-0.7099427580833435,"161":-0.7283892631530762,"162":0.037456024438142776,"163":0.09514372050762177,"164":-0.3158360719680786,"165":0.8251271843910217,"166":0.33912771940231323,"167":-0.23415285348892212,"168":-0.7800757884979248,"169":-0.8348420262336731,"170":-0.17802254855632782,"171":0.7581208944320679,"172":-0.11071016639471054,"173":-0.45309725403785706,"174":-0.8290227651596069,"175":-0.9026396870613098,"176":-0.1365908831357956,"177":0.2175918072462082,"178":0.2445240020751953,"179":-0.17686061561107635,"180":-0.2478484958410263,"181":-0.6394075751304626,"182":1.023040771484375,"183":0.1997641772031784,"184":0.9050880074501038,"185":-0.8856507539749146,"186":-0.15416623651981354,"187":-0.009366276673972607,"188":-1.1230422258377075,"189":-1.1173782348632812,"190":-0.458384245634079,"191":-0.2718118131160736,"192":-0.7447302937507629,"193":0.5986707806587219,"194":0.5065726637840271,"195":0.24841976165771484,"196":-0.5470026135444641,"197":-0.05406218394637108,"198":1.7324806451797485,"199":-0.3835248053073883,"200":1.3112962245941162,"201":0.09148557484149933,"202":-0.5084648728370667,"203":-0.3518790900707245,"204":-0.7624091506004333,"205":-0.6742867231369019,"206":0.9581963419914246,"207":-0.8254125118255615,"208":-0.5616108179092407,"209":-1.8596129417419434,"210":1.0782380104064941,"211":-0.7702909708023071,"212":-0.4446294605731964,"213":0.4436032176017761,"214":-0.10211573541164398,"215":-0.6582854390144348,"216":-1.1193667650222778,"217":0.7448298335075378,"218":0.9790294766426086,"219":0.2734889090061188,"220":-0.7790286540985107,"221":0.5425924062728882,"222":-1.474866509437561,"223":-0.36360305547714233,"224":0.06849388033151627,"225":0.26893851161003113,"226":-0.020783891901373863,"227":0.27125224471092224,"228":0.44529959559440613,"229":0.11857548356056213,"230":0.3228085935115814,"231":-0.32203930616378784,"232":0.528529167175293,"233":0.48689278960227966,"234":-0.1147463247179985,"235":-0.5338596105575562,"236":-0.26470452547073364,"237":0.05536361783742905,"238":0.5051708817481995,"239":0.34776461124420166,"240":-0.9371875524520874,"241":0.28533077239990234,"242":0.6361602544784546,"243":-0.5319657921791077,"244":0.15411317348480225,"245":0.5449970364570618,"246":1.0146074295043945,"247":-0.5207006931304932,"248":0.2026679366827011,"249":-0.0987812951207161,"250":-0.05776123329997063,"251":-0.1924632340669632,"252":-2.116495370864868,"253":-0.8203328847885132,"254":-0.16896861791610718,"255":-0.4406748116016388,"256":0.4114059805870056,"257":0.44713306427001953,"258":1.053168773651123,"259":1.3424456119537354,"260":0.8106617331504822,"261":0.13238348066806793,"262":-0.36288610100746155,"263":1.3617945909500122,"264":-0.09389305114746094,"265":0.9124090671539307,"266":0.20918866991996765,"267":-0.16005435585975647,"268":0.19506247341632843,"269":-0.5348933935165405,"270":0.6120137572288513,"271":-0.12715335190296173,"272":-1.6492114067077637,"273":-0.48105597496032715,"274":-0.164051353931427,"275":-0.35210710763931274,"276":0.8299770951271057,"277":1.2298411130905151,"278":-0.013993686996400356,"279":-0.976894199848175,"280":0.061911337077617645,"281":0.16710679233074188,"282":-0.4685228765010834,"283":1.1965477466583252,"284":0.08930151909589767,"285":0.14306242763996124,"286":0.3168938457965851,"287":-1.3455908298492432,"288":-1.6989184617996216,"289":-0.23403342068195343,"290":0.42010852694511414,"291":-1.001849889755249,"292":0.24899473786354065,"293":0.21178577840328217,"294":0.8220635652542114,"295":-1.5105302333831787,"296":-0.03255967050790787,"297":-0.41857263445854187,"298":-0.6544299721717834,"299":0.6511182188987732,"300":-0.9590694308280945,"301":-0.7547212243080139,"302":-0.1287078708410263,"303":-1.5580095052719116,"304":1.0420132875442505,"305":-0.3494039475917816,"306":-0.6524747610092163,"307":0.20733040571212769,"308":-0.27455589175224304,"309":0.2359195500612259,"310":-0.08176396042108536,"311":0.8164953589439392,"312":-0.050352588295936584,"313":-0.6200667023658752,"314":-0.6618354320526123,"315":0.4684065580368042,"316":-0.4444524645805359,"317":-0.004751834087073803,"318":-0.34656843543052673,"319":1.494450330734253}},"forgetHidden":{"rows":20,"columns":20,"weights":{"0":0.6209116578102112,"1":0.31050336360931396,"2":-0.002003571717068553,"3":0.22273588180541992,"4":-0.423230916261673,"5":0.3465312719345093,"6":-0.5974206924438477,"7":-0.37982475757598877,"8":-0.8321934938430786,"9":-1.5196692943572998,"10":0.5637733936309814,"11":-0.9868437647819519,"12":-1.1558986902236938,"13":-0.04684588313102722,"14":0.7740421295166016,"15":0.19525618851184845,"16":0.09418739378452301,"17":-0.5385013818740845,"18":-0.18516406416893005,"19":0.03376755118370056,"20":-0.9595875144004822,"21":0.3747975826263428,"22":-0.6244286298751831,"23":0.8520820736885071,"24":-0.9560036063194275,"25":1.420044183731079,"26":0.171448215842247,"27":-0.5035355687141418,"28":-0.6519975662231445,"29":-1.6668063402175903,"30":0.7602782845497131,"31":-0.6927073001861572,"32":0.8936811089515686,"33":-1.5703275203704834,"34":0.05881096050143242,"35":0.23565061390399933,"36":-0.6287636160850525,"37":-0.7301018834114075,"38":-1.1707712411880493,"39":-0.21056239306926727,"40":-0.20881302654743195,"41":0.5348950028419495,"42":-0.9010091423988342,"43":0.6580913066864014,"44":-1.3460065126419067,"45":0.6938932538032532,"46":0.3151684105396271,"47":0.05106768384575844,"48":-0.09155057370662689,"49":-0.7578234076499939,"50":0.11264568567276001,"51":-1.2905523777008057,"52":-1.5676571130752563,"53":-1.4055068492889404,"54":0.8725946545600891,"55":1.3466676473617554,"56":0.6405190229415894,"57":-1.724557638168335,"58":-0.9814318418502808,"59":0.3742111921310425,"60":0.17209166288375854,"61":-1.1287689208984375,"62":-0.12290036678314209,"63":-0.023559482768177986,"64":0.34138578176498413,"65":0.23924070596694946,"66":-0.4749150574207306,"67":0.0861176997423172,"68":-1.003246784210205,"69":-0.2255527377128601,"70":-0.23653964698314667,"71":0.22519688308238983,"72":0.49390551447868347,"73":-1.0477522611618042,"74":-0.4483770430088043,"75":-0.13355599343776703,"76":0.21317648887634277,"77":0.14552974700927734,"78":0.5586246848106384,"79":0.7748815417289734,"80":-0.7561556100845337,"81":-0.12989269196987152,"82":0.4418398439884186,"83":-0.5280095338821411,"84":-0.5724606513977051,"85":0.19426068663597107,"86":-0.6441404223442078,"87":-1.0463653802871704,"88":0.6396599411964417,"89":0.45064592361450195,"90":-0.71356600522995,"91":-0.025264503434300423,"92":-0.10833603143692017,"93":-0.3632548153400421,"94":0.21411894261837006,"95":0.7083424925804138,"96":0.36269694566726685,"97":0.6647903323173523,"98":0.46988996863365173,"99":0.10007721185684204,"100":0.08776247501373291,"101":1.6021625995635986,"102":-0.01608991250395775,"103":0.5712616443634033,"104":-0.6862193942070007,"105":-0.5921414494514465,"106":-0.29894310235977173,"107":-0.1761549413204193,"108":0.41087400913238525,"109":0.11811327934265137,"110":1.1356693506240845,"111":-0.5523591041564941,"112":-1.2981537580490112,"113":-0.1711186021566391,"114":1.2758959531784058,"115":0.6246578097343445,"116":0.7166662812232971,"117":-1.0760645866394043,"118":-0.7057368755340576,"119":0.5647456049919128,"120":-0.08649555593729019,"121":0.4674178957939148,"122":0.012990339659154415,"123":-0.4390677213668823,"124":-0.22049202024936676,"125":0.4701494872570038,"126":-0.15696817636489868,"127":0.4128391146659851,"128":0.08931845426559448,"129":-0.3988276720046997,"130":0.030956240370869637,"131":-0.4225085973739624,"132":-0.21630723774433136,"133":-0.3776818513870239,"134":-0.10585463047027588,"135":0.47538241744041443,"136":0.2855161726474762,"137":-0.5193900465965271,"138":-0.10881544649600983,"139":0.48503416776657104,"140":-0.13894297182559967,"141":0.22994020581245422,"142":0.01870206743478775,"143":-0.8529738783836365,"144":-0.28158435225486755,"145":0.4953485429286957,"146":0.07443762570619583,"147":0.21194687485694885,"148":0.028940947726368904,"149":-0.01008557714521885,"150":0.24334906041622162,"151":0.03134749084711075,"152":-0.3221094012260437,"153":0.160658061504364,"154":0.726691722869873,"155":0.39404821395874023,"156":0.6293815970420837,"157":-0.41034799814224243,"158":-0.07696326822042465,"159":-0.03564370051026344,"160":0.4708496034145355,"161":-1.0767868757247925,"162":0.04336971789598465,"163":-0.18058684468269348,"164":-0.9196597933769226,"165":0.19325903058052063,"166":-0.17865042388439178,"167":-0.5329304337501526,"168":-0.95073002576828,"169":-1.4366050958633423,"170":-0.8698039054870605,"171":-1.1023731231689453,"172":-0.41835498809814453,"173":-0.24874837696552277,"174":1.2666815519332886,"175":0.3754276633262634,"176":-0.4356779456138611,"177":-1.3009281158447266,"178":-0.42507854104042053,"179":0.5106369256973267,"180":1.1846051216125488,"181":-0.3032778799533844,"182":0.2637117803096771,"183":0.1276715248823166,"184":0.2646094560623169,"185":0.26638856530189514,"186":0.047167520970106125,"187":0.2522365152835846,"188":-1.0050792694091797,"189":-1.1999346017837524,"190":-0.03137385472655296,"191":-0.04130839183926582,"192":0.20204859972000122,"193":-0.8022666573524475,"194":0.825078010559082,"195":-1.0366921424865723,"196":-0.5697135329246521,"197":-0.4641576409339905,"198":-0.3470955193042755,"199":-0.4240396022796631,"200":-0.07317409664392471,"201":0.2740451991558075,"202":0.21193867921829224,"203":-0.4204736053943634,"204":-0.8342732191085815,"205":0.8405041098594666,"206":-0.5845718383789062,"207":-0.23545081913471222,"208":0.5776273608207703,"209":-0.16399364173412323,"210":0.014902304857969284,"211":0.0004568999574985355,"212":0.3194583058357239,"213":-1.1832940578460693,"214":0.11904104053974152,"215":0.8732698559761047,"216":0.09497024863958359,"217":-0.14036038517951965,"218":-0.13480089604854584,"219":0.6889524459838867,"220":-0.8729339241981506,"221":1.2902804613113403,"222":-0.8645702600479126,"223":0.6902141571044922,"224":-0.30116626620292664,"225":0.4336896240711212,"226":0.6134997606277466,"227":0.06280067563056946,"228":-0.9298887848854065,"229":-0.3977057933807373,"230":0.37787100672721863,"231":-0.8141194581985474,"232":-1.0151031017303467,"233":-0.6104312539100647,"234":0.691055953502655,"235":-0.24256430566310883,"236":-0.19323301315307617,"237":-0.44594910740852356,"238":-1.213050365447998,"239":-0.4175019860267639,"240":-0.5159949064254761,"241":1.3434194326400757,"242":-0.19168314337730408,"243":-0.544402539730072,"244":-0.5367341041564941,"245":-0.2066342532634735,"246":-0.6289851665496826,"247":-0.3119666576385498,"248":0.13791529834270477,"249":-0.09192010760307312,"250":0.20137861371040344,"251":0.011741706170141697,"252":-0.25444987416267395,"253":-0.2543571889400482,"254":0.6161926984786987,"255":0.7097039222717285,"256":0.7407348155975342,"257":-0.540733814239502,"258":-0.42229729890823364,"259":1.0206948518753052,"260":0.33870163559913635,"261":0.7874783873558044,"262":-0.31914353370666504,"263":0.19432494044303894,"264":0.4408060908317566,"265":1.2789576053619385,"266":0.449174165725708,"267":-0.9652664661407471,"268":0.5280139446258545,"269":-1.0669834613800049,"270":0.7220520973205566,"271":-0.6196770668029785,"272":-1.0718868970870972,"273":-1.2067502737045288,"274":-0.6866505742073059,"275":0.19064781069755554,"276":0.3126065135002136,"277":-0.9212340712547302,"278":-0.6163220405578613,"279":0.7474712133407593,"280":1.6593682765960693,"281":0.03882657364010811,"282":0.7273064255714417,"283":-0.20247508585453033,"284":-0.9401338696479797,"285":-0.8972207903862,"286":-1.2926387786865234,"287":0.6909723877906799,"288":-0.270594984292984,"289":0.41329696774482727,"290":-2.08486008644104,"291":0.1577327996492386,"292":0.17482705414295197,"293":1.086096167564392,"294":0.6834732294082642,"295":0.04762435331940651,"296":-0.15650470554828644,"297":0.0626564770936966,"298":1.0229142904281616,"299":1.0343760251998901,"300":-0.2786250114440918,"301":0.3885824680328369,"302":0.1803940087556839,"303":0.09807495772838593,"304":-0.5730343461036682,"305":-0.17971184849739075,"306":0.03757144883275032,"307":-1.2231364250183105,"308":0.27885615825653076,"309":-0.11436228454113007,"310":-0.2193225622177124,"311":-0.7301463484764099,"312":-0.29377803206443787,"313":-0.18838170170783997,"314":0.3001939058303833,"315":0.664628803730011,"316":0.9448010921478271,"317":-0.8350139260292053,"318":-1.1927708387374878,"319":0.34833070635795593,"320":1.1335148811340332,"321":-0.1772739142179489,"322":0.028973976150155067,"323":-0.3836243152618408,"324":-0.9240673780441284,"325":-0.07700765877962112,"326":-0.23378683626651764,"327":-0.1857982873916626,"328":-1.4615757465362549,"329":-0.9085217714309692,"330":0.24826733767986298,"331":-0.22814345359802246,"332":0.04986784607172012,"333":-1.235749363899231,"334":0.1739836037158966,"335":0.7597004175186157,"336":-0.16624106466770172,"337":-0.32551559805870056,"338":0.26439669728279114,"339":0.23345056176185608,"340":0.25789016485214233,"341":0.8498156666755676,"342":-0.7820580005645752,"343":0.5114702582359314,"344":-0.09064339846372604,"345":0.4838259220123291,"346":0.909214198589325,"347":0.22456341981887817,"348":1.1296889781951904,"349":0.09087005257606506,"350":0.4093511402606964,"351":0.14334875345230103,"352":-0.5501689314842224,"353":-0.2528555989265442,"354":-0.4848144054412842,"355":-0.4208858013153076,"356":-1.5421613454818726,"357":-0.9001146554946899,"358":-0.7018375396728516,"359":-0.09355251491069794,"360":-0.08263105899095535,"361":0.7256790399551392,"362":-0.034132763743400574,"363":0.321636825799942,"364":-1.1144295930862427,"365":1.1615674495697021,"366":-0.023050211369991302,"367":0.04581183195114136,"368":0.5542837381362915,"369":0.047513995319604874,"370":-0.3363754451274872,"371":-0.05231182277202606,"372":-0.5477889180183411,"373":-0.9944418668746948,"374":-0.5445280075073242,"375":0.5458971858024597,"376":0.19248241186141968,"377":-0.34815773367881775,"378":0.11101541668176651,"379":-0.22847898304462433,"380":-0.6385449767112732,"381":0.35297802090644836,"382":0.3967519700527191,"383":-0.45280054211616516,"384":-0.9080725312232971,"385":-0.06241254135966301,"386":-0.2617449164390564,"387":-0.08396375179290771,"388":-0.3464754819869995,"389":-0.10967980325222015,"390":-0.26028913259506226,"391":-0.3276515603065491,"392":-0.15277713537216187,"393":-0.21021316945552826,"394":1.1423430442810059,"395":0.5962632894515991,"396":1.3914766311645508,"397":-0.3714529573917389,"398":0.2512218654155731,"399":0.14393234252929688}},"forgetBias":{"rows":20,"columns":1,"weights":{"0":0,"1":0,"2":0,"3":0,"4":0,"5":0,"6":0,"7":0,"8":0,"9":0,"10":0,"11":0,"12":0,"13":0,"14":0,"15":0,"16":0,"17":0,"18":0,"19":0}},"outputMatrix":{"rows":20,"columns":16,"weights":{"0":1.407545804977417,"1":0.19606710970401764,"2":-0.16131557524204254,"3":-1.741079568862915,"4":-1.3418203592300415,"5":0.8550004959106445,"6":-0.32547682523727417,"7":0.03873061761260033,"8":-0.7144221067428589,"9":1.3049252033233643,"10":0.5669175982475281,"11":-0.491437703371048,"12":-1.2652029991149902,"13":0.2234613299369812,"14":-0.549087643623352,"15":0.848322868347168,"16":0.64231276512146,"17":-0.3626176714897156,"18":0.32557371258735657,"19":0.43787676095962524,"20":0.8241032361984253,"21":1.4229785203933716,"22":0.33110108971595764,"23":0.4489809572696686,"24":-0.5967148542404175,"25":-0.02723686955869198,"26":-0.26061689853668213,"27":0.1612403839826584,"28":-0.6459232568740845,"29":-0.17203815281391144,"30":-0.47818413376808167,"31":0.5569050312042236,"32":0.856467604637146,"33":0.18399757146835327,"34":-0.012989587150514126,"35":0.9965289831161499,"36":1.0768977403640747,"37":0.6586116552352905,"38":-0.6596420407295227,"39":0.8527887463569641,"40":-0.39820995926856995,"41":-0.3185942471027374,"42":-0.585484504699707,"43":-0.42731285095214844,"44":0.7533392906188965,"45":0.7264171838760376,"46":0.4546278715133667,"47":1.4644088745117188,"48":-0.0933995470404625,"49":-0.772256076335907,"50":1.4196454286575317,"51":0.21148329973220825,"52":-0.7212463021278381,"53":-0.08169812709093094,"54":1.2848191261291504,"55":0.44725099205970764,"56":-0.11863435059785843,"57":0.09630458801984787,"58":0.025369664654135704,"59":0.30601179599761963,"60":-1.1918925046920776,"61":0.1936376839876175,"62":-1.197830319404602,"63":-0.4284915328025818,"64":1.1247310638427734,"65":0.9590452909469604,"66":1.188624620437622,"67":0.1969098001718521,"68":0.5379530191421509,"69":-0.8396364450454712,"70":0.6328151822090149,"71":0.717866063117981,"72":0.5741129517555237,"73":-1.281203031539917,"74":-1.1204980611801147,"75":-1.440079689025879,"76":-0.2941091060638428,"77":-0.5048491358757019,"78":0.48070067167282104,"79":0.7808322310447693,"80":0.2893025577068329,"81":-0.49621376395225525,"82":0.5388418436050415,"83":-0.3676862120628357,"84":-0.19615371525287628,"85":0.9882407784461975,"86":0.5601674318313599,"87":-0.343307763338089,"88":-1.1346975564956665,"89":0.308942049741745,"90":-0.2701793313026428,"91":0.8045730590820312,"92":-1.2527672052383423,"93":-0.3433424234390259,"94":-1.0818769931793213,"95":0.0840662494301796,"96":-1.1528794765472412,"97":-0.37892165780067444,"98":0.6246758699417114,"99":-1.2276973724365234,"100":0.09939078986644745,"101":0.48803675174713135,"102":0.9898995757102966,"103":-1.3633726835250854,"104":-0.5123034119606018,"105":-0.06238989531993866,"106":-0.582334578037262,"107":0.5073329210281372,"108":-1.2250083684921265,"109":-0.7129424810409546,"110":-0.44948723912239075,"111":-1.1088944673538208,"112":0.05183075740933418,"113":-0.7025846242904663,"114":0.26615890860557556,"115":-1.1898306608200073,"116":-1.7241027355194092,"117":-0.3643220067024231,"118":-0.2668917179107666,"119":0.4150843024253845,"120":-0.31020307540893555,"121":0.23701104521751404,"122":0.7681599855422974,"123":0.32236433029174805,"124":-0.5802341103553772,"125":0.06475181877613068,"126":-1.1993151903152466,"127":-0.6411578059196472,"128":0.3827362656593323,"129":1.0259203910827637,"130":1.4111335277557373,"131":1.5427337884902954,"132":2.0325417518615723,"133":-1.0132739543914795,"134":0.5310007929801941,"135":1.1938413381576538,"136":0.5219557285308838,"137":0.9605846405029297,"138":-0.8611786365509033,"139":-1.1808875799179077,"140":0.5810587406158447,"141":0.2526726722717285,"142":1.6912131309509277,"143":0.6736865043640137,"144":0.7210825085639954,"145":1.2842719554901123,"146":0.11738651990890503,"147":1.210045337677002,"148":1.3839216232299805,"149":0.9111970067024231,"150":0.0006804392905905843,"151":0.046059150248765945,"152":-0.038524799048900604,"153":1.432966709136963,"154":-0.268602192401886,"155":-0.8900300860404968,"156":0.7940876483917236,"157":0.6745897531509399,"158":1.5698463916778564,"159":0.6455343961715698,"160":-0.8062906265258789,"161":-1.2581557035446167,"162":0.2448769360780716,"163":-0.13901491463184357,"164":-0.02434835024178028,"165":1.2677839994430542,"166":0.6028450727462769,"167":-0.7329810857772827,"168":-0.992925226688385,"169":-0.8361047506332397,"170":-0.7314737439155579,"171":0.9905841946601868,"172":-1.3215229511260986,"173":-0.7067304849624634,"174":-1.4306095838546753,"175":-0.5729609727859497,"176":-0.48651322722435,"177":-0.3079840838909149,"178":0.20406560599803925,"179":-0.7021067142486572,"180":-0.7813796401023865,"181":0.6223690509796143,"182":1.008811116218567,"183":-0.6492353081703186,"184":0.21027617156505585,"185":-0.9933611750602722,"186":-1.2577496767044067,"187":-0.601253092288971,"188":-1.2746307849884033,"189":-0.5126281380653381,"190":-1.685785174369812,"191":-0.12043538689613342,"192":-0.6846063137054443,"193":0.8558013439178467,"194":1.0861793756484985,"195":0.828927218914032,"196":0.8736780285835266,"197":0.545347273349762,"198":0.6434150338172913,"199":-0.5802615284919739,"200":0.2592683434486389,"201":1.1977685689926147,"202":-0.42014142870903015,"203":-0.3331907093524933,"204":0.07711880654096603,"205":-0.2280045449733734,"206":1.561212182044983,"207":-1.1358431577682495,"208":1.0602492094039917,"209":0.2907569110393524,"210":0.8479002714157104,"211":0.763521134853363,"212":0.5528095960617065,"213":0.37980449199676514,"214":-0.6422978043556213,"215":1.026201844215393,"216":-0.6974416375160217,"217":0.15235158801078796,"218":0.2055492103099823,"219":-0.62785404920578,"220":0.836418867111206,"221":1.4085861444473267,"222":0.5179926753044128,"223":1.4821457862854004,"224":-0.7327269911766052,"225":-0.1216866672039032,"226":-0.26827186346054077,"227":-0.666455864906311,"228":0.5048296451568604,"229":0.23626764118671417,"230":0.14098356664180756,"231":-0.9908948540687561,"232":0.8055098652839661,"233":-0.5361135601997375,"234":0.150116965174675,"235":0.3256559371948242,"236":-0.9936179518699646,"237":-0.7995239496231079,"238":-0.2194230854511261,"239":-0.6857500076293945,"240":-0.15396225452423096,"241":0.07452486455440521,"242":-0.7602479457855225,"243":-0.4299282133579254,"244":0.19010542333126068,"245":0.6521478295326233,"246":0.48131197690963745,"247":-0.16658973693847656,"248":0.2706776559352875,"249":0.01976153813302517,"250":-0.2463516891002655,"251":-0.09125564992427826,"252":-0.9749780893325806,"253":-0.6440197825431824,"254":-0.13447687029838562,"255":-0.40217912197113037,"256":-0.8097742199897766,"257":-0.3213096559047699,"258":1.1770250797271729,"259":-0.20008355379104614,"260":0.00976321566849947,"261":0.8622509241104126,"262":0.6869212985038757,"263":-0.6743106245994568,"264":-1.1801310777664185,"265":1.2925907373428345,"266":0.17107519507408142,"267":-0.3381795883178711,"268":-1.0546787977218628,"269":0.021884938701987267,"270":-0.6262805461883545,"271":-0.36519813537597656,"272":0.3364737927913666,"273":0.4190777838230133,"274":0.28701141476631165,"275":1.5403554439544678,"276":1.8472187519073486,"277":-0.44567984342575073,"278":-0.43805766105651855,"279":1.1180331707000732,"280":0.15305212140083313,"281":-0.22600381076335907,"282":-1.3040188550949097,"283":-0.8006665110588074,"284":1.453855276107788,"285":1.1737134456634521,"286":1.6501392126083374,"287":0.23734459280967712,"288":-0.10643797367811203,"289":0.2913457453250885,"290":-0.007641113828867674,"291":0.985106348991394,"292":1.4339489936828613,"293":-0.3014479875564575,"294":-0.04901488870382309,"295":0.3404045104980469,"296":0.026372114196419716,"297":-1.0618101358413696,"298":-1.5273936986923218,"299":-0.17310671508312225,"300":0.20766383409500122,"301":-0.7567599415779114,"302":0.34597116708755493,"303":0.3713362514972687,"304":-0.09444236755371094,"305":-1.9895579814910889,"306":0.3577214181423187,"307":0.4506790041923523,"308":0.24816960096359253,"309":-0.8664878010749817,"310":0.17850348353385925,"311":0.3858134150505066,"312":-0.8667027950286865,"313":-0.2848438322544098,"314":0.2346668839454651,"315":0.2952788174152374,"316":-0.32221323251724243,"317":0.30073028802871704,"318":-1.8287556171417236,"319":-0.15790046751499176}},"outputHidden":{"rows":20,"columns":20,"weights":{"0":1.125357747077942,"1":0.30314671993255615,"2":2.330580234527588,"3":0.6776869893074036,"4":-0.3879030644893646,"5":0.14380601048469543,"6":0.24702465534210205,"7":0.09449547529220581,"8":-0.5189377665519714,"9":-0.7048784494400024,"10":0.06067110225558281,"11":-1.0189634561538696,"12":1.0385034084320068,"13":0.4428626596927643,"14":-0.2712736129760742,"15":0.48048511147499084,"16":-0.17074349522590637,"17":1.0943034887313843,"18":1.4047489166259766,"19":-0.8458589315414429,"20":0.9796931147575378,"21":-1.0579122304916382,"22":-0.015857094898819923,"23":-0.5418075919151306,"24":0.3249858617782593,"25":-0.8211148381233215,"26":-0.22063298523426056,"27":0.35530102252960205,"28":0.11585912853479385,"29":-1.0705275535583496,"30":-0.4520501494407654,"31":0.11838936805725098,"32":0.13187779486179352,"33":-0.6939591765403748,"34":2.187807321548462,"35":-1.3485699892044067,"36":-0.5823319554328918,"37":-0.6068857908248901,"38":-0.5969904661178589,"39":1.4986023902893066,"40":0.01211183238774538,"41":0.1465752124786377,"42":0.0029609750490635633,"43":-0.09249284863471985,"44":-0.9594350457191467,"45":-0.2006295919418335,"46":-0.3922727406024933,"47":0.8744114637374878,"48":0.12828420102596283,"49":-0.1699708253145218,"50":-0.1678033322095871,"51":1.36012864112854,"52":0.18999779224395752,"53":-0.46068310737609863,"54":0.931232213973999,"55":-0.998382568359375,"56":-0.5918443202972412,"57":-0.164047509431839,"58":-0.22669143974781036,"59":1.4011167287826538,"60":-0.05864570289850235,"61":-0.03609622269868851,"62":-0.5736839771270752,"63":0.24148689210414886,"64":0.39137890934944153,"65":0.6978617906570435,"66":0.047738511115312576,"67":0.3004058301448822,"68":-0.35387295484542847,"69":-1.3240838050842285,"70":0.2766226530075073,"71":-0.9259880781173706,"72":-1.6086275577545166,"73":-0.858062207698822,"74":-0.6082351803779602,"75":-0.9715388417243958,"76":-0.8743069767951965,"77":-2.71711802482605,"78":-1.3026529550552368,"79":0.7845917344093323,"80":-0.1048387885093689,"81":-0.30742207169532776,"82":1.8455954790115356,"83":-0.7259703874588013,"84":-2.7277777194976807,"85":0.4361214339733124,"86":-0.44647181034088135,"87":-0.3344423770904541,"88":-1.310533046722412,"89":-0.757105827331543,"90":-0.7384195327758789,"91":-0.15325555205345154,"92":-0.1048571988940239,"93":-0.5120118856430054,"94":1.4161092042922974,"95":0.18226449191570282,"96":0.7069896459579468,"97":0.12482551485300064,"98":-0.6459189653396606,"99":0.542513370513916,"100":0.9332189559936523,"101":-0.4573577642440796,"102":-0.9072740077972412,"103":-0.5256267189979553,"104":-0.04418272525072098,"105":-1.6644138097763062,"106":-0.7034015655517578,"107":0.8894330859184265,"108":0.8977628350257874,"109":-0.02033677138388157,"110":-0.07810432463884354,"111":0.08606801182031631,"112":0.08744286745786667,"113":0.5311629176139832,"114":0.4818860590457916,"115":0.1687651425600052,"116":0.5500532984733582,"117":-0.6818998456001282,"118":-0.5252687335014343,"119":1.7264832258224487,"120":-0.3199421465396881,"121":0.22303007543087006,"122":-0.4026941955089569,"123":-0.6165682077407837,"124":-1.0181609392166138,"125":0.8845828175544739,"126":0.4739198386669159,"127":-0.11412005871534348,"128":-0.32440704107284546,"129":-0.8086895942687988,"130":0.03567741811275482,"131":-0.455364853143692,"132":-0.7908432483673096,"133":-0.3778114914894104,"134":0.0006986128282733262,"135":-0.4154525101184845,"136":1.1008487939834595,"137":-1.0561649799346924,"138":-0.35066157579421997,"139":1.152484655380249,"140":-0.19072386622428894,"141":0.5127803683280945,"142":0.021510150283575058,"143":1.395525336265564,"144":0.48526570200920105,"145":-0.2558917701244354,"146":0.2639797031879425,"147":0.25424185395240784,"148":0.28138506412506104,"149":-0.5112854242324829,"150":0.8164848685264587,"151":0.32594582438468933,"152":-0.12451165169477463,"153":0.668204128742218,"154":-0.25120311975479126,"155":-0.331805020570755,"156":0.24144496023654938,"157":0.073968306183815,"158":0.6052907109260559,"159":-0.35712921619415283,"160":0.20167694985866547,"161":-1.1175038814544678,"162":-0.527401864528656,"163":-0.024606136605143547,"164":-0.7240297794342041,"165":-0.4384007155895233,"166":-0.35581913590431213,"167":0.004065338056534529,"168":0.30694833397865295,"169":-0.8308233022689819,"170":0.1324998289346695,"171":-1.2567771673202515,"172":-0.7165589928627014,"173":-0.3486346900463104,"174":1.356123447418213,"175":-0.2731870114803314,"176":0.26594266295433044,"177":-1.1240599155426025,"178":-0.5557798147201538,"179":0.044123925268650055,"180":1.9299302101135254,"181":-0.6813286542892456,"182":0.3690069615840912,"183":-0.9028939008712769,"184":-0.5910979509353638,"185":0.20292669534683228,"186":-0.35045126080513,"187":-0.40958699584007263,"188":-0.4631311297416687,"189":-0.5876139998435974,"190":0.6749612092971802,"191":0.2787065804004669,"192":0.11288679391145706,"193":-1.5079418420791626,"194":0.4228893220424652,"195":-0.7862279415130615,"196":-0.394788920879364,"197":-0.302408903837204,"198":-0.1870296150445938,"199":0.13203632831573486,"200":-0.183252215385437,"201":0.4669756591320038,"202":0.16922211647033691,"203":0.697948157787323,"204":-0.7652131915092468,"205":0.2570071816444397,"206":-0.8412750959396362,"207":-0.3776554465293884,"208":0.8199597597122192,"209":-0.1595008820295334,"210":-0.010558698326349258,"211":1.239854335784912,"212":0.11921994388103485,"213":-0.2680138349533081,"214":0.9519835710525513,"215":-0.689313530921936,"216":-0.1935877799987793,"217":-0.006559868808835745,"218":-0.08003468811511993,"219":1.0954722166061401,"220":-0.7654315829277039,"221":-0.577919065952301,"222":-0.4874632656574249,"223":-0.3996488153934479,"224":0.4621051251888275,"225":1.9925299882888794,"226":-0.4942189157009125,"227":0.17685872316360474,"228":-1.4093760251998901,"229":-0.8153232336044312,"230":0.1691870093345642,"231":-0.7886280417442322,"232":-0.31954866647720337,"233":-0.893491804599762,"234":0.3427901566028595,"235":0.47386568784713745,"236":0.7403147220611572,"237":-0.704572856426239,"238":-0.17936882376670837,"239":-0.5261123180389404,"240":-0.6815877556800842,"241":0.2889153063297272,"242":-0.21853014826774597,"243":-2.1645138263702393,"244":-0.30206748843193054,"245":0.35248109698295593,"246":-0.003417181083932519,"247":-1.2219511270523071,"248":0.35000213980674744,"249":0.02475900575518608,"250":1.502124309539795,"251":-0.4428824186325073,"252":-0.8001554608345032,"253":-0.3274219334125519,"254":0.7841581702232361,"255":1.0312081575393677,"256":1.1353036165237427,"257":-1.2664157152175903,"258":-1.069346308708191,"259":-0.3210838735103607,"260":1.6224168539047241,"261":0.662363588809967,"262":-0.7138841152191162,"263":-1.2703132629394531,"264":0.19512464106082916,"265":-0.7221799492835999,"266":-0.4142443537712097,"267":0.8106799125671387,"268":1.1674227714538574,"269":0.5341967940330505,"270":0.1594315767288208,"271":0.5674583315849304,"272":-0.27556219696998596,"273":-0.39301788806915283,"274":0.08934377133846283,"275":-0.40102168917655945,"276":1.1850146055221558,"277":-0.7470936179161072,"278":-0.9625082612037659,"279":0.5391186475753784,"280":0.023900162428617477,"281":0.9206879138946533,"282":0.8106726408004761,"283":-1.5899899005889893,"284":1.4790775775909424,"285":-2.4959001541137695,"286":-1.044675588607788,"287":1.4481608867645264,"288":-1.253934383392334,"289":1.0022298097610474,"290":-1.794547200202942,"291":1.0702767372131348,"292":-1.585631251335144,"293":0.8081099987030029,"294":1.0232319831848145,"295":-1.5642220973968506,"296":0.3276173174381256,"297":0.30698302388191223,"298":0.5704489946365356,"299":0.2540271580219269,"300":0.016946233808994293,"301":0.5557270050048828,"302":-0.001947005745023489,"303":1.48042631149292,"304":-1.441819667816162,"305":0.1076105460524559,"306":1.3938649892807007,"307":-0.9684612154960632,"308":-0.5722640156745911,"309":-1.4238067865371704,"310":0.21904459595680237,"311":-2.172719717025757,"312":-0.32033491134643555,"313":-0.9183980226516724,"314":1.032132625579834,"315":0.10083789378404617,"316":0.05703068524599075,"317":-2.7698206901550293,"318":-2.283186435699463,"319":-0.04788338020443916,"320":1.1549152135849,"321":-0.7298979759216309,"322":0.18205304443836212,"323":-0.6814637780189514,"324":-2.6824004650115967,"325":0.18572422862052917,"326":0.08287520706653595,"327":0.711920976638794,"328":-0.8282378911972046,"329":-0.19648033380508423,"330":-0.29706141352653503,"331":-0.3622798025608063,"332":0.579031229019165,"333":-0.451926589012146,"334":-0.6774632930755615,"335":1.2193074226379395,"336":0.4665781855583191,"337":-0.25406646728515625,"338":-0.21983195841312408,"339":0.21127979457378387,"340":-0.20906323194503784,"341":0.7233538031578064,"342":-0.1383548229932785,"343":-1.2990010976791382,"344":-0.9446507692337036,"345":0.20170623064041138,"346":-0.49346724152565,"347":0.42530354857444763,"348":0.6219250559806824,"349":0.800139844417572,"350":-0.6136943101882935,"351":0.6827711462974548,"352":-0.2326509803533554,"353":-0.8651911616325378,"354":0.5065135955810547,"355":-0.3624598979949951,"356":-0.20616567134857178,"357":0.07992300391197205,"358":-0.5540191531181335,"359":-0.20199492573738098,"360":-0.49180087447166443,"361":-0.18555808067321777,"362":-0.08185005933046341,"363":0.27898672223091125,"364":-1.6967732906341553,"365":0.846305251121521,"366":-2.2727701663970947,"367":0.3196575939655304,"368":0.4395139515399933,"369":0.5585646629333496,"370":0.10610675811767578,"371":1.8298413753509521,"372":-0.2643236815929413,"373":-0.741446316242218,"374":0.9353507161140442,"375":0.13097606599330902,"376":1.158073902130127,"377":-0.2545955777168274,"378":-1.0216447114944458,"379":0.5323969721794128,"380":-0.03387243300676346,"381":0.858432412147522,"382":-0.19512169063091278,"383":0.3365347683429718,"384":-0.02438972517848015,"385":-0.21171647310256958,"386":0.9599995613098145,"387":0.2639838755130768,"388":-0.769845187664032,"389":-0.9773893356323242,"390":1.2309900522232056,"391":-0.9446502923965454,"392":-1.329810380935669,"393":0.3528984487056732,"394":0.857063889503479,"395":-0.13406550884246826,"396":0.2769869267940521,"397":-1.405859112739563,"398":-0.11383000761270523,"399":-0.1577887088060379}},"outputBias":{"rows":20,"columns":1,"weights":{"0":-0.6081920862197876,"1":-0.4772821366786957,"2":-0.9865665435791016,"3":0.7749174237251282,"4":-1.1177608966827393,"5":0.5356805324554443,"6":-1.1694668531417847,"7":-0.9716174602508545,"8":0.5903604626655579,"9":-1.1337175369262695,"10":-0.70849609375,"11":-1.1298044919967651,"12":1.0435221195220947,"13":0.9941602349281311,"14":0.04086357727646828,"15":-1.198962926864624,"16":0.5329184532165527,"17":-0.09798286110162735,"18":-0.13394780457019806,"19":0.8650985956192017}},"cellActivationMatrix":{"rows":20,"columns":16,"weights":{"0":-0.26252618432044983,"1":-0.7286221385002136,"2":-0.5197007060050964,"3":-0.9526709914207458,"4":-1.6943386793136597,"5":-0.1555241197347641,"6":-0.23838084936141968,"7":-0.29440149664878845,"8":-0.8919981122016907,"9":1.141160488128662,"10":1.3544009923934937,"11":0.025665128603577614,"12":0.5908143520355225,"13":0.8441543579101562,"14":-0.6467690467834473,"15":0.33778586983680725,"16":0.8313544988632202,"17":0.6491069793701172,"18":-0.5527400374412537,"19":-0.8129414319992065,"20":0.020256593823432922,"21":-0.8112696409225464,"22":-0.08486512303352356,"23":0.27274566888809204,"24":1.6369524002075195,"25":-0.16747216880321503,"26":-0.05219288542866707,"27":-0.061270106583833694,"28":-0.5075647234916687,"29":-1.5929723978042603,"30":-0.7386144399642944,"31":-0.220171719789505,"32":0.11355073004961014,"33":-0.5984945297241211,"34":-0.6558741927146912,"35":0.7910082936286926,"36":0.7983888387680054,"37":-0.5526692867279053,"38":-1.8497763872146606,"39":0.2329365760087967,"40":-1.3729034662246704,"41":-0.34400928020477295,"42":0.5082982182502747,"43":-0.22684912383556366,"44":0.9121600985527039,"45":0.5706576108932495,"46":-0.3404165208339691,"47":0.140034019947052,"48":-0.7036799192428589,"49":1.3923579454421997,"50":1.2490942478179932,"51":0.038043584674596786,"52":0.28004124760627747,"53":0.22469615936279297,"54":1.1715251207351685,"55":-0.4133346974849701,"56":1.182145595550537,"57":0.2075655460357666,"58":-0.650837242603302,"59":-1.0141814947128296,"60":-0.7363348007202148,"61":-0.11156436800956726,"62":1.1709182262420654,"63":0.11604801565408707,"64":-0.3159538209438324,"65":0.8338679075241089,"66":0.30573898553848267,"67":-0.27409765124320984,"68":-0.8210001587867737,"69":0.9458504319190979,"70":0.8955602645874023,"71":-0.5370590090751648,"72":0.7753855586051941,"73":2.3928022384643555,"74":0.8859664797782898,"75":-0.10946091264486313,"76":0.43948128819465637,"77":0.016346177086234093,"78":1.0233509540557861,"79":-0.5175272822380066,"80":-0.20841830968856812,"81":0.21542127430438995,"82":1.696279764175415,"83":1.2904998064041138,"84":1.6280807256698608,"85":0.12255893647670746,"86":-0.5047067403793335,"87":0.4711211323738098,"88":-0.46118608117103577,"89":0.9035509824752808,"90":-0.5224260091781616,"91":-0.5625037550926208,"92":1.1315596103668213,"93":0.8105411529541016,"94":1.6531189680099487,"95":-0.3373270034790039,"96":0.025384260341525078,"97":1.080500841140747,"98":0.7297830581665039,"99":-0.7141096591949463,"100":-0.896618664264679,"101":-0.11889169365167618,"102":1.1079715490341187,"103":-0.0024904317688196898,"104":1.0176303386688232,"105":-0.8991397023200989,"106":-1.0439742803573608,"107":-1.0046329498291016,"108":-0.8142622709274292,"109":-0.8020510077476501,"110":0.4395245313644409,"111":0.059815414249897,"112":-0.12537555396556854,"113":-0.3887938857078552,"114":-0.1771777868270874,"115":-0.2186751663684845,"116":0.172775000333786,"117":0.024482451379299164,"118":-0.5147902369499207,"119":0.11738608032464981,"120":-0.4633949100971222,"121":0.9681001901626587,"122":1.0745141506195068,"123":0.5516583919525146,"124":1.2111132144927979,"125":1.2324365377426147,"126":0.7700583934783936,"127":-0.04467806592583656,"128":-1.1130696535110474,"129":-0.8235240578651428,"130":0.06297662854194641,"131":-0.5826268792152405,"132":0.31412220001220703,"133":0.9005272388458252,"134":-0.22125385701656342,"135":-0.8000994920730591,"136":-0.13208459317684174,"137":0.13942359387874603,"138":-0.8184151649475098,"139":1.2400811910629272,"140":0.24438059329986572,"141":-0.3654385209083557,"142":-0.7006738185882568,"143":-0.8408669233322144,"144":-1.0360747575759888,"145":-0.17603783309459686,"146":-0.009275373071432114,"147":-1.1687144041061401,"148":-0.15148144960403442,"149":0.5186359882354736,"150":0.13080351054668427,"151":-1.0676214694976807,"152":0.017294054850935936,"153":0.39059334993362427,"154":0.07695417106151581,"155":0.9097689390182495,"156":-0.05384788289666176,"157":-0.362748384475708,"158":-0.9969547986984253,"159":-1.0282846689224243,"160":-0.2534025311470032,"161":0.6645321846008301,"162":1.211277961730957,"163":-0.5512956380844116,"164":-0.4346003830432892,"165":0.1857576072216034,"166":1.0538108348846436,"167":-0.5932655334472656,"168":0.7350029945373535,"169":1.1229695081710815,"170":0.3625161647796631,"171":-0.28474870324134827,"172":0.24979311227798462,"173":0.23949569463729858,"174":0.9380473494529724,"175":-0.15978479385375977,"176":0.017252180725336075,"177":-0.7090432643890381,"178":-0.7484344840049744,"179":-0.6102789044380188,"180":-0.38464000821113586,"181":0.9946680665016174,"182":-0.6117653846740723,"183":-0.888035774230957,"184":-0.39666175842285156,"185":0.7530689835548401,"186":1.1090303659439087,"187":0.759792149066925,"188":-0.2382805347442627,"189":-0.2602127492427826,"190":0.14847855269908905,"191":-0.9652358889579773,"192":-0.004807591903954744,"193":-0.8622040748596191,"194":-0.18986232578754425,"195":-0.020726429298520088,"196":1.351296067237854,"197":0.20871832966804504,"198":-0.3497335910797119,"199":-0.13218890130519867,"200":-0.9788175225257874,"201":0.06403551995754242,"202":0.37753206491470337,"203":0.09697076678276062,"204":0.989651083946228,"205":0.7078657746315002,"206":0.7532989978790283,"207":0.5519461035728455,"208":-0.933571994304657,"209":-1.905852198600769,"210":-1.6047505140304565,"211":-1.4681949615478516,"212":-0.6539981365203857,"213":0.568211555480957,"214":0.16591225564479828,"215":-1.5262986421585083,"216":0.10397814959287643,"217":-0.06296256929636002,"218":-0.04642503336071968,"219":1.3464642763137817,"220":0.17209412157535553,"221":0.5567022562026978,"222":-1.1287442445755005,"223":-0.5368793606758118,"224":0.8671361804008484,"225":-0.6083571314811707,"226":-1.4431078433990479,"227":-0.4429625868797302,"228":-1.1751736402511597,"229":-0.41780024766921997,"230":0.0745975449681282,"231":0.09630832076072693,"232":0.13053424656391144,"233":-1.0326849222183228,"234":-0.7153562307357788,"235":-0.07959287613630295,"236":-0.7135167717933655,"237":-1.0333375930786133,"238":-1.2933886051177979,"239":0.5988681316375732,"240":-0.44637835025787354,"241":-0.9375105500221252,"242":0.03268012776970863,"243":0.48528826236724854,"244":0.5109851956367493,"245":-0.8138088583946228,"246":-1.031198501586914,"247":0.23903921246528625,"248":-0.12255118042230606,"249":-1.0140395164489746,"250":-0.4655247926712036,"251":0.03989823907613754,"252":0.738348126411438,"253":0.3535694181919098,"254":0.008944367989897728,"255":0.3925475478172302,"256":-0.3221423327922821,"257":-1.0991487503051758,"258":1.0163662433624268,"259":0.164810448884964,"260":-0.11654055118560791,"261":0.2382793128490448,"262":-1.216941475868225,"263":-0.2451850026845932,"264":-1.4186753034591675,"265":1.4920405149459839,"266":-0.4692131578922272,"267":1.2027653455734253,"268":0.12272116541862488,"269":-0.3373416066169739,"270":0.45714202523231506,"271":-0.24055667221546173,"272":-0.4427186846733093,"273":-1.698021650314331,"274":-1.1342978477478027,"275":-0.44646552205085754,"276":0.7602350115776062,"277":1.706112265586853,"278":-0.1720927208662033,"279":-0.8433167338371277,"280":-1.0199060440063477,"281":0.9258597493171692,"282":1.3844748735427856,"283":1.4730075597763062,"284":0.12657727301120758,"285":0.5306936502456665,"286":-0.16971507668495178,"287":-0.6176084876060486,"288":-0.6554620862007141,"289":-1.0348503589630127,"290":-1.6095786094665527,"291":0.03197179362177849,"292":-0.02152421325445175,"293":0.3639563322067261,"294":-0.712314248085022,"295":-0.5671046376228333,"296":-1.1269458532333374,"297":-0.27184781432151794,"298":0.8748262524604797,"299":1.2986401319503784,"300":0.9613856077194214,"301":0.7787085175514221,"302":0.3639639914035797,"303":-0.46565404534339905,"304":-0.2911423444747925,"305":-2.046865701675415,"306":-0.4484421908855438,"307":0.14976078271865845,"308":-0.25499865412712097,"309":-0.16732299327850342,"310":-0.7886659502983093,"311":-0.39169618487358093,"312":-0.44145360589027405,"313":-0.5823104977607727,"314":1.0243607759475708,"315":1.1001535654067993,"316":-0.09861080348491669,"317":0.4549905061721802,"318":-1.3651182651519775,"319":-0.40625542402267456}},"cellActivationHidden":{"rows":20,"columns":20,"weights":{"0":-0.5639430284500122,"1":-0.0005855315248481929,"2":-0.4349663257598877,"3":-0.15361075103282928,"4":-0.5012530088424683,"5":0.851841926574707,"6":0.15117645263671875,"7":-0.259010910987854,"8":-0.10424651950597763,"9":-0.6738670468330383,"10":0.27597662806510925,"11":0.4850231409072876,"12":-0.029783515259623528,"13":0.20229531824588776,"14":0.015589239075779915,"15":-0.49600210785865784,"16":-0.8038536906242371,"17":-0.3821255564689636,"18":-0.35072606801986694,"19":-0.6212104558944702,"20":0.39643219113349915,"21":-1.420330286026001,"22":0.35351210832595825,"23":-1.0670496225357056,"24":-0.43713805079460144,"25":-1.595137596130371,"26":-0.7627019286155701,"27":-0.18903325498104095,"28":-0.4286029636859894,"29":0.341281533241272,"30":-1.081892967224121,"31":-0.013009672053158283,"32":-1.0603389739990234,"33":-0.28074324131011963,"34":0.9048274159431458,"35":-0.009535237215459347,"36":0.5938184857368469,"37":-0.34670189023017883,"38":0.9836315512657166,"39":1.0170854330062866,"40":0.478081613779068,"41":-0.10900233685970306,"42":0.178805410861969,"43":-0.5778266787528992,"44":0.2962416410446167,"45":0.2847157418727875,"46":-0.1250186413526535,"47":0.8102862238883972,"48":0.6669057011604309,"49":0.6375821232795715,"50":-0.5480062365531921,"51":0.6522020101547241,"52":0.4600689709186554,"53":0.1950201690196991,"54":0.581254243850708,"55":-0.17322392761707306,"56":0.09650024026632309,"57":0.30778348445892334,"58":-0.12952864170074463,"59":0.31784123182296753,"60":0.35635536909103394,"61":0.5918386578559875,"62":0.12872150540351868,"63":0.24585391581058502,"64":0.5690247416496277,"65":-1.0223000049591064,"66":0.16583174467086792,"67":-0.2176160216331482,"68":0.48825642466545105,"69":0.5988274216651917,"70":0.5476435422897339,"71":0.016878142952919006,"72":0.11546491831541061,"73":0.18783043324947357,"74":-0.2725699841976166,"75":0.13663052022457123,"76":-1.0413461923599243,"77":0.07524985074996948,"78":-0.402569442987442,"79":0.07468216121196747,"80":0.48065075278282166,"81":-0.3260399103164673,"82":-0.8504144549369812,"83":0.17330528795719147,"84":-0.3461310565471649,"85":-0.7613974213600159,"86":0.3181908130645752,"87":0.1327124834060669,"88":-0.745780348777771,"89":-1.1808642148971558,"90":0.2508153021335602,"91":-1.2860244512557983,"92":-0.019987884908914566,"93":-0.20530004799365997,"94":0.5217119455337524,"95":-1.3447768688201904,"96":-0.5140625834465027,"97":-0.32692399621009827,"98":-1.0146780014038086,"99":-0.3038594126701355,"100":0.7000545263290405,"101":0.5321391820907593,"102":0.6711057424545288,"103":-0.15668641030788422,"104":-0.06419125199317932,"105":-1.1449027061462402,"106":-0.1903051882982254,"107":-1.1339154243469238,"108":-1.5042884349822998,"109":0.36232656240463257,"110":0.23354709148406982,"111":-0.1000417172908783,"112":0.34176817536354065,"113":0.5620548725128174,"114":0.16787540912628174,"115":0.7296022176742554,"116":0.05319787561893463,"117":-0.09076260775327682,"118":0.306695818901062,"119":-0.7324259281158447,"120":-0.5524147748947144,"121":-0.579987645149231,"122":0.23026520013809204,"123":-0.6036974191665649,"124":-0.39390215277671814,"125":-0.1912730485200882,"126":-0.5538020133972168,"127":-0.2141660451889038,"128":0.5195529460906982,"129":0.07433953881263733,"130":-0.7490105032920837,"131":-0.06193205341696739,"132":0.5675011277198792,"133":0.2950834035873413,"134":-0.43799951672554016,"135":0.3340500295162201,"136":-0.6852954030036926,"137":0.38661429286003113,"138":0.6269766688346863,"139":0.8014934659004211,"140":-0.4060720205307007,"141":0.5470466613769531,"142":-0.17300955951213837,"143":1.6204144954681396,"144":0.8427376747131348,"145":-0.06517453491687775,"146":0.7337878942489624,"147":-0.5446709990501404,"148":-0.2574414908885956,"149":0.11296795308589935,"150":0.7669948935508728,"151":-0.433779239654541,"152":-0.7386691570281982,"153":0.12866991758346558,"154":0.05695400759577751,"155":0.11218030750751495,"156":0.03290411829948425,"157":0.085489422082901,"158":-0.016337696462869644,"159":-0.9081074595451355,"160":-0.008171383291482925,"161":0.8733663558959961,"162":-1.3046115636825562,"163":2.440232992172241,"164":1.6574751138687134,"165":0.040564436465501785,"166":0.4760083556175232,"167":-0.27814817428588867,"168":-0.26355767250061035,"169":-0.4164670705795288,"170":1.1006402969360352,"171":-0.328329473733902,"172":-1.2407478094100952,"173":1.188754677772522,"174":-1.0389769077301025,"175":-0.32240691781044006,"176":-0.07193298637866974,"177":-0.47507476806640625,"178":-0.5402342081069946,"179":-0.46552732586860657,"180":0.29499688744544983,"181":-0.8228667378425598,"182":0.4552302062511444,"183":-0.7796151638031006,"184":1.0319781303405762,"185":-1.5410184860229492,"186":-1.1331361532211304,"187":1.0388938188552856,"188":0.8585992455482483,"189":-0.18249410390853882,"190":-0.7639163136482239,"191":0.10731375217437744,"192":0.0030027262400835752,"193":1.198451042175293,"194":0.23957474529743195,"195":-0.4130834937095642,"196":-0.33494797348976135,"197":0.10956806689500809,"198":0.7916631698608398,"199":0.8672951459884644,"200":-0.46679049730300903,"201":0.31414690613746643,"202":-0.49155330657958984,"203":0.42288199067115784,"204":-0.4683287441730499,"205":0.5728117227554321,"206":-0.05330655351281166,"207":-0.6696650385856628,"208":-0.1551094502210617,"209":-0.04989127814769745,"210":-0.3346625864505768,"211":-0.5674358010292053,"212":-0.15150795876979828,"213":-0.4644372761249542,"214":0.0604129396378994,"215":0.003146175295114517,"216":0.6563539505004883,"217":-0.582090437412262,"218":-1.4484381675720215,"219":0.12144846469163895,"220":0.2840428054332733,"221":-0.4223426282405853,"222":0.7740971446037292,"223":-0.4553939998149872,"224":0.5188955068588257,"225":-0.15039081871509552,"226":-0.5443898439407349,"227":0.4054870307445526,"228":-1.204480767250061,"229":-0.6219834685325623,"230":-0.5152980089187622,"231":0.5072578191757202,"232":0.09883803129196167,"233":-0.395889014005661,"234":0.6017196178436279,"235":0.00960361398756504,"236":0.41911789774894714,"237":0.7375544309616089,"238":0.7291476130485535,"239":0.7636829614639282,"240":1.219829797744751,"241":-0.4348215162754059,"242":-0.5502448081970215,"243":-0.9671076536178589,"244":1.827387809753418,"245":-0.006691737100481987,"246":-0.6237017512321472,"247":1.0066167116165161,"248":0.12207682430744171,"249":0.687741756439209,"250":-0.0816369503736496,"251":0.22466057538986206,"252":-0.6793286204338074,"253":1.4468051195144653,"254":-0.3124503791332245,"255":-0.8856232762336731,"256":0.04325004294514656,"257":0.9877831935882568,"258":0.5060763955116272,"259":1.2550320625305176,"260":-0.7906400561332703,"261":-0.16577111184597015,"262":-0.7514354586601257,"263":-0.46005186438560486,"264":-0.9595072269439697,"265":0.14969943463802338,"266":-1.511336326599121,"267":0.4505884647369385,"268":1.5720196962356567,"269":0.07953840494155884,"270":-1.0142871141433716,"271":1.6965597867965698,"272":-0.14207208156585693,"273":-0.7037715911865234,"274":0.1536491960287094,"275":-0.3709382116794586,"276":0.1218147948384285,"277":-0.4555184245109558,"278":0.019727196544408798,"279":1.0647766590118408,"280":-0.5590782761573792,"281":-0.08893802762031555,"282":-0.16150791943073273,"283":-0.3260137438774109,"284":-0.27398791909217834,"285":0.7448190450668335,"286":-0.7642073035240173,"287":-0.30018866062164307,"288":0.32166412472724915,"289":0.6309824585914612,"290":-0.6802650094032288,"291":0.18007312715053558,"292":0.8644922375679016,"293":-0.6480912566184998,"294":0.7040746808052063,"295":-0.08261337131261826,"296":0.2127489596605301,"297":0.20983019471168518,"298":0.9344723224639893,"299":0.662122368812561,"300":0.3300863206386566,"301":0.03439013659954071,"302":-0.0990612730383873,"303":0.25059831142425537,"304":-0.1784096658229828,"305":-0.7375981211662292,"306":0.4297674000263214,"307":-0.3457728326320648,"308":0.7524777054786682,"309":1.2758898735046387,"310":0.288677841424942,"311":-0.09618587046861649,"312":0.4118800759315491,"313":1.6634206771850586,"314":-1.0761843919754028,"315":-0.28014302253723145,"316":-0.41175562143325806,"317":1.5655266046524048,"318":0.7142804265022278,"319":-0.3338300883769989,"320":1.1968611478805542,"321":-0.1941733956336975,"322":-0.28105562925338745,"323":-1.0051465034484863,"324":0.15508125722408295,"325":-0.5331852436065674,"326":-0.25084346532821655,"327":0.417839914560318,"328":1.988146424293518,"329":-0.2874642610549927,"330":-0.18307125568389893,"331":0.16132709383964539,"332":0.12468348443508148,"333":0.5670256614685059,"334":-0.612105667591095,"335":-0.3721412122249603,"336":-0.2186417579650879,"337":0.6552720069885254,"338":0.2835438549518585,"339":0.7395884990692139,"340":-0.4799363613128662,"341":0.1699913889169693,"342":0.2896292507648468,"343":-0.5937814712524414,"344":-1.6164884567260742,"345":0.6395811438560486,"346":-0.22285005450248718,"347":0.2689674198627472,"348":0.4359438121318817,"349":0.12857802212238312,"350":-0.08401074260473251,"351":0.27259954810142517,"352":-0.10872674733400345,"353":-0.4849223494529724,"354":0.27206456661224365,"355":-0.6407971978187561,"356":0.14755591750144958,"357":-0.8861503601074219,"358":-1.0245753526687622,"359":0.7198274731636047,"360":-0.30320316553115845,"361":-0.37813952565193176,"362":-1.1502864360809326,"363":-0.7249576449394226,"364":0.900743842124939,"365":0.03250103443861008,"366":-0.12475819885730743,"367":0.4866429269313812,"368":0.4356974959373474,"369":0.5961772203445435,"370":-0.7656057476997375,"371":0.8734307289123535,"372":-0.23735812306404114,"373":0.05013866350054741,"374":-1.0987447500228882,"375":-0.9632583856582642,"376":-0.3939104974269867,"377":0.5278833508491516,"378":-0.7300227880477905,"379":-0.4995447099208832,"380":-0.45333486795425415,"381":0.6291268467903137,"382":-1.2335149049758911,"383":0.925463080406189,"384":1.7587884664535522,"385":0.5779920816421509,"386":0.9196733832359314,"387":0.18422554433345795,"388":-0.06184021010994911,"389":-0.4831206500530243,"390":1.286449909210205,"391":-0.34658676385879517,"392":-0.889430046081543,"393":0.7929880023002625,"394":-0.7609711289405823,"395":-0.256478875875473,"396":-0.20115332305431366,"397":0.051556121557950974,"398":-0.5341683626174927,"399":-1.0099965333938599}},"cellActivationBias":{"rows":20,"columns":1,"weights":{"0":-0.35864371061325073,"1":-0.5428908467292786,"2":-0.25396350026130676,"3":0.5079572200775146,"4":0.17918619513511658,"5":1.2187458276748657,"6":-0.4023154675960541,"7":0.725818395614624,"8":-1.0509439706802368,"9":-0.12024714797735214,"10":0.009895953349769115,"11":0.6729828119277954,"12":-0.8391605615615845,"13":-1.265645980834961,"14":-0.6610868573188782,"15":-0.4025709629058838,"16":0.47146257758140564,"17":0.03163480386137962,"18":0.12835262715816498,"19":-0.3366415798664093}}},{"inputMatrix":{"rows":20,"columns":20,"weights":{"0":1.003333330154419,"1":-1.0228990316390991,"2":1.299583077430725,"3":1.7809720039367676,"4":0.7627160549163818,"5":0.2785155475139618,"6":0.5304273962974548,"7":1.6655696630477905,"8":-0.7662388682365417,"9":1.204272985458374,"10":-1.5796653032302856,"11":-0.2001466006040573,"12":0.7065966725349426,"13":1.6061115264892578,"14":-1.6447652578353882,"15":0.15014541149139404,"16":-1.9432718753814697,"17":1.6605455875396729,"18":2.0115132331848145,"19":0.3671618402004242,"20":-0.05159973353147507,"21":-0.19837775826454163,"22":1.555267095565796,"23":0.4335881173610687,"24":-1.1870478391647339,"25":-0.955173909664154,"26":-0.11668290942907333,"27":-0.4001600444316864,"28":0.8174677491188049,"29":-1.0403697490692139,"30":-0.14545857906341553,"31":0.13928133249282837,"32":-0.7429605722427368,"33":0.15529704093933105,"34":-0.23804134130477905,"35":-0.7396742105484009,"36":-0.07074790447950363,"37":-0.5373181104660034,"38":-0.8324747085571289,"39":0.15818041563034058,"40":-0.20412255823612213,"41":-0.1980118751525879,"42":-0.16518430411815643,"43":-1.0818846225738525,"44":-0.690005898475647,"45":-1.0564377307891846,"46":-0.34114333987236023,"47":-0.7109029293060303,"48":-0.6809305548667908,"49":-1.2468408346176147,"50":-1.1558655500411987,"51":0.0030356943607330322,"52":-1.1047286987304688,"53":-0.744615912437439,"54":3.186343193054199,"55":1.2758750915527344,"56":0.32131192088127136,"57":-0.7654348015785217,"58":-0.2704828381538391,"59":1.0111242532730103,"60":0.8334020972251892,"61":0.3051545321941376,"62":-0.9646964073181152,"63":0.15680016577243805,"64":0.2350204885005951,"65":-1.5124386548995972,"66":0.21658667922019958,"67":0.5797079205513,"68":0.8629589676856995,"69":0.32800135016441345,"70":-0.6451656222343445,"71":-0.9628828763961792,"72":-0.5664069056510925,"73":0.9143957495689392,"74":0.9555714726448059,"75":-0.2078176736831665,"76":0.489193856716156,"77":-1.6671916246414185,"78":-2.1818015575408936,"79":0.13097864389419556,"80":-0.07716108858585358,"81":-1.045863389968872,"82":1.0103914737701416,"83":-1.2965302467346191,"84":-1.0450139045715332,"85":-1.4846335649490356,"86":-1.1389694213867188,"87":-0.2937120795249939,"88":0.3359837830066681,"89":-0.41556596755981445,"90":-0.9735431671142578,"91":0.15473662316799164,"92":0.41458049416542053,"93":0.8490185141563416,"94":1.2463148832321167,"95":-0.4048747718334198,"96":0.06528779864311218,"97":0.9481508135795593,"98":0.313669353723526,"99":0.7633867859840393,"100":-0.5050105452537537,"101":-0.13079503178596497,"102":-1.8067805767059326,"103":-1.301241159439087,"104":0.07567127048969269,"105":-1.361302375793457,"106":-0.6135450601577759,"107":0.19645346701145172,"108":0.027875849977135658,"109":0.2804470658302307,"110":-1.1471604108810425,"111":0.7235224843025208,"112":0.6724432110786438,"113":-1.1300345659255981,"114":0.5076728463172913,"115":1.540226697921753,"116":1.849342703819275,"117":-0.8639472723007202,"118":-0.6123500466346741,"119":1.4586844444274902,"120":-0.11756764352321625,"121":-0.16077548265457153,"122":-0.34275147318840027,"123":-0.35845884680747986,"124":1.0736247301101685,"125":-0.341155469417572,"126":0.460647314786911,"127":-0.5802616477012634,"128":-1.3867319822311401,"129":-0.4418942332267761,"130":0.4540655016899109,"131":0.7861751914024353,"132":0.9023563265800476,"133":-0.6922770738601685,"134":-0.02475496008992195,"135":-1.0422272682189941,"136":0.6107735633850098,"137":-0.17034912109375,"138":-0.06557447463274002,"139":0.6393927931785583,"140":1.1215605735778809,"141":-0.32702672481536865,"142":-0.6291431784629822,"143":1.0478686094284058,"144":-0.397752046585083,"145":-1.2763688564300537,"146":-0.4165022671222687,"147":-1.3035361766815186,"148":-0.4590299129486084,"149":0.1490761935710907,"150":-1.4850178956985474,"151":0.9090429544448853,"152":-0.9273718595504761,"153":-0.6052425503730774,"154":0.17327654361724854,"155":1.2651124000549316,"156":0.9297224879264832,"157":-1.0736892223358154,"158":-1.0644912719726562,"159":-1.918764591217041,"160":1.4547312259674072,"161":0.24498015642166138,"162":0.1652568131685257,"163":0.2908610701560974,"164":0.7558320760726929,"165":-0.9858061671257019,"166":-0.05435889959335327,"167":1.4270323514938354,"168":0.4529222249984741,"169":-0.9076553583145142,"170":0.3876350224018097,"171":-0.029575034976005554,"172":-1.3665636777877808,"173":-0.5050764679908752,"174":-0.41014036536216736,"175":-1.3968572616577148,"176":-0.006253129802644253,"177":-2.0107975006103516,"178":-0.6025484204292297,"179":1.1664327383041382,"180":-0.0002038404782069847,"181":-0.5686315298080444,"182":0.5184230208396912,"183":2.20985746383667,"184":-0.5124189257621765,"185":1.2549960613250732,"186":0.6844229102134705,"187":-0.29765585064888,"188":0.3209777772426605,"189":-0.33974552154541016,"190":-0.6464946269989014,"191":-0.9999212622642517,"192":0.01702052727341652,"193":-0.11967244744300842,"194":-0.20226727426052094,"195":-1.343386173248291,"196":-0.6583162546157837,"197":-1.2213054895401,"198":-0.44781169295310974,"199":-1.760507583618164,"200":0.07862453162670135,"201":-0.24436211585998535,"202":1.8032366037368774,"203":0.6679303050041199,"204":0.8273753523826599,"205":0.6471284627914429,"206":0.17041361331939697,"207":0.7516728043556213,"208":-0.0043943775817751884,"209":0.33310312032699585,"210":0.1927643120288849,"211":-0.07420894503593445,"212":0.3239172101020813,"213":-0.07428701221942902,"214":0.40747737884521484,"215":-1.8196501731872559,"216":0.02527785301208496,"217":1.687656044960022,"218":1.3933026790618896,"219":-0.7578070163726807,"220":-0.7904998064041138,"221":-0.019226830452680588,"222":0.6585133075714111,"223":0.02150167152285576,"224":1.2246956825256348,"225":1.4335458278656006,"226":-1.1647365093231201,"227":0.0075235445983707905,"228":0.4110643267631531,"229":0.7999950051307678,"230":-0.09898015111684799,"231":-0.2009945660829544,"232":1.3949204683303833,"233":0.2893604338169098,"234":0.5361904501914978,"235":-0.9400408864021301,"236":0.9894338846206665,"237":1.4480456113815308,"238":0.3069446384906769,"239":-1.2741731405258179,"240":-0.1809852570295334,"241":-0.946053147315979,"242":1.355437159538269,"243":-1.3182529211044312,"244":-0.14964433014392853,"245":-2.9447760581970215,"246":0.27393439412117004,"247":-0.3814750909805298,"248":0.015261674299836159,"249":-0.0002669116365723312,"250":0.3599831461906433,"251":-0.5390333533287048,"252":-1.598555326461792,"253":1.2095565795898438,"254":1.7898869514465332,"255":-0.25407907366752625,"256":-0.3371777832508087,"257":-0.17090357840061188,"258":1.962031364440918,"259":1.9544326066970825,"260":-0.08742792904376984,"261":0.3491367995738983,"262":1.4278628826141357,"263":0.6119880080223083,"264":-0.29492178559303284,"265":1.5069636106491089,"266":0.4085179567337036,"267":-1.2406487464904785,"268":-0.19342558085918427,"269":0.023869182914495468,"270":-1.3505953550338745,"271":-0.49728381633758545,"272":-0.39606934785842896,"273":-1.015896201133728,"274":0.3894954323768616,"275":-0.7504683136940002,"276":-0.6345155835151672,"277":-0.3944917619228363,"278":0.8296175003051758,"279":-0.9482248425483704,"280":-0.6528686881065369,"281":0.5432521104812622,"282":0.3749513626098633,"283":0.7083784341812134,"284":-1.119871973991394,"285":-0.23129403591156006,"286":0.11656475812196732,"287":-0.7749580144882202,"288":-0.021194282919168472,"289":-0.48484930396080017,"290":-1.0545668601989746,"291":-0.09375688433647156,"292":-0.20456752181053162,"293":-0.9100214838981628,"294":-0.03951813653111458,"295":1.1658754348754883,"296":0.267568975687027,"297":-0.1463177651166916,"298":0.2899688482284546,"299":-0.8444613814353943,"300":-1.090368628501892,"301":-0.3367549479007721,"302":-0.12636937201023102,"303":1.8846169710159302,"304":0.5335493683815002,"305":0.2525579035282135,"306":0.7156657576560974,"307":-0.07832516729831696,"308":0.33986178040504456,"309":-0.12770938873291016,"310":-1.4889802932739258,"311":-0.008850635029375553,"312":-0.3661056458950043,"313":-0.2911655902862549,"314":-1.7485840320587158,"315":0.11106422543525696,"316":0.730477511882782,"317":-0.9990554451942444,"318":-0.5066795349121094,"319":-0.7617452144622803,"320":1.3514097929000854,"321":-0.9839970469474792,"322":1.4587565660476685,"323":-0.6185925602912903,"324":-0.4868795871734619,"325":-1.546731948852539,"326":0.10136616975069046,"327":1.1833603382110596,"328":-0.03184743970632553,"329":-0.18558108806610107,"330":0.999834418296814,"331":-0.27562224864959717,"332":0.9674085974693298,"333":-1.2345329523086548,"334":-1.205855369567871,"335":0.1945452243089676,"336":-0.5911658406257629,"337":0.5011323690414429,"338":1.6230911016464233,"339":0.6988843679428101,"340":-0.07998496294021606,"341":0.2901906371116638,"342":-1.5344314575195312,"343":0.04491092264652252,"344":0.8851931095123291,"345":-0.2225894331932068,"346":0.5903294086456299,"347":-0.019085682928562164,"348":-1.259069561958313,"349":-1.5576072931289673,"350":-0.31480756402015686,"351":-0.11018916964530945,"352":-1.3840978145599365,"353":-0.806276261806488,"354":-0.5474831461906433,"355":-0.19266174733638763,"356":-2.2322826385498047,"357":-0.7175059914588928,"358":0.1781277358531952,"359":-0.25042474269866943,"360":0.2843024730682373,"361":-1.027009129524231,"362":-0.35000941157341003,"363":1.0689303874969482,"364":0.4597320258617401,"365":0.6038694977760315,"366":-0.26341089606285095,"367":-0.6963000297546387,"368":0.5982695817947388,"369":-0.3029009997844696,"370":-0.8602265119552612,"371":0.26500070095062256,"372":-1.0735535621643066,"373":-0.3215445876121521,"374":-1.109405279159546,"375":-0.9119777679443359,"376":1.073532223701477,"377":-0.15101207792758942,"378":-0.10027811676263809,"379":-1.1995677947998047,"380":1.0897220373153687,"381":-1.0732100009918213,"382":1.8454952239990234,"383":0.44186097383499146,"384":0.9912543296813965,"385":-1.210493803024292,"386":0.5305763483047485,"387":0.934897243976593,"388":0.3360540270805359,"389":0.6141741871833801,"390":-1.2740776538848877,"391":0.0918055847287178,"392":0.013786481693387032,"393":0.5604920983314514,"394":0.5744808316230774,"395":-2.0989341735839844,"396":-0.08106345683336258,"397":0.7343380451202393,"398":1.2280690670013428,"399":-0.060761258006095886}},"inputHidden":{"rows":20,"columns":20,"weights":{"0":1.1169650554656982,"1":-0.8768447637557983,"2":0.1681443750858307,"3":-0.18888041377067566,"4":-0.18468675017356873,"5":0.5237703323364258,"6":0.9297036528587341,"7":-0.21090716123580933,"8":-0.30480918288230896,"9":-0.17144018411636353,"10":0.5217278599739075,"11":-0.6801906824111938,"12":-1.1223548650741577,"13":-1.300373911857605,"14":-0.6397785544395447,"15":-0.417125403881073,"16":0.050859589129686356,"17":-0.32531049847602844,"18":-0.8430017828941345,"19":-0.8367869853973389,"20":-0.6471117734909058,"21":2.385314702987671,"22":-0.1062709391117096,"23":-0.44687601923942566,"24":0.45562389492988586,"25":-1.8766283988952637,"26":0.2777116000652313,"27":-0.2705078721046448,"28":1.3904814720153809,"29":1.7558220624923706,"30":-0.6966204643249512,"31":-0.7825813293457031,"32":-1.0150538682937622,"33":-0.12506890296936035,"34":-0.3559926450252533,"35":1.3854812383651733,"36":-0.782328188419342,"37":0.16199654340744019,"38":-0.21231327950954437,"39":0.8887216448783875,"40":0.11969979852437973,"41":-0.2562994360923767,"42":-0.6014032363891602,"43":-0.05696072056889534,"44":0.3099902272224426,"45":0.01560819149017334,"46":0.07495230436325073,"47":-1.6490148305892944,"48":-0.24123767018318176,"49":0.031429119408130646,"50":-0.1297943890094757,"51":0.6681784987449646,"52":0.2494610697031021,"53":-0.5314633846282959,"54":0.46425896883010864,"55":1.1334023475646973,"56":0.3754945397377014,"57":-0.20692874491214752,"58":0.7647920846939087,"59":1.4022443294525146,"60":0.8150885105133057,"61":-0.1324383169412613,"62":-1.3860139846801758,"63":0.736879825592041,"64":0.25279730558395386,"65":1.6931240558624268,"66":-0.9847794771194458,"67":-0.6142787337303162,"68":0.299835741519928,"69":-0.5640259385108948,"70":-1.3476369380950928,"71":-0.3417225182056427,"72":-0.9436560273170471,"73":1.6107186079025269,"74":-0.7326467633247375,"75":-0.6779101490974426,"76":-0.8911608457565308,"77":-0.6406285762786865,"78":-0.6593863368034363,"79":1.603053331375122,"80":-0.4785301387310028,"81":0.6795361042022705,"82":-1.1901721954345703,"83":-0.04745837301015854,"84":1.4710125923156738,"85":0.13642334938049316,"86":-0.3014359474182129,"87":0.7341075539588928,"88":0.942988932132721,"89":2.019864797592163,"90":-0.15656916797161102,"91":-1.174638271331787,"92":-1.3578342199325562,"93":-1.412847638130188,"94":-0.3841817080974579,"95":-0.47710782289505005,"96":-0.6046385765075684,"97":-0.7976990938186646,"98":0.41027459502220154,"99":0.9099700450897217,"100":-0.9503561854362488,"101":-1.219008445739746,"102":1.391693115234375,"103":-1.595729947090149,"104":0.8883504867553711,"105":-0.7932546734809875,"106":0.4437251389026642,"107":-0.32661744952201843,"108":0.6218814253807068,"109":0.6442225575447083,"110":0.32569965720176697,"111":-1.4706101417541504,"112":0.3522087633609772,"113":-0.11448614299297333,"114":0.9069714546203613,"115":0.5193901062011719,"116":-0.2699657380580902,"117":-0.18328359723091125,"118":-1.5438464879989624,"119":0.09753876179456711,"120":0.4983016848564148,"121":-0.253307044506073,"122":-0.4446224272251129,"123":1.1141170263290405,"124":0.9692409038543701,"125":0.1017063558101654,"126":0.5448535084724426,"127":-0.8629522323608398,"128":0.9140701293945312,"129":0.08892692625522614,"130":-0.7377048134803772,"131":-1.356125831604004,"132":1.8180052042007446,"133":-0.8754662871360779,"134":0.08673686534166336,"135":-1.1582680940628052,"136":-1.309448003768921,"137":0.2502462565898895,"138":-1.6179801225662231,"139":0.7740986943244934,"140":1.8927189111709595,"141":0.4938511848449707,"142":0.5547967553138733,"143":-0.6332628726959229,"144":-0.4139174520969391,"145":-2.609611988067627,"146":-0.586834192276001,"147":1.1065459251403809,"148":0.30118370056152344,"149":0.9290814995765686,"150":0.09243740886449814,"151":-0.5399017930030823,"152":0.6344482898712158,"153":-0.6026445627212524,"154":-0.5279918313026428,"155":-1.0301798582077026,"156":0.11852940917015076,"157":-0.6068087220191956,"158":0.0021471697837114334,"159":-0.6976801156997681,"160":1.010572910308838,"161":-1.0681110620498657,"162":-0.8340948224067688,"163":0.9918543696403503,"164":0.8910342454910278,"165":-0.9927109479904175,"166":-0.5754132270812988,"167":-0.6451720595359802,"168":0.0733477994799614,"169":0.38170602917671204,"170":-0.4578215777873993,"171":-0.85677570104599,"172":0.32488512992858887,"173":-0.36936646699905396,"174":0.6436333060264587,"175":0.01960790902376175,"176":-2.1239676475524902,"177":-0.006499153096228838,"178":-0.4810827970504761,"179":0.1914871782064438,"180":-0.7569418549537659,"181":1.6222727298736572,"182":0.9976704716682434,"183":-0.4176527261734009,"184":0.7220226526260376,"185":-2.4342544078826904,"186":-1.5369518995285034,"187":1.3338204622268677,"188":1.7258845567703247,"189":0.4832312762737274,"190":0.7792539596557617,"191":1.0485402345657349,"192":-0.2581229507923126,"193":0.9143722057342529,"194":-1.0779662132263184,"195":0.6294677257537842,"196":-2.8157217502593994,"197":1.4168336391448975,"198":0.3156467080116272,"199":0.6507970094680786,"200":-1.2160232067108154,"201":0.6141406297683716,"202":-0.5773811936378479,"203":-0.6021360754966736,"204":1.5485256910324097,"205":-0.5025135278701782,"206":-0.5398444533348083,"207":-0.6967328786849976,"208":2.540678024291992,"209":-0.23984991014003754,"210":-0.4511973559856415,"211":1.026993989944458,"212":1.1805521249771118,"213":-1.3983465433120728,"214":1.1508365869522095,"215":1.371579647064209,"216":-0.7827905416488647,"217":-0.45129892230033875,"218":-0.42629170417785645,"219":0.5428086519241333,"220":-1.52359139919281,"221":0.13552188873291016,"222":-0.9472694396972656,"223":0.14219480752944946,"224":-0.1784653514623642,"225":0.20468173921108246,"226":0.5054571628570557,"227":0.8308111429214478,"228":0.6970356106758118,"229":1.4144161939620972,"230":-1.033228874206543,"231":-0.5902764797210693,"232":-0.6258419752120972,"233":0.1583476960659027,"234":0.818349301815033,"235":-0.0824258029460907,"236":-1.0641955137252808,"237":-2.5101046562194824,"238":0.9082148671150208,"239":1.4163635969161987,"240":-0.2999938428401947,"241":-0.35681188106536865,"242":-0.036712028086185455,"243":-0.1401432752609253,"244":-0.5484983325004578,"245":-1.3382530212402344,"246":0.06158977746963501,"247":-0.9956567287445068,"248":0.8166975378990173,"249":0.6261129379272461,"250":0.1422213762998581,"251":0.6483486294746399,"252":-0.04668757691979408,"253":-1.3252750635147095,"254":1.608512043952942,"255":0.19837233424186707,