{"type":"LSTM","options":{"inputSize":22,"inputRange":22,"hiddenLayers":[10,20,10],"outputSize":22,"decayRate":0.999,"smoothEps":1e-8,"regc":0.000001,"clipval":5,"maxPredictionLength":100,"dataFormatter":{"indexTable":{"a":0,"r":1,"c":2,"d":3,"e":4," ":5,"s":6,"n":7,"i":8,"k":9,"v":10,"채":11,"l":12,"?":13,"o":14,"h":15,"m":16,"y":17,"g":18,"stop-input":19,"start-output":20,"unrecognized":21},"characterTable":{"0":"a","1":"r","2":"c","3":"d","4":"e","5":" ","6":"s","7":"n","8":"i","9":"k","10":"v","11":"채","12":"l","13":"?","14":"o","15":"h","16":"m","17":"y","18":"g","19":null,"20":null,"21":null},"values":[["a","r","c","a","d","e"," ","s","e","n","a","r","e"," ","i","k","v","채","l","l","?"],["o","h","m","y","g","o","d"]],"characters":["a","r","c","d","e"," ","s","n","i","k","v","채","l","?","o","h","m","y","g","stop-input","start-output","unrecognized"],"specialIndexes":[19,20,21]}},"input":{"rows":23,"columns":22,"weights":{"0":2.878978967666626,"1":1.7308135032653809,"2":-2.3683431148529053,"3":3.3588991165161133,"4":0.12437304109334946,"5":1.0586826801300049,"6":-1.4963048696517944,"7":-4.025935649871826,"8":3.7060770988464355,"9":-3.973564386367798,"10":-0.872714102268219,"11":2.480257987976074,"12":-2.8793833255767822,"13":-1.0669913291931152,"14":-0.6988674998283386,"15":-1.2401585578918457,"16":3.0309641361236572,"17":-3.3597753047943115,"18":-0.5901002287864685,"19":-1.905880331993103,"20":1.0017951726913452,"21":0.2492343932390213,"22":-0.30018630623817444,"23":-1.6537702083587646,"24":-0.021266821771860123,"25":-1.4052931070327759,"26":-1.7603833675384521,"27":0.5520756840705872,"28":2.272195339202881,"29":-0.7205857038497925,"30":-1.077243447303772,"31":2.5719611644744873,"32":0.779171347618103,"33":1.373818039894104,"34":1.461079478263855,"35":-0.16109110414981842,"36":-0.05380134657025337,"37":0.7297272682189941,"38":0.1070517748594284,"39":0.10218416899442673,"40":0.23738457262516022,"41":0.7131772637367249,"42":-0.4850512742996216,"43":1.5369747877120972,"44":-2.209153652191162,"45":3.027738571166992,"46":1.1707578897476196,"47":2.061882495880127,"48":1.6635832786560059,"49":-1.5735037326812744,"50":-3.697524309158325,"51":-2.0100533962249756,"52":1.1207975149154663,"53":-4.72012186050415,"54":-1.9103045463562012,"55":0.20079921185970306,"56":-2.7521207332611084,"57":-1.199730634689331,"58":-0.23595532774925232,"59":-0.37329667806625366,"60":-1.6165878772735596,"61":-5.356645107269287,"62":-2.562420606613159,"63":-0.4116857647895813,"64":0.8807928562164307,"65":0.6550690531730652,"66":-5.414597034454346,"67":-4.34311056137085,"68":5.8053483963012695,"69":-0.6588115096092224,"70":5.612644195556641,"71":4.83453369140625,"72":4.211953639984131,"73":-9.271906852722168,"74":-3.901909589767456,"75":1.7601591348648071,"76":1.3362358808517456,"77":4.999042987823486,"78":-6.168230056762695,"79":4.034658432006836,"80":2.2218587398529053,"81":6.2822442054748535,"82":3.5090556144714355,"83":-1.8992986679077148,"84":-2.780792474746704,"85":7.428319454193115,"86":7.043033123016357,"87":6.570847988128662,"88":-2.520765781402588,"89":0.9243635535240173,"90":-2.119317054748535,"91":-0.565308153629303,"92":1.2828723192214966,"93":-1.2193175554275513,"94":-0.057667121291160583,"95":1.6963317394256592,"96":0.09907916188240051,"97":-0.3088778257369995,"98":-0.17066296935081482,"99":-1.647731900215149,"100":-3.0038535594940186,"101":-0.6666291356086731,"102":1.2859853506088257,"103":2.6016414165496826,"104":1.2039498090744019,"105":1.2634570598602295,"106":0.9393686652183533,"107":2.0792598724365234,"108":2.845670700073242,"109":0.612119197845459,"110":-0.44012388586997986,"111":0.8703314661979675,"112":0.8578733801841736,"113":-2.0780396461486816,"114":-2.6538197994232178,"115":0.646668016910553,"116":0.6678211092948914,"117":1.2218904495239258,"118":-0.46672776341438293,"119":0.7000572681427002,"120":-1.2047175168991089,"121":-1.2498635053634644,"122":0.10439171642065048,"123":-1.5461375713348389,"124":0.18485189974308014,"125":0.5025595426559448,"126":-1.2518064975738525,"127":-0.2445966899394989,"128":-1.2578800916671753,"129":1.4465075731277466,"130":0.854967474937439,"131":-0.6148713827133179,"132":0.7175965309143066,"133":0.0003532676200848073,"134":0.630291223526001,"135":1.367492437362671,"136":-0.4452568590641022,"137":-1.150307536125183,"138":-0.5006082057952881,"139":-3.2415077686309814,"140":2.753561019897461,"141":-1.118206262588501,"142":-1.3413434028625488,"143":0.45914939045906067,"144":-0.9241151213645935,"145":-0.9877411723136902,"146":-0.3988277316093445,"147":0.8438411355018616,"148":-0.3591476082801819,"149":-2.5559051036834717,"150":1.1552520990371704,"151":1.053191900253296,"152":0.22670556604862213,"153":-1.884095549583435,"154":0.23707319796085358,"155":0.6743117570877075,"156":-0.37310948967933655,"157":1.0358185768127441,"158":1.3879101276397705,"159":-3.8031184673309326,"160":-3.944934844970703,"161":0.8498695492744446,"162":0.51186603307724,"163":-4.8225178718566895,"164":-3.3857340812683105,"165":0.40045812726020813,"166":-3.9193739891052246,"167":-4.256036281585693,"168":-1.6447341442108154,"169":-0.6963478326797485,"170":-4.164083957672119,"171":-0.7371898889541626,"172":2.983553647994995,"173":0.06548047065734863,"174":1.4109597206115723,"175":-2.72100567817688,"176":0.841218888759613,"177":-0.6601186394691467,"178":1.4371248483657837,"179":-0.9200563430786133,"180":0.0787387490272522,"181":2.0602142810821533,"182":0.977662980556488,"183":0.8668232560157776,"184":-1.0515854358673096,"185":-0.3595644533634186,"186":1.080357313156128,"187":-0.2818695604801178,"188":1.848741888999939,"189":-0.4047170877456665,"190":-0.08816050738096237,"191":-0.7374274134635925,"192":1.32681405544281,"193":-1.0531846284866333,"194":-0.12929336726665497,"195":-0.18608643114566803,"196":-2.3808698654174805,"197":0.9978958964347839,"198":2.727299928665161,"199":-2.1200172901153564,"200":1.6832634210586548,"201":1.7767928838729858,"202":1.7832233905792236,"203":4.961293697357178,"204":-0.5150482654571533,"205":-1.409233570098877,"206":-0.557037353515625,"207":1.9377038478851318,"208":1.0311764478683472,"209":4.244089126586914,"210":-1.4203376770019531,"211":1.5671920776367188,"212":1.0593243837356567,"213":-2.33394455909729,"214":0.1721723973751068,"215":-4.4424729347229,"216":-3.7959747314453125,"217":-0.48806580901145935,"218":0.8598675727844238,"219":4.815344333648682,"220":2.4744391441345215,"221":1.8964966535568237,"222":-3.3336615562438965,"223":0.4267052412033081,"224":-0.4754284620285034,"225":4.11803674697876,"226":4.236216068267822,"227":-0.07668352127075195,"228":1.6201591491699219,"229":3.3847084045410156,"230":7.967714309692383,"231":-0.7399725317955017,"232":2.682640314102173,"233":3.4462404251098633,"234":4.747076988220215,"235":-2.268775224685669,"236":0.263420969247818,"237":0.6690931916236877,"238":-1.7298322916030884,"239":-1.77484130859375,"240":-1.5172359943389893,"241":0.1046588271856308,"242":-1.82937753200531,"243":-0.42395690083503723,"244":1.5438933372497559,"245":1.3734076023101807,"246":-0.5225164890289307,"247":0.6415719389915466,"248":3.2510735988616943,"249":-0.7429043650627136,"250":-1.4272410869598389,"251":1.4326671361923218,"252":4.009956359863281,"253":2.628286600112915,"254":1.359761118888855,"255":3.004821300506592,"256":2.2608416080474854,"257":-0.6198446750640869,"258":2.299353837966919,"259":-0.3756786286830902,"260":-3.43966007232666,"261":0.9830271005630493,"262":-2.6845695972442627,"263":0.11331711709499359,"264":-2.6298067569732666,"265":1.043126106262207,"266":-0.5755517482757568,"267":0.8095036149024963,"268":0.18386821448802948,"269":-0.1297951489686966,"270":2.424440860748291,"271":1.4938931465148926,"272":-0.3609718382358551,"273":-2.294980764389038,"274":1.7825640439987183,"275":4.624795436859131,"276":2.9535727500915527,"277":-3.057304620742798,"278":-7.034722805023193,"279":-1.9762452840805054,"280":0.13745389878749847,"281":-1.4735267162322998,"282":-3.8313369750976562,"283":4.220986843109131,"284":-3.945777654647827,"285":1.4060262441635132,"286":-1.2660208940505981,"287":0.44862160086631775,"288":2.1073224544525146,"289":-0.5969786643981934,"290":1.2673648595809937,"291":1.1903156042099,"292":-2.701375961303711,"293":0.9099528789520264,"294":-1.6787995100021362,"295":-0.5292877554893494,"296":-0.6314134001731873,"297":-1.1698890924453735,"298":-1.3698298931121826,"299":-2.342313051223755,"300":-1.8790099620819092,"301":0.5576225519180298,"302":-0.7836419939994812,"303":0.82145094871521,"304":-0.44218090176582336,"305":1.9003127813339233,"306":2.483344793319702,"307":-0.28527721762657166,"308":-7.605044841766357,"309":-10.329203605651855,"310":-0.5110167264938354,"311":-8.318766593933105,"312":6.898259162902832,"313":-7.700863838195801,"314":7.071221351623535,"315":12.7489013671875,"316":-2.225529193878174,"317":9.905512809753418,"318":8.650727272033691,"319":-5.169981956481934,"320":-5.829132080078125,"321":2.2785351276397705,"322":-0.9896023273468018,"323":10.3795166015625,"324":-1.4992281198501587,"325":8.56672191619873,"326":6.330725193023682,"327":4.845762729644775,"328":-6.649091720581055,"329":3.3947954177856445,"330":-1.3227723836898804,"331":-2.745544195175171,"332":1.5341873168945312,"333":-1.1119822263717651,"334":2.6524784564971924,"335":1.4090055227279663,"336":1.3500168323516846,"337":-0.8533856272697449,"338":-2.1262662410736084,"339":-0.06489064544439316,"340":0.7242313027381897,"341":-0.7500619292259216,"342":1.3789125680923462,"343":1.2568069696426392,"344":3.5142626762390137,"345":0.6938414573669434,"346":-0.7285415530204773,"347":1.3621562719345093,"348":-2.297513008117676,"349":-0.41425612568855286,"350":-1.3245890140533447,"351":1.2296100854873657,"352":0.855561375617981,"353":4.63215446472168,"354":-1.9872817993164062,"355":0.1295958310365677,"356":2.556922435760498,"357":0.2502891719341278,"358":-1.4388881921768188,"359":-0.9182825684547424,"360":-1.8657970428466797,"361":-3.9513378143310547,"362":0.9918119311332703,"363":0.1340494155883789,"364":-3.620884418487549,"365":1.259952187538147,"366":2.261629819869995,"367":-0.6777365207672119,"368":1.023806095123291,"369":-0.1470930427312851,"370":-0.048528388142585754,"371":0.07953950017690659,"372":3.1671700477600098,"373":2.9092323780059814,"374":-0.7999207377433777,"375":-0.8273448348045349,"376":1.6603933572769165,"377":0.3909193277359009,"378":-1.8754382133483887,"379":2.5222558975219727,"380":0.3798966109752655,"381":-0.8047769665718079,"382":-0.05238890275359154,"383":1.2600711584091187,"384":0.54294353723526,"385":-0.6512678265571594,"386":1.1039117574691772,"387":-0.4117371141910553,"388":0.9693883061408997,"389":-1.4969654083251953,"390":0.859935462474823,"391":-1.3607555627822876,"392":-0.6465262174606323,"393":-0.5906148552894592,"394":-0.823512852191925,"395":1.8245481252670288,"396":15.947012901306152,"397":3.4262561798095703,"398":25.19329833984375,"399":3.684983968734741,"400":12.380851745605469,"401":-23.600753784179688,"402":-22.134145736694336,"403":-22.198854446411133,"404":9.982213973999023,"405":-3.971944808959961,"406":-18.327117919921875,"407":30.466365814208984,"408":-23.57230567932129,"409":-18.534563064575195,"410":-22.388059616088867,"411":25.269962310791016,"412":-19.22057342529297,"413":-21.253286361694336,"414":-19.333765029907227,"415":27.279739379882812,"416":24.80975341796875,"417":20.019458770751953,"418":-0.9235766530036926,"419":0.4864580035209656,"420":3.5849783420562744,"421":1.5768543481826782,"422":0.36104816198349,"423":-0.7101028561592102,"424":-2.8286685943603516,"425":0.1895982176065445,"426":1.787346363067627,"427":0.3377448320388794,"428":-1.6310795545578003,"429":1.6084074974060059,"430":-0.6285406351089478,"431":-2.418985366821289,"432":-0.719402551651001,"433":2.56514573097229,"434":2.181596279144287,"435":-1.200345754623413,"436":0.23388133943080902,"437":4.879289627075195,"438":4.520902156829834,"439":-1.842283844947815,"440":1.912543773651123,"441":-0.2717408239841461,"442":-2.4130659103393555,"443":0.2028321772813797,"444":-0.328347772359848,"445":-1.448106288909912,"446":1.3205366134643555,"447":1.0308133363723755,"448":-1.1149368286132812,"449":-1.1216697692871094,"450":3.804917097091675,"451":1.7228078842163086,"452":3.200329065322876,"453":2.7240781784057617,"454":0.00952744111418724,"455":-2.0370540618896484,"456":-3.4663162231445312,"457":3.725221872329712,"458":0.46741417050361633,"459":0.4357922375202179,"460":-2.242828130722046,"461":1.1434258222579956,"462":-1.3507750034332275,"463":-0.08991347998380661,"464":-1.0334111452102661,"465":-3.6471290588378906,"466":-1.0184454917907715,"467":-1.1777005195617676,"468":1.8369382619857788,"469":0.07539398223161697,"470":-1.9856045246124268,"471":2.0627920627593994,"472":2.449772596359253,"473":-3.6935791969299316,"474":-0.37088367342948914,"475":1.9728269577026367,"476":2.093546152114868,"477":0.6256737112998962,"478":-1.3245179653167725,"479":5.316719055175781,"480":-1.0904418230056763,"481":-1.674798846244812,"482":-1.347126841545105,"483":1.562785267829895,"484":-0.427283376455307,"485":-1.6377127170562744,"486":-0.7682000994682312,"487":2.029693126678467,"488":-3.2514917850494385,"489":2.295215129852295,"490":0.19978798925876617,"491":0.100739486515522,"492":1.1254496574401855,"493":0.16898761689662933,"494":-0.5959590077400208,"495":1.4059935808181763,"496":0.32151833176612854,"497":-1.2497010231018066,"498":-1.2940818071365356,"499":-2.4248690605163574,"500":1.0722225904464722,"501":-1.0931018590927124,"502":-2.3210463523864746,"503":-3.408773422241211,"504":-0.6422159671783447,"505":1.0407590866088867}},"hiddenLayers":[{"inputMatrix":{"rows":10,"columns":22,"weights":{"0":-0.5282844305038452,"1":-3.6216979026794434,"2":0.7587069869041443,"3":-0.789514422416687,"4":0.3881862759590149,"5":-0.6851487159729004,"6":0.7085496187210083,"7":-0.6215062737464905,"8":-1.8026350736618042,"9":3.190683126449585,"10":3.589056968688965,"11":1.7694987058639526,"12":-0.22831495106220245,"13":1.8028091192245483,"14":3.343994617462158,"15":0.8617222309112549,"16":-0.272634893655777,"17":-0.6010806560516357,"18":-1.9948114156723022,"19":0.2811281383037567,"20":-0.9348089694976807,"21":1.845913290977478,"22":-2.4897208213806152,"23":0.6199607253074646,"24":-1.8714057207107544,"25":-0.993121862411499,"26":-4.425240516662598,"27":0.3983266353607178,"28":2.325160026550293,"29":1.6691209077835083,"30":0.26076269149780273,"31":3.0652637481689453,"32":0.9593883156776428,"33":-0.35536304116249084,"34":3.5152482986450195,"35":1.5352531671524048,"36":-0.22805380821228027,"37":-0.6092515587806702,"38":-0.4211304783821106,"39":0.6831021308898926,"40":1.3936638832092285,"41":-0.21205100417137146,"42":-3.42734432220459,"43":-0.6083683967590332,"44":-0.6578766107559204,"45":-1.3781871795654297,"46":0.7101793885231018,"47":-0.7942060232162476,"48":-1.6381220817565918,"49":-0.20011423528194427,"50":0.2895004451274872,"51":-0.5619074702262878,"52":-0.4149056077003479,"53":1.275277853012085,"54":0.40168604254722595,"55":-0.8178101181983948,"56":1.169452428817749,"57":0.6807081699371338,"58":2.3725204467773438,"59":1.368107557296753,"60":-0.3867928683757782,"61":0.6768233776092529,"62":0.699590802192688,"63":0.9088934063911438,"64":-0.2852250039577484,"65":-0.7023501992225647,"66":-2.454089641571045,"67":-1.9150820970535278,"68":-0.44864505529403687,"69":-0.6554304957389832,"70":-1.2177708148956299,"71":0.07607318460941315,"72":0.8726795315742493,"73":0.54180908203125,"74":-0.5392923951148987,"75":-0.21851208806037903,"76":1.6964826583862305,"77":-0.9001782536506653,"78":2.7557923793792725,"79":1.3121538162231445,"80":-0.7387861013412476,"81":0.3604130446910858,"82":-0.05322723835706711,"83":0.6405498385429382,"84":0.2280997335910797,"85":0.9190929532051086,"86":-3.479027032852173,"87":1.5121524333953857,"88":-0.33491581678390503,"89":-0.05892817676067352,"90":-0.3479759693145752,"91":-1.493121862411499,"92":-2.3121323585510254,"93":-1.982358694076538,"94":-0.6165085434913635,"95":0.9824398159980774,"96":-1.9187333583831787,"97":2.035334825515747,"98":0.3671349287033081,"99":0.9945929050445557,"100":-0.14844700694084167,"101":-1.1744526624679565,"102":-0.4491892457008362,"103":4.000009059906006,"104":-2.7910587787628174,"105":2.6262123584747314,"106":3.9663431644439697,"107":3.7582998275756836,"108":-0.5061055421829224,"109":-4.7724528312683105,"110":-1.150675892829895,"111":-1.8844389915466309,"112":1.3244601488113403,"113":1.329599380493164,"114":-1.2372063398361206,"115":0.8261440992355347,"116":2.4160072803497314,"117":2.3849456310272217,"118":0.6242870688438416,"119":2.7794134616851807,"120":2.0446605682373047,"121":-0.19898727536201477,"122":2.45560622215271,"123":0.7731127738952637,"124":-0.8117664456367493,"125":-2.121755361557007,"126":-1.2670327425003052,"127":1.3418453931808472,"128":-0.1174876019358635,"129":0.5590904951095581,"130":-3.5053155422210693,"131":1.5414444208145142,"132":0.3454432487487793,"133":-0.6636762022972107,"134":-0.8265827298164368,"135":0.5100326538085938,"136":1.7468390464782715,"137":1.7694517374038696,"138":0.3495723307132721,"139":0.4374079406261444,"140":-2.5268008708953857,"141":-1.2936792373657227,"142":3.7962396144866943,"143":-0.1849519908428192,"144":0.9563621282577515,"145":5.246575355529785,"146":0.1542702168226242,"147":-0.14813107252120972,"148":1.0520644187927246,"149":2.087308645248413,"150":1.2540230751037598,"151":-0.05082191899418831,"152":-4.361828327178955,"153":-0.32082509994506836,"154":-2.440417766571045,"155":-0.6084644794464111,"156":6.979746341705322,"157":-3.2966132164001465,"158":0.5738553404808044,"159":0.9901149272918701,"160":-2.4916164875030518,"161":2.266523599624634,"162":-3.2694833278656006,"163":1.9031985998153687,"164":-1.2693229913711548,"165":-4.03026819229126,"166":3.106004476547241,"167":0.2408025860786438,"168":1.2071561813354492,"169":-0.5494251251220703,"170":-1.291263222694397,"171":0.7682313323020935,"172":0.30567705631256104,"173":0.5716301798820496,"174":0.3298833966255188,"175":0.5380269289016724,"176":0.7819668054580688,"177":-1.0195881128311157,"178":0.529180645942688,"179":-0.9290794134140015,"180":0.20169053971767426,"181":-0.16379904747009277,"182":0.8520220518112183,"183":-0.09265736490488052,"184":0.3468899130821228,"185":-0.07950778305530548,"186":1.8254553079605103,"187":-0.6488924026489258,"188":-0.3027500510215759,"189":0.8950205445289612,"190":-2.3412017822265625,"191":-1.191392421722412,"192":0.15080098807811737,"193":0.5113135576248169,"194":0.4645431637763977,"195":-0.7467124462127686,"196":-1.0148372650146484,"197":-0.37145450711250305,"198":0.07579108327627182,"199":-0.7953641414642334,"200":-1.8117735385894775,"201":-2.0603930950164795,"202":-1.3856080770492554,"203":1.3394615650177002,"204":2.1306796073913574,"205":4.373955249786377,"206":-1.0328257083892822,"207":2.367034435272217,"208":1.8957269191741943,"209":-3.4859366416931152,"210":2.358060598373413,"211":0.685792863368988,"212":-1.2267462015151978,"213":0.046069227159023285,"214":-0.6836716532707214,"215":0.18414126336574554,"216":-0.6314734220504761,"217":-0.4068751335144043,"218":-2.4510836601257324,"219":-0.6711462140083313}},"inputHidden":{"rows":10,"columns":10,"weights":{"0":-0.7704170942306519,"1":1.1268675327301025,"2":-2.462733745574951,"3":-0.8347788453102112,"4":-1.2255449295043945,"5":0.42154350876808167,"6":-0.23222866654396057,"7":-0.9055148363113403,"8":-4.263072490692139,"9":-4.015246391296387,"10":1.9919459819793701,"11":1.0330145359039307,"12":-2.643273115158081,"13":0.5582576394081116,"14":0.5606615543365479,"15":-3.504108190536499,"16":-0.04435889422893524,"17":-4.112943172454834,"18":-2.169057607650757,"19":0.632404625415802,"20":-4.09832239151001,"21":3.486766815185547,"22":-2.2420027256011963,"23":-5.522824287414551,"24":4.274587631225586,"25":-3.1326332092285156,"26":2.0509097576141357,"27":3.347297191619873,"28":5.548312187194824,"29":-0.19748683273792267,"30":2.19856858253479,"31":1.0512194633483887,"32":-0.8454254269599915,"33":0.8013041615486145,"34":-1.0540720224380493,"35":1.7859461307525635,"36":-0.8769268989562988,"37":0.4854467511177063,"38":-2.4659833908081055,"39":-2.73871111869812,"40":1.277925729751587,"41":-0.22854219377040863,"42":-1.340104579925537,"43":-0.23847344517707825,"44":-1.0718289613723755,"45":-0.16590993106365204,"46":0.35951748490333557,"47":-3.4918370246887207,"48":-0.9221792817115784,"49":-0.35288968682289124,"50":-0.733841598033905,"51":-2.5888161659240723,"52":-1.5888327360153198,"53":0.5922753810882568,"54":3.0915660858154297,"55":-1.532472014427185,"56":2.279489040374756,"57":3.117225408554077,"58":1.7377705574035645,"59":2.2282681465148926,"60":-1.781435489654541,"61":0.6774014830589294,"62":1.6732282638549805,"63":-0.3589365780353546,"64":-0.3019814193248749,"65":0.14062589406967163,"66":0.06784944981336594,"67":1.340573787689209,"68":-2.738051414489746,"69":-4.929741859436035,"70":-2.6548891067504883,"71":2.8580071926116943,"72":4.0356855392456055,"73":-3.800532817840576,"74":-2.471052646636963,"75":-0.8653050661087036,"76":2.2608494758605957,"77":0.28319066762924194,"78":-2.5568437576293945,"79":-1.0016980171203613,"80":4.8422393798828125,"81":-4.124258041381836,"82":-0.5491957068443298,"83":4.244450092315674,"84":-4.532623291015625,"85":1.8327765464782715,"86":-3.268205165863037,"87":-1.9369325637817383,"88":-3.0795936584472656,"89":-0.7707861661911011,"90":0.3160514831542969,"91":-1.5394716262817383,"92":-2.773834705352783,"93":0.8003767728805542,"94":-0.10972597450017929,"95":1.869438886642456,"96":-1.0054601430892944,"97":-1.2755112648010254,"98":-2.9888834953308105,"99":-2.143442392349243}},"inputBias":{"rows":10,"columns":1,"weights":{"0":-0.31146958470344543,"1":-0.507311224937439,"2":0.053254783153533936,"3":-0.3766914904117584,"4":-0.3867654502391815,"5":-0.30691418051719666,"6":-1.0358686447143555,"7":-0.45214399695396423,"8":-2.0114541053771973,"9":0.30414265394210815}},"forgetMatrix":{"rows":10,"columns":22,"weights":{"0":0.6193138360977173,"1":1.018777847290039,"2":-0.7419801950454712,"3":-0.5206089615821838,"4":2.6037936210632324,"5":-2.1242763996124268,"6":-3.5968189239501953,"7":-1.570929765701294,"8":-1.6643505096435547,"9":-0.36531439423561096,"10":-1.5969058275222778,"11":-0.09070298075675964,"12":-3.2892467975616455,"13":0.10994821786880493,"14":-0.2332262247800827,"15":0.2209472805261612,"16":-1.2606509923934937,"17":1.4878730773925781,"18":1.8071820735931396,"19":-1.2984057664871216,"20":2.877361536026001,"21":0.537538468837738,"22":-3.4953203201293945,"23":0.6320902705192566,"24":0.9383487105369568,"25":-1.8112577199935913,"26":1.4682154655456543,"27":-0.7104516625404358,"28":-1.145599365234375,"29":0.23333516716957092,"30":-2.09552264213562,"31":1.4341000318527222,"32":-3.959563970565796,"33":-0.687877357006073,"34":0.2281801700592041,"35":-0.7124937176704407,"36":1.2971141338348389,"37":2.045182943344116,"38":-2.038865804672241,"39":0.0043397583067417145,"40":1.1299042701721191,"41":1.7381597757339478,"42":2.240567207336426,"43":-1.3766632080078125,"44":-6.200860977172852,"45":0.9764689803123474,"46":-1.328436017036438,"47":2.7871360778808594,"48":-0.29086923599243164,"49":-0.44819074869155884,"50":1.8679100275039673,"51":-0.10348722338676453,"52":-0.5418764352798462,"53":-0.847432017326355,"54":1.5959186553955078,"55":0.5892598628997803,"56":-0.05227735638618469,"57":1.8084256649017334,"58":4.078849792480469,"59":1.0853168964385986,"60":-0.2444111555814743,"61":-0.8323399424552917,"62":-0.8399178385734558,"63":-0.21607421338558197,"64":-0.6236082315444946,"65":0.7713015079498291,"66":-0.04732843115925789,"67":1.0448451042175293,"68":-3.464151382446289,"69":0.08598984777927399,"70":0.9544956088066101,"71":-0.26665323972702026,"72":-0.1551588624715805,"73":-1.9687012434005737,"74":0.8949480652809143,"75":-0.9978361129760742,"76":0.2889552116394043,"77":3.6624348163604736,"78":-1.002548098564148,"79":-2.189753532409668,"80":0.09554722905158997,"81":1.9458045959472656,"82":1.5580291748046875,"83":-1.1056888103485107,"84":-1.763014554977417,"85":0.2575860321521759,"86":2.947206735610962,"87":2.2066051959991455,"88":-2.373530149459839,"89":0.5064253211021423,"90":0.13401105999946594,"91":-0.932983934879303,"92":1.0954519510269165,"93":-1.516737461090088,"94":-0.18885083496570587,"95":1.1469138860702515,"96":-1.5195930004119873,"97":-1.4540126323699951,"98":-2.5006015300750732,"99":-2.2610867023468018,"100":-0.5681543946266174,"101":-0.8421514630317688,"102":0.5488543510437012,"103":1.8977248668670654,"104":-2.1061456203460693,"105":1.6140339374542236,"106":-0.2204291820526123,"107":1.8041399717330933,"108":-0.9935171008110046,"109":-2.071063280105591,"110":-0.9339976906776428,"111":-1.2494819164276123,"112":-1.5036579370498657,"113":-2.491149663925171,"114":2.7573766708374023,"115":-1.4179800748825073,"116":-0.5045800805091858,"117":0.13369467854499817,"118":-3.624924421310425,"119":-2.1467630863189697,"120":0.6475505828857422,"121":-2.790987253189087,"122":-0.2811262905597687,"123":0.8657745122909546,"124":-1.2479984760284424,"125":0.2602004408836365,"126":-2.183011531829834,"127":0.36236023902893066,"128":4.001510143280029,"129":0.9323837161064148,"130":-0.43372851610183716,"131":0.86723393201828,"132":-1.6915292739868164,"133":1.6424202919006348,"134":-1.4263105392456055,"135":-0.3078392744064331,"136":0.5395224094390869,"137":-4.957212448120117,"138":1.6758577823638916,"139":0.26161956787109375,"140":0.9866400361061096,"141":1.310950517654419,"142":-2.1548025608062744,"143":-0.8691264390945435,"144":-0.6279791593551636,"145":-0.04214605316519737,"146":1.6666030883789062,"147":2.7896807193756104,"148":-3.115994930267334,"149":0.9542985558509827,"150":0.20381183922290802,"151":1.5702388286590576,"152":2.119939088821411,"153":-0.010608741082251072,"154":-2.7282590866088867,"155":0.5617676377296448,"156":0.30913636088371277,"157":0.5505473613739014,"158":5.214479446411133,"159":-0.28823181986808777,"160":-0.9758052229881287,"161":-1.7381623983383179,"162":-1.3569345474243164,"163":-2.2162933349609375,"164":1.8296231031417847,"165":3.0148518085479736,"166":-1.0010391473770142,"167":4.471455097198486,"168":2.2635769844055176,"169":-0.3618141710758209,"170":-1.4738891124725342,"171":0.7121769785881042,"172":-0.7654938697814941,"173":0.14741410315036774,"174":-1.1945596933364868,"175":-0.9070740342140198,"176":-4.989416122436523,"177":1.1060404777526855,"178":-0.20303882658481598,"179":0.33258572220802307,"180":5.406747817993164,"181":-0.8744932413101196,"182":-2.305802822113037,"183":-0.8034257292747498,"184":-2.630847215652466,"185":-4.187708854675293,"186":0.8309027552604675,"187":0.5661675930023193,"188":-0.5831477642059326,"189":2.2022645473480225,"190":0.6922175288200378,"191":-0.9123888611793518,"192":0.2558407485485077,"193":0.8334091305732727,"194":-0.5630943179130554,"195":0.30354174971580505,"196":0.6706088781356812,"197":2.4631338119506836,"198":-0.13537870347499847,"199":3.758542060852051,"200":-0.8672166466712952,"201":0.9013000130653381,"202":1.5440362691879272,"203":-5.022229194641113,"204":-2.8788139820098877,"205":-1.5220444202423096,"206":1.7410824298858643,"207":-0.995225727558136,"208":-1.7343926429748535,"209":-0.5560561418533325,"210":-1.5970125198364258,"211":-1.0427401065826416,"212":-2.313892364501953,"213":2.1519992351531982,"214":-2.7211382389068604,"215":0.0894426554441452,"216":2.5868144035339355,"217":-0.5977365970611572,"218":3.321091651916504,"219":-1.4411817789077759}},"forgetHidden":{"rows":10,"columns":10,"weights":{"0":0.7319276928901672,"1":-0.4210045337677002,"2":-0.9988241791725159,"3":-0.7290356755256653,"4":2.2788262367248535,"5":1.9954962730407715,"6":-1.5168697834014893,"7":3.0840351581573486,"8":-1.3846791982650757,"9":1.5979394912719727,"10":0.3365594446659088,"11":-0.8329344987869263,"12":-2.5143895149230957,"13":-0.3042762577533722,"14":5.023427963256836,"15":-3.659518003463745,"16":3.124459981918335,"17":2.9003169536590576,"18":3.250298023223877,"19":-5.8417582511901855,"20":-1.862725853919983,"21":3.1091578006744385,"22":1.2748581171035767,"23":-1.070635199546814,"24":1.3873813152313232,"25":-3.045691967010498,"26":2.1707942485809326,"27":0.003653458086773753,"28":-0.753782331943512,"29":0.08674196898937225,"30":-0.6231318116188049,"31":0.5344643592834473,"32":-4.263025283813477,"33":0.8224206566810608,"34":-0.3410135805606842,"35":-0.30642274022102356,"36":0.27034053206443787,"37":-0.3385540544986725,"38":0.6182003617286682,"39":-0.37349650263786316,"40":-2.0852391719818115,"41":2.968029737472534,"42":-5.169733047485352,"43":-2.52982234954834,"44":1.3518812656402588,"45":-0.2985290288925171,"46":0.4027673602104187,"47":1.0842781066894531,"48":6.663998126983643,"49":2.7753710746765137,"50":-3.2691166400909424,"51":3.153200149536133,"52":0.15334458649158478,"53":-3.0435707569122314,"54":-4.983491897583008,"55":0.5286152958869934,"56":-1.3108913898468018,"57":3.1605496406555176,"58":-4.214932918548584,"59":-3.683633804321289,"60":-1.1974564790725708,"61":-0.25276488065719604,"62":1.2315139770507812,"63":0.091190405189991,"64":-1.0805420875549316,"65":-1.446763515472412,"66":-0.5185485482215881,"67":1.9375425577163696,"68":-1.1560474634170532,"69":0.9445269107818604,"70":0.024486279115080833,"71":-2.2598822116851807,"72":0.36768490076065063,"73":1.8295565843582153,"74":-1.886858582496643,"75":2.1786890029907227,"76":-1.8837283849716187,"77":3.3167097568511963,"78":-3.412813425064087,"79":-3.931340456008911,"80":-0.9488795399665833,"81":2.958960771560669,"82":1.9436290264129639,"83":-3.7990949153900146,"84":0.7366843819618225,"85":-3.772867441177368,"86":3.727081060409546,"87":0.5563506484031677,"88":0.8066014647483826,"89":-1.1303582191467285,"90":-1.1180145740509033,"91":0.9543014764785767,"92":-0.8707308173179626,"93":-1.6659096479415894,"94":-2.405130624771118,"95":0.47163498401641846,"96":-1.531499981880188,"97":-0.45613086223602295,"98":0.5835815072059631,"99":-0.1673564910888672}},"forgetBias":{"rows":10,"columns":1,"weights":{"0":0,"1":0,"2":0,"3":0,"4":0,"5":0,"6":0,"7":0,"8":0,"9":0}},"outputMatrix":{"rows":10,"columns":22,"weights":{"0":0.7951642274856567,"1":-2.58156156539917,"2":2.6029295921325684,"3":-1.3465518951416016,"4":0.1064399853348732,"5":0.9127371907234192,"6":1.727526307106018,"7":0.3103615641593933,"8":0.33372315764427185,"9":5.081549644470215,"10":0.08600624650716782,"11":1.3060585260391235,"12":2.310950756072998,"13":-0.05483773350715637,"14":1.4945237636566162,"15":-0.9154325723648071,"16":-0.14952881634235382,"17":-0.6137805581092834,"18":-2.504082441329956,"19":0.5343629121780396,"20":-0.9999620914459229,"21":2.342517375946045,"22":0.745714008808136,"23":-1.7188100814819336,"24":0.38765642046928406,"25":-2.5932929515838623,"26":-2.0979113578796387,"27":0.48367518186569214,"28":2.002552032470703,"29":0.9859685301780701,"30":-1.908854365348816,"31":2.377559185028076,"32":1.1163628101348877,"33":-2.218479871749878,"34":2.1995630264282227,"35":1.4303028583526611,"36":0.4058375954627991,"37":-0.09108780324459076,"38":-0.1988488882780075,"39":0.474395751953125,"40":-0.2865177094936371,"41":-0.3206575810909271,"42":-1.54129159450531,"43":1.0528738498687744,"44":1.5076467990875244,"45":1.0256754159927368,"46":-2.4715774059295654,"47":-0.27064231038093567,"48":0.06866771727800369,"49":0.4570040702819824,"50":0.808784544467926,"51":0.6637969613075256,"52":-0.022674137726426125,"53":-0.7513091564178467,"54":1.7198634147644043,"55":-0.32395920157432556,"56":0.6892127394676208,"57":1.3619493246078491,"58":1.7945225238800049,"59":-0.20011481642723083,"60":0.3985689878463745,"61":0.24567462503910065,"62":0.6992557048797607,"63":-0.20330168306827545,"64":0.19683972001075745,"65":1.2890846729278564,"66":2.007263422012329,"67":-3.4320855140686035,"68":2.23459792137146,"69":-0.9273865222930908,"70":1.0269407033920288,"71":1.7465131282806396,"72":-1.1741646528244019,"73":-0.33146101236343384,"74":-3.4789955615997314,"75":1.5959560871124268,"76":3.913952350616455,"77":0.006118361372500658,"78":-0.22456054389476776,"79":3.015312671661377,"80":2.218381643295288,"81":-1.7833768129348755,"82":1.1461323499679565,"83":0.2649174928665161,"84":0.7881938219070435,"85":-1.7888014316558838,"86":-0.825178325176239,"87":1.125532627105713,"88":0.21763986349105835,"89":-0.006592603400349617,"90":0.7880879044532776,"91":-0.4960693418979645,"92":-2.466059923171997,"93":0.9934412240982056,"94":0.9751282334327698,"95":0.5503345131874084,"96":1.289024829864502,"97":1.793969750404358,"98":0.6412168741226196,"99":-0.2212369740009308,"100":0.2594364881515503,"101":-1.1332800388336182,"102":0.8659058213233948,"103":1.288112759590149,"104":1.7812719345092773,"105":0.6820980906486511,"106":0.04280688241124153,"107":1.289595127105713,"108":0.2369430959224701,"109":-0.06096359342336655,"110":1.2212605476379395,"111":-1.985053300857544,"112":1.098436713218689,"113":-1.8977042436599731,"114":-0.2071017473936081,"115":1.7724485397338867,"116":2.457118034362793,"117":0.62964928150177,"118":-1.8494623899459839,"119":1.3344805240631104,"120":1.8546154499053955,"121":0.20817531645298004,"122":2.558666467666626,"123":1.186291217803955,"124":0.3954384922981262,"125":-1.0752897262573242,"126":1.5867688655853271,"127":1.7173614501953125,"128":-1.0541094541549683,"129":0.02696867473423481,"130":-2.9732894897460938,"131":0.16034501791000366,"132":-0.27482420206069946,"133":-1.9350420236587524,"134":1.0068273544311523,"135":-1.1061487197875977,"136":-0.09677506983280182,"137":1.207673192024231,"138":3.238765001296997,"139":3.975799322128296,"140":0.2887134253978729,"141":3.1275832653045654,"142":1.4096457958221436,"143":-2.0976524353027344,"144":3.403581380844116,"145":2.101391315460205,"146":0.05138828977942467,"147":-1.0058237314224243,"148":0.22234773635864258,"149":-1.2391784191131592,"150":-0.9440476894378662,"151":-0.671527087688446,"152":-1.8117061853408813,"153":-0.17055684328079224,"154":-1.0602675676345825,"155":0.1764833927154541,"156":-0.8743438720703125,"157":-0.5669787526130676,"158":-1.4991559982299805,"159":1.757080078125,"160":1.0050607919692993,"161":0.6410850286483765,"162":1.2462152242660522,"163":-0.5298702716827393,"164":1.189456582069397,"165":-0.9286337494850159,"166":1.8976413011550903,"167":0.3504919409751892,"168":0.4420510530471802,"169":-0.7057482004165649,"170":0.8698462247848511,"171":0.9208054542541504,"172":-1.6353991031646729,"173":-0.8202882409095764,"174":-1.195574164390564,"175":-0.37185776233673096,"176":-1.38746976852417,"177":2.3738579750061035,"178":-0.5817748308181763,"179":0.338786244392395,"180":0.20791350305080414,"181":0.21057631075382233,"182":-0.5609504580497742,"183":1.4785088300704956,"184":1.151269793510437,"185":-1.1402652263641357,"186":-2.7376503944396973,"187":-0.9921750426292419,"188":-0.9193204045295715,"189":-2.2448370456695557,"190":-1.8923561573028564,"191":-0.04214741289615631,"192":0.5237585306167603,"193":1.2752867937088013,"194":-2.1614832878112793,"195":1.4448298215866089,"196":0.14906920492649078,"197":1.1152570247650146,"198":2.675569772720337,"199":0.9569803476333618,"200":-1.2500308752059937,"201":0.7217313647270203,"202":-0.24407577514648438,"203":-1.5754673480987549,"204":-1.055431604385376,"205":-0.3622182011604309,"206":2.0364248752593994,"207":0.10971839725971222,"208":-0.5957009196281433,"209":-1.0450849533081055,"210":1.0104990005493164,"211":-0.38503405451774597,"212":-1.3832968473434448,"213":-1.308210849761963,"214":-0.17698706686496735,"215":0.5384009480476379,"216":1.458520531654358,"217":-2.3161699771881104,"218":-0.18592149019241333,"219":-0.8751997351646423}},"outputHidden":{"rows":10,"columns":10,"weights":{"0":-0.40544945001602173,"1":1.1773501634597778,"2":-2.2300891876220703,"3":-0.49423906207084656,"4":1.0532572269439697,"5":-0.0689065009355545,"6":0.9457472562789917,"7":2.793332576751709,"8":0.8078442215919495,"9":-4.969791889190674,"10":-2.1229350566864014,"11":1.4302051067352295,"12":-0.11107885092496872,"13":-1.6828277111053467,"14":-1.2047899961471558,"15":-2.0637640953063965,"16":1.762345790863037,"17":-0.04283246770501137,"18":-0.30521029233932495,"19":3.142256021499634,"20":-1.91912841796875,"21":1.255030632019043,"22":2.170419216156006,"23":-2.4899535179138184,"24":1.249776005744934,"25":-3.363830089569092,"26":2.662639856338501,"27":1.5153844356536865,"28":2.386836528778076,"29":-3.4793174266815186,"30":-1.332768440246582,"31":2.626662492752075,"32":-0.4274909794330597,"33":-1.5712271928787231,"34":0.06711960583925247,"35":0.009594782255589962,"36":2.2768948078155518,"37":-0.4088866114616394,"38":-1.5408031940460205,"39":-2.673405885696411,"40":1.3581691980361938,"41":-2.9597768783569336,"42":-2.2364933490753174,"43":1.5198129415512085,"44":-2.397648811340332,"45":1.490892767906189,"46":-2.385678768157959,"47":-2.4223525524139404,"48":0.6284467577934265,"49":-1.0896869897842407,"50":1.076931118965149,"51":-3.0652005672454834,"52":-3.152101516723633,"53":1.611735224723816,"54":0.804375410079956,"55":-2.0367252826690674,"56":-0.3379215896129608,"57":-0.7890165448188782,"58":4.550791263580322,"59":0.09621139615774155,"60":-0.8894400000572205,"61":0.6721794009208679,"62":-0.2772965729236603,"63":-0.8504951000213623,"64":-3.466642141342163,"65":0.1810470074415207,"66":-1.1814677715301514,"67":0.8662447333335876,"68":-2.913274049758911,"69":-0.8548658490180969,"70":-0.7664200663566589,"71":-1.055306315422058,"72":2.2878758907318115,"73":-0.9909205436706543,"74":-1.206661581993103,"75":-4.836191177368164,"76":1.002406358718872,"77":3.2721774578094482,"78":3.0025954246520996,"79":4.2949113845825195,"80":1.8193398714065552,"81":-0.32265034317970276,"82":-2.990431070327759,"83":1.856794834136963,"84":1.233073115348816,"85":1.768721342086792,"86":-3.7006590366363525,"87":-3.029973030090332,"88":-2.315648317337036,"89":0.3723987638950348,"90":0.13987970352172852,"91":-1.6931625604629517,"92":-1.8790067434310913,"93":2.6121859550476074,"94":1.2392369508743286,"95":1.068210244178772,"96":-1.4820219278335571,"97":-2.7595267295837402,"98":-2.752680540084839,"99":0.9243720173835754}},"outputBias":{"rows":10,"columns":1,"weights":{"0":0.30728745460510254,"1":-0.10408636182546616,"2":0.6283671259880066,"3":0.2340690791606903,"4":-0.25693759322166443,"5":-0.2997669577598572,"6":-1.3397071361541748,"7":-0.2258342057466507,"8":-0.841202974319458,"9":0.2687501013278961}},"cellActivationMatrix":{"rows":10,"columns":22,"weights":{"0":-0.277055025100708,"1":1.9223060607910156,"2":1.6645011901855469,"3":1.9009251594543457,"4":-0.8981796503067017,"5":2.9190194606781006,"6":-3.178445816040039,"7":1.1496952772140503,"8":3.7967143058776855,"9":-1.937053918838501,"10":1.7658995389938354,"11":0.45753026008605957,"12":-0.12049295008182526,"13":1.0156859159469604,"14":0.593207836151123,"15":-5.490424633026123,"16":3.638495445251465,"17":-0.5409470200538635,"18":-1.6923348903656006,"19":-2.102499008178711,"20":-0.5803396105766296,"21":1.2823327779769897,"22":1.961532711982727,"23":-1.3519715070724487,"24":-1.3741703033447266,"25":-1.56746244430542,"26":-1.4490035772323608,"27":-2.840090036392212,"28":2.1101489067077637,"29":2.5342423915863037,"30":-1.6989185810089111,"31":0.3478570878505707,"32":0.29440176486968994,"33":-0.9967200756072998,"34":0.14489267766475677,"35":-3.144277811050415,"36":-1.712500810623169,"37":1.714043378829956,"38":0.05928182601928711,"39":0.7818954586982727,"40":2.0101194381713867,"41":0.1913696676492691,"42":0.4164671003818512,"43":-1.9432748556137085,"44":1.8453525304794312,"45":0.7090964913368225,"46":-2.0718436241149902,"47":0.34536075592041016,"48":-2.525339365005493,"49":-2.1225922107696533,"50":-1.959303617477417,"51":-0.07714326679706573,"52":0.8272497653961182,"53":-1.6674555540084839,"54":2.1384224891662598,"55":0.1145402193069458,"56":-1.6396222114562988,"57":1.9639114141464233,"58":2.389807939529419,"59":0.5602237582206726,"60":-0.8601873517036438,"61":0.3124302923679352,"62":1.7077332735061646,"63":-0.23924770951271057,"64":-1.1145564317703247,"65":-1.5397473573684692,"66":0.6548145413398743,"67":0.9605977535247803,"68":0.9042708873748779,"69":1.6137700080871582,"70":-0.3343653678894043,"71":2.3773410320281982,"72":1.6227612495422363,"73":-1.78842031955719,"74":1.9415173530578613,"75":-1.0937930345535278,"76":1.5922398567199707,"77":1.3744094371795654,"78":1.010388970375061,"79":0.2960264980792999,"80":0.7410665154457092,"81":-0.8892929553985596,"82":3.2601406574249268,"83":-1.0132832527160645,"84":0.690953254699707,"85":0.690086841583252,"86":-0.7758708000183105,"87":-0.45476698875427246,"88":-0.8349705338478088,"89":-0.42339077591896057,"90":-0.7668260931968689,"91":-0.8774300813674927,"92":1.218613624572754,"93":-1.0687609910964966,"94":0.08411899209022522,"95":0.5526286363601685,"96":-0.10308810323476791,"97":0.44372352957725525,"98":1.2750153541564941,"99":-0.3802167773246765,"100":-0.5295056104660034,"101":0.9336922764778137,"102":0.32821112871170044,"103":0.17115475237369537,"104":-0.014347993768751621,"105":1.1406725645065308,"106":2.229323625564575,"107":-0.03378952667117119,"108":-0.4210512936115265,"109":0.05424237251281738,"110":-0.6373911499977112,"111":-0.5826220512390137,"112":1.428279161453247,"113":-0.9355926513671875,"114":-1.163325309753418,"115":-0.7054652571678162,"116":2.104552745819092,"117":0.9082058072090149,"118":-0.21822436153888702,"119":0.590252161026001,"120":0.33500033617019653,"121":-0.13518325984477997,"122":1.2721922397613525,"123":-0.7263568639755249,"124":-0.165592223405838,"125":2.4958672523498535,"126":0.11611882597208023,"127":0.9066459536552429,"128":0.13188332319259644,"129":2.176516532897949,"130":0.3282610774040222,"131":-0.0774584487080574,"132":-1.1409779787063599,"133":0.4089376926422119,"134":-0.11986630409955978,"135":0.07576164603233337,"136":2.5453226566314697,"137":-1.008622407913208,"138":-0.7994973063468933,"139":-0.6218893527984619,"140":-2.209360361099243,"141":0.4117945730686188,"142":-2.621065855026245,"143":-1.8064374923706055,"144":-1.6241154670715332,"145":0.28351759910583496,"146":0.7676711678504944,"147":2.0185470581054688,"148":-4.2812418937683105,"149":0.3384634554386139,"150":0.05922134593129158,"151":-1.7748297452926636,"152":0.41584497690200806,"153":-0.1835935115814209,"154":0.709094762802124,"155":0.1936621516942978,"156":-1.8220161199569702,"157":-1.2258235216140747,"158":-1.1656467914581299,"159":-1.5723830461502075,"160":0.45700696110725403,"161":-0.277898371219635,"162":0.5382141470909119,"163":0.2947078347206116,"164":1.0158354043960571,"165":0.2929539382457733,"166":0.003084860509261489,"167":1.1703362464904785,"168":-0.23960106074810028,"169":1.2468421459197998,"170":0.25073468685150146,"171":1.50886869430542,"172":0.9917424917221069,"173":0.7433478832244873,"174":1.2993693351745605,"175":-1.252071738243103,"176":-0.33213353157043457,"177":0.7254074215888977,"178":-1.9581612348556519,"179":2.573611259460449,"180":0.1367723047733307,"181":-0.6668575406074524,"182":-1.2245005369186401,"183":-0.6021942496299744,"184":1.5027210712432861,"185":-1.7658144235610962,"186":-0.8248211741447449,"187":0.3588036596775055,"188":-3.0895042419433594,"189":-3.479588031768799,"190":-2.6043689250946045,"191":-0.45751267671585083,"192":0.6096577644348145,"193":0.5299828052520752,"194":1.7976746559143066,"195":-1.652825117111206,"196":1.6002132892608643,"197":-0.5793566703796387,"198":-0.15054288506507874,"199":-1.0045570135116577,"200":-1.6650267839431763,"201":2.4138059616088867,"202":2.226926565170288,"203":-1.7712820768356323,"204":1.0090956687927246,"205":-0.6244385242462158,"206":0.7617626786231995,"207":1.0781909227371216,"208":0.8442758321762085,"209":1.4585623741149902,"210":0.33582746982574463,"211":2.117154359817505,"212":2.9494988918304443,"213":-0.06276717782020569,"214":-2.0933220386505127,"215":-0.12957312166690826,"216":-0.4788614511489868,"217":-1.7664330005645752,"218":-0.04292600601911545,"219":1.1850069761276245}},"cellActivationHidden":{"rows":10,"columns":10,"weights":{"0":1.2340185642242432,"1":-2.5421550273895264,"2":3.419919729232788,"3":0.9992863535881042,"4":-1.1643856763839722,"5":-1.042716383934021,"6":2.503837823867798,"7":-1.9204738140106201,"8":-0.16463616490364075,"9":0.9935534596443176,"10":1.0317459106445312,"11":1.5054928064346313,"12":1.687674641609192,"13":1.389701247215271,"14":1.0710479021072388,"15":0.0522993728518486,"16":-0.20267698168754578,"17":2.129699230194092,"18":0.03664524853229523,"19":-1.1499897241592407,"20":-0.18681584298610687,"21":-1.9812777042388916,"22":0.9500650763511658,"23":-0.24000990390777588,"24":-1.1976664066314697,"25":-1.4899401664733887,"26":-0.5773229598999023,"27":-0.03237556293606758,"28":-4.3407816886901855,"29":-0.35798776149749756,"30":1.8750290870666504,"31":-0.9845843315124512,"32":-2.822620391845703,"33":-0.10629891604185104,"34":-0.5349109768867493,"35":1.3645120859146118,"36":-0.34484240412712097,"37":-4.5155439376831055,"38":-1.5602480173110962,"39":-1.8475066423416138,"40":-1.5409396886825562,"41":1.4693406820297241,"42":0.3081981837749481,"43":0.04102550074458122,"44":-4.032524108886719,"45":1.0662031173706055,"46":1.4199423789978027,"47":-0.5832946300506592,"48":-4.271740913391113,"49":-1.3145434856414795,"50":0.8987194299697876,"51":0.032939791679382324,"52":-1.1010998487472534,"53":1.3290258646011353,"54":-1.6834564208984375,"55":0.8860971331596375,"56":-1.099225401878357,"57":-1.535683035850525,"58":-1.6882075071334839,"59":-0.12006795406341553,"60":0.20049968361854553,"61":0.6347907185554504,"62":0.5106597542762756,"63":-0.8372344970703125,"64":0.2683940529823303,"65":-1.0857230424880981,"66":-0.5722514986991882,"67":0.18517015874385834,"68":1.1197853088378906,"69":-0.4097690284252167,"70":-1.7429003715515137,"71":0.6649816632270813,"72":2.037581443786621,"73":-2.2405152320861816,"74":0.7955917716026306,"75":-2.616917848587036,"76":0.7236419916152954,"77":2.468560218811035,"78":-0.2624717354774475,"79":0.041074834764003754,"80":0.6148139238357544,"81":0.3080311417579651,"82":0.5193935036659241,"83":1.2767900228500366,"84":-0.09978432953357697,"85":-1.4672447443008423,"86":1.2516350746154785,"87":0.33760660886764526,"88":-0.1993173062801361,"89":-0.2087690830230713,"90":0.580057680606842,"91":-0.16620458662509918,"92":-0.662337601184845,"93":1.6882438659667969,"94":-0.8124255537986755,"95":0.6020463705062866,"96":-3.2405660152435303,"97":2.1299688816070557,"98":0.7461832165718079,"99":-1.1656736135482788}},"cellActivationBias":{"rows":10,"columns":1,"weights":{"0":-0.225505068898201,"1":0.24466174840927124,"2":-0.3943750858306885,"3":-0.24716436862945557,"4":0.21223808825016022,"5":-0.22211170196533203,"6":0.22203287482261658,"7":-0.14448407292366028,"8":-1.1738677024841309,"9":0.4825725257396698}}},{"inputMatrix":{"rows":20,"columns":10,"weights":{"0":0.34543827176094055,"1":-1.279066801071167,"2":1.7136893272399902,"3":1.7188243865966797,"4":1.4385035037994385,"5":1.169706106185913,"6":-0.3066823184490204,"7":0.5109530091285706,"8":1.6411879062652588,"9":-1.4654734134674072,"10":5.372203350067139,"11":-1.4950778484344482,"12":-0.15081731975078583,"13":2.8110013008117676,"14":0.7233334183692932,"15":2.2221975326538086,"16":2.3762357234954834,"17":0.22285538911819458,"18":-0.1266094148159027,"19":1.624062418937683,"20":3.1356308460235596,"21":-4.155369281768799,"22":0.0816105455160141,"23":0.29051294922828674,"24":-0.9631792306900024,"25":1.754868507385254,"26":0.007310217246413231,"27":-2.0197246074676514,"28":-0.2557004988193512,"29":2.021353006362915,"30":4.6054487228393555,"31":-0.545383632183075,"32":1.2409714460372925,"33":2.899980068206787,"34":1.1533777713775635,"35":1.2566800117492676,"36":-2.795438766479492,"37":-0.17024613916873932,"38":0.9256531000137329,"39":-3.396294355392456,"40":-0.9889532923698425,"41":1.8344769477844238,"42":0.772003710269928,"43":-1.7049628496170044,"44":1.6928478479385376,"45":1.7455179691314697,"46":1.1129711866378784,"47":2.7254552841186523,"48":2.5433623790740967,"49":-0.0628223568201065,"50":-2.361220359802246,"51":1.5325316190719604,"52":1.9080755710601807,"53":-0.9417807459831238,"54":1.0531814098358154,"55":-0.5965520739555359,"56":0.9361221194267273,"57":0.857891857624054,"58":-2.0718190670013428,"59":-1.3148212432861328,"60":-2.4293136596679688,"61":1.2930994033813477,"62":-0.012473166920244694,"63":-2.1062347888946533,"64":-0.1903715282678604,"65":0.552334725856781,"66":-0.006507755257189274,"67":-0.7841067910194397,"68":-2.557882308959961,"69":-2.0069074630737305,"70":0.5426689386367798,"71":-0.014249974861741066,"72":-0.37802839279174805,"73":1.7938019037246704,"74":-2.5824859142303467,"75":1.015251874923706,"76":-5.340509414672852,"77":-1.8673125505447388,"78":-4.971179962158203,"79":1.041703224182129,"80":1.022607445716858,"81":1.5412722826004028,"82":1.7329487800598145,"83":-0.6313253045082092,"84":1.3446401357650757,"85":-1.3968932628631592,"86":2.989872694015503,"87":3.839191198348999,"88":2.6972806453704834,"89":0.5568435192108154,"90":-0.2449823021888733,"91":1.2261377573013306,"92":0.285878986120224,"93":-0.12010929733514786,"94":1.6613725423812866,"95":-1.0728652477264404,"96":0.8328478336334229,"97":-3.588796615600586,"98":0.13499562442302704,"99":0.26743242144584656,"100":0.6316742897033691,"101":0.1291104257106781,"102":-0.285740464925766,"103":0.695644736289978,"104":4.813920021057129,"105":-1.5233451128005981,"106":0.3331090211868286,"107":-4.288600444793701,"108":4.77139949798584,"109":-0.021149776875972748,"110":0.3012509346008301,"111":1.0322866439819336,"112":1.345361351966858,"113":2.2535529136657715,"114":-0.9795048236846924,"115":1.328689694404602,"116":2.1535732746124268,"117":-1.5283598899841309,"118":-0.23123905062675476,"119":0.18431177735328674,"120":-0.17304837703704834,"121":-0.34163299202919006,"122":-0.13226671516895294,"123":-0.4993964433670044,"124":1.0090506076812744,"125":0.36073848605155945,"126":1.5750932693481445,"127":-2.0523245334625244,"128":-0.19947515428066254,"129":-4.351643085479736,"130":3.7477712631225586,"131":-4.096634387969971,"132":-1.1150078773498535,"133":6.045317649841309,"134":1.4875811338424683,"135":1.2091373205184937,"136":-0.8084285259246826,"137":-2.5075504779815674,"138":0.7892900109291077,"139":0.6108817458152771,"140":-0.07668080180883408,"141":-2.517963171005249,"142":-0.20895758271217346,"143":-1.6431711912155151,"144":4.541475772857666,"145":1.1112496852874756,"146":3.179359197616577,"147":1.5172470808029175,"148":-1.1484119892120361,"149":0.33600422739982605,"150":-0.05249658599495888,"151":-0.37278199195861816,"152":3.7623724937438965,"153":-0.8473953008651733,"154":0.18337714672088623,"155":-0.7718604803085327,"156":-0.38360118865966797,"157":1.4209179878234863,"158":1.1399105787277222,"159":0.17978233098983765,"160":0.8676408529281616,"161":-0.6601313352584839,"162":1.0713974237442017,"163":1.8398511409759521,"164":-0.7352253794670105,"165":-0.7028013467788696,"166":-2.0735433101654053,"167":-0.7506421804428101,"168":3.119035005569458,"169":4.431990146636963,"170":1.2673943042755127,"171":-2.678187370300293,"172":0.284148246049881,"173":1.4608485698699951,"174":2.066119909286499,"175":-1.1100866794586182,"176":-1.7838236093521118,"177":1.124474287033081,"178":4.348472595214844,"179":-1.7868903875350952,"180":0.10014616698026657,"181":-0.30515527725219727,"182":2.2900032997131348,"183":-0.20848846435546875,"184":0.8472753763198853,"185":1.1436618566513062,"186":0.7002677321434021,"187":-1.512179970741272,"188":-3.373041868209839,"189":-0.3225003778934479,"190":2.1559314727783203,"191":-2.3267619609832764,"192":2.842761754989624,"193":0.27102434635162354,"194":-3.2225592136383057,"195":0.4086456596851349,"196":1.4650804996490479,"197":4.053239822387695,"198":1.4741517305374146,"199":-5.3324809074401855}},"inputHidden":{"rows":20,"columns":20,"weights":{"0":-1.8541110754013062,"1":4.133506774902344,"2":-1.7122156620025635,"3":1.7301647663116455,"4":-0.7001949548721313,"5":2.2543869018554688,"6":0.4295690953731537,"7":-3.476973533630371,"8":-2.143233060836792,"9":-1.4409297704696655,"10":-1.8137017488479614,"11":0.08613614737987518,"12":1.1498106718063354,"13":-0.7452684640884399,"14":1.359091877937317,"15":-1.922986388206482,"16":1.9893516302108765,"17":0.766926109790802,"18":0.5943247675895691,"19":-0.49944570660591125,"20":0.19157376885414124,"21":-0.07424116134643555,"22":-0.6122869253158569,"23":2.369640350341797,"24":-0.7691906094551086,"25":-1.3645445108413696,"26":0.758342981338501,"27":-1.3819761276245117,"28":-0.8766545057296753,"29":-2.241931438446045,"30":1.1120331287384033,"31":-1.2041573524475098,"32":-1.021833896636963,"33":-3.0491833686828613,"34":0.1611398607492447,"35":-1.2525213956832886,"36":2.3709535598754883,"37":0.9939286708831787,"38":0.18273718655109406,"39":-0.6060410737991333,"40":-1.6175363063812256,"41":-2.6458723545074463,"42":-0.3853708803653717,"43":-1.0332571268081665,"44":-0.8055381774902344,"45":-1.9597384929656982,"46":0.7324073910713196,"47":0.7276069521903992,"48":1.9299354553222656,"49":0.7725070118904114,"50":-1.374192714691162,"51":-0.24549289047718048,"52":-1.7426291704177856,"53":-1.405848741531372,"54":0.6170623898506165,"55":-0.6412315368652344,"56":-4.155245304107666,"57":-0.29749351739883423,"58":0.27918803691864014,"59":-1.6387991905212402,"60":-0.5074797868728638,"61":0.23778270184993744,"62":0.9601073265075684,"63":-0.16058367490768433,"64":-3.157620668411255,"65":-1.080788493156433,"66":-3.7084391117095947,"67":0.8526932001113892,"68":1.2229632139205933,"69":1.6442625522613525,"70":-0.2684714198112488,"71":3.5549275875091553,"72":0.5156332850456238,"73":2.376159906387329,"74":0.2256440669298172,"75":-1.7198657989501953,"76":1.6512870788574219,"77":-2.049534797668457,"78":-1.0532866716384888,"79":-0.0794593095779419,"80":-3.5290396213531494,"81":-3.7066762447357178,"82":-0.6627407073974609,"83":-2.320812940597534,"84":-2.4075875282287598,"85":1.049867868423462,"86":-2.8109283447265625,"87":2.77255916595459,"88":-2.119086265563965,"89":-0.503767192363739,"90":1.0365185737609863,"91":1.588559627532959,"92":0.37427467107772827,"93":1.3482567071914673,"94":-0.4970162510871887,"95":-1.6850725412368774,"96":-2.2708864212036133,"97":-0.7556589841842651,"98":0.5209280848503113,"99":-3.5619349479675293,"100":-1.0420304536819458,"101":-1.2052541971206665,"102":0.9812646508216858,"103":0.12248066067695618,"104":-0.8498036861419678,"105":0.4879707396030426,"106":2.071686029434204,"107":2.9165611267089844,"108":-1.0855706930160522,"109":0.6303759217262268,"110":-1.1132681369781494,"111":0.4130878150463104,"112":0.871239423751831,"113":0.9915371537208557,"114":2.4826302528381348,"115":2.4621682167053223,"116":-1.981178879737854,"117":1.7108715772628784,"118":4.225721836090088,"119":1.8222025632858276,"120":0.13574454188346863,"121":1.3174909353256226,"122":1.1678423881530762,"123":0.6614241600036621,"124":-1.4713256359100342,"125":4.381613254547119,"126":-0.6046070456504822,"127":1.1831026077270508,"128":-2.921719789505005,"129":0.7213568687438965,"130":-4.4269304275512695,"131":-0.5135347843170166,"132":-2.112581729888916,"133":0.6496680378913879,"134":-1.431520700454712,"135":-2.2494285106658936,"136":-1.8161187171936035,"137":-2.5544891357421875,"138":-0.8442105054855347,"139":-0.4662879705429077,"140":-1.572991967201233,"141":-0.16068194806575775,"142":-1.2103313207626343,"143":-0.0942237600684166,"144":-2.4015586376190186,"145":-0.5960893630981445,"146":-1.1645053625106812,"147":1.5571784973144531,"148":-0.8913772106170654,"149":-2.244511127471924,"150":1.3561116456985474,"151":0.9027125835418701,"152":0.3904043138027191,"153":1.7488166093826294,"154":1.4258583784103394,"155":-0.705760657787323,"156":0.6003704071044922,"157":1.7812869548797607,"158":1.565666675567627,"159":-1.8836215734481812,"160":1.3539761304855347,"161":0.08590441942214966,"162":3.6489999294281006,"163":0.12133976817131042,"164":2.0905959606170654,"165":-0.8825135231018066,"166":3.497520685195923,"167":-3.547332525253296,"168":1.647331953048706,"169":-3.1542372703552246,"170":-1.6944011449813843,"171":-0.1268170177936554,"172":-1.1715127229690552,"173":-1.906095027923584,"174":2.4545092582702637,"175":-2.3172056674957275,"176":-4.050798416137695,"177":-0.46442583203315735,"178":-1.9723163843154907,"179":-1.0852909088134766,"180":2.769202709197998,"181":1.4671825170516968,"182":-1.1539885997772217,"183":-0.013539464212954044,"184":-2.6370697021484375,"185":-1.46225905418396,"186":-4.2477335929870605,"187":1.8942643404006958,"188":0.17914575338363647,"189":2.3608593940734863,"190":-5.224480152130127,"191":-0.4961284101009369,"192":-1.1641499996185303,"193":-0.6228780746459961,"194":-0.22334063053131104,"195":-3.790738821029663,"196":-1.9627796411514282,"197":-0.6381163597106934,"198":3.0991122722625732,"199":-6.447309494018555,"200":0.22602495551109314,"201":-1.3924599885940552,"202":0.4765815734863281,"203":-0.7628889679908752,"204":-0.7546419501304626,"205":-0.7387787103652954,"206":1.512221336364746,"207":-0.21552889049053192,"208":-1.3974930047988892,"209":1.1463273763656616,"210":-0.10173109918832779,"211":-1.0881444215774536,"212":-0.5946864485740662,"213":2.5085182189941406,"214":1.3127257823944092,"215":-3.749783992767334,"216":0.39588838815689087,"217":0.4000930190086365,"218":-3.0950489044189453,"219":-2.1015586853027344,"220":-1.7108986377716064,"221":1.2859371900558472,"222":-0.3591044247150421,"223":-1.4303327798843384,"224":-3.489124298095703,"225":2.0460901260375977,"226":-3.1114542484283447,"227":3.269317150115967,"228":-0.266076922416687,"229":2.530780076980591,"230":-0.999266505241394,"231":-0.40430277585983276,"232":-2.165644407272339,"233":3.6498095989227295,"234":0.49185338616371155,"235":-1.6036012172698975,"236":1.945314645767212,"237":0.048319797962903976,"238":-1.4476019144058228,"239":-2.4861948490142822,"240":2.878147840499878,"241":-0.7400795817375183,"242":-0.7015118598937988,"243":-0.016066372394561768,"244":0.2546861469745636,"245":1.8495460748672485,"246":1.1048344373703003,"247":-1.714498519897461,"248":-4.0190582275390625,"249":-1.1028633117675781,"250":-2.3111932277679443,"251":-1.9001224040985107,"252":0.33662065863609314,"253":1.1835747957229614,"254":0.4476594924926758,"255":-3.030444383621216,"256":0.6987890601158142,"257":0.540355384349823,"258":-0.04112635552883148,"259":-3.1894359588623047,"260":-0.4569283723831177,"261":-2.9291462898254395,"262":1.7060497999191284,"263":-1.4328601360321045,"264":2.0475690364837646,"265":4.148956775665283,"266":-2.3093435764312744,"267":1.839349627494812,"268":-2.026094436645508,"269":1.6985344886779785,"270":-1.7387266159057617,"271":-0.5584562420845032,"272":1.4934097528457642,"273":0.31334182620048523,"274":0.3003841042518616,"275":0.23721632361412048,"276":-0.5147892832756042,"277":1.2925697565078735,"278":2.348811388015747,"279":-3.3602824211120605,"280":1.1451009511947632,"281":0.06825750321149826,"282":-2.06009578704834,"283":1.0590434074401855,"284":-0.5715319514274597,"285":-1.4804344177246094,"286":0.1775377243757248,"287":0.9268161654472351,"288":1.2710442543029785,"289":0.39543718099594116,"290":-0.5631651282310486,"291":1.7855315208435059,"292":-1.4357284307479858,"293":-2.2831411361694336,"294":0.10789702087640762,"295":-3.750863552093506,"296":-2.5909836292266846,"297":3.256434202194214,"298":-0.08761318773031235,"299":-1.028882622718811,"300":-2.140376091003418,"301":-2.413661479949951,"302":-1.291670560836792,"303":0.807583749294281,"304":2.4390580654144287,"305":-0.06831393390893936,"306":0.05575910210609436,"307":-1.3595517873764038,"308":1.0713907480239868,"309":-0.46730634570121765,"310":-1.3956776857376099,"311":-2.674592971801758,"312":1.7983932495117188,"313":0.6840611696243286,"314":1.6962039470672607,"315":1.0185853242874146,"316":-1.1565817594528198,"317":1.122145652770996,"318":1.2202187776565552,"319":2.457127332687378,"320":-2.1864023208618164,"321":-2.3678317070007324,"322":-1.6384879350662231,"323":-5.0378007888793945,"324":-2.9688050746917725,"325":-1.0003445148468018,"326":-2.8568167686462402,"327":5.386712074279785,"328":3.7438008785247803,"329":-1.396154522895813,"330":-0.5402853488922119,"331":3.715660333633423,"332":1.7366403341293335,"333":3.542637825012207,"334":2.4496853351593018,"335":-3.3322439193725586,"336":-4.567580223083496,"337":1.8230947256088257,"338":2.516789436340332,"339":-0.7775906324386597,"340":-0.5527576208114624,"341":1.554598331451416,"342":-1.8281217813491821,"343":0.4655874967575073,"344":0.3051951825618744,"345":0.08230818808078766,"346":0.9047535061836243,"347":0.03345111012458801,"348":-2.484903335571289,"349":0.5899620652198792,"350":2.5886623859405518,"351":0.9422484040260315,"352":0.178570955991745,"353":-0.5520836114883423,"354":0.9921701550483704,"355":-2.799222707748413,"356":-2.6096057891845703,"357":1.7933191061019897,"358":-1.4223299026489258,"359":-1.4787914752960205,"360":-2.199864149093628,"361":-1.5476179122924805,"362":-0.579993486404419,"363":1.7698417901992798,"364":-0.8148355484008789,"365":3.90287446975708,"366":-0.08670186996459961,"367":-2.302823305130005,"368":2.42924165725708,"369":-0.6389055848121643,"370":-2.2978384494781494,"371":-2.0484888553619385,"372":0.8256520628929138,"373":-0.3171709477901459,"374":0.32429924607276917,"375":-0.6276054382324219,"376":1.0303328037261963,"377":-1.618417739868164,"378":-2.7352616786956787,"379":0.8069349527359009,"380":2.180546760559082,"381":2.522960901260376,"382":-2.397381067276001,"383":1.4965840578079224,"384":0.26022613048553467,"385":1.604380488395691,"386":-0.3974786400794983,"387":-3.1091339588165283,"388":1.710182547569275,"389":-2.619096040725708,"390":-0.6777356266975403,"391":-1.4498473405838013,"392":0.7109524011611938,"393":-2.165043830871582,"394":0.4607016444206238,"395":2.2962632179260254,"396":-3.7024197578430176,"397":-0.2684233784675598,"398":-1.112365484237671,"399":2.014857530593872}},"inputBias":{"rows":20,"columns":1,"weights":{"0":-0.40125688910484314,"1":1.758746862411499,"2":1.8898429870605469,"3":0.30966275930404663,"4":-2.382338285446167,"5":-0.1756049394607544,"6":-1.8697972297668457,"7":-1.6849174499511719,"8":-0.8077096939086914,"9":-0.1992887705564499,"10":0.8154430389404297,"11":-1.890576958656311,"12":0.9936695694923401,"13":-0.8515892624855042,"14":1.6420249938964844,"15":-2.5623888969421387,"16":-2.0999369621276855,"17":-2.1113767623901367,"18":0.34706422686576843,"19":0.4860210716724396}},"forgetMatrix":{"rows":20,"columns":10,"weights":{"0":-0.5638080835342407,"1":0.6092121005058289,"2":-0.2952769100666046,"3":-0.27578961849212646,"4":-0.44842880964279175,"5":-2.541637897491455,"6":3.914836883544922,"7":3.0058279037475586,"8":0.6043325662612915,"9":-1.1728919744491577,"10":1.285102367401123,"11":-1.760625958442688,"12":0.2521345615386963,"13":1.8521945476531982,"14":-0.5305795073509216,"15":-1.8822836875915527,"16":2.9637043476104736,"17":-1.0643397569656372,"18":0.43761909008026123,"19":-1.5331625938415527,"20":2.53163743019104,"21":-1.298408031463623,"22":2.686314582824707,"23":4.854884624481201,"24":-1.7725027799606323,"25":-7.2206902503967285,"26":-0.4544529616832733,"27":-1.3634415864944458,"28":-1.9274585247039795,"29":0.44793179631233215,"30":3.908545732498169,"31":-3.9509787559509277,"32":1.3273078203201294,"33":5.557867527008057,"34":-1.1849355697631836,"35":0.07609812915325165,"36":-3.287294387817383,"37":-1.3621307611465454,"38":2.046337127685547,"39":-3.1920549869537354,"40":1.7167351245880127,"41":-2.3253660202026367,"42":-2.497899293899536,"43":2.73592472076416,"44":-5.191636562347412,"45":-2.1431055068969727,"46":-4.42042875289917,"47":-0.18847961723804474,"48":-1.5534571409225464,"49":0.8553144931793213,"50":-1.2185097932815552,"51":0.9692334532737732,"52":-0.8277057409286499,"53":-1.4915642738342285,"54":3.078423261642456,"55":-2.0228304862976074,"56":4.249113082885742,"57":2.1368110179901123,"58":1.2210187911987305,"59":1.8761436939239502,"60":1.9400705099105835,"61":-1.195763111114502,"62":-0.9661722779273987,"63":-0.2431119680404663,"64":-1.8865879774093628,"65":-4.108161449432373,"66":3.399838924407959,"67":-0.1853884905576706,"68":0.15966208279132843,"69":1.1349128484725952,"70":4.038699626922607,"71":-3.1627914905548096,"72":-1.502672553062439,"73":2.800448179244995,"74":-1.5992194414138794,"75":-0.5183054208755493,"76":-1.4311330318450928,"77":0.4828667640686035,"78":-1.0004667043685913,"79":-4.827831745147705,"80":1.0413280725479126,"81":-3.125741720199585,"82":0.8432607650756836,"83":4.977210998535156,"84":-1.474848747253418,"85":4.310144424438477,"86":-1.14595627784729,"87":1.116559624671936,"88":5.1879143714904785,"89":3.3596742153167725,"90":-0.8601838946342468,"91":2.7013933658599854,"92":2.630384683609009,"93":-2.384648084640503,"94":-0.3130262494087219,"95":-0.3660869896411896,"96":0.052362434566020966,"97":-1.2301703691482544,"98":4.5164794921875,"99":2.0111193656921387,"100":1.8832162618637085,"101":0.06308598071336746,"102":0.12187527865171432,"103":-0.03454459458589554,"104":-0.9832355380058289,"105":-1.0431537628173828,"106":2.522664785385132,"107":2.50382399559021,"108":-1.0689879655838013,"109":1.4332267045974731,"110":3.38895845413208,"111":-0.26575547456741333,"112":1.7513800859451294,"113":0.2798767685890198,"114":-0.6148054003715515,"115":-0.6962864398956299,"116":-1.794801950454712,"117":-3.814070701599121,"118":0.3576243817806244,"119":1.4003759622573853,"120":-1.3059548139572144,"121":0.051932357251644135,"122":0.6911397576332092,"123":0.6320153474807739,"124":-1.267594575881958,"125":-0.7901936769485474,"126":-1.2136013507843018,"127":2.619767189025879,"128":1.0141047239303589,"129":-3.296092987060547,"130":-0.7137436866760254,"131":-1.4236462116241455,"132":2.78541898727417,"133":-1.5702170133590698,"134":2.4951651096343994,"135":-3.6035773754119873,"136":-0.07571154087781906,"137":3.0683088302612305,"138":-1.6840085983276367,"139":1.0833243131637573,"140":-3.3577818870544434,"141":-1.0980147123336792,"142":4.266786575317383,"143":0.34924307465553284,"144":-0.4505453407764435,"145":-2.219752311706543,"146":2.06103777885437,"147":0.3932737112045288,"148":-0.8671512603759766,"149":-2.8391780853271484,"150":2.0329535007476807,"151":-0.015148193575441837,"152":-1.9241324663162231,"153":1.5645067691802979,"154":-1.1689037084579468,"155":1.4582200050354004,"156":-2.8636226654052734,"157":-0.1663738340139389,"158":-2.6640141010284424,"159":0.19198273122310638,"160":-5.324438095092773,"161":1.3910057544708252,"162":-0.6304422616958618,"163":-1.0505318641662598,"164":-2.131054162979126,"165":-0.7812318205833435,"166":7.204004287719727,"167":2.202740430831909,"168":4.20799446105957,"169":-0.036145493388175964,"170":-3.4109811782836914,"171":0.5741494297981262,"172":0.9260927438735962,"173":-4.063560962677002,"174":-3.5782313346862793,"175":0.693458616733551,"176":1.0780658721923828,"177":2.772481918334961,"178":2.199479579925537,"179":-0.17101073265075684,"180":-0.3595016300678253,"181":-0.5708585381507874,"182":-0.5135419368743896,"183":-0.9260730147361755,"184":0.8980929851531982,"185":-2.9706175327301025,"186":-0.9934369921684265,"187":-0.27777332067489624,"188":-2.070897340774536,"189":5.328475475311279,"190":2.909719467163086,"191":0.1660921275615692,"192":-0.19670209288597107,"193":0.26929792761802673,"194":3.286172866821289,"195":0.6453056335449219,"196":-0.310959130525589,"197":-0.3615403473377228,"198":-1.1594891548156738,"199":1.1195579767227173}},"forgetHidden":{"rows":20,"columns":20,"weights":{"0":0.034396249800920486,"1":0.7080408334732056,"2":2.0984489917755127,"3":-1.4876946210861206,"4":-2.589352607727051,"5":-1.716487169265747,"6":-1.8274660110473633,"7":-0.07597654312849045,"8":5.357062816619873,"9":4.365901947021484,"10":2.5947141647338867,"11":1.389744520187378,"12":-1.5922366380691528,"13":2.574791431427002,"14":1.479529857635498,"15":-0.8592537045478821,"16":1.184773564338684,"17":-3.156125545501709,"18":-0.10104387253522873,"19":-1.297972559928894,"20":0.2785429060459137,"21":-0.4858757555484772,"22":3.432124137878418,"23":-1.7735803127288818,"24":-0.18165752291679382,"25":0.5106284022331238,"26":-1.5175877809524536,"27":-0.31815609335899353,"28":0.5313822627067566,"29":1.178207278251648,"30":1.1300140619277954,"31":2.0164127349853516,"32":-3.33474063873291,"33":-2.691816806793213,"34":2.331796884536743,"35":0.8566243648529053,"36":-1.748157024383545,"37":-2.1285223960876465,"38":-0.3076842427253723,"39":-1.1979789733886719,"40":-0.10106644034385681,"41":-0.1470213234424591,"42":0.4077860116958618,"43":4.4026007652282715,"44":0.9084265828132629,"45":0.1351696103811264,"46":0.7229708433151245,"47":-2.2290167808532715,"48":2.807805299758911,"49":-1.3667346239089966,"50":-2.8413329124450684,"51":1.685129165649414,"52":-0.5586660504341125,"53":0.89191734790802,"54":0.6569651961326599,"55":0.047213658690452576,"56":1.404602289199829,"57":-2.346430540084839,"58":1.8173129558563232,"59":-0.48117905855178833,"60":0.1649750918149948,"61":1.6255128383636475,"62":-2.8072283267974854,"63":-3.8101751804351807,"64":2.3788702487945557,"65":-1.7619836330413818,"66":-3.4071497917175293,"67":2.404670238494873,"68":-0.8972998261451721,"69":1.3562233448028564,"70":-1.6944538354873657,"71":1.7288286685943604,"72":1.0422407388687134,"73":3.380831718444824,"74":0.09636905789375305,"75":-0.06860151886940002,"76":-0.5880903005599976,"77":0.588710606098175,"78":1.3339344263076782,"79":-2.281111717224121,"80":1.173812985420227,"81":-0.3694530725479126,"82":0.02635042741894722,"83":-2.65338134765625,"84":2.094897508621216,"85":-0.04236042872071266,"86":1.906883955001831,"87":-2.60142183303833,"88":-2.981445550918579,"89":0.3910837471485138,"90":0.2872549295425415,"91":-0.3400546908378601,"92":2.3699138164520264,"93":-1.7765467166900635,"94":1.81475031375885,"95":-0.3229900598526001,"96":-0.13319838047027588,"97":0.6685360670089722,"98":-1.2655346393585205,"99":-1.0063683986663818,"100":2.0287301540374756,"101":0.7461305260658264,"102":0.932039737701416,"103":-2.9326024055480957,"104":-2.083791971206665,"105":0.5792999267578125,"106":-1.2743198871612549,"107":2.9080557823181152,"108":-0.33156201243400574,"109":0.14353632926940918,"110":-1.112125277519226,"111":-2.4611945152282715,"112":-0.6341248154640198,"113":1.7528067827224731,"114":0.4708007872104645,"115":-1.7152314186096191,"116":-0.8631936311721802,"117":-0.07943964749574661,"118":3.8665082454681396,"119":2.578449249267578,"120":-2.2250380516052246,"121":0.08279985934495926,"122":0.4078578054904938,"123":-1.9223285913467407,"124":-1.351210594177246,"125":1.358593463897705,"126":-1.0441703796386719,"127":3.141317844390869,"128":-0.9124475717544556,"129":1.6171947717666626,"130":1.3338115215301514,"131":0.3486385941505432,"132":-0.2091847062110901,"133":0.9401844143867493,"134":-1.1515895128250122,"135":-0.9030286073684692,"136":2.9157657623291016,"137":0.16371649503707886,"138":0.04881121590733528,"139":-1.127945899963379,"140":2.550053834915161,"141":0.7610511779785156,"142":-1.0494545698165894,"143":-0.7179298996925354,"144":-0.5647338628768921,"145":0.841164231300354,"146":-2.3449349403381348,"147":2.0359179973602295,"148":1.2996853590011597,"149":1.2568327188491821,"150":1.7885040044784546,"151":-0.41183364391326904,"152":-0.3016672432422638,"153":0.8914197683334351,"154":-0.2515866160392761,"155":1.4118574857711792,"156":0.8540281653404236,"157":-0.7591603398323059,"158":-1.5397748947143555,"159":1.9010984897613525,"160":3.4471914768218994,"161":0.05690242722630501,"162":3.6347358226776123,"163":-3.6062893867492676,"164":-2.0347166061401367,"165":1.1908605098724365,"166":1.9160152673721313,"167":-1.174820065498352,"168":1.4135411977767944,"169":-0.7513790130615234,"170":0.8598405718803406,"171":2.598245143890381,"172":-0.2453189194202423,"173":-3.151252269744873,"174":-1.8655601739883423,"175":3.404278516769409,"176":-4.786382675170898,"177":-1.0533140897750854,"178":-2.03206729888916,"179":-3.5388927459716797,"180":-0.418681263923645,"181":-0.16175100207328796,"182":-2.5164501667022705,"183":-0.4013553559780121,"184":-3.805776596069336,"185":0.610634982585907,"186":-0.8678638935089111,"187":0.023984229192137718,"188":0.6379839181900024,"189":4.009756565093994,"190":1.9018803834915161,"191":1.3326377868652344,"192":2.4465107917785645,"193":-4.578157901763916,"194":-4.979368686676025,"195":7.095366954803467,"196":0.24793347716331482,"197":-2.8903846740722656,"198":-1.0849038362503052,"199":0.4952819347381592,"200":0.918188750743866,"201":-1.8774070739746094,"202":0.43035492300987244,"203":2.5663342475891113,"204":-2.8922412395477295,"205":0.9984260201454163,"206":-1.412099003791809,"207":0.6039628982543945,"208":3.9499521255493164,"209":0.5803738236427307,"210":-0.6540399193763733,"211":0.008932189084589481,"212":-0.3313550055027008,"213":-2.2341392040252686,"214":-3.803499460220337,"215":1.5087156295776367,"216":0.8629422187805176,"217":-2.6634275913238525,"218":-0.6779059171676636,"219":3.186126470565796,"220":-6.31711483001709,"221":-2.6437926292419434,"222":-1.1333593130111694,"223":0.2520059049129486,"224":-1.5775855779647827,"225":-4.493740558624268,"226":2.6186423301696777,"227":-2.2672176361083984,"228":-0.2297048568725586,"229":-0.8356372714042664,"230":-4.4703474044799805,"231":-1.2185059785842896,"232":2.4093689918518066,"233":-0.3419854938983917,"234":2.8697261810302734,"235":3.0607028007507324,"236":-0.9898775219917297,"237":-1.0212832689285278,"238":1.4997808933258057,"239":-1.8280431032180786,"240":-0.36022549867630005,"241":1.9782158136367798,"242":-1.969849705696106,"243":-0.8933405876159668,"244":-0.044617898762226105,"245":-0.15189681947231293,"246":-1.3109767436981201,"247":-1.7409017086029053,"248":2.661543846130371,"249":-0.1425977200269699,"250":2.833404779434204,"251":0.6183520555496216,"252":-1.526962399482727,"253":-0.5965408682823181,"254":2.250474214553833,"255":1.9971404075622559,"256":0.5377992987632751,"257":-0.5599987506866455,"258":0.04781976714730263,"259":1.187856912612915,"260":0.12506860494613647,"261":0.7037349343299866,"262":-1.836267352104187,"263":-0.461059033870697,"264":-2.35284161567688,"265":-0.4515022933483124,"266":1.162732720375061,"267":1.2961738109588623,"268":-2.294600009918213,"269":1.2300621271133423,"270":2.245088577270508,"271":-0.765482485294342,"272":3.4009170532226562,"273":2.2168991565704346,"274":2.436668872833252,"275":0.5046788454055786,"276":-0.5710311532020569,"277":2.658712148666382,"278":-1.864524483680725,"279":0.4502459168434143,"280":0.7108169198036194,"281":-0.6939387917518616,"282":-1.6736334562301636,"283":0.9733042120933533,"284":0.9696816802024841,"285":-0.34786781668663025,"286":-2.886414051055908,"287":-1.0536079406738281,"288":2.230626344680786,"289":-0.6128154397010803,"290":3.2663912773132324,"291":-1.0562422275543213,"292":-3.258866548538208,"293":-0.46206220984458923,"294":1.0344345569610596,"295":-0.30953630805015564,"296":-0.4365403354167938,"297":-1.4045794010162354,"298":2.0039384365081787,"299":2.7457666397094727,"300":4.4669718742370605,"301":0.9380320310592651,"302":-2.990544557571411,"303":-0.6799034476280212,"304":-1.1383705139160156,"305":-2.830660343170166,"306":1.1098105907440186,"307":-2.3097317218780518,"308":-1.5799179077148438,"309":-1.5517706871032715,"310":0.38344720005989075,"311":0.8846597075462341,"312":2.8806729316711426,"313":-0.4764672517776489,"314":-3.811467170715332,"315":-2.681912660598755,"316":-2.8014631271362305,"317":0.8858605623245239,"318":0.08099792897701263,"319":0.4070967435836792,"320":-1.2810885906219482,"321":-3.7667362689971924,"322":0.6516586542129517,"323":0.35200241208076477,"324":-1.3193764686584473,"325":1.6985957622528076,"326":2.7505364418029785,"327":2.0271830558776855,"328":-0.18764719367027283,"329":-2.3022422790527344,"330":1.3931176662445068,"331":1.015527606010437,"332":1.9974150657653809,"333":2.434882164001465,"334":-0.06765073537826538,"335":0.8289036750793457,"336":-0.8701373934745789,"337":-3.2746970653533936,"338":-4.935352325439453,"339":-0.006759652867913246,"340":-0.5248585939407349,"341":1.7497931718826294,"342":-1.013952612876892,"343":1.9149333238601685,"344":-1.7048507928848267,"345":3.369507074356079,"346":2.1726086139678955,"347":-0.8875535726547241,"348":-2.7649452686309814,"349":1.8276169300079346,"350":2.100324869155884,"351":1.7930012941360474,"352":0.7792788743972778,"353":1.722479224205017,"354":1.6330846548080444,"355":-0.9960113167762756,"356":-1.9916274547576904,"357":-2.486560583114624,"358":-0.06926694512367249,"359":0.9993833303451538,"360":-3.013685464859009,"361":-3.706843852996826,"362":1.507307767868042,"363":4.4654693603515625,"364":0.2354055792093277,"365":-2.510671377182007,"366":-2.537888288497925,"367":-1.3929448127746582,"368":1.8161786794662476,"369":1.8996087312698364,"370":-0.07687871903181076,"371":2.556891441345215,"372":-3.907809257507324,"373":2.831214427947998,"374":2.0766243934631348,"375":2.379676342010498,"376":3.426929235458374,"377":-4.717068672180176,"378":2.1714513301849365,"379":0.8956692814826965,"380":1.7572789192199707,"381":-0.7883360385894775,"382":-1.1834845542907715,"383":3.442747116088867,"384":-0.2996886372566223,"385":-3.6502091884613037,"386":-3.3876242637634277,"387":-1.4144880771636963,"388":-0.5252490043640137,"389":-1.14462411403656,"390":-1.3867688179016113,"391":3.3409035205841064,"392":-0.586932897567749,"393":-1.9279717206954956,"394":0.28040367364883423,"395":-3.823765277862549,"396":-2.9720780849456787,"397":2.1686785221099854,"398":2.8666911125183105,"399":2.0489134788513184}},"forgetBias":{"rows":20,"columns":1,"weights":{"0":0,"1":0,"2":0,"3":0,"4":0,"5":0,"6":0,"7":0,"8":0,"9":0,"10":0,"11":0,"12":0,"13":0,"14":0,"15":0,"16":0,"17":0,"18":0,"19":0}},"outputMatrix":{"rows":20,"columns":10,"weights":{"0":1.8269456624984741,"1":-0.9043117165565491,"2":-0.1147424578666687,"3":1.7309077978134155,"4":0.23943378031253815,"5":1.2969282865524292,"6":-0.3749937117099762,"7":-1.1184250116348267,"8":-1.2641291618347168,"9":2.4365594387054443,"10":4.9732160568237305,"11":-2.7261476516723633,"12":1.09718656539917,"13":5.557150840759277,"14":2.2999846935272217,"15":-0.7330058217048645,"16":-0.6460958123207092,"17":-3.0325188636779785,"18":-1.9542410373687744,"19":0.8616349101066589,"20":4.273691177368164,"21":-3.926486015319824,"22":-1.4057068824768066,"23":1.7905009984970093,"24":-2.7670233249664307,"25":-1.589221715927124,"26":-2.38362193107605,"27":-1.8439019918441772,"28":0.9201772212982178,"29":0.19738256931304932,"30":1.045039176940918,"31":-1.3479962348937988,"32":1.6267566680908203,"33":0.5232910513877869,"34":-0.6177451014518738,"35":-1.9476324319839478,"36":1.3167957067489624,"37":1.2020337581634521,"38":-1.5968201160430908,"39":-3.079270601272583,"40":0.3735521733760834,"41":0.11666396260261536,"42":0.8685607314109802,"43":-0.09167725592851639,"44":1.734257698059082,"45":1.2651787996292114,"46":-3.9565412998199463,"47":0.5586305260658264,"48":3.5506646633148193,"49":-1.1197563409805298,"50":-0.5837469696998596,"51":1.4128457307815552,"52":-0.021886924281716347,"53":-2.3809821605682373,"54":0.9193629622459412,"55":-2.168012857437134,"56":1.9127132892608643,"57":2.5469484329223633,"58":0.0363399013876915,"59":-0.6011497378349304,"60":-1.9898842573165894,"61":-0.18734155595302582,"62":-1.5101920366287231,"63":-1.3432039022445679,"64":-0.7596662640571594,"65":2.32039737701416,"66":-1.0075592994689941,"67":0.5879473686218262,"68":-2.942485809326172,"69":-1.3123056888580322,"70":-0.08071649074554443,"71":1.3058526515960693,"72":0.03279726952314377,"73":1.1978822946548462,"74":-1.226088285446167,"75":1.7690527439117432,"76":-3.8456225395202637,"77":-0.7045043706893921,"78":-1.9728118181228638,"79":1.0030759572982788,"80":0.30178335309028625,"81":0.3333921730518341,"82":1.4737528562545776,"83":-1.218691349029541,"84":1.820752501487732,"85":-2.0915112495422363,"86":3.2074925899505615,"87":2.1010169982910156,"88":0.6786008477210999,"89":1.4075645208358765,"90":1.8364695310592651,"91":-0.8971577286720276,"92":1.6375930309295654,"93":2.4071691036224365,"94":3.1351194381713867,"95":-2.415038824081421,"96":0.5690632462501526,"97":-2.3537509441375732,"98":0.5647649765014648,"99":1.6210432052612305,"100":-0.8556377291679382,"101":0.5797154307365417,"102":3.7420308589935303,"103":-1.5960029363632202,"104":2.6112594604492188,"105":-5.5062575340271,"106":1.1662598848342896,"107":0.8519030809402466,"108":2.500711441040039,"109":0.20842112600803375,"110":0.8739320039749146,"111":-0.8269505500793457,"112":3.6299660205841064,"113":0.6977962851524353,"114":-0.38127437233924866,"115":3.251857280731201,"116":-0.10892164707183838,"117":-3.317148447036743,"118":-3.0437984466552734,"119":-1.0456299781799316,"120":-1.7424452304840088,"121":1.7563053369522095,"122":-3.8854055404663086,"123":-0.6628493666648865,"124":0.2757140100002289,"125":-0.14915691316127777,"126":0.8240106701850891,"127":-2.20703387260437,"128":1.0631743669509888,"129":-1.9680746793746948,"130":2.477998971939087,"131":-0.864692747592926,"132":0.473738431930542,"133":2.265730381011963,"134":3.340531826019287,"135":-1.8933539390563965,"136":-0.10025686025619507,"137":-2.2136807441711426,"138":-1.3067251443862915,"139":-0.35171666741371155,"140":1.6724902391433716,"141":-1.7408316135406494,"142":1.5856518745422363,"143":1.2623432874679565,"144":3.0524280071258545,"145":-1.9758334159851074,"146":-1.0712305307388306,"147":-1.9322421550750732,"148":-0.11318262666463852,"149":-0.4080064296722412,"150":-1.8167532682418823,"151":2.9156837463378906,"152":4.937463283538818,"153":-0.6718108654022217,"154":-2.1770968437194824,"155":-1.02407705783844,"156":-0.39679306745529175,"157":0.1650233417749405,"158":1.225722074508667,"159":-1.8563737869262695,"160":-0.5496224164962769,"161":0.017766837030649185,"162":0.3516838252544403,"163":-3.6674020290374756,"164":2.0236451625823975,"165":-3.692200183868408,"166":1.7989717721939087,"167":-1.884208083152771,"168":-1.5129531621932983,"169":-0.4267176687717438,"170":2.0467631816864014,"171":-1.6932029724121094,"172":1.0027836561203003,"173":1.8657585382461548,"174":0.9598433375358582,"175":-1.4263734817504883,"176":-0.6189859509468079,"177":1.2510770559310913,"178":2.2205517292022705,"179":-2.7493536472320557,"180":-1.028091311454773,"181":-0.6786249279975891,"182":0.5414577126502991,"183":-0.392749160528183,"184":1.0537313222885132,"185":1.1967939138412476,"186":-1.6291136741638184,"187":-6.504088878631592,"188":-2.987121820449829,"189":-1.3069853782653809,"190":1.1177436113357544,"191":-0.3543689548969269,"192":0.8986735343933105,"193":-0.007181864231824875,"194":-1.4945647716522217,"195":-5.2718377113342285,"196":1.357188105583191,"197":2.255622625350952,"198":0.6905443072319031,"199":-1.1589325666427612}},"outputHidden":{"rows":20,"columns":20,"weights":{"0":1.7450454235076904,"1":-0.06302326917648315,"2":-0.9941749572753906,"3":-0.38104555010795593,"4":0.17822320759296417,"5":0.7348264455795288,"6":1.2292612791061401,"7":0.01367120910435915,"8":-1.2622923851013184,"9":2.0767228603363037,"10":0.16598181426525116,"11":-0.2232310175895691,"12":-1.6357308626174927,"13":1.2290586233139038,"14":3.9620306491851807,"15":-5.154239654541016,"16":1.3459019660949707,"17":0.24548117816448212,"18":2.7665696144104004,"19":-2.37595534324646,"20":-0.48664119839668274,"21":-0.8956847786903381,"22":-0.15401393175125122,"23":1.6280755996704102,"24":-0.030412642285227776,"25":-1.5221421718597412,"26":-1.9686216115951538,"27":-1.5679889917373657,"28":-0.2760920524597168,"29":-0.17770689725875854,"30":1.239579439163208,"31":5.790825843811035,"32":-1.7017426490783691,"33":1.8248323202133179,"34":0.3198484480381012,"35":-0.5304449200630188,"36":1.0237607955932617,"37":-2.798337459564209,"38":2.336581230163574,"39":-1.5431588888168335,"40":1.0642997026443481,"41":-2.622244119644165,"42":1.0064700841903687,"43":2.4323034286499023,"44":-0.6475566625595093,"45":-0.5346733331680298,"46":1.16701078414917,"47":-0.5327093601226807,"48":4.013223648071289,"49":0.6806617975234985,"50":-0.1559438407421112,"51":-1.0445464849472046,"52":-1.9231457710266113,"53":1.4692285060882568,"54":-0.875629723072052,"55":-0.2561746835708618,"56":1.0121361017227173,"57":-2.1719822883605957,"58":2.043574810028076,"59":0.3602629005908966,"60":-1.7513209581375122,"61":-2.381464958190918,"62":-0.6610446572303772,"63":-1.1725139617919922,"64":-1.235745906829834,"65":0.6747941970825195,"66":-4.002634525299072,"67":2.158201217651367,"68":-0.3183194100856781,"69":2.498922109603882,"70":0.28581634163856506,"71":-0.8810529708862305,"72":1.8729497194290161,"73":1.4973993301391602,"74":-0.16102266311645508,"75":-4.452144622802734,"76":0.5434841513633728,"77":-1.7087692022323608,"78":0.6932911276817322,"79":-1.7114499807357788,"80":-1.1177574396133423,"81":-2.2211341857910156,"82":-1.7616031169891357,"83":-0.048337485641241074,"84":2.60396146774292,"85":-0.671619713306427,"86":-1.911171793937683,"87":0.8138325810432434,"88":-3.380842924118042,"89":-0.4337426722049713,"90":0.5538557171821594,"91":-0.35109853744506836,"92":2.3802645206451416,"93":2.006587028503418,"94":-0.13484561443328857,"95":-2.7606635093688965,"96":1.104891061782837,"97":1.4771214723587036,"98":1.3360551595687866,"99":-3.307767868041992,"100":2.5615129470825195,"101":-1.392875075340271,"102":1.8922396898269653,"103":-0.7590670585632324,"104":-2.0346412658691406,"105":3.824237585067749,"106":2.797454833984375,"107":1.2559552192687988,"108":0.5813899040222168,"109":1.0798766613006592,"110":-2.382434606552124,"111":-2.3914332389831543,"112":-3.9030709266662598,"113":-1.420276403427124,"114":2.1217195987701416,"115":1.1003578901290894,"116":-0.22862236201763153,"117":-0.4724453091621399,"118":-1.2148686647415161,"119":0.9645462036132812,"120":2.8721752166748047,"121":0.3634708523750305,"122":1.1466758251190186,"123":0.975797176361084,"124":0.2343473732471466,"125":1.989593267440796,"126":-3.1628758907318115,"127":1.2145024538040161,"128":-0.45970723032951355,"129":1.9139063358306885,"130":0.48466289043426514,"131":-0.9773543477058411,"132":-1.3261613845825195,"133":1.659446120262146,"134":-1.6925749778747559,"135":-2.542036771774292,"136":1.2777864933013916,"137":-0.6922807097434998,"138":-0.8710442185401917,"139":-0.5885476469993591,"140":1.7137335538864136,"141":2.077038049697876,"142":-0.5726529955863953,"143":0.3583405613899231,"144":-0.6854937076568604,"145":-0.9845471978187561,"146":-3.3660519123077393,"147":2.024282693862915,"148":-0.5239213705062866,"149":0.2909223139286041,"150":-0.15184687077999115,"151":2.3785645961761475,"152":0.9537666440010071,"153":1.2024502754211426,"154":1.1006004810333252,"155":-3.655797243118286,"156":2.7457923889160156,"157":1.0754438638687134,"158":1.6340702772140503,"159":-4.180476665496826,"160":1.7116725444793701,"161":1.048064947128296,"162":-0.3572898805141449,"163":0.8800760507583618,"164":1.9281888008117676,"165":-0.8464813232421875,"166":4.0893073081970215,"167":-1.7156448364257812,"168":-1.2256985902786255,"169":-5.754039287567139,"170":-1.9550271034240723,"171":-2.9264886379241943,"172":2.469125986099243,"173":-2.036289930343628,"174":-0.42712658643722534,"175":-1.6184651851654053,"176":-3.044013023376465,"177":-0.687200129032135,"178":1.9264793395996094,"179":-0.4226227402687073,"180":-1.112696886062622,"181":2.363194227218628,"182":-0.8008484840393066,"183":-0.796325147151947,"184":-0.9169342517852783,"185":0.35325056314468384,"186":-1.6781704425811768,"187":-0.04326977580785751,"188":-0.7024885416030884,"189":-2.591198682785034,"190":-1.7908488512039185,"191":-1.1642826795578003,"192":-2.4355051517486572,"193":2.7903404235839844,"194":1.3847614526748657,"195":-4.182894706726074,"196":1.4917490482330322,"197":0.7224312424659729,"198":0.1897450089454651,"199":-3.53359055519104,"200":-2.214103937149048,"201":-1.9739214181900024,"202":-0.43191128969192505,"203":-0.018577704206109047,"204":2.7279114723205566,"205":-2.181367874145508,"206":1.334536075592041,"207":-0.8477736711502075,"208":-0.44011610746383667,"209":0.1745963841676712,"210":0.22426611185073853,"211":-1.6801191568374634,"212":-0.29990077018737793,"213":1.1758511066436768,"214":1.377360224723816,"215":-2.798863649368286,"216":0.3903138041496277,"217":1.6311817169189453,"218":-1.3527570962905884,"219":-0.10462996363639832,"220":-3.0562033653259277,"221":1.1724574565887451,"222":-1.295166254043579,"223":0.9557456374168396,"224":-0.6429165005683899,"225":-0.4883279502391815,"226":-0.15251749753952026,"227":1.100856065750122,"228":0.355071097612381,"229":0.9111123085021973,"230":-1.8345359563827515,"231":-1.4909926652908325,"232":1.1591591835021973,"233":1.4138277769088745,"234":-0.21324215829372406,"235":-6.26082706451416,"236":-1.7845473289489746,"237":-6.3433074951171875,"238":-0.18162579834461212,"239":-2.340850591659546,"240":0.7009621262550354,"241":-2.4108524322509766,"242":1.2061986923217773,"243":-2.4975666999816895,"244":-0.7225265502929688,"245":0.7304285764694214,"246":2.6487669944763184,"247":-0.09806902706623077,"248":-1.7177445888519287,"249":0.25293466448783875,"250":-3.6775002479553223,"251":-0.8677645921707153,"252":-1.302242636680603,"253":-1.2158596515655518,"254":2.492950201034546,"255":-0.1283576339483261,"256":-1.5435868501663208,"257":1.840819239616394,"258":-2.108827590942383,"259":-3.1477129459381104,"260":-3.4251708984375,"261":1.381420373916626,"262":-2.0055642127990723,"263":-0.521972119808197,"264":1.4656211137771606,"265":1.1622291803359985,"266":-2.163877010345459,"267":-0.5126886367797852,"268":-1.402754545211792,"269":0.5058848857879639,"270":1.034743309020996,"271":0.4566967487335205,"272":0.17594362795352936,"273":-1.7793171405792236,"274":2.900038957595825,"275":-0.12770894169807434,"276":0.7188818454742432,"277":1.1667016744613647,"278":3.9844281673431396,"279":-0.9342951774597168,"280":-0.3765985071659088,"281":-0.8620893955230713,"282":-0.8885998129844666,"283":-0.6880673170089722,"284":0.7921809554100037,"285":0.7742642164230347,"286":-2.3841798305511475,"287":0.04869910702109337,"288":-0.38536787033081055,"289":0.5407857298851013,"290":0.6449952721595764,"291":-0.33042168617248535,"292":-1.8589637279510498,"293":-0.2487466037273407,"294":0.7626699209213257,"295":-2.4925601482391357,"296":-2.5166332721710205,"297":-1.0584791898727417,"298":2.7843079566955566,"299":-1.3206428289413452,"300":-0.3253796696662903,"301":-1.154119610786438,"302":-0.4097440242767334,"303":-0.4032563865184784,"304":2.947175979614258,"305":1.6099063158035278,"306":0.7221342921257019,"307":-4.7154011726379395,"308":-1.067406177520752,"309":-2.4230244159698486,"310":0.04886695742607117,"311":-0.9740142226219177,"312":-1.2747997045516968,"313":0.9746965765953064,"314":0.23035775125026703,"315":-2.9808456897735596,"316":-4.499691009521484,"317":0.5848919153213501,"318":0.25121667981147766,"319":0.09945479780435562,"320":-2.559541940689087,"321":-4.607451915740967,"322":0.187032550573349,"323":1.417813777923584,"324":-0.529212236404419,"325":-1.4102767705917358,"326":0.6388911604881287,"327":-0.3592151403427124,"328":-1.4260660409927368,"329":0.8840734958648682,"330":-0.6681075692176819,"331":0.11529088020324707,"332":2.58430814743042,"333":3.159261703491211,"334":1.1662404537200928,"335":-2.476827621459961,"336":1.3233180046081543,"337":1.1151117086410522,"338":3.022660970687866,"339":-1.5560306310653687,"340":0.3002665042877197,"341":0.44656646251678467,"342":-2.9237802028656006,"343":-1.1928410530090332,"344":1.1703535318374634,"345":0.25297996401786804,"346":-0.8283451199531555,"347":-0.9593098759651184,"348":-3.839406728744507,"349":1.1253525018692017,"350":1.2100210189819336,"351":-1.5214284658432007,"352":1.1012834310531616,"353":0.03493189066648483,"354":-0.22638113796710968,"355":-4.107280731201172,"356":-3.8157565593719482,"357":1.8240888118743896,"358":-0.46601545810699463,"359":-2.1160218715667725,"360":-0.17650355398654938,"361":0.7988218069076538,"362":-1.2634567022323608,"363":2.4986042976379395,"364":-3.333416700363159,"365":2.984541177749634,"366":1.6850169897079468,"367":-2.8201544284820557,"368":-1.2334920167922974,"369":-2.567514419555664,"370":-1.9287673234939575,"371":1.2252492904663086,"372":4.140915393829346,"373":0.682841956615448,"374":-1.011049509048462,"375":1.5082587003707886,"376":-0.5037025809288025,"377":-3.058981418609619,"378":0.2879427671432495,"379":1.9809682369232178,"380":3.5851237773895264,"381":-0.37801116704940796,"382":-0.9004157781600952,"383":1.8251488208770752,"384":1.3445383310317993,"385":-0.16598694026470184,"386":-1.6973358392715454,"387":-1.2299386262893677,"388":-1.1490201950073242,"389":-2.703493595123291,"390":-0.6733503937721252,"391":0.9610666036605835,"392":1.6325808763504028,"393":-2.333875894546509,"394":0.7301834225654602,"395":-3.182270050048828,"396":-1.0823780298233032,"397":2.649646282196045,"398":-0.8322427272796631,"399":-1.1285781860351562}},"outputBias":{"rows":20,"columns":1,"weights":{"0":-0.45021378993988037,"1":0.9593637585639954,"2":1.8088246583938599,"3":0.16581201553344727,"4":-2.164186954498291,"5":-0.2234022170305252,"6":-1.765990138053894,"7":-1.750438928604126,"8":-0.874027669429779,"9":-0.18120017647743225,"10":0.4599258303642273,"11":-1.8756479024887085,"12":1.086868166923523,"13":-0.946914792060852,"14":1.8389732837677002,"15":-2.5292789936065674,"16":-1.9188965559005737,"17":-1.913977026939392,"18":0.7811973690986633,"19":0.7817572355270386}},"cellActivationMatrix":{"rows":20,"columns":10,"weights":{"0":-0.9025984406471252,"1":-0.49965715408325195,"2":-0.9417413473129272,"3":-5.0990190505981445,"4":0.8152688145637512,"5":-2.643664836883545,"6":1.9515379667282104,"7":2.647871494293213,"8":2.5117766857147217,"9":1.5558284521102905,"10":-2.672471046447754,"11":1.5028438568115234,"12":-1.4128683805465698,"13":-3.7433605194091797,"14":-0.14996597170829773,"15":1.041764497756958,"16":0.8275339603424072,"17":1.5611531734466553,"18":0.8384502530097961,"19":0.4820324182510376,"20":3.082460403442383,"21":-0.603934109210968,"22":-1.2141225337982178,"23":0.6901947259902954,"24":-1.6782563924789429,"25":0.5752456188201904,"26":-0.26050513982772827,"27":1.1955151557922363,"28":0.13012708723545074,"29":2.298989772796631,"30":1.0943561792373657,"31":0.23436622321605682,"32":2.1582748889923096,"33":-0.24406810104846954,"34":-1.4968429803848267,"35":1.3047142028808594,"36":0.8428590297698975,"37":1.9531949758529663,"38":2.954317331314087,"39":0.3069061040878296,"40":-0.8738697171211243,"41":-0.08845847100019455,"42":2.740469455718994,"43":-0.4523988962173462,"44":0.7793400883674622,"45":2.184091806411743,"46":-1.7417603731155396,"47":2.267436981201172,"48":-0.02910602279007435,"49":0.5160614252090454,"50":0.8327516913414001,"51":-1.0589375495910645,"52":0.004093034192919731,"53":1.9063316583633423,"54":-1.0201314687728882,"55":1.8108456134796143,"56":0.012119156308472157,"57":0.7265286445617676,"58":1.6455621719360352,"59":-2.354829788208008,"60":1.915067195892334,"61":0.24723827838897705,"62":1.7759369611740112,"63":-1.2181434631347656,"64":4.4456658363342285,"65":-3.6043436527252197,"66":2.1522834300994873,"67":-0.25336742401123047,"68":4.108469009399414,"69":-0.23385366797447205,"70":2.8996775150299072,"71":-5.782755374908447,"72":0.2732296884059906,"73":-0.4341371953487396,"74":0.15939490497112274,"75":-1.502410650253296,"76":1.0221089124679565,"77":-1.9919837713241577,"78":-0.9207190871238708,"79":0.40833747386932373,"80":1.2926431894302368,"81":-2.2858455181121826,"82":0.8451747894287109,"83":1.2514746189117432,"84":1.7391209602355957,"85":1.6018333435058594,"86":-0.5112676620483398,"87":-2.1768100261688232,"88":1.7331448793411255,"89":3.6223535537719727,"90":-1.28951895236969,"91":1.386209487915039,"92":-4.946908950805664,"93":2.364823341369629,"94":-1.866331934928894,"95":0.7333863377571106,"96":2.7378578186035156,"97":-3.233767032623291,"98":1.0407981872558594,"99":1.0336401462554932,"100":0.6612098813056946,"101":-1.579799771308899,"102":0.43867170810699463,"103":-0.13586921989917755,"104":-0.9030150175094604,"105":-0.15740543603897095,"106":-3.643777370452881,"107":-1.2748228311538696,"108":-2.2773654460906982,"109":1.0255451202392578,"110":0.1238933876156807,"111":0.32856032252311707,"112":-0.8703161478042603,"113":2.841860294342041,"114":-1.7771918773651123,"115":0.6549876928329468,"116":-2.8714191913604736,"117":-3.5012569427490234,"118":-1.1565430164337158,"119":-0.22157733142375946,"120":0.20184385776519775,"121":0.09488748759031296,"122":0.9941194653511047,"123":-0.4737367331981659,"124":-0.9574853777885437,"125":-4.157433986663818,"126":-0.15984655916690826,"127":-0.31546157598495483,"128":-0.044744670391082764,"129":0.18910792469978333,"130":0.23021668195724487,"131":-1.0845564603805542,"132":0.15434452891349792,"133":0.14236977696418762,"134":-1.2155303955078125,"135":1.8147538900375366,"136":-1.121605634689331,"137":0.20203013718128204,"138":-0.9084210395812988,"139":1.5929160118103027,"140":-1.2497925758361816,"141":0.15094107389450073,"142":1.1803030967712402,"143":-0.2728339433670044,"144":0.8606747388839722,"145":-0.6159722208976746,"146":0.44619137048721313,"147":1.6065144538879395,"148":-3.9680662155151367,"149":-0.2602361738681793,"150":-1.0150593519210815,"151":0.018332943320274353,"152":-3.4007983207702637,"153":0.7027801871299744,"154":1.1219099760055542,"155":3.2761082649230957,"156":-0.5909654498100281,"157":-4.390337944030762,"158":-2.6388728618621826,"159":-1.462833285331726,"160":-0.3134017884731293,"161":-0.3347659111022949,"162":0.1500324159860611,"163":-0.10708153247833252,"164":-0.9360511898994446,"165":0.6649229526519775,"166":-3.2606122493743896,"167":-1.5711326599121094,"168":0.649409294128418,"169":2.1911122798919678,"170":0.3303532004356384,"171":0.2614670395851135,"172":1.3663150072097778,"173":-1.1418300867080688,"174":0.9732902646064758,"175":-1.5698167085647583,"176":-0.975159764289856,"177":-1.588468074798584,"178":-0.10806196928024292,"179":-3.469900369644165,"180":0.25570183992385864,"181":-0.49036934971809387,"182":1.25248122215271,"183":1.5851402282714844,"184":0.48474839329719543,"185":2.8725953102111816,"186":-2.579437017440796,"187":-2.2371561527252197,"188":-2.3229241371154785,"189":1.2416363954544067,"190":-1.099316954612732,"191":-1.9780000448226929,"192":0.5324034690856934,"193":2.060783624649048,"194":1.7484877109527588,"195":-0.18104134500026703,"196":0.3154378831386566,"197":-0.7776657938957214,"198":-0.5308034420013428,"199":0.07748525589704514}},"cellActivationHidden":{"rows":20,"columns":20,"weights":{"0":-3.143717050552368,"1":-2.1415841579437256,"2":3.010986804962158,"3":-0.05984773114323616,"4":-1.684311866760254,"5":-0.8576360940933228,"6":-1.778432846069336,"7":0.511445939540863,"8":0.22897382080554962,"9":-0.04223938658833504,"10":1.1251633167266846,"11":-1.531465768814087,"12":0.02040960267186165,"13":2.1397342681884766,"14":1.067221760749817,"15":0.18990160524845123,"16":-0.1270289272069931,"17":0.21002791821956635,"18":1.922735571861267,"19":-0.40261518955230713,"20":0.8065955638885498,"21":-1.879399299621582,"22":0.471503883600235,"23":-1.6623941659927368,"24":0.23618541657924652,"25":0.06784166395664215,"26":0.5706841945648193,"27":2.6632542610168457,"28":-1.0814456939697266,"29":-1.049015998840332,"30":2.5903332233428955,"31":1.0029875040054321,"32":1.3284043073654175,"33":-1.3616163730621338,"34":-1.7831655740737915,"35":-2.8443117141723633,"36":1.614740252494812,"37":2.155088424682617,"38":1.8774977922439575,"39":-0.5125013589859009,"40":1.1205029487609863,"41":1.112868309020996,"42":0.8051379323005676,"43":-2.1584153175354004,"44":2.6541709899902344,"45":0.3852822482585907,"46":-1.8580970764160156,"47":-0.5413786768913269,"48":0.35992491245269775,"49":-0.13885025680065155,"50":-0.46259617805480957,"51":-0.32198548316955566,"52":2.3818202018737793,"53":-0.8647061586380005,"54":-1.8736841678619385,"55":-0.25245434045791626,"56":0.13821585476398468,"57":0.8553853631019592,"58":-0.24500809609889984,"59":1.7201769351959229,"60":1.9655183553695679,"61":3.1468048095703125,"62":-0.27479925751686096,"63":-0.5116502046585083,"64":-0.4228818416595459,"65":1.2538824081420898,