{"type":"LSTM","options":{"inputSize":4,"inputRange":4,"hiddenLayers":[10,20,10],"outputSize":4,"decayRate":0.999,"smoothEps":1e-8,"regc":0.000001,"clipval":5,"maxPredictionLength":100,"dataFormatter":{"values":[[null],[null,null,null]],"indexTable":{"undefined":0,"stop-input":1,"start-output":2,"unrecognized":3},"characterTable":{"1":null,"2":null,"3":null},"characters":[null,"stop-input","start-output","unrecognized"],"specialIndexes":[1,2,3]}},"input":{"rows":5,"columns":4,"weights":{"0":-0.42465439438819885,"1":-0.13436271250247955,"2":0.19859923422336578,"3":-0.46867015957832336,"4":-0.06183546036481857,"5":-0.06256962567567825,"6":0.051294486969709396,"7":1.2658989429473877,"8":-0.2097373902797699,"9":-0.31245890259742737,"10":0.35678282380104065,"11":0.4473535418510437,"12":1.2631341218948364,"13":1.2372227907180786,"14":-1.334853172302246,"15":-1.1991093158721924,"16":0.07694480568170547,"17":0.012357331812381744,"18":0.023500418290495872,"19":0.07876318693161011}},"hiddenLayers":[{"inputMatrix":{"rows":10,"columns":4,"weights":{"0":-0.011286034248769283,"1":-0.07737472653388977,"2":0.26578620076179504,"3":0.01264900527894497,"4":-0.1556061953306198,"5":-0.07843173295259476,"6":-0.04585308954119682,"7":-0.9776321053504944,"8":0.05762151628732681,"9":0.06156335026025772,"10":-0.11535147577524185,"11":-0.35789963603019714,"12":0.1732315868139267,"13":0.29299771785736084,"14":-0.28485339879989624,"15":-0.8800020217895508,"16":-0.013238799758255482,"17":0.0449528694152832,"18":0.09417682886123657,"19":-0.26542291045188904,"20":-0.20547924935817719,"21":-0.2609005868434906,"22":0.37500903010368347,"23":0.6424292325973511,"24":-0.1009918823838234,"25":-0.009741147980093956,"26":-0.13796724379062653,"27":-0.986348569393158,"28":-0.2095382809638977,"29":-0.3026094138622284,"30":0.2820947766304016,"31":0.44847598671913147,"32":0.46338358521461487,"33":0.6019505858421326,"34":-0.603225827217102,"35":-0.9531978368759155,"36":0.33682748675346375,"37":0.5710942149162292,"38":-0.48309898376464844,"39":-0.9940474033355713}},"inputHidden":{"rows":10,"columns":10,"weights":{"0":0.09976427257061005,"1":0.01323732826858759,"2":-0.09224254637956619,"3":-0.03159042075276375,"4":0.02051791548728943,"5":-0.12372763454914093,"6":-0.03860090300440788,"7":-0.09440451115369797,"8":-0.02395506389439106,"9":0.015412237495183945,"10":-0.07868355512619019,"11":0.2874266803264618,"12":0.09204176068305969,"13":-0.0044310675002634525,"14":-0.16971206665039062,"15":0.015554148703813553,"16":-0.23445655405521393,"17":0.00599252013489604,"18":0.11167881637811661,"19":-0.1912548691034317,"20":0.3279140889644623,"21":0.06998574733734131,"22":-0.3016130030155182,"23":0.046605803072452545,"24":0.19254371523857117,"25":-0.34634929895401,"26":0.15614335238933563,"27":-0.20786571502685547,"28":0.21660828590393066,"29":-0.07400653511285782,"30":-0.27104905247688293,"31":0.15380744636058807,"32":0.17839600145816803,"33":0.03408360481262207,"34":-0.15684889256954193,"35":0.029490189626812935,"36":-0.16537359356880188,"37":0.15550290048122406,"38":0.12112012505531311,"39":-0.19576460123062134,"40":0.048776932060718536,"41":0.1842605173587799,"42":-0.020499665290117264,"43":-0.05189219489693642,"44":0.005164196714758873,"45":-0.046299081295728683,"46":-0.017923854291439056,"47":-0.1000136062502861,"48":-0.028798943385481834,"49":-0.10472850501537323,"50":0.24339339137077332,"51":-0.5772051811218262,"52":-0.40327170491218567,"53":0.39169156551361084,"54":0.39496946334838867,"55":-0.34253638982772827,"56":0.5256608128547668,"57":-0.24405615031719208,"58":0.23463551700115204,"59":-0.20220306515693665,"60":0.2914583384990692,"61":0.2606890797615051,"62":0.004732429049909115,"63":0.14655980467796326,"64":0.07860169559717178,"65":-0.31779244542121887,"66":-0.17588473856449127,"67":-0.1804325431585312,"68":0.2376939207315445,"69":-0.24569742381572723,"70":0.30356988310813904,"71":-0.2968527376651764,"72":-0.2853660583496094,"73":0.18228822946548462,"74":0.24818027019500732,"75":-0.2007433921098709,"76":0.30266159772872925,"77":-0.21916808187961578,"78":0.1262534260749817,"79":-0.10044541209936142,"80":-0.36089402437210083,"81":0.31584683060646057,"82":0.28594836592674255,"83":-0.09524349123239517,"84":-0.2362540066242218,"85":0.26271477341651917,"86":-0.2915782034397125,"87":0.30553382635116577,"88":0.11019382625818253,"89":0.0128465062007308,"90":-0.20917169749736786,"91":0.17431794106960297,"92":0.23527635633945465,"93":0.04715189337730408,"94":-0.18709275126457214,"95":0.09617926180362701,"96":-0.20267537236213684,"97":0.18566836416721344,"98":0.18265458941459656,"99":-0.1790189892053604}},"inputBias":{"rows":10,"columns":1,"weights":{"0":-0.08154193311929703,"1":0.8402060866355896,"2":0.18464232981204987,"3":0.49414101243019104,"4":0.03795669227838516,"5":-0.4085502326488495,"6":0.7213317155838013,"7":-0.3227165937423706,"8":0.39136019349098206,"9":0.5274471044540405}},"forgetMatrix":{"rows":10,"columns":4,"weights":{"0":-0.1689237505197525,"1":-0.2778402864933014,"2":0.24740831553936005,"3":0.06860364228487015,"4":-0.3283274471759796,"5":-0.3173563778400421,"6":0.2514037787914276,"7":0.1126263439655304,"8":-0.23237915337085724,"9":-0.2358715832233429,"10":0.3034765124320984,"11":0.14379599690437317,"12":-0.40135815739631653,"13":-0.40431615710258484,"14":0.5227192044258118,"15":0.4547967314720154,"16":-0.2707427144050598,"17":-0.27835866808891296,"18":0.3648816645145416,"19":-0.05769101902842522,"20":-0.2512756884098053,"21":-0.3925182819366455,"22":0.3245278298854828,"23":0.01800617016851902,"24":-0.3306548297405243,"25":-0.29047200083732605,"26":0.28548935055732727,"27":0.017155775800347328,"28":-0.2910526990890503,"29":-0.217521533370018,"30":0.33631449937820435,"31":0.5414361953735352,"32":-0.5355804562568665,"33":-0.5076611638069153,"34":0.4945889413356781,"35":0.5905731320381165,"36":-0.4180962145328522,"37":-0.39932504296302795,"38":0.4136391878128052,"39":0.6769391894340515}},"forgetHidden":{"rows":10,"columns":10,"weights":{"0":0.04797668382525444,"1":0.02082706056535244,"2":0.0676305964589119,"3":-0.057358190417289734,"4":-0.038478631526231766,"5":0.09276752918958664,"6":0.007799421437084675,"7":-0.08396846801042557,"8":-0.09176789224147797,"9":0.07819066196680069,"10":-0.11211083829402924,"11":0.32666680216789246,"12":-0.007642860524356365,"13":-0.18405702710151672,"14":-0.09754564613103867,"15":0.211713507771492,"16":-0.23535692691802979,"17":0.07752428203821182,"18":-0.3778916895389557,"19":0.349004328250885,"20":0.008978068828582764,"21":0.07950843125581741,"22":-0.051347680389881134,"23":-0.0152323879301548,"24":0.03721383213996887,"25":-0.06028604879975319,"26":0.04220109432935715,"27":-0.10808449238538742,"28":0.021603280678391457,"29":0.08543087542057037,"30":-0.09494529664516449,"31":0.26579347252845764,"32":0.07563307136297226,"33":-0.33032798767089844,"34":-0.037445519119501114,"35":0.17310184240341187,"36":-0.19039209187030792,"37":0.25274598598480225,"38":-0.43909454345703125,"39":0.44330325722694397,"40":-0.02171589992940426,"41":0.12031729519367218,"42":0.04679809883236885,"43":-0.1576758176088333,"44":-0.06052795797586441,"45":-0.01777476817369461,"46":-0.12556378543376923,"47":0.05093161389231682,"48":-0.1853109896183014,"49":0.12605924904346466,"50":0.12339264154434204,"51":-0.011505221016705036,"52":-0.2466440349817276,"53":0.04966653510928154,"54":0.32998114824295044,"55":0.2258078008890152,"56":0.17571498453617096,"57":-0.10640208423137665,"58":-0.05209231749176979,"59":0.0009619813645258546,"60":0.08758851140737534,"61":0.20424678921699524,"62":-0.05363190546631813,"63":-0.13077615201473236,"64":0.07517185062170029,"65":0.10073431581258774,"66":-0.030300773680210114,"67":-0.01278909482061863,"68":-0.16955696046352386,"69":0.03256450220942497,"70":-0.005046714097261429,"71":-0.051322564482688904,"72":-0.10067910701036453,"73":-0.05820351466536522,"74":0.04516012966632843,"75":0.05894967168569565,"76":0.018684210255742073,"77":0.06237239018082619,"78":-0.1392011046409607,"79":0.1333405077457428,"80":-0.15845027565956116,"81":0.26796233654022217,"82":0.17869500815868378,"83":-0.3280205726623535,"84":-0.14025834202766418,"85":0.31290724873542786,"86":-0.26329877972602844,"87":0.23972314596176147,"88":-0.5218937993049622,"89":0.4230417013168335,"90":-0.21240639686584473,"91":0.27280503511428833,"92":0.07948910444974899,"93":-0.4236058294773102,"94":-0.17269033193588257,"95":0.2277069389820099,"96":-0.2534555494785309,"97":0.2189428210258484,"98":-0.5245362520217896,"99":0.39652907848358154}},"forgetBias":{"rows":10,"columns":1,"weights":{"0":0,"1":0,"2":0,"3":0,"4":0,"5":0,"6":0,"7":0,"8":0,"9":0}},"outputMatrix":{"rows":10,"columns":4,"weights":{"0":-0.497865229845047,"1":-0.5657416582107544,"2":0.7758927941322327,"3":0.1522207260131836,"4":-0.5141667127609253,"5":-0.2575696110725403,"6":0.3772423267364502,"7":-0.6760526895523071,"8":-0.5296989679336548,"9":-0.43590202927589417,"10":0.6538479328155518,"11":0.032510921359062195,"12":0.13506847620010376,"13":0.21760793030261993,"14":-0.111110620200634,"15":-0.7693315744400024,"16":-0.2879572808742523,"17":-0.18749192357063293,"18":0.25501203536987305,"19":-0.12974295020103455,"20":-0.6275691390037537,"21":-0.5437900424003601,"22":0.6453709006309509,"23":0.8661054968833923,"24":-0.4911690354347229,"25":-0.36565935611724854,"26":0.4883863925933838,"27":-0.46472710371017456,"28":-0.4347814619541168,"29":-0.6211409568786621,"30":0.5799557566642761,"31":0.6603249907493591,"32":0.34654292464256287,"33":0.443014532327652,"34":-0.5447972416877747,"35":-0.7702605724334717,"36":0.22024260461330414,"37":0.35232532024383545,"38":-0.32846683263778687,"39":-0.8096802830696106}},"outputHidden":{"rows":10,"columns":10,"weights":{"0":0.1102161779999733,"1":-0.029899312183260918,"2":-0.1464911252260208,"3":0.21725673973560333,"4":0.09364548325538635,"5":-0.02295863628387451,"6":0.1509557068347931,"7":0.01815938390791416,"8":0.11666300892829895,"9":-0.06494174897670746,"10":-0.07484424114227295,"11":0.2963687479496002,"12":0.048248548060655594,"13":-0.018465958535671234,"14":-0.03511437401175499,"15":0.05859900265932083,"16":-0.20272110402584076,"17":0.05056655779480934,"18":0.13736385107040405,"19":-0.10876253992319107,"20":0.23035934567451477,"21":0.03162912651896477,"22":-0.22794798016548157,"23":0.22825461626052856,"24":0.1152888834476471,"25":-0.011096452362835407,"26":0.060663238167762756,"27":-0.036919157952070236,"28":0.2395213544368744,"29":-0.19296202063560486,"30":-0.0647030845284462,"31":0.10755479335784912,"32":-0.03167068585753441,"33":0.07061316072940826,"34":0.0010804609628394246,"35":0.07823481410741806,"36":0.007271076552569866,"37":0.23530294001102448,"38":0.0461304634809494,"39":-0.11280028522014618,"40":0.13131655752658844,"41":0.0065160091035068035,"42":-0.07331404089927673,"43":0.13496875762939453,"44":0.02328857220709324,"45":-0.04596351087093353,"46":-0.020833313465118408,"47":-0.08361733704805374,"48":0.17979827523231506,"49":-0.1924227774143219,"50":0.1427634358406067,"51":-0.3337261974811554,"52":-0.23715579509735107,"53":0.20701521635055542,"54":0.245479017496109,"55":-0.17837275564670563,"56":0.39456555247306824,"57":-0.08397001773118973,"58":0.22324904799461365,"59":-0.19104726612567902,"60":0.16775381565093994,"61":0.26147642731666565,"62":0.04462519288063049,"63":0.07152525335550308,"64":0.056465525180101395,"65":-0.09001334011554718,"66":-0.07164417207241058,"67":0.02297348901629448,"68":0.07188304513692856,"69":0.018296290189027786,"70":0.17215998470783234,"71":-0.27863046526908875,"72":-0.2318098545074463,"73":0.24403955042362213,"74":0.2983270585536957,"75":-0.12894925475120544,"76":0.33495786786079407,"77":-0.08832741528749466,"78":0.08048462867736816,"79":-0.1609349548816681,"80":-0.2692564129829407,"81":-0.03433176130056381,"82":0.008858880959451199,"83":0.1189863383769989,"84":-0.06164001300930977,"85":0.17193186283111572,"86":0.063285693526268,"87":0.21170902252197266,"88":0.06753832846879959,"89":-0.1257818043231964,"90":-0.16931778192520142,"91":0.07596109807491302,"92":0.054678771644830704,"93":0.011066385544836521,"94":-0.062005478888750076,"95":0.0552978441119194,"96":-0.05256183072924614,"97":0.13461525738239288,"98":0.07372847944498062,"99":-0.07995672523975372}},"outputBias":{"rows":10,"columns":1,"weights":{"0":-0.034129999577999115,"1":0.8620972633361816,"2":0.2916737198829651,"3":0.49176397919654846,"4":0.06681833416223526,"5":-0.4352875053882599,"6":0.7555452585220337,"7":-0.32248762249946594,"8":0.39383548498153687,"9":0.556710422039032}},"cellActivationMatrix":{"rows":10,"columns":4,"weights":{"0":0.18882714211940765,"1":0.3684477210044861,"2":-0.4452062249183655,"3":-0.4742914140224457,"4":0.9030541181564331,"5":0.5803148150444031,"6":-0.5809124708175659,"7":0.05359497666358948,"8":0.33016833662986755,"9":0.21801231801509857,"10":-0.2090439349412918,"11":0.3403196930885315,"12":-0.7037767767906189,"13":-0.7030120491981506,"14":0.7344412207603455,"15":0.08496672660112381,"16":-0.15536782145500183,"17":-0.09630542993545532,"18":0.12689527869224548,"19":-0.2697896361351013,"20":-0.3714746832847595,"21":-0.5039618611335754,"22":0.5281742215156555,"23":0.1279115378856659,"24":-0.8725972771644592,"25":-0.6434672474861145,"26":0.6576164364814758,"27":-0.3131507635116577,"28":-0.1463785469532013,"29":-0.37196511030197144,"30":0.28189554810523987,"31":0.30497631430625916,"32":-0.6897650957107544,"33":-0.6424082517623901,"34":0.6940105557441711,"35":0.6419738531112671,"36":0.7238118648529053,"37":0.61995929479599,"38":-0.6821327209472656,"39":-0.5391546487808228}},"cellActivationHidden":{"rows":10,"columns":10,"weights":{"0":0.12224240601062775,"1":0.10034342110157013,"2":0.32442525029182434,"3":0.00871792621910572,"4":-0.2484360635280609,"5":-0.2542884051799774,"6":-0.19880379736423492,"7":-0.12174676358699799,"8":0.4708540737628937,"9":-0.2866732180118561,"10":-0.0059469640254974365,"11":-0.2759833335876465,"12":-0.24252435564994812,"13":-0.17715713381767273,"14":0.2165248543024063,"15":-0.02600180357694626,"16":0.3235318660736084,"17":0.03009435161948204,"18":-0.3898456394672394,"19":0.16945095360279083,"20":-0.24779576063156128,"21":-0.18598835170269012,"22":-0.21783947944641113,"23":-0.5295249223709106,"24":0.30586108565330505,"25":0.29177042841911316,"26":0.2390834093093872,"27":0.20958343148231506,"28":-0.8229276537895203,"29":0.7104931473731995,"30":-0.17547380924224854,"31":0.39480406045913696,"32":0.299723744392395,"33":0.00034008859074674547,"34":-0.19675759971141815,"35":0.30472734570503235,"36":-0.3750840723514557,"37":0.18263863027095795,"38":0.27375826239585876,"39":-0.1409536451101303,"40":0.11785440891981125,"41":0.42419078946113586,"42":0.3216136693954468,"43":0.23452575504779816,"44":-0.33352065086364746,"45":-0.004745044745504856,"46":-0.41595494747161865,"47":-0.06653399765491486,"48":0.6136017441749573,"49":-0.542331337928772,"50":0.47627514600753784,"51":0.7645719051361084,"52":0.05303973704576492,"53":-0.7786703109741211,"54":-0.02318434603512287,"55":-0.0031983191147446632,"56":-0.6797501444816589,"57":-0.2231084555387497,"58":-1.373212456703186,"59":1.009240984916687,"60":0.1306035816669464,"61":0.3604557514190674,"62":0.26786085963249207,"63":0.2819365859031677,"64":-0.21274539828300476,"65":-0.08774811774492264,"66":-0.4081852436065674,"67":-0.018617762252688408,"68":0.47737520933151245,"69":-0.3693326413631439,"70":-0.2463063895702362,"71":0.15604938566684723,"72":0.18852320313453674,"73":-0.7362361550331116,"74":0.008672286756336689,"75":0.6742752194404602,"76":-0.2142319530248642,"77":0.3532249331474304,"78":-1.1048240661621094,"79":1.0221657752990723,"80":-0.18082842230796814,"81":0.3222026824951172,"82":0.056001875549554825,"83":-0.08355209231376648,"84":-0.05070335790514946,"85":0.2824574112892151,"86":-0.22144897282123566,"87":0.2575426697731018,"88":0.01210994366556406,"89":0.053485773503780365,"90":0.049555495381355286,"91":-0.2440568506717682,"92":-0.17521081864833832,"93":0.12709423899650574,"94":0.05426842346787453,"95":-0.28018730878829956,"96":0.24076133966445923,"97":-0.25045499205589294,"98":-0.06937895715236664,"99":0.07599084824323654}},"cellActivationBias":{"rows":10,"columns":1,"weights":{"0":0.6131282448768616,"1":-1.0813394784927368,"2":-0.7298875451087952,"3":0.8819408416748047,"4":0.6500034928321838,"5":-0.14732840657234192,"6":0.9826242327690125,"7":-0.38109031319618225,"8":0.8392657041549683,"9":-0.9237383604049683}}},{"inputMatrix":{"rows":20,"columns":10,"weights":{"0":0.8194749355316162,"1":-0.19888509809970856,"2":-0.5623430609703064,"3":0.22698336839675903,"4":0.36472180485725403,"5":-1.2422047853469849,"6":0.3120204210281372,"7":-1.1320449113845825,"8":0.14832527935504913,"9":-0.2950739562511444,"10":0.5455011129379272,"11":-0.8020246028900146,"12":-0.8013007640838623,"13":0.688560426235199,"14":0.7031843066215515,"15":-0.6456896066665649,"16":0.8446165323257446,"17":-0.551480233669281,"18":0.6502841114997864,"19":-0.7155718207359314,"20":0.4024655818939209,"21":0.1544937938451767,"22":-0.193151593208313,"23":-0.1169930174946785,"24":-0.0575413703918457,"25":-0.6196902990341187,"26":-0.09365355968475342,"27":-0.6993398666381836,"28":-0.09272105246782303,"29":0.004899662919342518,"30":0.11598168313503265,"31":-0.3751545250415802,"32":-0.6021928191184998,"33":0.2694765329360962,"34":0.4746314585208893,"35":0.43350470066070557,"36":0.6022782325744629,"37":0.23568789660930634,"38":-0.06189549341797829,"39":-0.23804686963558197,"40":0.048439618200063705,"41":0.17484915256500244,"42":-0.0679733008146286,"43":-0.28580087423324585,"44":-0.05907895043492317,"45":-0.008245056495070457,"46":-0.1129341796040535,"47":-0.0009743152186274529,"48":-0.45555099844932556,"49":0.28577935695648193,"50":-0.1776769608259201,"51":0.41163021326065063,"52":0.22127293050289154,"53":-0.2081039845943451,"54":-0.3288881480693817,"55":0.06986559927463531,"56":-0.2849466800689697,"57":0.142815500497818,"58":-0.3021787106990814,"59":0.18738842010498047,"60":-0.24761177599430084,"61":0.29768431186676025,"62":0.22355949878692627,"63":-0.3290373980998993,"64":-0.20245712995529175,"65":0.24120642244815826,"66":-0.339974045753479,"67":0.2667189836502075,"68":-0.37364068627357483,"69":0.4020366668701172,"70":-0.015843667089939117,"71":0.20874616503715515,"72":0.05539898946881294,"73":-0.4287393391132355,"74":-0.07255697250366211,"75":0.16172516345977783,"76":-0.1490687131881714,"77":-0.034906040877103806,"78":-0.5305380821228027,"79":0.4545266628265381,"80":-0.6151911020278931,"81":0.3831826150417328,"82":0.4744079113006592,"83":-0.30016717314720154,"84":-0.610348105430603,"85":0.5916406512260437,"86":-0.22777482867240906,"87":0.6529238224029541,"88":-0.3685562312602997,"89":0.3389478921890259,"90":0.15484800934791565,"91":0.16638366878032684,"92":-0.10287105292081833,"93":-0.13718052208423615,"94":-0.12474094331264496,"95":-0.816442608833313,"96":-0.1371448040008545,"97":-0.5355331897735596,"98":-0.06740335375070572,"99":0.09297909587621689,"100":-0.13568435609340668,"101":0.2456883192062378,"102":0.12268385291099548,"103":-0.3168683350086212,"104":-0.19691148400306702,"105":0.12665987014770508,"106":-0.17957313358783722,"107":-0.01774432882666588,"108":-0.5086252689361572,"109":0.3412022590637207,"110":-0.03638925403356552,"111":1.1549242734909058,"112":0.22710880637168884,"113":-1.0327564477920532,"114":-0.24449782073497772,"115":0.02037491463124752,"116":-1.1050111055374146,"117":-0.018979519605636597,"118":-1.084943175315857,"119":1.1005027294158936,"120":-0.06244611740112305,"121":-0.034922193735837936,"122":0.04253200441598892,"123":-0.05581199377775192,"124":-0.10476581007242203,"125":0.18323025107383728,"126":-0.06057840213179588,"127":0.24756483733654022,"128":-0.07763228565454483,"129":-0.05210065096616745,"130":0.12073533236980438,"131":0.00004965955304214731,"132":-0.27428513765335083,"133":-0.1906563639640808,"134":0.11132246255874634,"135":0.08600775897502899,"136":0.09708314388990402,"137":-0.16152384877204895,"138":-0.48428457975387573,"139":0.18342895805835724,"140":0.315349817276001,"141":0.1309542953968048,"142":-0.1934075504541397,"143":-0.015514823608100414,"144":-0.052304815500974655,"145":-0.7069429159164429,"146":-0.05997627228498459,"147":-0.6120555400848389,"148":-0.09227728098630905,"149":-0.01575871743261814,"150":-0.26122191548347473,"151":0.366538941860199,"152":0.09140034019947052,"153":-0.27171021699905396,"154":-0.29376494884490967,"155":0.33578816056251526,"156":-0.1992529183626175,"157":0.13956540822982788,"158":-0.39962106943130493,"159":0.3849262595176697,"160":-0.5382810831069946,"161":0.5448720455169678,"162":0.4816552400588989,"163":-0.38044649362564087,"164":-0.5543724298477173,"165":0.20248280465602875,"166":-0.46064063906669617,"167":0.40640750527381897,"168":-0.2556224465370178,"169":0.27641811966896057,"170":0.5075349807739258,"171":0.08586955070495605,"172":-0.5370824337005615,"173":0.02417724020779133,"174":0.2555559277534485,"175":-0.3690778911113739,"176":0.02609281986951828,"177":-0.5888108015060425,"178":-0.035729486495256424,"179":-0.07609239965677261,"180":-0.15528877079486847,"181":0.037724051624536514,"182":-0.016943534836173058,"183":-0.03318721428513527,"184":-0.061372846364974976,"185":0.2631182372570038,"186":-0.010330765508115292,"187":0.30401381850242615,"188":-0.02813212014734745,"189":0.08183635026216507,"190":-0.0674980953335762,"191":-0.08989318460226059,"192":-0.13412414491176605,"193":0.05276595801115036,"194":0.03126363083720207,"195":0.1465931236743927,"196":0.11831419914960861,"197":0.18768666684627533,"198":0.05792830511927605,"199":-0.14694733917713165}},"inputHidden":{"rows":20,"columns":20,"weights":{"0":0.08243560045957565,"1":0.9067184925079346,"2":-0.21315506100654602,"3":-0.7617465853691101,"4":0.30519434809684753,"5":-0.10965488851070404,"6":-0.7256194353103638,"7":0.3114951550960541,"8":-0.5744173526763916,"9":-0.002902374370023608,"10":-0.4799516201019287,"11":0.30325913429260254,"12":0.9201789498329163,"13":0.21071848273277283,"14":-0.10447032004594803,"15":0.6709383130073547,"16":0.2940139174461365,"17":-0.1427467316389084,"18":-1.0078604221343994,"19":-0.9412017464637756,"20":0.17685352265834808,"21":1.2038440704345703,"22":-0.021147843450307846,"23":-0.8884925842285156,"24":0.9415901899337769,"25":-0.09768635779619217,"26":-1.2246342897415161,"27":0.8759379386901855,"28":-0.6423389911651611,"29":0.026680901646614075,"30":-0.9588817358016968,"31":0.48604246973991394,"32":1.6230207681655884,"33":0.9394769668579102,"34":-0.05267103388905525,"35":1.2178746461868286,"36":0.09085040539503098,"37":-0.13413138687610626,"38":-1.6288310289382935,"39":-1.5297555923461914,"40":-0.04882437363266945,"41":0.9130517244338989,"42":-0.3183213770389557,"43":-0.9040492177009583,"44":0.5240083336830139,"45":-0.425126850605011,"46":-0.7698573470115662,"47":0.7024469375610352,"48":-0.9076933264732361,"49":-0.19697034358978271,"50":-0.648037850856781,"51":0.4047934412956238,"52":0.7454143166542053,"53":0.6884865760803223,"54":-0.24039742350578308,"55":0.7862889170646667,"56":0.37708133459091187,"57":0.06675207614898682,"58":-0.7002236247062683,"59":-0.5766053795814514,"60":0.13554996252059937,"61":0.40751299262046814,"62":0.14868849515914917,"63":-0.8580721020698547,"64":-0.0015540788881480694,"65":0.04183812811970711,"66":0.06034676358103752,"67":0.09820476174354553,"68":-0.15634223818778992,"69":0.13467001914978027,"70":-0.09056489914655685,"71":0.1546631008386612,"72":0.0601169653236866,"73":-0.010051787830889225,"74":0.08206002414226532,"75":-0.055665113031864166,"76":-0.08706557005643845,"77":0.29910820722579956,"78":-0.09243843704462051,"79":-0.008436212316155434,"80":-0.04705403000116348,"81":0.7291473150253296,"82":-0.20373667776584625,"83":-0.5824390649795532,"84":0.3863283097743988,"85":-0.28769415616989136,"86":-0.37309181690216064,"87":0.4783557653427124,"88":-0.6065388321876526,"89":-0.12799948453903198,"90":-0.5238009095191956,"91":0.3473456799983978,"92":0.3792751431465149,"93":0.5954803824424744,"94":-0.1606561690568924,"95":0.44190874695777893,"96":0.26875603199005127,"97":-0.2678688168525696,"98":-0.40334707498550415,"99":-0.3781717121601105,"100":-0.11540520191192627,"101":0.3510918617248535,"102":-0.40901651978492737,"103":0.2247074991464615,"104":0.060468606650829315,"105":-0.33993470668792725,"106":-0.33720430731773376,"107":0.1865685135126114,"108":-0.5096684098243713,"109":-0.24469251930713654,"110":-0.23596404492855072,"111":0.4960232079029083,"112":-0.01326760370284319,"113":0.09283555299043655,"114":-0.32069334387779236,"115":0.2767963707447052,"116":0.12089308351278305,"117":-0.3547900319099426,"118":-0.028007259592413902,"119":0.022551361471414566,"120":-0.5676465630531311,"121":0.07537562400102615,"122":-0.47831839323043823,"123":-0.6684030890464783,"124":0.42070454359054565,"125":-0.580775260925293,"126":-0.26572635769844055,"127":0.453774631023407,"128":-0.5048986077308655,"129":-0.5653060078620911,"130":-0.43575021624565125,"131":0.2963574528694153,"132":0.028734084218740463,"133":0.5691552758216858,"134":-0.4959869682788849,"135":0.2520545721054077,"136":0.19978517293930054,"137":-0.22737561166286469,"138":-0.13357914984226227,"139":-0.03408880531787872,"140":0.11302541196346283,"141":0.8042296171188354,"142":0.023437226191163063,"143":-0.6206469535827637,"144":0.33531007170677185,"145":-0.3611912727355957,"146":-0.24203480780124664,"147":0.5756223201751709,"148":-0.48036783933639526,"149":-0.09788268804550171,"150":-0.4013565480709076,"151":0.47231966257095337,"152":0.37372103333473206,"153":0.6874029636383057,"154":-0.04414975270628929,"155":0.3418597877025604,"156":0.36126649379730225,"157":-0.18983213603496552,"158":-0.4417289197444916,"159":-0.3522503077983856,"160":-0.26108306646347046,"161":0.3054659366607666,"162":0.013551192358136177,"163":0.26622921228408813,"164":-0.017052561044692993,"165":-0.08677390962839127,"166":-0.1383882761001587,"167":0.021754778921604156,"168":-0.0397752970457077,"169":0.06320487707853317,"170":0.09131085127592087,"171":0.23574532568454742,"172":0.15475519001483917,"173":0.030049223452806473,"174":-0.06755219399929047,"175":-0.03658680245280266,"176":-0.11275558173656464,"177":-0.5464653372764587,"178":-0.03322148323059082,"179":0.0003475084959063679,"180":-0.22253510355949402,"181":0.5976746082305908,"182":-0.44813188910484314,"183":-0.7879837155342102,"184":0.48219791054725647,"185":-0.42474862933158875,"186":-0.6063317060470581,"187":0.4205394387245178,"188":-0.7907516360282898,"189":-0.3847278356552124,"190":-0.5570486187934875,"191":0.5946596264839172,"192":0.5423428416252136,"193":0.3371588885784149,"194":-0.35537463426589966,"195":0.6627746820449829,"196":0.2763991951942444,"197":-0.13653071224689484,"198":-0.5607826113700867,"199":-0.4069114327430725,"200":-0.24169689416885376,"201":0.6030781865119934,"202":-0.32271358370780945,"203":-0.8017926812171936,"204":0.4443967044353485,"205":-0.3902389109134674,"206":-0.405722051858902,"207":0.6024271845817566,"208":-0.5226662755012512,"209":-0.2992287278175354,"210":-0.562965452671051,"211":0.34226393699645996,"212":0.4625394344329834,"213":0.6912262439727783,"214":-0.2620348334312439,"215":0.38876447081565857,"216":0.28885844349861145,"217":-0.05332432687282562,"218":-0.5060857534408569,"219":-0.38171085715293884,"220":-0.4566679298877716,"221":0.8007923364639282,"222":-0.31432175636291504,"223":0.0014330283738672733,"224":0.24063825607299805,"225":-0.2854672968387604,"226":-0.22131302952766418,"227":0.37513628602027893,"228":-0.15494884550571442,"229":-0.4288625419139862,"230":-0.029345868155360222,"231":-0.03883177787065506,"232":0.1601494997739792,"233":0.4789230227470398,"234":-0.4890559911727905,"235":0.07058440148830414,"236":0.13047446310520172,"237":-0.39783668518066406,"238":-0.22421441972255707,"239":-0.1327076107263565,"240":-0.8062087893486023,"241":-0.37880465388298035,"242":-0.8055813312530518,"243":-0.5993056297302246,"244":0.7559078335762024,"245":-0.6045664548873901,"246":-0.6394304037094116,"247":0.5495154857635498,"248":-0.4263213872909546,"249":-0.6281435489654541,"250":-0.900162398815155,"251":0.028116729110479355,"252":0.19438709318637848,"253":0.4628736674785614,"254":-0.7987949252128601,"255":0.7604695558547974,"256":0.24419322609901428,"257":-0.6180183291435242,"258":-0.07478202134370804,"259":0.07210468500852585,"260":0.15890681743621826,"261":0.9867950677871704,"262":-0.012300096452236176,"263":-0.5512423515319824,"264":0.30728772282600403,"265":-0.38354963064193726,"266":-0.13724619150161743,"267":0.5825621485710144,"268":-0.4297747313976288,"269":0.08534970134496689,"270":-0.30884066224098206,"271":0.4664557874202728,"272":0.28909507393836975,"273":0.7470664381980896,"274":0.021175336092710495,"275":0.14895020425319672,"276":0.23610150814056396,"277":-0.05937281996011734,"278":-0.2624274790287018,"279":-0.30410778522491455,"280":-0.13867232203483582,"281":0.7906755208969116,"282":-0.4067409932613373,"283":-0.9209287166595459,"284":0.49648943543434143,"285":-0.4501003623008728,"286":-0.7723442912101746,"287":0.4690999388694763,"288":-0.7382352352142334,"289":-0.34266963601112366,"290":-0.6716296076774597,"291":0.5279430747032166,"292":0.709873616695404,"293":0.416982501745224,"294":-0.27151450514793396,"295":0.823794960975647,"296":0.3569333553314209,"297":0.13076314330101013,"298":-0.685501754283905,"299":-0.6212189197540283,"300":-0.4771882891654968,"301":0.3470441699028015,"302":-0.4996580183506012,"303":-0.7594209909439087,"304":0.481403648853302,"305":-0.5709514617919922,"306":-0.4223630428314209,"307":0.5188848376274109,"308":-0.6859926581382751,"309":-0.43815064430236816,"310":-0.3698766529560089,"311":0.24234995245933533,"312":0.27453911304473877,"313":0.6097038388252258,"314":-0.5423892140388489,"315":0.4013027548789978,"316":0.2605510354042053,"317":-0.22568893432617188,"318":-0.27328675985336304,"319":-0.09039394557476044,"320":-0.5473824143409729,"321":-0.15781269967556,"322":-0.35816487669944763,"323":0.23823726177215576,"324":0.12203128635883331,"325":-0.2362336814403534,"326":-0.24101686477661133,"327":0.0019045346416532993,"328":-0.341340035200119,"329":-0.26976168155670166,"330":-0.225759357213974,"331":0.37775006890296936,"332":0.21653614938259125,"333":0.026362352073192596,"334":-0.38128140568733215,"335":0.22865740954875946,"336":0.13678167760372162,"337":-0.7041033506393433,"338":-0.21704328060150146,"339":-0.14531439542770386,"340":-0.6273053884506226,"341":1.1392033100128174,"342":-0.7853034138679504,"343":-0.8483407497406006,"344":0.5402854681015015,"345":-0.5995188355445862,"346":-0.8443834781646729,"347":0.2628540098667145,"348":-1.0433998107910156,"349":-0.6039281487464905,"350":-0.5864288210868835,"351":0.9752196669578552,"352":1.0015919208526611,"353":-0.04630271717905998,"354":-0.6805698871612549,"355":0.8228662610054016,"356":0.19273483753204346,"357":-0.4457736611366272,"358":-1.0070916414260864,"359":-0.8869192600250244,"360":-0.8503509759902954,"361":-0.3969835042953491,"362":-0.7591684460639954,"363":-0.5478028655052185,"364":0.7851824760437012,"365":-0.6205795407295227,"366":-0.7245374321937561,"367":0.5195310711860657,"368":-0.5192515254020691,"369":-0.6466465592384338,"370":-0.8823121190071106,"371":-0.05618993192911148,"372":0.10455729067325592,"373":0.35298144817352295,"374":-0.7168045043945312,"375":0.7770106196403503,"376":0.26926490664482117,"377":-0.7609661817550659,"378":-0.11562207341194153,"379":0.013850606977939606,"380":-0.8000853061676025,"381":-0.2161227911710739,"382":-0.6415268182754517,"383":-0.6005639433860779,"384":0.8624839782714844,"385":-0.5159355401992798,"386":-1.1035178899765015,"387":0.6019091010093689,"388":-0.4072165787220001,"389":-0.603925347328186,"390":-0.9754927754402161,"391":0.13456058502197266,"392":0.36331263184547424,"393":0.572639524936676,"394":-0.7311502695083618,"395":1.2137092351913452,"396":0.21633492410182953,"397":-0.41356056928634644,"398":-0.23280468583106995,"399":-0.11613452434539795}},"inputBias":{"rows":20,"columns":1,"weights":{"0":-0.3435686528682709,"1":0.196350559592247,"2":-0.28296956419944763,"3":0.894512414932251,"4":0.1793164312839508,"5":-0.08895932883024216,"6":0.22946853935718536,"7":0.17410223186016083,"8":0.07201550155878067,"9":-0.4600581228733063,"10":0.04786624386906624,"11":-0.3025043308734894,"12":0.528469979763031,"13":0.3704216778278351,"14":-0.3539399802684784,"15":0.32752373814582825,"16":-0.5497164130210876,"17":-0.033912405371665955,"18":0.38455504179000854,"19":0.2240491509437561}},"forgetMatrix":{"rows":20,"columns":10,"weights":{"0":0.22858622670173645,"1":-0.12873198091983795,"2":-0.03660805895924568,"3":0.23538044095039368,"4":0.003051533130928874,"5":-0.33372190594673157,"6":0.19705899059772491,"7":-0.059541795402765274,"8":0.14382414519786835,"9":-0.14690563082695007,"10":0.6779786944389343,"11":-1.0988960266113281,"12":-1.0059608221054077,"13":1.1402665376663208,"14":0.8277372717857361,"15":-0.8287166953086853,"16":1.141892910003662,"17":-0.7559278011322021,"18":1.2685832977294922,"19":-1.1114025115966797,"20":-0.03608132526278496,"21":-0.098309226334095,"22":-0.04068419709801674,"23":0.00940030813217163,"24":0.03144260123372078,"25":-0.010490886867046356,"26":0.00016888869868125767,"27":0.05324399843811989,"28":-0.05570700764656067,"29":0.030342496931552887,"30":0.13741447031497955,"31":0.02229985222220421,"32":-0.1777256280183792,"33":0.11891871690750122,"34":0.2267460972070694,"35":0.1557474285364151,"36":0.09676559269428253,"37":0.06662817299365997,"38":0.16856928169727325,"39":-0.08407353609800339,"40":0.34706759452819824,"41":0.198353573679924,"42":-0.2755177617073059,"43":-0.15555204451084137,"44":0.34854623675346375,"45":-0.11998675763607025,"46":-0.008749422617256641,"47":-0.14360186457633972,"48":-0.336902916431427,"49":0.3100168704986572,"50":-0.09645537286996841,"51":0.14263027906417847,"52":0.20175020396709442,"53":-0.17742089927196503,"54":-0.06731642782688141,"55":0.14206722378730774,"56":-0.11127495765686035,"57":0.10954327136278152,"58":-0.1714106798171997,"59":0.12926863133907318,"60":0.19997955858707428,"61":0.08151219040155411,"62":-0.20002703368663788,"63":-0.17315427958965302,"64":0.20147569477558136,"65":0.03036619909107685,"66":-0.00630915816873312,"67":-0.050615835934877396,"68":-0.23305080831050873,"69":0.24671070277690887,"70":0.16081300377845764,"71":-0.0496346578001976,"72":-0.2780536413192749,"73":-0.13995963335037231,"74":0.35089823603630066,"75":-0.030111681669950485,"76":-0.016342125833034515,"77":-0.17281685769557953,"78":-0.15546444058418274,"79":0.1726568341255188,"80":0.3073829412460327,"81":-0.20500683784484863,"82":-0.3571902811527252,"83":0.15539056062698364,"84":0.36070385575294495,"85":-0.22367048263549805,"86":0.22970975935459137,"87":-0.36176052689552307,"88":0.1703731119632721,"89":-0.16793380677700043,"90":-0.09785342216491699,"91":0.07153744995594025,"92":0.0749053806066513,"93":-0.051003437489271164,"94":-0.1769949197769165,"95":0.10534984618425369,"96":-0.09741531312465668,"97":0.12001059949398041,"98":-0.11836471408605576,"99":0.09148066490888596,"100":0.2970840334892273,"101":-0.12387891113758087,"102":-0.2379922866821289,"103":-0.007716174237430096,"104":0.28680646419525146,"105":-0.1530914157629013,"106":0.22327540814876556,"107":-0.17857246100902557,"108":0.04097289219498634,"109":0.013784345239400864,"110":-0.39898812770843506,"111":-0.39231082797050476,"112":0.48604175448417664,"113":0.2586531639099121,"114":-0.24740156531333923,"115":0.8353593349456787,"116":0.12482456117868423,"117":0.6561148762702942,"118":0.18655987083911896,"119":-0.09315952658653259,"120":-0.19530734419822693,"121":0.17979972064495087,"122":0.19773979485034943,"123":-0.22597648203372955,"124":-0.19524824619293213,"125":0.16872507333755493,"126":-0.23939818143844604,"127":0.3217044770717621,"128":-0.2032281756401062,"129":0.22104980051517487,"130":0.18987064063549042,"131":-0.2812901437282562,"132":-0.3287663459777832,"133":0.11903731524944305,"134":0.26524442434310913,"135":-0.17099645733833313,"136":0.27304211258888245,"137":-0.24548497796058655,"138":0.06473758816719055,"139":-0.13908900320529938,"140":-0.04800136387348175,"141":-0.03450264409184456,"142":0.0592348538339138,"143":-0.013271039351820946,"144":-0.022625118494033813,"145":0.17346638441085815,"146":-0.0793028250336647,"147":0.21548320353031158,"148":-0.06371931731700897,"149":0.1017170175909996,"150":0.30995017290115356,"151":0.10215716809034348,"152":-0.292277991771698,"153":-0.06487296521663666,"154":0.1958673894405365,"155":-0.09209819883108139,"156":0.16337963938713074,"157":-0.17431318759918213,"158":-0.16575820744037628,"159":0.09343978762626648,"160":-0.03390170633792877,"161":-0.0006878235726617277,"162":0.05669349059462547,"163":-0.07283102720975876,"164":-0.055292341858148575,"165":-0.02918696403503418,"166":-0.008243727497756481,"167":-0.0651535838842392,"168":-0.06912757456302643,"169":-0.0006279056542553008,"170":-0.20311270654201508,"171":-0.2297242283821106,"172":0.003211100585758686,"173":0.24390436708927155,"174":-0.07629546523094177,"175":-0.1525532454252243,"176":0.2886391580104828,"177":-0.14788632094860077,"178":0.19567371904850006,"179":-0.3297620713710785,"180":-0.3204818367958069,"181":0.2931079566478729,"182":0.2986627221107483,"183":-0.3155175447463989,"184":-0.1609305441379547,"185":0.2657395005226135,"186":-0.3040185868740082,"187":0.32427287101745605,"188":-0.20237316191196442,"189":0.3393857181072235,"190":-0.233730286359787,"191":0.18602873384952545,"192":0.21311220526695251,"193":-0.3076961040496826,"194":-0.19592231512069702,"195":0.2762330174446106,"196":-0.20342685282230377,"197":0.3326053321361542,"198":-0.24787241220474243,"199":0.3051934242248535}},"forgetHidden":{"rows":20,"columns":20,"weights":{"0":-0.17338773608207703,"1":-0.15730898082256317,"2":-0.18007420003414154,"3":0.3153969645500183,"4":0.16683170199394226,"5":-0.23504194617271423,"6":0.029999500140547752,"7":0.18119549751281738,"8":-0.13628119230270386,"9":-0.2713095247745514,"10":0.0200395155698061,"11":0.265424519777298,"12":-0.07747836410999298,"13":0.020245490595698357,"14":-0.24541273713111877,"15":0.014919832348823547,"16":0.14211128652095795,"17":-0.5757326483726501,"18":0.048552751541137695,"19":0.18675453960895538,"20":-0.28559550642967224,"21":-0.14333873987197876,"22":-0.07314444333314896,"23":-0.2797642946243286,"24":0.3007977306842804,"25":0.28201770782470703,"26":-0.5395501852035522,"27":0.01405047345906496,"28":-0.2187514454126358,"29":-0.06683395802974701,"30":-0.2656213045120239,"31":-0.05153677240014076,"32":0.6563839316368103,"33":0.012039151974022388,"34":-0.18829619884490967,"35":0.5143262147903442,"36":0.025988243520259857,"37":-0.18908679485321045,"38":-0.6806132197380066,"39":-0.4746219217777252,"40":-0.2527146339416504,"41":-0.0282333604991436,"42":-0.26991376280784607,"43":-0.1067916750907898,"44":0.014287835918366909,"45":-0.39811745285987854,"46":-0.04319370537996292,"47":0.18320128321647644,"48":0.07238685339689255,"49":-0.3235985338687897,"50":0.02625730074942112,"51":0.08102035522460938,"52":-0.07137290388345718,"53":0.06853178888559341,"54":-0.31595054268836975,"55":-0.08820070326328278,"56":-0.00508864363655448,"57":0.11831221729516983,"58":-0.008697113022208214,"59":0.09596270322799683,"60":-0.45479533076286316,"61":-0.29894331097602844,"62":-0.6268543004989624,"63":0.4717562198638916,"64":0.45875415205955505,"65":0.05843854695558548,"66":-0.6845987439155579,"67":-0.02614782750606537,"68":-0.31049665808677673,"69":-0.5351171493530273,"70":-0.721993088722229,"71":0.3698461055755615,"72":-0.21018441021442413,"73":-0.25697869062423706,"74":-0.49998778104782104,"75":0.6526273488998413,"76":0.3792991042137146,"77":-0.45308199524879456,"78":0.2476784884929657,"79":0.23404760658740997,"80":0.3055906295776367,"81":0.18630708754062653,"82":0.10903435200452805,"83":-0.31419289112091064,"84":0.176295667886734,"85":0.004308218136429787,"86":-0.12886065244674683,"87":0.27415722608566284,"88":-0.0809108316898346,"89":0.04734288156032562,"90":-0.16782203316688538,"91":-0.031482718884944916,"92":-0.08644717186689377,"93":0.2125486135482788,"94":0.07172691076993942,"95":0.07734565436840057,"96":0.047256357967853546,"97":0.32876864075660706,"98":-0.02108108624815941,"99":-0.004508068319410086,"100":-0.25748658180236816,"101":-0.22332459688186646,"102":-0.26328447461128235,"103":0.06254224479198456,"104":-0.13920532166957855,"105":-0.3014306426048279,"106":0.025030730292201042,"107":-0.05660752207040787,"108":0.10276348888874054,"109":-0.3715929090976715,"110":0.14176002144813538,"111":-0.15506604313850403,"112":-0.24889801442623138,"113":-0.06602451950311661,"114":-0.39204272627830505,"115":-0.14303435385227203,"116":0.02998453751206398,"117":-0.1382398009300232,"118":0.26674410700798035,"119":0.1898900866508484,"120":0.09073077887296677,"121":-0.020702272653579712,"122":0.10243851691484451,"123":-0.23586629331111908,"124":-0.001955814892426133,"125":-0.08944939821958542,"126":0.03965092822909355,"127":0.20644289255142212,"128":-0.16519415378570557,"129":0.007418224588036537,"130":-0.13853028416633606,"131":0.09393338859081268,"132":-0.02857714332640171,"133":0.11108338832855225,"134":0.06053018197417259,"135":-0.015938349068164825,"136":0.08595401793718338,"137":0.14592260122299194,"138":-0.0542127899825573,"139":0.02682807669043541,"140":0.20146861672401428,"141":0.17622201144695282,"142":0.24930709600448608,"143":-0.2871118485927582,"144":0.08366566896438599,"145":0.1141812652349472,"146":0.048184264451265335,"147":0.08811483532190323,"148":0.059167325496673584,"149":0.10398834198713303,"150":0.05579003319144249,"151":-0.28093746304512024,"152":0.037298109382390976,"153":0.09811832755804062,"154":0.11821406334638596,"155":0.044682469218969345,"156":-0.0347529761493206,"157":0.4107091426849365,"158":-0.0428864061832428,"159":0.061402179300785065,"160":-0.11862482875585556,"161":0.03931291028857231,"162":-0.08665589988231659,"163":-0.46945226192474365,"164":0.11529578268527985,"165":-0.2236059606075287,"166":-0.18309244513511658,"167":0.056778110563755035,"168":-0.17572146654129028,"169":-0.08637461811304092,"170":-0.16244332492351532,"171":0.05008969455957413,"172":0.17502433061599731,"173":0.1463257372379303,"174":-0.006669849157333374,"175":0.1276351660490036,"176":0.16957390308380127,"177":-0.05531331151723862,"178":-0.1983766406774521,"179":-0.05796244740486145,"180":-0.2631288170814514,"181":-0.1143718957901001,"182":-0.3299623131752014,"183":0.06803297996520996,"184":0.031116532161831856,"185":-0.3987317681312561,"186":-0.13039834797382355,"187":0.10765993595123291,"188":-0.04683412238955498,"189":-0.28825318813323975,"190":-0.06381195038557053,"191":-0.08121849596500397,"192":-0.09662368893623352,"193":-0.062292736023664474,"194":-0.2570416331291199,"195":0.03357846662402153,"196":0.01657290570437908,"197":-0.12936630845069885,"198":0.19622902572155,"199":0.15377430617809296,"200":0.1687915027141571,"201":-0.09553422033786774,"202":0.041736651211977005,"203":-0.2346508502960205,"204":0.14610551297664642,"205":0.030178792774677277,"206":-0.023293694481253624,"207":0.17769354581832886,"208":-0.09784342348575592,"209":0.11197706311941147,"210":-0.1642632633447647,"211":-0.005848712287843227,"212":0.08147221058607101,"213":0.10631643235683441,"214":0.024929016828536987,"215":0.10655207186937332,"216":0.05061011388897896,"217":0.024162061512470245,"218":0.04550500214099884,"219":-0.03150923177599907,"220":-0.12609632313251495,"221":-0.877802312374115,"222":0.22469516098499298,"223":0.7250331044197083,"224":-0.8407498598098755,"225":0.4972012937068939,"226":0.2785845398902893,"227":-1.1189379692077637,"228":0.5111767649650574,"229":0.20072299242019653,"230":0.38214680552482605,"231":-0.8313325643539429,"232":-0.3878087103366852,"233":-0.9904327988624573,"234":0.1939287632703781,"235":-0.37035056948661804,"236":-0.2471691370010376,"237":0.07478801161050797,"238":0.2654571533203125,"239":0.3467155694961548,"240":-0.39734789729118347,"241":-0.2975213825702667,"242":-0.4303857088088989,"243":-0.029862625524401665,"244":0.24613192677497864,"245":-0.26008278131484985,"246":-0.07957876473665237,"247":-0.038933586329221725,"248":-0.2280416190624237,"249":-0.3630565106868744,"250":-0.20912565290927887,"251":-0.13282300531864166,"252":-0.15284255146980286,"253":-0.18124151229858398,"254":-0.3515475392341614,"255":0.23271331191062927,"256":-0.028499629348516464,"257":-0.03516339138150215,"258":0.1889454871416092,"259":0.18263880908489227,"260":0.39092907309532166,"261":0.1297248750925064,"262":0.252511203289032,"263":-0.5411794781684875,"264":0.10658984631299973,"265":0.13245482742786407,"266":0.13905636966228485,"267":-0.015026980079710484,"268":0.06170472875237465,"269":0.20963707566261292,"270":0.08968428522348404,"271":-0.3416045904159546,"272":0.0931202694773674,"273":0.010614283382892609,"274":0.16288919746875763,"275":0.003625080920755863,"276":-0.09153690934181213,"277":0.5200265049934387,"278":-0.03032171167433262,"279":-0.06877419352531433,"280":-0.29717525839805603,"281":-0.11982510983943939,"282":-0.2926364243030548,"283":0.051457129418849945,"284":0.04897315055131912,"285":-0.3332248032093048,"286":-0.08006095141172409,"287":-0.055868420749902725,"288":0.0667751282453537,"289":-0.3278292119503021,"290":0.051216010004282,"291":0.05583376809954643,"292":-0.13542664051055908,"293":-0.14602720737457275,"294":-0.24218371510505676,"295":0.0761616975069046,"296":0.08139284700155258,"297":-0.11669322103261948,"298":0.14716801047325134,"299":0.20430481433868408,"300":0.1879769116640091,"301":0.02084493637084961,"302":0.05009389668703079,"303":-0.3147396743297577,"304":0.12125681340694427,"305":-0.2018163949251175,"306":-0.02133435197174549,"307":0.28361716866493225,"308":-0.20223383605480194,"309":-0.041105255484580994,"310":-0.10540740191936493,"311":0.14689789712429047,"312":0.07491804659366608,"313":0.22886008024215698,"314":-0.013407561928033829,"315":0.08213889598846436,"316":0.07815137505531311,"317":0.08046228438615799,"318":-0.10117557644844055,"319":-0.18054139614105225,"320":0.014008276164531708,"321":-0.0010362382745370269,"322":-0.006683383136987686,"323":-0.02769954316318035,"324":-0.009031258523464203,"325":-0.0632435530424118,"326":-0.10836203396320343,"327":0.05126656964421272,"328":-0.10133807361125946,"329":-0.11635097861289978,"330":-0.08511734008789062,"331":0.09238135069608688,"332":0.11804227530956268,"333":0.08932916074991226,"334":-0.018030745908617973,"335":0.08795318007469177,"336":0.07452672719955444,"337":-0.08278047293424606,"338":-0.06875313818454742,"339":-0.10989449918270111,"340":-0.7701544761657715,"341":-0.06034880504012108,"342":-0.569983184337616,"343":0.1191047802567482,"344":0.08398152887821198,"345":-0.13977627456188202,"346":-0.3560066521167755,"347":-0.3616349995136261,"348":-0.20285701751708984,"349":-0.3818556070327759,"350":-0.34116095304489136,"351":0.23474907875061035,"352":-0.051800213754177094,"353":-0.4107627868652344,"354":-0.6551202535629272,"355":0.4995223879814148,"356":0.04475979134440422,"357":-0.3767537474632263,"358":0.07706400007009506,"359":0.1773667186498642,"360":-0.4140220284461975,"361":-0.3009053170681,"362":-0.30109426379203796,"363":0.06803508847951889,"364":0.1989862024784088,"365":-0.35090675950050354,"366":-0.11162175238132477,"367":0.016457002609968185,"368":-0.28675293922424316,"369":-0.3377110958099365,"370":-0.15644237399101257,"371":-0.13801580667495728,"372":-0.17000867426395416,"373":-0.14658580720424652,"374":-0.42039719223976135,"375":0.15122507512569427,"376":0.0026945793069899082,"377":-0.07175211608409882,"378":0.23399712145328522,"379":0.3002406060695648,"380":-0.4315109848976135,"381":-0.3471815586090088,"382":-0.3533329963684082,"383":-0.10475997626781464,"384":0.16576923429965973,"385":-0.30170539021492004,"386":-0.15282945334911346,"387":-0.020095432177186012,"388":-0.28649458289146423,"389":-0.39301595091819763,"390":-0.21121865510940552,"391":-0.13327255845069885,"392":-0.16450951993465424,"393":0.012673783116042614,"394":-0.32617244124412537,"395":0.3339543342590332,"396":0.08262216299772263,"397":0.012314904481172562,"398":0.15514110028743744,"399":0.27631059288978577}},"forgetBias":{"rows":20,"columns":1,"weights":{"0":0,"1":0,"2":0,"3":0,"4":0,"5":0,"6":0,"7":0,"8":0,"9":0,"10":0,"11":0,"12":0,"13":0,"14":0,"15":0,"16":0,"17":0,"18":0,"19":0}},"outputMatrix":{"rows":20,"columns":10,"weights":{"0":0.6801081895828247,"1":-0.18822716176509857,"2":-0.5154980421066284,"3":0.3372238576412201,"4":0.3298288583755493,"5":-1.3211466073989868,"6":0.3701958656311035,"7":-1.1334962844848633,"8":0.34789785742759705,"9":-0.290375292301178,"10":0.8515269160270691,"11":-1.003911018371582,"12":-1.1659590005874634,"13":0.9426564574241638,"14":0.9142227172851562,"15":-0.9336438775062561,"16":1.0946470499038696,"17":-0.9836326837539673,"18":0.9101681113243103,"19":-1.0428154468536377,"20":0.11219549924135208,"21":0.14833302795886993,"22":-0.05223410576581955,"23":-0.013259737752377987,"24":-0.013612436130642891,"25":-0.5435276627540588,"26":-0.05386129766702652,"27":-0.41141629219055176,"28":-0.051560189574956894,"29":0.05040709301829338,"30":0.1373395174741745,"31":-0.3794223964214325,"32":-0.5773272514343262,"33":0.5316024422645569,"34":0.5189410448074341,"35":0.3644619882106781,"36":0.6438376903533936,"37":0.08778097480535507,"38":0.14208677411079407,"39":-0.43708157539367676,"40":-0.033995334059000015,"41":0.21354778110980988,"42":-0.06852677464485168,"43":-0.29668092727661133,"44":-0.02105657570064068,"45":0.11767801642417908,"46":-0.15114761888980865,"47":0.07212191075086594,"48":-0.6164935827255249,"49":0.42544025182724,"50":-0.15786844491958618,"51":0.4392091929912567,"52":0.2233976423740387,"53":-0.35482674837112427,"54":-0.2891824245452881,"55":0.010131961666047573,"56":-0.43719643354415894,"57":0.051192279905080795,"58":-0.23530976474285126,"59":0.34089186787605286,"60":-0.20798295736312866,"61":0.28492817282676697,"62":0.1912655532360077,"63":-0.25593897700309753,"64":-0.24200274050235748,"65":0.31540971994400024,"66":-0.23799185454845428,"67":0.17110878229141235,"68":-0.3238222897052765,"69":0.3111339211463928,"70":0.061176665127277374,"71":0.25856754183769226,"72":0.006734481081366539,"73":-0.41470107436180115,"74":0.04935763031244278,"75":0.1297527551651001,"76":-0.07778969407081604,"77":-0.05050741881132126,"78":-0.6528829336166382,"79":0.5408079624176025,"80":-0.13716675341129303,"81":0.1743209809064865,"82":0.1968815177679062,"83":-0.22211924195289612,"84":-0.19623327255249023,"85":0.1623101830482483,"86":-0.2261887937784195,"87":0.15368212759494781,"88":-0.35038113594055176,"89":0.33039188385009766,"90":0.07617004215717316,"91":0.27163830399513245,"92":0.06466532498598099,"93":-0.2356567084789276,"94":-0.16750358045101166,"95":-0.5169833898544312,"96":-0.278942346572876,"97":-0.23204080760478973,"98":-0.10326428711414337,"99":0.17128132283687592,"100":-0.16144058108329773,"101":0.21454688906669617,"102":-0.014812287874519825,"103":-0.31557497382164,"104":-0.09671247005462646,"105":0.09709197282791138,"106":-0.16166691482067108,"107":0.05091368034482002,"108":-0.46025049686431885,"109":0.4303188621997833,"110":-0.46949946880340576,"111":0.6881783604621887,"112":0.735429048538208,"113":-0.9961597323417664,"114":-0.45814716815948486,"115":0.9509688019752502,"116":-0.7684875130653381,"117":0.7780712842941284,"118":-1.1621167659759521,"119":1.1096853017807007,"120":-0.04549065977334976,"121":0.05399956926703453,"122":-0.03181048482656479,"123":0.03409246355295181,"124":-0.09244857728481293,"125":0.15581612288951874,"126":-0.11775323003530502,"127":0.2830520570278168,"128":-0.08213584870100021,"129":-0.004478790331631899,"130":0.1333041936159134,"131":-0.05057268217206001,"132":-0.2674318552017212,"133":-0.0243239663541317,"134":0.10050083696842194,"135":0.08703203499317169,"136":0.2813894748687744,"137":-0.18039508163928986,"138":-0.48911252617836,"139":0.16522245109081268,"140":0.12299153953790665,"141":0.1717318743467331,"142":-0.0543026365339756,"143":-0.05300271138548851,"144":-0.05158841982483864,"145":-0.5779592394828796,"146":-0.19086429476737976,"147":-0.2772461473941803,"148":-0.12327603250741959,"149":0.09141401946544647,"150":-0.24156217277050018,"151":0.3514454662799835,"152":0.1379036009311676,"153":-0.3396173119544983,"154":-0.13543984293937683,"155":0.18240326642990112,"156":-0.2678301930427551,"157":0.09817687422037125,"158":-0.48800554871559143,"159":0.45005181431770325,"160":-0.4421859383583069,"161":0.5647265315055847,"162":0.5014145970344543,"163":-0.4553450644016266,"164":-0.585593044757843,"165":0.27320629358291626,"166":-0.6112802624702454,"167":0.3098706305027008,"168":-0.3957595229148865,"169":0.40879592299461365,"170":0.3532690405845642,"171":0.06736067682504654,"172":-0.4204544126987457,"173":0.26129451394081116,"174":0.30036798119544983,"175":-0.3612755835056305,"176":0.05269790068268776,"177":-0.6382688879966736,"178":-0.007461586967110634,"179":-0.12736116349697113,"180":-0.1639939695596695,"181":0.004814944230020046,"182":0.011415318585932255,"183":-0.009775449521839619,"184":-0.058758918195962906,"185":0.13935041427612305,"186":-0.012040243484079838,"187":0.2285916656255722,"188":-0.11544929444789886,"189":0.040531545877456665,"190":-0.14170338213443756,"191":0.10727813094854355,"192":0.0010610101744532585,"193":-0.026185108348727226,"194":0.005523222964257002,"195":0.19646726548671722,"196":-0.13168613612651825,"197":0.19879935681819916,"198":-0.032230306416749954,"199":0.07296840101480484}},"outputHidden":{"rows":20,"columns":20,"weights":{"0":-0.17047175765037537,"1":0.5549331903457642,"2":-0.18789759278297424,"3":-0.7742770314216614,"4":0.451989084482193,"5":-0.16433142125606537,"6":-0.7528719305992126,"7":0.4090644419193268,"8":-0.716455340385437,"9":-0.08876445144414902,"10":-0.6101406216621399,"11":0.46910423040390015,"12":0.9608678817749023,"13":0.2045566588640213,"14":-0.15790137648582458,"15":0.6915571689605713,"16":0.2648180425167084,"17":-0.28477466106414795,"18":-0.9992343187332153,"19":-0.8163965940475464,"20":0.17555488646030426,"21":0.7904486656188965,"22":0.04937005415558815,"23":-0.9526281356811523,"24":1.1442174911499023,"25":-0.03818466514348984,"26":-1.4740583896636963,"27":1.033017635345459,"28":-0.7756732702255249,"29":-0.000728823069948703,"30":-1.106134057044983,"31":0.6085001230239868,"32":1.7608156204223633,"33":1.1226040124893188,"34":0.07742828130722046,"35":1.5097795724868774,"36":0.1695336401462555,"37":0.03307301923632622,"38":-1.6717404127120972,"39":-1.5771812200546265,"40":-0.2628559470176697,"41":0.6525219082832336,"42":-0.3479613959789276,"43":-0.9329352378845215,"44":0.3885084092617035,"45":-0.4595843553543091,"46":-0.6004292368888855,"47":0.6522939801216125,"48":-0.8403701782226562,"49":-0.2959727644920349,"50":-0.6052467226982117,"51":0.42723003029823303,"52":0.5559956431388855,"53":0.6997857689857483,"54":-0.2924463152885437,"55":0.7083467841148376,"56":0.3765186369419098,"57":0.2839307188987732,"58":-0.5290064215660095,"59":-0.6032821536064148,"60":-0.19985511898994446,"61":0.5062714219093323,"62":-0.24980930984020233,"63":-0.48936033248901367,"64":0.2047293484210968,"65":-0.17556031048297882,"66":-0.2540164887905121,"67":0.1452287882566452,"68":-0.2756534218788147,"69":-0.13204726576805115,"70":-0.2233588695526123,"71":0.31984496116638184,"72":0.2133917659521103,"73":0.21457313001155853,"74":-0.21018236875534058,"75":0.19649125635623932,"76":0.02607458457350731,"77":0.09025733917951584,"78":-0.2694668173789978,"79":-0.32068759202957153,"80":-0.28288230299949646,"81":0.6355937123298645,"82":-0.4025574326515198,"83":-0.5980018377304077,"84":0.6734257936477661,"85":-0.4874662756919861,"86":-0.6919453740119934,"87":0.4620106518268585,"88":-0.7346141338348389,"89":-0.37763896584510803,"90":-0.7859494686126709,"91":0.5346649289131165,"92":0.2951113283634186,"93":0.5504235029220581,"94":-0.45207157731056213,"95":0.7112787365913391,"96":0.3985803723335266,"97":-0.3901343047618866,"98":-0.3415384888648987,"99":-0.21200570464134216,"100":-0.19925494492053986,"101":0.32811591029167175,"102":-0.3658159077167511,"103":0.3620932698249817,"104":0.07753224670886993,"105":-0.37903115153312683,"106":-0.26666855812072754,"107":0.06175677478313446,"108":-0.34961092472076416,"109":-0.349831223487854,"110":0.04744343087077141,"111":0.29216432571411133,"112":0.04743655398488045,"113":0.0574553906917572,"114":-0.31788721680641174,"115":0.10016420483589172,"116":0.11332503706216812,"117":-0.46017855405807495,"118":-0.06242412328720093,"119":-0.12341733276844025,"120":-0.7290779948234558,"121":0.03077518939971924,"122":-0.7336256504058838,"123":-0.8736337423324585,"124":0.501483678817749,"125":-0.7881543636322021,"126":-0.5038514137268066,"127":0.599410891532898,"128":-0.7103252410888672,"129":-0.6408560276031494,"130":-0.5344613790512085,"131":0.2975625991821289,"132":0.23326542973518372,"133":0.6399908065795898,"134":-0.7054852843284607,"135":0.5154333114624023,"136":0.3857700824737549,"137":-0.28201204538345337,"138":-0.12548060715198517,"139":-0.21265245974063873,"140":-0.08601270616054535,"141":0.6925281882286072,"142":-0.05110093578696251,"143":-0.6747629046440125,"144":0.40137141942977905,"145":-0.4758780300617218,"146":-0.416052907705307,"147":0.5037363767623901,"148":-0.6243177056312561,"149":-0.008519194088876247,"150":-0.5427544713020325,"151":0.44164231419563293,"152":0.49710580706596375,"153":0.7050409317016602,"154":-0.1606144905090332,"155":0.4387045204639435,"156":0.3868652880191803,"157":-0.14059898257255554,"158":-0.36462098360061646,"159":-0.35532593727111816,"160":-0.41640374064445496,"161":0.6307980418205261,"162":-0.35628390312194824,"163":-0.12166717648506165,"164":0.18490329384803772,"165":-0.542892575263977,"166":-0.4661611318588257,"167":0.3013819456100464,"168":-0.4394877254962921,"169":-0.3712754249572754,"170":-0.32911452651023865,"171":0.25019481778144836,"172":0.28380247950553894,"173":0.15337690711021423,"174":-0.37497320771217346,"175":0.4766041338443756,"176":0.37135279178619385,"177":-0.23653544485569,"178":-0.3487350344657898,"179":-0.3001486659049988,"180":-0.33722496032714844,"181":0.4428194761276245,"182":-0.3716646134853363,"183":-0.7454526424407959,"184":0.37335681915283203,"185":-0.4999428391456604,"186":-0.6884618997573853,"187":0.4766674339771271,"188":-0.7239585518836975,"189":-0.32387611269950867,"190":-0.4770071506500244,"191":0.6891771554946899,"192":0.4444335401058197,"193":0.32526686787605286,"194":-0.46881118416786194,"195":0.7223761677742004,"196":0.32862046360969543,"197":-0.17562496662139893,"198":-0.449293315410614,"199":-0.29583990573883057,"200":-0.3432663679122925,"201":0.48609045147895813,"202":-0.3407888114452362,"203":-0.8174096941947937,"204":0.6225751638412476,"205":-0.5616031289100647,"206":-0.6123216152191162,"207":0.7725708484649658,"208":-0.6827853918075562,"209":-0.36097434163093567,"210":-0.7356805205345154,"211":0.3630436956882477,"212":0.4902499318122864,"213":0.8225312232971191,"214":-0.36659806966781616,"215":0.5878210663795471,"216":0.3956373631954193,"217":-0.2529543340206146,"218":-0.5833912491798401,"219":-0.4599158465862274,"220":-0.06887712329626083,"221":0.26479604840278625,"222":0.26234644651412964,"223":0.9290294051170349,"224":-0.519295334815979,"225":0.17881260812282562,"226":0.2029196321964264,"227":-0.8509419560432434,"228":0.27632465958595276,"229":0.12924888730049133,"230":0.49633753299713135,"231":-0.5548272728919983,"232":-0.6526565551757812,"233":-0.38824665546417236,"234":0.2593378722667694,"235":-0.38195061683654785,"236":-0.14835256338119507,"237":0.34422990679740906,"238":0.6051709651947021,"239":0.6472445726394653,"240":-0.9041668772697449,"241":-0.35643839836120605,"242":-0.7988588213920593,"243":-0.7529529929161072,"244":0.7646995782852173,"245":-0.6874076724052429,"246":-0.6207082271575928,"247":0.49362748861312866,"248":-0.6070864796638489,"249":-0.7556408047676086,"250":-0.8102691173553467,"251":-0.09559179097414017,"252":0.24278751015663147,"253":0.3351704180240631,"254":-0.7955189943313599,"255":0.8205839395523071,"256":0.365586519241333,"257":-0.672297477722168,"258":-0.09993463009595871,"259":-0.03069940023124218,"260":0.22612519562244415,"261":1.0169657468795776,"262":0.17802627384662628,"263":-0.8552814722061157,"264":0.22402285039424896,"265":-0.4358363449573517,"266":-0.22586137056350708,"267":0.4923785626888275,"268":-0.4006820619106293,"269":0.16685739159584045,"270":-0.34475699067115784,"271":0.3828069269657135,"272":0.46131888031959534,"273":0.758530855178833,"274":0.1531311720609665,"275":0.1797264963388443,"276":0.37079599499702454,"277":0.11375712603330612,"278":-0.4069557189941406,"279":-0.49775806069374084,"280":-0.32281166315078735,"281":0.5754415392875671,"282":-0.4230688214302063,"283":-0.9673231840133667,"284":0.5681650042533875,"285":-0.5465292930603027,"286":-0.7833022475242615,"287":0.5371793508529663,"288":-0.7592867016792297,"289":-0.3617819845676422,"290":-0.5773044228553772,"291":0.5471267104148865,"292":0.4693954885005951,"293":0.461948424577713,"294":-0.40419042110443115,"295":0.8422556519508362,"296":0.4408740699291229,"297":0.18164190649986267,"298":-0.5915540456771851,"299":-0.4409063160419464,"300":-0.5473966002464294,"301":0.37554028630256653,"302":-0.5911910533905029,"303":-0.8781298995018005,"304":0.5634129643440247,"305":-0.8169894814491272,"306":-0.5729336738586426,"307":0.6333997249603271,"308":-0.7867347598075867,"309":-0.531362771987915,"310":-0.5189293026924133,"311":0.2240021824836731,"312":0.32314515113830566,"313":0.7151641249656677,"314":-0.5388715267181396,"315":0.5592565536499023,"316":0.49668097496032715,"317":-0.07560911029577255,"318":-0.3076499104499817,"319":-0.38453686237335205,"320":-0.45216476917266846,"321":-0.12675951421260834,"322":-0.43471455574035645,"323":0.22040396928787231,"324":0.11691895872354507,"325":-0.25721022486686707,"326":-0.373089998960495,"327":0.20407719910144806,"328":-0.40460047125816345,"329":-0.3729080855846405,"330":-0.3235640525817871,"331":0.28971680998802185,"332":0.2984010875225067,"333":0.19641539454460144,"334":-0.3288462460041046,"335":0.3592090606689453,"336":0.18365341424942017,"337":-0.4759266972541809,"338":-0.3027842938899994,"339":-0.278253972530365,"340":-0.9646404981613159,"341":1.0447051525115967,"342":-1.0650416612625122,"343":-0.7560956478118896,"344":0.41545963287353516,"345":-0.6091927886009216,"346":-1.0154675245285034,"347":0.054314304143190384,"348":-1.1413148641586304,"349":-0.8807830810546875,"350":-0.8256849646568298,"351":1.0608857870101929,"352":0.7636685967445374,"353":-0.20109504461288452,"354":-1.1082496643066406,"355":1.008089303970337,"356":0.24470025300979614,"357":-0.7333839535713196,"358":-0.9188966751098633,"359":-0.6981582641601562,"360":-0.8783633708953857,"361":-0.37346968054771423,"362":-0.8172186613082886,"363":-0.7541661858558655,"364":0.7440716624259949,"365":-0.6363335251808167,"366":-0.7262980341911316,"367":0.47709921002388,"368":-0.6555272936820984,"369":-0.6378299593925476,"370":-0.7638373970985413,"371":-0.20383238792419434,"372":0.173202782869339,"373":0.41065874695777893,"374":-0.6729378700256348,"375":0.7928292751312256,"376":0.27155447006225586,"377":-0.6714102029800415,"378":-0.11197859048843384,"379":-0.10481885820627213,"380":-0.8655965328216553,"381":-0.3688142001628876,"382":-0.7517774701118469,"383":-0.6312447190284729,"384":0.8194334506988525,"385":-0.6627463698387146,"386":-1.0422754287719727,"387":0.6385902166366577,"388":-0.7077082395553589,"389":-0.6587658524513245,"390":-0.9935603737831116,"391":-0.0014804319944232702,"392":0.34025102853775024,"393":0.4317612051963806,"394":-0.6436107158660889,"395":1.1329870223999023,"396":0.19757449626922607,"397":-0.5085248351097107,"398":-0.1893463432788849,"399":-0.024684658274054527}},"outputBias":{"rows":20,"columns":1,"weights":{"0":-0.3755972683429718,"1":0.17054635286331177,"2":-0.28668200969696045,"3":0.9228417277336121,"4":0.16432732343673706,"5":-0.12293457239866257,"6":0.21002338826656342,"7":0.1645931750535965,"8":0.05917169153690338,"9":-0.48813748359680176,"10":0.03607645258307457,"11":-0.2986411154270172,"12":0.5138834714889526,"13":0.3596770167350769,"14":-0.3720827102661133,"15":0.301737904548645,"16":-0.5564164519309998,"17":-0.040527742356061935,"18":0.3491387367248535,"19":0.14782489836215973}},"cellActivationMatrix":{"rows":20,"columns":10,"weights":{"0":-0.23481689393520355,"1":0.3250814378261566,"2":0.2543926537036896,"3":-0.3929104506969452,"4":-0.29894259572029114,"5":-0.6751871705055237,"6":-0.35048431158065796,"7":-0.24378952383995056,"8":-0.3811369240283966,"9":0.3553304076194763,"10":0.5591490864753723,"11":-1.2106258869171143,"12":-0.8197665214538574,"13":1.2315593957901,"14":0.6736141443252563,"15":-0.7194998264312744,"16":1.1692861318588257,"17":-0.667616069316864,"18":1.2912907600402832,"19":-1.388406753540039,"20":-0.08003706485033035,"21":0.3539576232433319,"22":0.20762088894844055,"23":-0.20913046598434448,"24":-0.16994468867778778,"25":-0.46525701880455017,"26":-0.28985825181007385,"27":-0.27408796548843384,"28":-0.4011257290840149,"29":0.3528287708759308,"30":-0.3042198717594147,"31":0.38274264335632324,"32":0.07953014224767685,"33":-0.5552167296409607,"34":-0.23631404340267181,"35":0.5245671272277832,"36":-0.3876030445098877,"37":-0.21240761876106262,"38":-0.6081326007843018,"39":0.6373335123062134,"40":0.41475358605384827,"41":-0.49322211742401123,"42":-0.36638370156288147,"43":0.40286335349082947,"44":0.2748272716999054,"45":0.1733134686946869,"46":0.42540568113327026,"47":-0.10582078993320465,"48":0.36369413137435913,"49":-0.3621957302093506,"50":-0.5472232103347778,"51":0.7217269539833069,"52":0.5858869552612305,"53":-0.6508638858795166,"54":-0.7292070388793945,"55":0.2344413697719574,"56":-0.7291386127471924,"57":0.3420138955116272,"58":-0.6737983822822571,"59":0.7165214419364929,"60":-0.31448930501937866,"61":0.8761005401611328,"62":0.16449041664600372,"63":-0.7171071767807007,"64":-0.2501157820224762,"65":-0.38714349269866943,"66":-0.576291024684906,"67":-0.29102763533592224,"68":-0.7930063605308533,"69":0.8188319802284241,"70":0.6085811257362366,"71":-0.4383966326713562,"72":-0.428691029548645,"73":0.4208763539791107,"74":0.28668323159217834,"75":-0.21800625324249268,"76":0.4255519509315491,"77":-0.5686109066009521,"78":0.45900124311447144,"79":-0.5173802971839905,"80":0.003982970956712961,"81":1.0492366552352905,"82":0.20800864696502686,"83":-0.9383974075317383,"84":-0.3865198791027069,"85":-0.3232303857803345,"86":-0.9222508668899536,"87":-0.19103576242923737,"88":-1.1857386827468872,"89":1.0395597219467163,"90":-0.336077481508255,"91":0.2907450497150421,"92":0.3062792420387268,"93":-0.20411504805088043,"94":-0.36580508947372437,"95":-0.4452670216560364,"96":-0.32873353362083435,"97":-0.08259087055921555,"98":-0.23087967932224274,"99":0.26642102003097534,"100":-0.06733642518520355,"101":0.5673829317092896,"102":0.16253267228603363,"103":-0.533666729927063,"104":-0.36883655190467834,"105":-0.22012582421302795,"106":-0.512988805770874,"107":-0.20527765154838562,"108":-0.5257024765014648,"109":0.5795961022377014,"110":0.22517523169517517,"111":-0.5241185426712036,"112":-0.42273712158203125,"113":0.7518208026885986,"114":0.46016111969947815,"115":-0.6759769916534424,"116":0.711158275604248,"117":-0.3151056170463562,"118":0.7192495465278625,"119":-0.7867512106895447,"120":0.2543867230415344,"121":-1.487247109413147,"122":-0.6308399438858032,"123":1.2317184209823608,"124":0.590370237827301,"125":-0.2395010143518448,"126":1.2474544048309326,"127":-0.18721958994865417,"128":1.2346235513687134,"129":-1.2510087490081787,"130":0.593650221824646,"131":-0.5539481043815613,"132":-0.6961948275566101,"133":0.582632839679718,"134":0.279808908700943,"135":-0.35711660981178284,"136":0.5288735032081604,"137":-0.7484594583511353,"138":0.5301616191864014,"139":-0.554254949092865,"140":-0.2638465464115143,"141":0.3183596432209015,"142":0.3142094314098358,"143":-0.18473084270954132,"144":-0.3173741400241852,"145":-0.3410552740097046,"146":-0.21928003430366516,"147":-0.23845800757408142,"148":-0.4276537299156189,"149":0.26983731985092163,"150":0.2370656132698059,"151":-0.904666006565094,"152":-0.11154163628816605,"153":0.7152979969978333,"154":0.1598239690065384,"155":0.5346669554710388,"156":0.5642579793930054,"157":0.22366665303707123,"158":0.8720674514770508,"159":-0.8271253108978271,"160":0.26216113567352295,"161":-0.44671720266342163,"162":-0.33261483907699585,"163":0.41520804166793823,"164":0.34483203291893005,"165":-0.4330393373966217,"166":0.364809513092041,"167":-0.5330665707588196,"168":0.38238659501075745,"169":-0.3258892297744751,"170":0.23932166397571564,"171":-0.11541164666414261,"172":-0.3160475790500641,"173":0.30917298793792725,"174":0.0631515309214592,"175":-0.12422611564397812,"176":0.21916958689689636,"177":-0.19137881696224213,"178":0.26140788197517395,"179":-0.41071102023124695,"180":-0.170033261179924,"181":1.6209867000579834,"182":0.5588912963867188,"183":-1.404278039932251,"184":-0.5075249671936035,"185":0.16224652528762817,"186":-1.2379640340805054,"187":0.21641553938388824,"188":-1.448151707649231,"189":1.4233033657073975,"190":-0.18277692794799805,"191":1.6713138818740845,"192":0.5756763815879822,"193":-1.4738109111785889,"194":-0.629493236541748,"195":0.21947704255580902,"196":-1.4674745798110962,"197":0.27508217096328735,"198":-1.7133299112319946,"199":1.5975228548049927}},"cellActivationHidden":{"rows":20,"columns":20,"weights":{"0":-0.5600436925888062,"1":0.8161042332649231,"2":-0.5458887815475464,"3":-0.7621593475341797,"4":0.9237045049667358,"5":-0.8401188254356384,"6":-0.720056414604187,"7":0.9649665355682373,"8":-0.5741567015647888,"9":-0.5931996703147888,"10":-0.6349126100540161,"11":0.5900662541389465,"12":0.9619540572166443,"13":0.8598011136054993,"14":-0.561626672744751,"15":0.8639063239097595,"16":0.4071228504180908,"17":-0.24801748991012573,"18":-0.9472943544387817,"19":-0.8969454765319824,"20":-0.2674340009689331,"21":-0.15036354959011078,"22":0.1371612548828125,"23":0.1391291469335556,"24":0.0806974545121193,"25":0.6677805781364441,"26":-0.41443008184432983,"27":-0.12140212208032608,"28":0.1805470883846283,"29":-0.0612969845533371,"30":-0.07630614191293716,"31":-0.19541876018047333,"32":0.41438618302345276,"33":-0.11720183491706848,"34":0.01653454825282097,"35":0.45974764227867126,"36":-0.2502457797527313,"37":-0.0334567129611969,"38":-0.42721888422966003,"39":-0.28008833527565,"40":-0.15591216087341309,"41":1.037263035774231,"42":-0.4145495295524597,"43":-0.45462751388549805,"44":0.4048756957054138,"45":-0.7836612462997437,"46":-0.5120723247528076,"47":0.532189667224884,"48":-0.1207571029663086,"49":-0.3951282501220703,"50":-0.2649390995502472,"51":0.464971125125885,"52":0.7605096101760864,"53":0.575138509273529,"54":-0.2673746347427368,"55":0.4548887312412262,"56":0.3319943845272064,"57":0.15297965705394745,"58":-0.7331324219703674,"59":-0.690711259841919,"60":0.7511546611785889,"61":0.7114703059196472,"62":0.8892093300819397,"63":-0.1032969057559967,"64":-0.47724759578704834,"65":-0.6308518052101135,"66":0.8348879814147949,"67":0.38990458846092224,"68":0.85502690076828,"69":0.8562953472137451,"70":0.7954595685005188,"71":-0.5753669142723083,"72":0.23506976664066315,"73":0.4208434820175171,"74":0.9111654162406921,"75":-0.7693457007408142,"76":-0.055276427417993546,"77":0.8773080110549927,"78":-0.2262325882911682,"79":-0.25290238857269287,"80":0.19177116453647614,"81":-0.8406011462211609,"82":0.5963952541351318,"83":0.25274544954299927,"84":-0.9425382018089294,"85":0.6906024813652039,"86":0.9279004335403442,"87":-0.6448999047279358,"88":0.5678720474243164,"89":0.3445698320865631,"90":0.8486102223396301,"91":-0.21004356443881989,"92":-0.746020495891571,"93":-0.6509518027305603,"94":0.5130189657211304,"95":-1.0021260976791382,"96":-0.3665062487125397,"97":0.0719941109418869,"98":0.6594159603118896,"99":0.614538311958313,"100":-0.25338834524154663,"101":0.21973255276679993,"102":-0.4203110337257385,"103":0.26057949662208557,"104":0.09157456457614899,"105":-0.4811881184577942,"106":-0.16803042590618134,"107":0.048204097896814346,"108":0.0641452819108963,"109":-0.36048880219459534,"110":-0.0001417245075572282,"111":-0.06903252005577087,"112":-0.003081192960962653,"113":0.23947633802890778,"114":-0.4304407238960266,"115":0.16695506870746613,"116":0.31845787167549133,"117":-0.2684069871902466,"118":0.11008670926094055,"119":0.14019113779067993,"120":-0.13892030715942383,"121":1.2041711807250977,"122":-0.2593396008014679,"123":-0.8945499062538147,"124":0.7393661141395569,"125":-0.8049513101577759,"126":-0.6748459935188293,"127":0.8473299741744995,"128":-0.6166346073150635,"129":-0.29412803053855896,"130":-0.6978965997695923,"131":0.487843781709671,"132":0.8074005246162415,"133":0.9006778597831726,"134":-0.2993445098400116,"135":0.7957770228385925,"136":0.5340640544891357,"137":0.2044372260570526,"138":-0.8143308162689209,"139":-0.7205207943916321,"140":0.10621785372495651,"141":-0.5580447316169739,"142":0.3744875490665436,"143":-0.31499624252319336,"144":-0.5821145176887512,"145":0.3061673045158386,"146":0.5764466524124146,"147":-0.47764596343040466,"148":0.6110711693763733,"149":0.2866522967815399,"150":0.6480838060379028,"151":0.41911613941192627,"152":-0.4728618562221527,"153":-0.3644556999206543,"154":0.31932899355888367,"155":-0.7026255130767822,"156":-0.2141667604446411,"157":0.3907965421676636,"158":0.42554837465286255,"159":0.3509209454059601,"160":-0.15961475670337677,"161":0.6445163488388062,"162":-0.26530516147613525,"163":-0.39077693223953247,"164":0.3022790849208832,"165":-0.5146546959877014,"166":-0.2878183126449585,"167":0.3017636239528656,"168":-0.28025075793266296,"169":-0.3656958341598511,"170":-0.2717934250831604,"171":0.7420642375946045,"172":0.10206842422485352,"173":0.3215056359767914,"174":-0.316861629486084,"175":0.32268762588500977,"176":0.4093395173549652,"177":-0.2528991103172302,"178":-0.14811772108078003,"179":-0.20535075664520264,"180":-0.0994180217385292,"181":0.9163642525672913,"182":-0.35846835374832153,"183":-0.07054577767848969,"184":0.33635199069976807,"185":-0.4870957136154175,"186":-0.36537498235702515,"187":0.31021010875701904,"188":-0.05667148903012276,"189":-0.23004473745822906,"190":-0.17356178164482117,"191":0.34752339124679565,"192":0.5949687361717224,"193":0.4497545063495636,"194":-0.19755078852176666,"195":0.39228856563568115,"196":0.22603638470172882,"197":0.16686461865901947,"198":-0.5636984705924988,"199":-0.5232908129692078,"200":0.16571961343288422,"201":0.934077262878418,"202":-0.044755835086107254,"203":-0.7649469971656799,"204":0.7592225670814514,"205":-0.7255502343177795,"206":-0.5271389484405518,"207":0.805424690246582,"208":-0.2569241523742676,"209":-0.0795091912150383,"210":-0.4931904673576355,"211":0.5514178276062012,"212":0.6169896721839905,"213":0.9810709953308105,"214":-0.012936443090438843,"215":0.556365430355072,"216":0.45288997888565063,"217":0.3640536665916443,"218":-0.5703566074371338,"219":-0.5776076316833496,"220":0.3980128765106201,"221":-0.8245394229888916,"222":0.33496034145355225,"223":-0.3391040861606598,"224":0.28729796409606934,"225":-0.026903457939624786,"226":-0.028317727148532867,"227":0.11739068478345871,"228":-0.20069649815559387,"229":0.27257683873176575,"230":0.008612578734755516,"231":0.18977010250091553,"232":0.04370100796222687,"233":0.12184739112854004,"234":0.4595209062099457,"235":0.1744815558195114,"236":-0.052541203796863556,"237":0.34897324442863464,"238":0.05637560412287712,"239":-0.018034309148788452,"240":-0.10587287694215775,"241":0.12906771898269653,"242":0.10818692296743393,"243":0.4136088192462921,"244":-0.42487797141075134,"245":0.6141154170036316,"246":0.2575947642326355,"247":-0.6104950308799744,"248":0.47884806990623474,"249":0.148717999458313,"250":0.505306601524353,"251":-0.8718057870864868,"252":0.13792511820793152,"253":-0.5048683285713196,"254":0.2194421887397766,"255":-0.31386077404022217,"256":-0.48103395104408264,"257":0.8274242877960205,"258":-0.23902146518230438,"259":-0.2881067097187042,"260":-0.06276600062847137,"261":-0.15673446655273438,"262":0.15620124340057373,"263":-0.6786113977432251,"264":-0.2881808876991272,"265":0.20849382877349854,"266":0.4874020218849182,"267":-0.20066794753074646,"268":0.4243035316467285,"269":0.11566540598869324,"270":0.29820942878723145,"271":0.6542317271232605,"272":-0.09358453005552292,"273":-0.15661564469337463,"274":0.059174828231334686,"275":-0.38698139786720276,"276":-0.16621588170528412,"277":0.714638352394104,"278":0.17029206454753876,"279":0.11104705929756165,"280":-0.21683180332183838,"281":1.0643349885940552,"282":-0.40744227170944214,"283":-0.2756829559803009,"284":0.4744972884654999,"285":-0.7358248233795166,"286":-0.5015935301780701,"287":0.49949145317077637,"288":-0.05974937230348587,"289":-0.39147689938545227,"290":-0.35187989473342896,"291":0.41676029562950134,"292":0.6870149970054626,"293":0.5354618430137634,"294":-0.3736655116081238,"295":0.531931459903717,"296":0.3290048837661743,"297":0.1240406185388565,"298":-0.6104804873466492,"299":-0.6679902076721191,"300":0.10612773895263672,"301":-1.2844784259796143,"302":0.16751237213611603,"303":0.9530060887336731,"304":-0.6594827175140381,"305":0.8446239233016968,"306":0.6997131705284119,"307":-0.9139323234558105,"308":0.5357005596160889,"309":0.17640633881092072,"310":0.6666563749313354,"311":-0.5344963669776917,"312":-0.8080477714538574,"313":-0.811509907245636,"314":0.12116838246583939,"315":-0.6587885022163391,"316":-0.5510497689247131,"317":-0.10035629570484161,"318":0.7920554280281067,"319":0.8577430844306946,"320":0.16705042123794556,"321":-0.32478225231170654,"322":0.22393013536930084,"323":-0.11693934351205826,"324":-0.23288848996162415,"325":0.41449981927871704,"326":0.25804153084754944,"327":-0.2455051988363266,"328":0.14599746465682983,"329":0.20775632560253143,"330":0.22124314308166504,"331":0.1416732519865036,"332":-0.16566747426986694,"333":-0.216220885515213,"334":0.23753677308559418,"335":-0.268000066280365,"336":-0.22708597779273987,"337":0.21373900771141052,"338":0.17000846564769745,"339":0.29215294122695923,"340":-0.3563951849937439,"341":1.1056593656539917,"342":-0.4617070257663727,"343":-0.17246019840240479,"344":0.32023006677627563,"345":-0.2847045660018921,"346":-0.4234793484210968,"347":0.21953174471855164,"348":-0.23896151781082153,"349":-0.36633536219596863,"350":-0.377612829208374,"351":0.3539319634437561,"352":0.5863781571388245,"353":0.09546000510454178,"354":-0.4213641583919525,"355":0.4502330720424652,"356":0.2851315438747406,"357":-0.40764981508255005,"358":-0.4329167604446411,"359":-0.4427182376384735,"360":0.07300341874361038,"361":-0.15865398943424225,"362":-0.21297529339790344,"363":-0.2953428030014038,"364":0.3721950054168701,"365":-0.533771812915802,"366":-0.2862085700035095,"367":0.4239550828933716,"368":-0.4426821768283844,"369":-0.24371014535427094,"370":-0.35304585099220276,"371":0.877128005027771,"372":-0.1575770229101181,"373":0.48985788226127625,"374":-0.28197216987609863,"375":0.2294645458459854,"376":0.45409098267555237,"377":-0.7012509703636169,"378":0.21892918646335602,"379":0.21508321166038513,"380":-0.02937055006623268,"381":-0.4486922025680542,"382":-0.27842703461647034,"383":-0.4662676453590393,"384":0.30707627534866333,"385":-0.6131077408790588,"386":-0.16324637830257416,"387":0.3553852438926697,"388":-0.4279388189315796,"389":-0.33831077814102173,"390":-0.26902836561203003,"391":0.6250380873680115,"392":-0.3496531844139099,"393":0.3609960973262787,"394":-0.21005721390247345,"395":0.23708529770374298,"396":0.4169982969760895,"397":-0.8446610569953918,"398":0.38149499893188477,"399":0.3821330666542053}},"cellActivationBias":{"rows":20,"columns":1,"weights":{"0":-0.18725481629371643,"1":0.4397079348564148,"2":-0.02819746918976307,"3":-0.4826022982597351,"4":-0.11136607080698013,"5":0.25274986028671265,"6":0.033846963196992874,"7":-0.0977335050702095,"8":0.15298137068748474,"9":0.15268276631832123,"10":0.034835487604141235,"11":-0.38615989685058594,"12":0.11919452995061874,"13":-0.002021385822445154,"14":0.07542815804481506,"15":-0.0592941977083683,"16":-0.2379646599292755,"17":0.6639614701271057,"18":-0.1317523866891861,"19":-0.05600830167531967}}},{"inputMatrix":{"rows":10,"columns":20,"weights":{"0":0.35786616802215576,"1":0.7996549606323242,"2":0.10611280053853989,"3":-0.054294269531965256,"4":-0.5216145515441895,"5":-0.17461425065994263,"6":0.5215393304824829,"7":-0.14820405840873718,"8":0.12837330996990204,"9":0.07306661456823349,"10":0.6552212238311768,"11":0.42047348618507385,"12":-0.189468115568161,"13":-0.13554444909095764,"14":0.07271706312894821,"15":-0.42824167013168335,"16":-0.1575814187526703,"17":0.759323000907898,"18":0.23947171866893768,"19":-0.040593378245830536,"20":0.7837122678756714,"21":1.5176191329956055,"22":0.47839614748954773,"23":-0.23647496104240417,"24":0.09568584710359573,"25":-0.2665262818336487,"26":-0.043478529900312424,"27":0.22547128796577454,"28":-0.08053746074438095,"29":0.44865021109580994,"30":-0.0880642831325531,"31":0.6333787441253662,"32":0.3432004451751709,"33":0.45265570282936096,"34":0.49397459626197815,"35":0.08673763275146484,"36":0.294695109128952,"37":0.7256179451942444,"38":-0.2554962933063507,"39":-0.5292306542396545,"40":0.8050895929336548,"41":0.7360052466392517,"42":0.46984952688217163,"43":0.16206450760364532,"44":-0.25615689158439636,"45":-0.28417378664016724,"46":0.2484639436006546,"47":-0.06755375117063522,"48":0.24001964926719666,"49":0.4327259361743927,"50":0.3110017478466034,"51":0.2508484721183777,"52":0.058405473828315735,"53":0.16399185359477997,"54":0.48279643058776855,"55":-0.2525709867477417,"56":-0.0455733947455883,"57":0.8429481983184814,"58":0.008994558826088905,"59":-0.14800873398780823,"60":0.7651284337043762,"61":1.0322918891906738,"62":0.2891939580440521,"63":0.16083084046840668,"64":0.11041552573442459,"65":0.008366701193153858,"66":-0.029981663450598717,"67":0.28762540221214294,"68":0.0905551016330719,"69":0.4290443956851959,"70":-0.021018048748373985,"71":0.01963888667523861,"72":0.008759457617998123,"73":0.24531537294387817,"74":0.3410100042819977,"75":0.058342427015304565,"76":0.11793449521064758,"77":0.6179908514022827,"78":0.08161547034978867,"79":-0.1700660139322281,"80":0.8830262422561646,"81":1.052456259727478,"82":0.39613381028175354,"83":0.2566121220588684,"84":-0.11370202898979187,"85":0.055090174078941345,"86":0.10521796345710754,"87":-0.07881293445825577,"88":0.2612113952636719,"89":0.48555123805999756,"90":0.19818051159381866,"91":0.09985467046499252,"92":0.07418865710496902,"93":0.041583508253097534,"94":0.48314619064331055,"95":-0.11031024158000946,"96":0.023555729538202286,"97":0.6661367416381836,"98":-0.008695506490767002,"99":-0.2462010383605957,"100":0.8813759684562683,"101":0.5546358823776245,"102":0.5150991082191467,"103":0.7517480850219727,"104":0.06187384948134422,"105":0.11163116991519928,"106":0.17384587228298187,"107":0.09365159273147583,"108":0.1561487913131714,"109":0.4478968381881714,"110":0.1158524677157402,"111":-0.15098051726818085,"112":-0.2401769906282425,"113":0.3821365237236023,"114":0.5274807810783386,"115":-0.226620152592659,"116":0.17964375019073486,"117":0.06765182316303253,"118":0.25785234570503235,"119":0.26607802510261536,"120":0.4081208407878876,"121":0.936299204826355,"122":0.07295592874288559,"123":-0.12344687432050705,"124":-0.3974423408508301,"125":-0.05599386245012283,"126":0.2451983243227005,"127":-0.12308499962091446,"128":0.24735954403877258,"129":0.22199617326259613,"130":0.3776586055755615,"131":0.0916009172797203,"132":0.036736518144607544,"133":-0.24263602495193481,"134":0.20601212978363037,"135":-0.31179243326187134,"136":-0.2564510703086853,"137":0.6941046118736267,"138":-0.16674111783504486,"139":-0.19714199006557465,"140":0.14368028938770294,"141":0.9843586683273315,"142":-0.4589354395866394,"143":-0.33461982011795044,"144":-0.5625163316726685,"145":0.2725202441215515,"146":-0.03352241590619087,"147":-0.7471948862075806,"148":0.23970438539981842,"149":0.28011906147003174,"150":-0.224156454205513,"151":0.049173928797245026,"152":1.052843689918518,"153":-1.0196059942245483,"154":-0.049953822046518326,"155":0.08805496990680695,"156":-0.17259745299816132,"157":-0.36835977435112,"158":-1.1189022064208984,"159":-1.174686074256897,"160":1.0277142524719238,"161":0.509913980960846,"162":0.8608830571174622,"163":-0.016761010512709618,"164":-0.02539917267858982,"165":0.35837364196777344,"166":-0.025488562881946564,"167":-0.1367829442024231,"168":-0.49799594283103943,"169":0.5679938197135925,"170":0.200842946767807,"171":-0.7277157306671143,"172":0.3287261128425598,"173":0.058904968202114105,"174":0.9015988707542419,"175":0.05383768305182457,"176":-0.23777933418750763,"177":0.7748594284057617,"178":-0.3055891692638397,"179":-0.42048338055610657,"180":0.47940966486930847,"181":1.4279229640960693,"182":0.09750336408615112,"183":0.11240102350711823,"184":0.16236893832683563,"185":0.0569930262863636,"186":-0.36021098494529724,"187":0.2981848418712616,"188":0.19258925318717957,"189":0.2580784559249878,"190":-0.17312805354595184,"191":0.22159616649150848,"192":0.7905963659286499,"193":0.22754622995853424,"194":0.1328638792037964,"195":0.3354319632053375,"196":0.25456327199935913,"197":0.051867131143808365,"198":-0.78636634349823,"199":-0.8595263361930847}},"inputHidden":{"rows":10,"columns":10,"weights":{"0":-0.5033660531044006,"1":0.9077967405319214,"2":-0.9287514090538025,"3":-1.133441686630249,"4":-0.9596012234687805,"5":-1.1477245092391968,"6":-0.41360360383987427,"7":-0.18307356536388397,"8":-0.6175523996353149,"9":-1.0939092636108398,"10":0.18687312304973602,"11":1.0627750158309937,"12":-1.058061122894287,"13":-1.4626703262329102,"14":-1.5780813694000244,"15":-1.5130223035812378,"16":0.5718404054641724,"17":0.9095130562782288,"18":-0.37149447202682495,"19":-1.2155823707580566,"20":0.45033785700798035,"21":0.8956311941146851,"22":-0.9164276123046875,"23":-1.4938745498657227,"24":-1.3236181735992432,"25":-1.5878194570541382,"26":0.8676682114601135,"27":1.209385871887207,"28":-0.09223484247922897,"29":-1.2094504833221436,"30":0.8245229721069336,"31":0.025322364643216133,"32":0.10163182020187378,"33":-0.2928851544857025,"34":-0.23509950935840607,"35":-0.22507238388061523,"36":1.0276401042938232,"37":1.2373342514038086,"38":0.411574125289917,"39":0.17684867978096008,"40":0.9619442820549011,"41":0.11886599659919739,"42":-0.15477587282657623,"43":-0.5759961605072021,"44":-0.5648550987243652,"45":-0.5348009467124939,"46":1.1975799798965454,"47":1.5740394592285156,"48":0.2902453541755676,"49":-0.11089470237493515,"50":1.0828744173049927,"51":0.1702241450548172,"52":0.152346670627594,"53":-0.025587379932403564,"54":0.00861099548637867,"55":0.053961608558893204,"56":1.1460614204406738,"57":1.1138566732406616,"58":0.6865024566650391,"59":0.7314164638519287,"60":-0.47803542017936707,"61":0.8073716759681702,"62":-0.7671139240264893,"63":-0.8182171583175659,"64":-0.8967201709747314,"65":-0.9293345808982849,"66":-0.44013580679893494,"67":-0.03508457541465759,"68":-0.5316181182861328,"69":-1.017869472503662,"70":-0.9241822361946106,"71":-0.9357312321662903,"72":0.8458964228630066,"73":0.7358480095863342,"74":0.7396115064620972,"75":0.6619747281074524,"76":-0.7854997515678406,"77":-0.20289993286132812,"78":-1.3058149814605713,"79":0.4504791796207428,"80":1.112015724182129,"81":0.279411643743515,"82":-0.14020690321922302,"83":-0.6308163404464722,"84":-0.5006363391876221,"85":-0.6911581158638,"86":1.3041281700134277,"87":1.3861900568008423,"88":-0.0942535474896431,"89":-0.2417566180229187,"90":1.0621944665908813,"91":-0.3866906762123108,"92":0.5000998377799988,"93":0.11016931384801865,"94":0.13790619373321533,"95":0.169196218252182,"96":1.0859408378601074,"97":1.1795485019683838,"98":0.6683716177940369,"99":0.42477354407310486}},"inputBias":{"rows":10,"columns":1,"weights":{"0":0.32302945852279663,"1":-0.1670471578836441,"2":-0.31530672311782837,"3":-0.07402504235506058,"4":-0.41094207763671875,"5":-0.08676895499229431,"6":0.6236956119537354,"7":1.2917029857635498,"8":-0.5496206879615784,"9":0.8044113516807556}},"forgetMatrix":{"rows":10,"columns":20,"weights":{"0":0.1821349859237671,"1":0.5363348722457886,"2":0.04428073763847351,"3":-1.1799224615097046,"4":-0.2378443330526352,"5":-0.05534495413303375,"6":0.4195544719696045,"7":0.4333752393722534,"8":0.3351825475692749,"9":0.020127056166529655,"10":0.38032394647598267,"11":0.08322156220674515,"12":0.018122829496860504,"13":0.7494691610336304,"14":0.09854763746261597,"15":-0.42462876439094543,"16":-0.0807255357503891,"17":1.3854312896728516,"18":-0.14053498208522797,"19":-0.1237858310341835,"20":-0.6253224015235901,"21":-0.6682215929031372,"22":-0.3254755139350891,"23":1.229872465133667,"24":0.23030444979667664,"25":-0.4627215266227722,"26":0.22559797763824463,"27":0.7607309818267822,"28":-0.08950359374284744,"29":-0.5481747388839722,"30":0.48356392979621887,"31":0.15870875120162964,"32":-0.5860188603401184,"33":1.319618821144104,"34":-0.4423418641090393,"35":-0.486755907535553,"36":0.157135009765625,"37":-0.6938031315803528,"38":0.5896265506744385,"39":0.5591432452201843,"40":-0.9591904878616333,"41":-1.0610791444778442,"42":-0.7285800576210022,"43":0.01957176998257637,"44":0.17444460093975067,"45":-0.5113011002540588,"46":-0.07122175395488739,"47":0.17476359009742737,"48":-0.24654386937618256,"49":-0.6770111918449402,"50":-0.23895363509655,"51":0.20318205654621124,"52":-0.4342029392719269,"53":0.08617055416107178,"54":-0.6589376926422119,"55":0.06883043050765991,"56":0.3022213280200958,"57":-0.8304704427719116,"58":0.361065536737442,"59":0.5167521238327026,"60":-0.9897156953811646,"61":-1.189408540725708,"62":-0.606288492679596,"63":-0.22858960926532745,"64":-0.24575434625148773,"65":-0.28652530908584595,"66":0.3181110620498657,"67":-0.22545920312404633,"68":-0.12240611016750336,"69":-0.6408295631408691,"70":0.12703923881053925,"71":0.20049279928207397,"72":-0.2493910938501358,"73":-0.3874579071998596,"74":-0.5683083534240723,"75":-0.21456383168697357,"76":0.10997041314840317,"77":-0.42099571228027344,"78":0.23401637375354767,"79":0.30993494391441345,"80":-1.1646013259887695,"81":-1.1546878814697266,"82":-0.8257269859313965,"83":0.09387475997209549,"84":0.01358974538743496,"85":-0.5914272665977478,"86":-0.05460046976804733,"87":-0.11556130647659302,"88":-0.27347660064697266,"89":-0.8734570741653442,"90":-0.09281671792268753,"91":0.4678681790828705,"92":-0.4734303057193756,"93":-0.35419347882270813,"94":-0.8740260004997253,"95":0.042514409869909286,"96":0.2557833194732666,"97":-0.9065134525299072,"98":0.30874186754226685,"99":0.39708322286605835,"100":-0.6549316048622131,"101":-0.6625314950942993,"102":-0.24620436131954193,"103":-1.162859320640564,"104":-0.8584511280059814,"105":-0.29350054264068604,"106":0.5037207007408142,"107":-0.8881784677505493,"108":-0.5286540985107422,"109":-0.20803558826446533,"110":0.266867995262146,"111":-0.0029505016282200813,"112":0.5311748385429382,"113":-1.0101006031036377,"114":-0.27334409952163696,"115":-0.46133384108543396,"116":-0.13012756407260895,"117":0.5383961200714111,"118":-0.5135744214057922,"119":-0.4910180866718292,"120":0.1483578234910965,"121":0.4727705419063568,"122":0.028692416846752167,"123":-1.3578314781188965,"124":-0.21675311028957367,"125":-0.0059295236133039,"126":0.12077213078737259,"127":-0.06933436542749405,"128":0.1482822448015213,"129":-0.032893870025873184,"130":0.03865455836057663,"131":-0.13254468142986298,"132":0.2054467499256134,"133":-0.35431790351867676,"134":-0.01354131381958723,"135":-0.00006900459266034886,"136":-0.1785283088684082,"137":1.493643879890442,"138":-0.23090429604053497,"139":-0.21107815206050873,"140":0.20216456055641174,"141":0.8338168859481812,"142":-0.19111604988574982,"143":-0.8901896476745605,"144":-0.7542361617088318,"145":-0.13109514117240906,"146":-0.3037783205509186,"147":-1.0474379062652588,"148":-0.3407347798347473,"149":0.1840464025735855,"150":-0.5758717060089111,"151":-0.2939120829105377,"152":1.6915614604949951,"153":-1.238914132118225,"154":-0.02944716438651085,"155":0.4061833322048187,"156":-0.34681835770606995,"157":0.432817667722702,"158":-1.5558990240097046,"159":-1.3992819786071777,"160":0.6332670450210571,"161":1.1370326280593872,"162":0.49756094813346863,"163":-0.10718197375535965,"164":0.14531812071800232,"165":0.2973673641681671,"166":-0.15419700741767883,"167":0.1606423705816269,"168":-0.20837867259979248,"169":0.3435342609882355,"170":-0.03286377713084221,"171":-0.7507644891738892,"172":0.5856765508651733,"173":0.10202223062515259,"174":0.4499667286872864,"175":0.10941611975431442,"176":0.10031288117170334,"177":0.5036177039146423,"178":-0.4855400025844574,"179":-0.6140756011009216,"180":-0.6877792477607727,"181":-1.033765196800232,"182":-0.3581472337245941,"183":-0.01612638682126999,"184":-0.24169723689556122,"185":-0.16752173006534576,"186":0.47734421491622925,"187":-0.3304568827152252,"188":0.056661419570446014,"189":-0.4568932056427002,"190":0.2818119525909424,"191":0.2473626434803009,"192":-0.6048323512077332,"193":-0.35042086243629456,"194":-0.4624376595020294,"195":-0.3496289551258087,"196":-0.12051155418157578,"197":-0.4143036901950836,"198":0.5143191814422607,"199":0.5058166980743408}},"forgetHidden":{"rows":10,"columns":10,"weights":{"0":-0.5199769139289856,"1":0.7834432125091553,"2":-0.8501642346382141,"3":-0.8399140238761902,"4":-0.836850643157959,"5":-0.9429196715354919,"6":-0.5059845447540283,"7":-0.24714036285877228,"8":-0.7666981816291809,"9":-0.8775847554206848,"10":-0.5543957948684692,"11":0.6285844445228577,"12":-0.6850897669792175,"13":-0.5384049415588379,"14":-0.4722804129123688,"15":-0.5328513979911804,"16":-0.5812441110610962,"17":-0.9107358455657959,"18":0.04562348872423172,"19":-0.3879648447036743,"20":-1.199202299118042,"21":0.22567732632160187,"22":-0.24253234267234802,"23":-0.13058272004127502,"24":0.006255539134144783,"25":-0.12337680160999298,"26":-1.218456506729126,"27":-1.5256510972976685,"28":-0.8924731612205505,"29":0.024147912859916687,"30":-1.405662178993225,"31":0.623696506023407,"32":-0.6324479579925537,"33":-0.26353785395622253,"34":-0.20211142301559448,"35":-0.1171991303563118,"36":-1.4772675037384033,"37":-1.6050785779953003,"38":-1.29640793800354,"39":-0.2191353142261505,"40":-1.0929431915283203,"41":0.41428342461586,"42":-0.4779598116874695,"43":-0.15882253646850586,"44":-0.2946699261665344,"45":-0.11740235984325409,"46":-1.2874184846878052,"47":-1.516778826713562,"48":-0.9650883078575134,"49":0.06980222463607788,"50":-1.5989389419555664,"51":0.8704259991645813,"52":-0.7798088788986206,"53":-0.8336651921272278,"54":-0.5060580372810364,"55":-0.8113223314285278,"56":-1.487152338027954,"57":-1.1474071741104126,"58":-2.061889886856079,"59":-1.11590576171875,"60":-0.6444018483161926,"61":0.6249514818191528,"62":-0.726685106754303,"63":-0.6804599761962891,"64":-0.5734469890594482,"65":-0.6520863771438599,"66":-0.5172691941261292,"67":-0.22674590349197388,"68":-0.7571947574615479,"69":-0.6445189714431763,"70":-1.028241753578186,"71":-0.7661540508270264,"72":0.7704613208770752,"73":0.5509042739868164,"74":0.7189895510673523,"75":0.5314945578575134,"76":-0.6261640191078186,"77":0.3902193009853363,"78":-1.4744340181350708,"79":-0.02451992966234684,"80":-0.08271114528179169,"81":0.902407169342041,"82":-0.8529982566833496,"83":-0.9158735871315002,"84":-0.8084595799446106,"85":-1.0000920295715332,"86":-0.06824143975973129,"87":0.19767355918884277,"88":-0.5778396129608154,"89":-1.0334854125976562,"90":-1.9336539506912231,"91":1.0380420684814453,"92":-0.962067186832428,"93":-0.3664880096912384,"94":-0.24063363671302795,"95":-0.5490224957466125,"96":-2.0258281230926514,"97":-2.0437867641448975,"98":-1.5077543258666992,"99":-0.6735810041427612}},"forgetBias":{"rows":10,"columns":1,"weights":{"0":0,"1":0,"2":0,"3":0,"4":0,"5":0,"6":0,"7":0,"8":0,"9":0}},"outputMatrix":{"rows":10,"columns":20,"weights":{"0":0.5163781046867371,"1":1.0619075298309326,"2":0.16247838735580444,"3":-0.3422033488750458,"4":-0.4257255494594574,"5":-0.042226869612932205,"6":0.4810377359390259,"7":-0.17034217715263367,"8":0.17737475037574768,"9":0.08683107048273087,"10":0.607114851474762,"11":0.3068505823612213,"12":-0.07452208548784256,"13":0.04681176319718361,"14":0.15525826811790466,"15":-0.523777961730957,"16":-0.15106555819511414,"17":1.1025865077972412,"18":0.0953633040189743,"19":-0.07452362775802612,"20":0.8904519081115723,"21":1.6040093898773193,"22":0.619670569896698,"23":-0.31204742193222046,"24":0.026678940281271935,"25":-0.2552376985549927,"26":0.029272690415382385,"27":0.2653014063835144,"28":-0.13409319519996643,"29":0.5362334847450256,"30":-0.02696492336690426,"31":0.33871981501579285,"32":0.3070308268070221,"33":0.4423036277294159,"34":0.5969663858413696,"35":0.00927830208092928,"36":0.3327963948249817,"37":0.7604727149009705,"38":-0.38796404004096985,"39":-0.5395300388336182,"40":0.8466275334358215,"41":0.8765599131584167,"42":0.46059536933898926,"43":0.07948296517133713,"44":-0.1788441240787506,"45":-0.35284683108329773,"46":0.23093397915363312,"47":0.14563332498073578,"48":0.12321529537439346,"49":0.3664088249206543,"50":0.19248589873313904,"51":0.13064347207546234,"52":0.05921270698308945,"53":0.25697964429855347,"54":0.5011547207832336,"55":-0.24269576370716095,"56":0.0836649164557457,"57":0.8956245183944702,"58":-0.045167990028858185,"59":-0.2350829541683197,"60":0.5203011631965637,"61":1.0213605165481567,"62":0.2115609049797058,"63":-0.4218601882457733,"64":0.3059406876564026,"65":0.012812811881303787,"66":-0.2512436807155609,"67":0.5320561528205872,"68":-0.04947103187441826,"69":0.29065603017807007,"70":-0.17764119803905487,"71":0.12742966413497925,"72":0.21762195229530334,"73":0.7740370631217957,"74":0.2906111776828766,"75":0.27556973695755005,"76":0.20937541127204895,"77":0.818146288394928,"78":-0.269338458776474,"79":-0.27660319209098816,"80":0.6609302759170532,"81":1.081276535987854,"82":0.34771621227264404,"83":-0.433897465467453,"84":0.004362952895462513,"85":0.08025434613227844,"86":-0.15505997836589813,"87":0.2832377851009369,"88":0.12159350514411926,"89":0.23652087152004242,"90":0.10717149078845978,"91":-0.05933072790503502,"92":0.24039478600025177,"93":0.5159273147583008,"94":0.3879418671131134,"95":0.09721873700618744,"96":0.00947452150285244,"97":0.9856814742088318,"98":-0.15741848945617676,"99":-0.33873090147972107,"100":0.31402915716171265,"101":0.8925634026527405,"102":0.24160394072532654,"103":-0.3014337122440338,"104":0.3906697928905487,"105":-0.010295411571860313,"106":-0.21298781037330627,"107":0.45716696977615356,"108":-0.21261732280254364,"109":0.15134435892105103,"110":-0.14602932333946228,"111":0.1144920065999031,"112":0.391198068857193,"113":0.8039379119873047,"114":0.16054889559745789,"115":0.19352298974990845,"116":0.07830119132995605,"117":0.7869079113006592,"118":-0.3361654579639435,"119":-0.4180007874965668,"120":0.3781857490539551,"121":0.9146538972854614,"122":0.2175174206495285,"123":-0.29235634207725525,"124":-0.32912978529930115,"125":0.08431560546159744,"126":0.20997799932956696,"127":-0.18667028844356537,"128":0.17530064284801483,"129":0.1485169231891632,"130":0.2978193461894989,"131":-0.02362135797739029,"132":0.17968803644180298,"133":-0.07849135249853134,"134":0.19682765007019043,"135":-0.2089521586894989,"136":-0.3650610148906708,"137":1.2025634050369263,"138":-0.17777414619922638,"139":-0.18418894708156586,"140":0.2628716826438904,"141":1.0974233150482178,"142":0.0219916682690382,"143":-0.5692577362060547,"144":0.01223007868975401,"145":0.029339905828237534,"146":-0.2678012549877167,"147":-0.022862926125526428,"148":0.11931726336479187,"149":0.10255351662635803,"150":-0.11440040171146393,"151":-0.1101193055510521,"152":0.8694227933883667,"153":-0.06566433608531952,