{"type":"LSTM","options":{"inputSize":14,"inputRange":14,"hiddenLayers":[10,20,10],"outputSize":14,"decayRate":0.999,"smoothEps":1e-8,"regc":0.000001,"clipval":5,"maxPredictionLength":100,"dataFormatter":{"indexTable":{"0":7,"1":6,"2":0,"3":5,"4":10,"5":3,"6":9,"7":2,"8":1,"9":8," ":4,"stop-input":11,"start-output":12,"unrecognized":13},"characterTable":{"0":"2","1":"8","2":"7","3":"5","4":" ","5":"3","6":"1","7":"0","8":"9","9":"6","10":"4","11":null,"12":null,"13":null},"values":[["2","8","7","5"," ","3","2","8","7"," ","5","1","0","9"," ","5","1","0","8"," ","8","3","0"," ","2","8","7","5"," ","5","1","0","8"," ","1","6","4","2"," ","5","2"," ","5","1","0","8"," ","1","6","3","8"," ","5","1","1","2"," ","5","1","1","3"," ","3","2","8","7"," ","5","1","1","0"," ","5","1","0","8"," ","8","6","1"," ","2","5","3"," ","2","5","3"," ","4","1","2","1"," ","5","1","1","3"," ","5","1","0","8"," ","5","5","0"," ","1","0","8","4"," ","5","1","0","8"," ","2","8","7","5"," ","1","0","8","4"," ","5","5","0"," ","6","4","3"," ","3","2","8","7"," ","5","1","0","8"," ","1","6","4","2"," ","5","2"," ","5","1","0","8"," ","1","6","3","8"," ","5","1","1","2"," ","5","1","1","0"," ","4","5"," ","5","1","0","8"," ","5","0"," ","5","1","0","8"," ","8","6","1"," ","2","5","3"," ","2","5","3"," ","4","1","2","1"," ","5","1","1","3"," ","2","1","7","1"," ","5","1","0","8"," ","5","5","0"," ","1","6","3","8"," ","4","5"," ","2","8","7","4"," ","5","1","0","9"," ","5","0"," ","5","1","0","9"," ","4","6","3","9"," ","3","2","8","7"," ","5","1","0","9"," ","5","1","0","8"," ","2","1","0","8"," ","5","1","1","0"," ","5","1","0","8"," ","5","1","1","4"," ","3","2","8","7"," ","2","8","7","5"," ","5","5","0"," ","1","6","3","8"," ","2","7","9","5"," "],["4","9","9"," ","4","1","2","1"," ","4","1","2","1"," ","4","1","2","1"," ","4","4","0"," ","5","1","0","8"," ","2","8","7","5"," ","8","3","0"," ","5","1","0","9"," ","5","0"," ","6","4","3"," ","8","3","0"," ","5","1","1","0"," ","5","1","0","8"," ","5","1","1","1"," ","5","1","1","0"," ","1","0","8","4"," ","5","1","0","9"," ","5","1","0","8"," ","5","1","0","9"," ","3","2","8","7"," ","6","4","3"," ","8","3","0"," ","5","1","0","9"," ","5","1","0","9"," ","3","2","8","7"," ","6","4","3"," ","5","1","0","8"," ","1","6","3","8"," ","4","5"," ","5","1","0","9"," ","5","1","0","8"," ","5","0"," ","5","1","0","9"," ","6","4","3"," ","3","2","8","7"," ","5","1","0","8"," ","4","6","3","9"," ","1","0","8","4"," ","5","1","0","8"," ","5","1","1","1"," ","3","2","8","7"," ","2","8","7","4"," "]],"characters":["2","8","7","5"," ","3","1","0","9","6","4","stop-input","start-output","unrecognized"],"specialIndexes":[11,12,13]}},"input":{"rows":15,"columns":14,"weights":{"0":-2.3999898433685303,"1":-0.5971574783325195,"2":1.142775058746338,"3":0.9133728742599487,"4":-0.8625159859657288,"5":4.12172269821167,"6":-1.5876299142837524,"7":-2.5026021003723145,"8":-0.7126842737197876,"9":-3.6293601989746094,"10":-0.025011839345097542,"11":0.7697246074676514,"12":0.9188361167907715,"13":2.927659749984741,"14":-0.23193377256393433,"15":-0.12622389197349548,"16":3.8833677768707275,"17":-1.066990613937378,"18":-2.8515260219573975,"19":-1.6058003902435303,"20":-4.933241367340088,"21":0.9383835792541504,"22":0.9481112360954285,"23":-0.6618273258209229,"24":-1.4598954916000366,"25":0.5160800814628601,"26":-2.163325309753418,"27":-1.4538819789886475,"28":3.269193410873413,"29":-1.586642861366272,"30":-0.25061458349227905,"31":-0.977737307548523,"32":0.06956584751605988,"33":0.5734315514564514,"34":9.70840072631836,"35":1.3047322034835815,"36":0.24663178622722626,"37":1.2865684032440186,"38":3.326766014099121,"39":2.706113576889038,"40":4.6731109619140625,"41":-2.8071444034576416,"42":-5.4117889404296875,"43":-2.418053388595581,"44":-1.1337391138076782,"45":0.8031458258628845,"46":-0.5323947668075562,"47":1.8262145519256592,"48":-0.19037477672100067,"49":-3.55737566947937,"50":3.485973596572876,"51":-2.020155668258667,"52":2.24999737739563,"53":-0.2662566304206848,"54":1.5596684217453003,"55":3.69856595993042,"56":-0.24040493369102478,"57":0.00020158005645498633,"58":1.8056493997573853,"59":-3.7326760292053223,"60":-0.2012127786874771,"61":-0.9007949233055115,"62":-0.10077661275863647,"63":1.4505020380020142,"64":0.3467748761177063,"65":1.570001244544983,"66":-1.1294249296188354,"67":-3.015324592590332,"68":-2.2527809143066406,"69":0.09417367726564407,"70":1.0557222366333008,"71":-2.304060697555542,"72":1.9883918762207031,"73":3.3769350051879883,"74":-0.1756829172372818,"75":-1.6132749319076538,"76":2.5309784412384033,"77":0.42372453212738037,"78":1.6750777959823608,"79":-0.0483224019408226,"80":-0.04599244147539139,"81":-1.1399846076965332,"82":-0.5082961916923523,"83":1.8997535705566406,"84":0.006490532774478197,"85":-2.41056752204895,"86":1.7417292594909668,"87":5.442312240600586,"88":-3.866915702819824,"89":-0.7084441781044006,"90":3.3043088912963867,"91":-2.3789191246032715,"92":-1.8174939155578613,"93":-3.9037749767303467,"94":-3.6734180450439453,"95":-2.538337230682373,"96":1.5964763164520264,"97":0.7775813341140747,"98":0.8217747211456299,"99":-3.751461982727051,"100":-0.5618548393249512,"101":2.685645341873169,"102":-0.4193022847175598,"103":2.5042498111724854,"104":3.059872627258301,"105":-1.710214376449585,"106":0.07694672793149948,"107":-2.0401570796966553,"108":1.9790579080581665,"109":-0.2700042724609375,"110":0.22612789273262024,"111":0.7280095219612122,"112":1.5816433429718018,"113":-1.5349600315093994,"114":-3.4870519638061523,"115":-1.1505180597305298,"116":2.108394145965576,"117":2.802098512649536,"118":1.131159782409668,"119":1.882405161857605,"120":-1.3988114595413208,"121":0.4014606475830078,"122":0.3023366630077362,"123":-1.1610578298568726,"124":-1.1065467596054077,"125":1.0653499364852905,"126":-1.6879005432128906,"127":1.1731840372085571,"128":-1.6163747310638428,"129":-1.238003134727478,"130":-0.43058261275291443,"131":0.5378257036209106,"132":0.07370185852050781,"133":-2.6695821285247803,"134":-2.725598096847534,"135":-0.5680407881736755,"136":0.2388346642255783,"137":2.4309799671173096,"138":0.4036780297756195,"139":-2.4743621349334717,"140":-1.3235249519348145,"141":0.6913577318191528,"142":-0.8501765727996826,"143":4.008657932281494,"144":4.95244026184082,"145":0.5305227637290955,"146":2.21553373336792,"147":-1.8898499011993408,"148":-1.8676855564117432,"149":-1.9311081171035767,"150":5.131026268005371,"151":1.0611087083816528,"152":4.082307815551758,"153":-0.9444540143013,"154":-0.19942131638526917,"155":0.30528494715690613,"156":-1.199000358581543,"157":-2.3660476207733154,"158":0.3971734046936035,"159":0.3090428113937378,"160":-2.485309600830078,"161":-0.4821242690086365,"162":0.05845729634165764,"163":0.329421728849411,"164":0.6200315952301025,"165":1.1557767391204834,"166":-0.007363045588135719,"167":-0.333368182182312,"168":-2.61848783493042,"169":-4.115053176879883,"170":-4.10999870300293,"171":4.950202941894531,"172":0.311188280582428,"173":-2.4771342277526855,"174":-2.2788777351379395,"175":-4.5815510749816895,"176":2.5665409564971924,"177":-4.034677028656006,"178":2.4305996894836426,"179":-0.48887306451797485,"180":3.3787641525268555,"181":1.9243985414505005,"182":0.5323012471199036,"183":-3.381650686264038,"184":-3.224560260772705,"185":5.518737316131592,"186":-1.5544599294662476,"187":-0.1654333919286728,"188":4.724462509155273,"189":-2.088221788406372,"190":-0.446288526058197,"191":-4.3165717124938965,"192":-1.8662422895431519,"193":2.425823926925659,"194":-1.0482245683670044,"195":3.4881510734558105,"196":-0.03989281877875328,"197":0.05154925957322121,"198":0.039274733513593674,"199":-0.05697701498866081,"200":0.07048740983009338,"201":0.036430634558200836,"202":0.06944157183170319,"203":-0.04383179917931557,"204":-0.03660792112350464,"205":0.033262673765420914,"206":-0.032788559794425964,"207":0.05632007122039795,"208":-0.030962279066443443,"209":0.021324075758457184}},"hiddenLayers":[{"inputMatrix":{"rows":10,"columns":14,"weights":{"0":-0.14531423151493073,"1":0.06896492838859558,"2":1.288061499595642,"3":-0.38780537247657776,"4":-1.7891697883605957,"5":-2.078908920288086,"6":-2.7813174724578857,"7":-1.241818904876709,"8":1.535849690437317,"9":-1.6489473581314087,"10":-0.29871654510498047,"11":-0.6248398423194885,"12":-0.9759140610694885,"13":2.1023542881011963,"14":-0.41626137495040894,"15":-2.021839141845703,"16":-2.4880828857421875,"17":0.37898582220077515,"18":0.9817160367965698,"19":-0.4641478657722473,"20":1.172540545463562,"21":-0.8447558283805847,"22":-0.9262720942497253,"23":-0.19203661382198334,"24":0.39329588413238525,"25":0.48118406534194946,"26":-0.2676703929901123,"27":-0.7426124215126038,"28":-1.7858515977859497,"29":0.7702597975730896,"30":1.348680019378662,"31":-0.30283528566360474,"32":-0.20616427063941956,"33":-0.7417659163475037,"34":-0.3061069846153259,"35":-0.4671853184700012,"36":-0.03104848600924015,"37":-0.0755963921546936,"38":-1.067396879196167,"39":-0.3708535134792328,"40":0.11388757079839706,"41":-0.9082320928573608,"42":-2.0952234268188477,"43":-0.2509132921695709,"44":0.07425578683614731,"45":1.297507405281067,"46":0.005145563278347254,"47":0.7883223295211792,"48":0.35265201330184937,"49":-1.2840776443481445,"50":-0.267498254776001,"51":-1.6986445188522339,"52":1.0442745685577393,"53":1.1903295516967773,"54":2.5127179622650146,"55":-0.3650782108306885,"56":-0.6228576898574829,"57":-0.7743112444877625,"58":1.1387670040130615,"59":1.271710753440857,"60":-0.10734128952026367,"61":0.740833044052124,"62":-1.0837864875793457,"63":-1.5769137144088745,"64":1.8291038274765015,"65":-0.2235153764486313,"66":2.5242362022399902,"67":-0.901454508304596,"68":1.672420620918274,"69":0.5796554088592529,"70":-0.6492641568183899,"71":2.25030255317688,"72":-0.014398760162293911,"73":-2.941467523574829,"74":0.12252489477396011,"75":0.8405202627182007,"76":-2.025312900543213,"77":0.8171629905700684,"78":-1.4006322622299194,"79":0.37822094559669495,"80":-0.41224953532218933,"81":-0.36323291063308716,"82":-0.9193283915519714,"83":1.340560793876648,"84":-1.8811935186386108,"85":1.1466357707977295,"86":0.261818528175354,"87":0.1879664808511734,"88":-1.6331219673156738,"89":-2.459749698638916,"90":0.44424349069595337,"91":-1.0554237365722656,"92":-0.566906750202179,"93":-0.6661968231201172,"94":-1.580883264541626,"95":0.5010287165641785,"96":-1.3465311527252197,"97":-0.6517795324325562,"98":3.1805994510650635,"99":-0.3335009515285492,"100":-0.36434972286224365,"101":1.7958039045333862,"102":0.019412994384765625,"103":0.1545831859111786,"104":2.7834761142730713,"105":0.7967389822006226,"106":-1.2524737119674683,"107":0.294573038816452,"108":0.71770179271698,"109":0.5578316450119019,"110":0.24672813713550568,"111":0.720022439956665,"112":1.5854541063308716,"113":0.1810506284236908,"114":-0.054388467222452164,"115":2.214730739593506,"116":0.14509449899196625,"117":-1.4044201374053955,"118":0.19952328503131866,"119":0.14244388043880463,"120":0.44472968578338623,"121":0.1385820209980011,"122":1.1252628564834595,"123":0.1310092806816101,"124":0.9656040072441101,"125":-0.6836116313934326,"126":-1.0000207424163818,"127":0.5700191855430603,"128":0.930126428604126,"129":-1.9807205200195312,"130":0.733059287071228,"131":-0.13893158733844757,"132":-2.9438228607177734,"133":0.2282802313566208,"134":1.694741129875183,"135":0.2178150862455368,"136":-0.20143787562847137,"137":-0.5242119431495667,"138":-0.9912700057029724,"139":0.8692954778671265}},"inputHidden":{"rows":10,"columns":10,"weights":{"0":0.01961812749505043,"1":2.8407583236694336,"2":1.6439520120620728,"3":2.9835896492004395,"4":3.2004313468933105,"5":3.2137131690979004,"6":0.9298417568206787,"7":-3.7452542781829834,"8":-2.3842856884002686,"9":-0.19034038484096527,"10":1.119652509689331,"11":1.9774787425994873,"12":-3.167127847671509,"13":-1.4535388946533203,"14":0.2968628406524658,"15":-4.202777862548828,"16":1.1203876733779907,"17":2.579134464263916,"18":0.12548410892486572,"19":1.2635185718536377,"20":3.9828929901123047,"21":-1.3206989765167236,"22":3.336904287338257,"23":2.5852136611938477,"24":-2.1145858764648438,"25":4.3319091796875,"26":0.3831079304218292,"27":1.2343182563781738,"28":-1.6188093423843384,"29":0.03523247689008713,"30":2.744335412979126,"31":-3.6565136909484863,"32":1.0091544389724731,"33":1.1080278158187866,"34":-4.784186840057373,"35":-0.3946114480495453,"36":3.436250686645508,"37":-2.6073484420776367,"38":2.345456600189209,"39":-0.12825386226177216,"40":0.8104724884033203,"41":-0.6550115346908569,"42":-3.1172244548797607,"43":-1.8021284341812134,"44":-2.9927568435668945,"45":-1.646325707435608,"46":-0.33974429965019226,"47":0.06464147567749023,"48":3.2015724182128906,"49":0.1786068081855774,"50":-0.6394022703170776,"51":3.4383604526519775,"52":0.20169413089752197,"53":3.2333407402038574,"54":0.9989094138145447,"55":1.3259917497634888,"56":-0.10787004232406616,"57":0.9954684376716614,"58":-4.136726379394531,"59":2.1074211597442627,"60":3.2347707748413086,"61":-0.9653817415237427,"62":2.3995940685272217,"63":1.3576405048370361,"64":2.935729742050171,"65":3.1971817016601562,"66":0.42504850029945374,"67":-2.154628038406372,"68":0.7914189696311951,"69":-0.12261036038398743,"70":1.0914421081542969,"71":3.177978038787842,"72":2.871609687805176,"73":3.0387842655181885,"74":2.2190451622009277,"75":0.07286012917757034,"76":-3.213451623916626,"77":2.0797224044799805,"78":0.6869946718215942,"79":0.0024507029447704554,"80":-2.4239437580108643,"81":2.0286333560943604,"82":0.6043066382408142,"83":-1.5591776371002197,"84":-1.4187252521514893,"85":2.801723003387451,"86":-2.997218608856201,"87":-2.88247013092041,"88":-2.430687665939331,"89":-0.980245053768158,"90":3.1350250244140625,"91":-0.1636841893196106,"92":0.8537439703941345,"93":0.27787449955940247,"94":-0.3984680771827698,"95":0.5950133800506592,"96":-0.24984107911586761,"97":0.6198825836181641,"98":0.41507482528686523,"99":0.05087508633732796}},"inputBias":{"rows":10,"columns":1,"weights":{"0":0.29047489166259766,"1":-2.3384807109832764,"2":1.5531991720199585,"3":-0.42301514744758606,"4":2.3535633087158203,"5":-0.075223907828331,"6":0.07203436642885208,"7":-0.9841870069503784,"8":-0.232193261384964,"9":-1.3521568775177002}},"forgetMatrix":{"rows":10,"columns":14,"weights":{"0":1.2711211442947388,"1":-2.218132734298706,"2":2.3021888732910156,"3":1.734446406364441,"4":-3.033855438232422,"5":-0.49923399090766907,"6":-1.633223056793213,"7":-0.9093061089515686,"8":0.9472503066062927,"9":-0.5738745927810669,"10":-0.3761136829853058,"11":-0.14469939470291138,"12":0.7880246639251709,"13":1.709290862083435,"14":0.1493193656206131,"15":-0.21428488194942474,"16":0.0953507348895073,"17":-0.4860416352748871,"18":1.4093016386032104,"19":0.8669993877410889,"20":-1.020301103591919,"21":-1.4125070571899414,"22":-0.2451050728559494,"23":-2.8870177268981934,"24":0.463996946811676,"25":-0.4779649078845978,"26":0.6352419853210449,"27":0.12388186901807785,"28":5.019364833831787,"29":0.3239147365093231,"30":0.7019391655921936,"31":1.5379120111465454,"32":1.3909385204315186,"33":1.9219601154327393,"34":1.2226741313934326,"35":1.7613197565078735,"36":0.34866634011268616,"37":0.8122273087501526,"38":3.061846971511841,"39":-0.7143670320510864,"40":1.75253164768219,"41":0.9448024034500122,"42":0.9953798651695251,"43":0.9349790811538696,"44":-0.8891980648040771,"45":-0.5586709380149841,"46":-0.1077917292714119,"47":0.6814379692077637,"48":-0.7196587324142456,"49":3.1661808490753174,"50":-0.8777475357055664,"51":1.6889727115631104,"52":-1.8021321296691895,"53":0.7878116369247437,"54":-1.0391179323196411,"55":0.46763870120048523,"56":-0.3498413562774658,"57":0.7087879180908203,"58":0.013509764336049557,"59":-0.774669885635376,"60":0.49573415517807007,"61":1.7072924375534058,"62":-0.7826231718063354,"63":1.564462423324585,"64":0.60306316614151,"65":-0.6261585354804993,"66":1.5465929508209229,"67":-1.3032156229019165,"68":0.5627827644348145,"69":0.5593968033790588,"70":2.087407350540161,"71":-2.397660493850708,"72":-0.7994421124458313,"73":-0.027837306261062622,"74":0.03600278124213219,"75":1.2365915775299072,"76":0.16438060998916626,"77":1.3961368799209595,"78":1.0029810667037964,"79":0.5562970638275146,"80":0.9074547290802002,"81":1.0622743368148804,"82":-0.9888647794723511,"83":1.6767537593841553,"84":1.534558892250061,"85":-0.8756121397018433,"86":-1.2730493545532227,"87":0.05896931141614914,"88":0.26740261912345886,"89":1.586702585220337,"90":0.8948333263397217,"91":-0.055778324604034424,"92":-0.8948618769645691,"93":-1.363852858543396,"94":1.3398985862731934,"95":0.6907855272293091,"96":2.110020875930786,"97":1.0468566417694092,"98":0.14972394704818726,"99":0.49645698070526123,"100":1.367576241493225,"101":-1.4343441724777222,"102":-1.1241410970687866,"103":-0.7761602997779846,"104":-1.780917763710022,"105":0.612838864326477,"106":2.6166906356811523,"107":0.8990134596824646,"108":-0.6830997467041016,"109":-0.3181985020637512,"110":0.8659477233886719,"111":-2.3143556118011475,"112":-0.006087603513151407,"113":0.36561888456344604,"114":0.5183418989181519,"115":-0.5062481164932251,"116":0.40012407302856445,"117":0.052721019834280014,"118":-0.85252445936203,"119":-0.9371893405914307,"120":0.026850206777453423,"121":-0.5434209108352661,"122":0.053765613585710526,"123":2.2947778701782227,"124":0.0293667484074831,"125":-1.4024529457092285,"126":-0.8638427257537842,"127":1.0893899202346802,"128":-0.9445334076881409,"129":-0.20470565557479858,"130":0.18222612142562866,"131":-0.19048260152339935,"132":-1.5484483242034912,"133":0.37844738364219666,"134":1.8422884941101074,"135":-2.4136314392089844,"136":-0.6682229042053223,"137":4.2460856437683105,"138":0.7431378960609436,"139":1.662597417831421}},"forgetHidden":{"rows":10,"columns":10,"weights":{"0":-1.3939276933670044,"1":-2.614145278930664,"2":-3.906848907470703,"3":-0.7111796736717224,"4":-0.9059689044952393,"5":0.9610055685043335,"6":1.3809982538223267,"7":0.7957224249839783,"8":1.4593180418014526,"9":-1.6143205165863037,"10":-2.8519203662872314,"11":-0.15801995992660522,"12":1.3920356035232544,"13":-1.4675456285476685,"14":1.8978040218353271,"15":3.9617106914520264,"16":-4.3008832931518555,"17":-2.4702765941619873,"18":-1.4378552436828613,"19":0.90316241979599,"20":0.2655197083950043,"21":-2.148714780807495,"22":-1.6074018478393555,"23":-0.23455539345741272,"24":-1.0411336421966553,"25":-0.31492817401885986,"26":1.0721511840820312,"27":-0.2678782343864441,"28":0.29937469959259033,"29":-1.2616106271743774,"30":0.639808714389801,"31":0.8032329082489014,"32":-0.44800177216529846,"33":-1.519830346107483,"34":-1.655920147895813,"35":-3.5207903385162354,"36":2.9855897426605225,"37":1.4971177577972412,"38":-2.3499703407287598,"39":-0.5454330444335938,"40":-0.4916534423828125,"41":1.1926132440567017,"42":0.0911678895354271,"43":1.1827635765075684,"44":2.124594211578369,"45":-1.678038239479065,"46":0.004870009142905474,"47":7.5643086433410645,"48":0.6830383539199829,"49":2.0783255100250244,"50":1.1174416542053223,"51":-6.895529747009277,"52":-1.489803671836853,"53":0.6856662631034851,"54":-1.8389610052108765,"55":2.37361478805542,"56":1.9024720191955566,"57":-3.2305409908294678,"58":0.4031546711921692,"59":2.7817416191101074,"60":0.8431904315948486,"61":0.13987961411476135,"62":1.016952633857727,"63":0.7419310808181763,"64":1.0980898141860962,"65":-4.436018943786621,"66":1.624060034751892,"67":-1.1091889142990112,"68":2.896188735961914,"69":-0.5768133401870728,"70":3.4049620628356934,"71":0.7306066155433655,"72":-0.6135045886039734,"73":-1.384061336517334,"74":-0.4367147982120514,"75":1.4386839866638184,"76":-0.7926871180534363,"77":-1.5897284746170044,"78":1.6432441473007202,"79":1.9764182567596436,"80":1.1553361415863037,"81":-1.984910011291504,"82":5.34321928024292,"83":-0.2608068585395813,"84":2.0724081993103027,"85":1.477048635482788,"86":-0.7327028512954712,"87":0.83820641040802,"88":1.699113368988037,"89":-2.9877681732177734,"90":1.091605544090271,"91":-3.148117780685425,"92":-2.8963582515716553,"93":-2.427332639694214,"94":-0.9615108966827393,"95":1.8445544242858887,"96":-1.7645742893218994,"97":-0.10214442014694214,"98":1.6562596559524536,"99":0.3550897240638733}},"forgetBias":{"rows":10,"columns":1,"weights":{"0":0,"1":0,"2":0,"3":0,"4":0,"5":0,"6":0,"7":0,"8":0,"9":0}},"outputMatrix":{"rows":10,"columns":14,"weights":{"0":1.0508757829666138,"1":-1.5867176055908203,"2":-0.6999158263206482,"3":1.514670491218567,"4":-0.5306976437568665,"5":1.0774950981140137,"6":0.6615968942642212,"7":-0.8978466391563416,"8":0.8648198843002319,"9":-0.2551884949207306,"10":0.006241622380912304,"11":-0.36909136176109314,"12":0.700264036655426,"13":2.6896755695343018,"14":1.1594382524490356,"15":-1.3850594758987427,"16":-0.4723529815673828,"17":-0.04866362363100052,"18":2.5408573150634766,"19":-1.0649555921554565,"20":0.8612026572227478,"21":1.436861515045166,"22":-0.13136160373687744,"23":0.2609589099884033,"24":-0.35352301597595215,"25":0.5008410811424255,"26":0.059240374714136124,"27":-0.4985660910606384,"28":0.7519953846931458,"29":-0.49326270818710327,"30":1.4845833778381348,"31":0.6705037355422974,"32":-1.6682560443878174,"33":-0.19958049058914185,"34":1.0782521963119507,"35":0.8253428339958191,"36":-0.9368674159049988,"37":-0.1215585395693779,"38":-2.5714240074157715,"39":-1.0702964067459106,"40":-1.206795573234558,"41":3.6855435371398926,"42":-1.1675859689712524,"43":0.3216254711151123,"44":-0.5052716732025146,"45":-0.05037052929401398,"46":2.0418612957000732,"47":0.7492744326591492,"48":0.30800554156303406,"49":-0.20359674096107483,"50":0.019521530717611313,"51":0.9807173609733582,"52":0.5307489037513733,"53":1.24429190158844,"54":-0.9958181977272034,"55":-0.42058584094047546,"56":-0.5061793327331543,"57":0.5584089756011963,"58":0.03532944992184639,"59":1.094335913658142,"60":0.2082531899213791,"61":-1.0947591066360474,"62":0.11633310467004776,"63":0.043107468634843826,"64":1.2553906440734863,"65":0.29269835352897644,"66":0.7027186751365662,"67":-2.5341527462005615,"68":-0.06412933021783829,"69":1.8107417821884155,"70":-0.5611893534660339,"71":-0.8096117973327637,"72":-0.3229089081287384,"73":1.4152414798736572,"74":-0.020652897655963898,"75":-0.02514365315437317,"76":-1.0649373531341553,"77":-2.356335163116455,"78":1.2748472690582275,"79":-1.993692398071289,"80":2.401854991912842,"81":1.705025315284729,"82":2.7637388706207275,"83":0.544561505317688,"84":-0.3159649670124054,"85":1.2691316604614258,"86":-1.1669071912765503,"87":-2.025099515914917,"88":1.4054453372955322,"89":-0.11207127571105957,"90":-0.0152807105332613,"91":0.018805578351020813,"92":-1.5960750579833984,"93":1.133162498474121,"94":-0.3041582703590393,"95":-1.0052070617675781,"96":-1.8223083019256592,"97":-1.0797613859176636,"98":2.8635213375091553,"99":-2.0463438034057617,"100":-0.12977638840675354,"101":1.589353322982788,"102":-1.2710596323013306,"103":0.26201218366622925,"104":1.7096152305603027,"105":0.10971491038799286,"106":-0.08828214555978775,"107":1.553841233253479,"108":-0.27763140201568604,"109":-1.8835854530334473,"110":0.03036324866116047,"111":0.7692725658416748,"112":0.012406119145452976,"113":-1.5209728479385376,"114":0.1031368151307106,"115":1.1959012746810913,"116":0.4129568934440613,"117":-3.23830509185791,"118":-0.07255997508764267,"119":0.8514627814292908,"120":-0.6738439202308655,"121":0.6828194856643677,"122":-1.98305344581604,"123":-1.0201900005340576,"124":0.6692535877227783,"125":0.8176727890968323,"126":-0.9020158648490906,"127":-0.5870711207389832,"128":0.12201981246471405,"129":-0.8315060138702393,"130":-1.5363383293151855,"131":1.5168817043304443,"132":-1.169149398803711,"133":-3.0858800411224365,"134":0.823663592338562,"135":-2.867994546890259,"136":2.15582537651062,"137":2.8201851844787598,"138":0.2815256118774414,"139":-0.16985467076301575}},"outputHidden":{"rows":10,"columns":10,"weights":{"0":-0.8993543386459351,"1":1.6414541006088257,"2":0.38842591643333435,"3":2.327000617980957,"4":2.986224889755249,"5":0.10256680846214294,"6":1.7265828847885132,"7":0.03420654311776161,"8":-0.2176716923713684,"9":0.18834984302520752,"10":0.3937239348888397,"11":1.1103941202163696,"12":-0.48427614569664,"13":1.266592264175415,"14":0.8396245241165161,"15":1.6581156253814697,"16":1.13802969455719,"17":2.46201491355896,"18":1.8184943199157715,"19":1.0709518194198608,"20":3.9007678031921387,"21":-2.4561595916748047,"22":4.025280952453613,"23":-2.1722373962402344,"24":0.6484390497207642,"25":4.449173450469971,"26":-1.8054438829421997,"27":0.8300542235374451,"28":1.6090376377105713,"29":1.6334348917007446,"30":-0.9953117370605469,"31":3.283794403076172,"32":-1.9805816411972046,"33":3.2980027198791504,"34":0.7195531725883484,"35":-1.058930516242981,"36":6.869381427764893,"37":4.288977146148682,"38":-0.8556020259857178,"39":-3.0390231609344482,"40":-2.0599660873413086,"41":2.3352322578430176,"42":-3.9184794425964355,"43":4.992745876312256,"44":0.3672615587711334,"45":-2.369764566421509,"46":4.827062606811523,"47":3.741266965866089,"48":1.3690166473388672,"49":0.047129109501838684,"50":-0.14717459678649902,"51":2.7527480125427246,"52":0.469228595495224,"53":0.9927018880844116,"54":0.9983943700790405,"55":-0.10077308863401413,"56":3.4567668437957764,"57":2.420128107070923,"58":-4.41057014465332,"59":-1.8312394618988037,"60":3.0638208389282227,"61":0.7057197093963623,"62":-0.7726744413375854,"63":-0.8893625140190125,"64":1.0281506776809692,"65":-0.46233752369880676,"66":-2.0826151371002197,"67":1.1950421333312988,"68":1.1922909021377563,"69":-4.793564319610596,"70":2.886094808578491,"71":-0.8304765224456787,"72":3.1748695373535156,"73":3.017427921295166,"74":4.3569655418396,"75":1.9947478771209717,"76":-3.8780484199523926,"77":-1.8658283948898315,"78":-0.2963595986366272,"79":-0.2127457559108734,"80":1.403877854347229,"81":-0.9233528971672058,"82":-2.0830912590026855,"83":-2.405320167541504,"84":-1.1634241342544556,"85":-1.7380412817001343,"86":2.7184200286865234,"87":0.12997356057167053,"88":-1.7956821918487549,"89":-0.05807715281844139,"90":-3.130319356918335,"91":3.0497796535491943,"92":-0.13253523409366608,"93":4.264673233032227,"94":3.577559471130371,"95":-0.9167290329933167,"96":1.9430559873580933,"97":1.1724871397018433,"98":-1.196035623550415,"99":-0.06985168159008026}},"outputBias":{"rows":10,"columns":1,"weights":{"0":-0.7752360701560974,"1":-1.801520824432373,"2":1.1726512908935547,"3":-3.184138774871826,"4":-1.069084644317627,"5":1.8116339445114136,"6":-0.17601819336414337,"7":-0.8965111374855042,"8":-0.12716704607009888,"9":-1.2161122560501099}},"cellActivationMatrix":{"rows":10,"columns":14,"weights":{"0":0.014728829264640808,"1":0.08919846266508102,"2":1.0398063659667969,"3":-1.095726490020752,"4":-1.916562795639038,"5":0.6820470094680786,"6":-2.7291481494903564,"7":-1.0538794994354248,"8":-0.06338149309158325,"9":0.7671917676925659,"10":0.0002909845788963139,"11":0.5968203544616699,"12":-0.15357059240341187,"13":2.0550520420074463,"14":-0.8588331341743469,"15":-0.6540546417236328,"16":-0.5100356936454773,"17":-0.13223735988140106,"18":1.278552532196045,"19":1.2434322834014893,"20":0.04268879443407059,"21":-1.8900991678237915,"22":-0.2864821255207062,"23":0.735203742980957,"24":2.922287940979004,"25":-1.119545340538025,"26":2.6053361892700195,"27":-1.1932532787322998,"28":1.1407504081726074,"29":-1.034312129020691,"30":0.0984518826007843,"31":0.7183690667152405,"32":-1.348327875137329,"33":0.717142641544342,"34":1.0186164379119873,"35":0.15563979744911194,"36":-0.5733330845832825,"37":0.6569778323173523,"38":-3.025700330734253,"39":-0.5998449325561523,"40":-0.7543994188308716,"41":3.023198127746582,"42":-2.433896541595459,"43":-1.1783512830734253,"44":-0.18276163935661316,"45":-0.33049342036247253,"46":0.5766439437866211,"47":1.8025456666946411,"48":-0.6466304659843445,"49":-1.870855450630188,"50":-0.7801544070243835,"51":-0.08952216804027557,"52":1.1341516971588135,"53":1.867525577545166,"54":0.37787556648254395,"55":-1.8438143730163574,"56":-1.148206353187561,"57":-0.7678705453872681,"58":-0.6625067591667175,"59":-0.44251444935798645,"60":-1.5676945447921753,"61":0.27145758271217346,"62":-1.4283146858215332,"63":-1.2318553924560547,"64":0.23982103168964386,"65":-1.5402957201004028,"66":1.1719872951507568,"67":0.12427253276109695,"68":0.8003746867179871,"69":-0.47897088527679443,"70":0.10036811232566833,"71":-0.5854654312133789,"72":-0.39371946454048157,"73":-0.04129595309495926,"74":0.08112428337335587,"75":0.7227581739425659,"76":-1.3843274116516113,"77":0.3281618058681488,"78":1.0265963077545166,"79":0.6895968317985535,"80":0.8167501091957092,"81":-0.8377381563186646,"82":-0.18149498105049133,"83":1.8954061269760132,"84":-1.094987154006958,"85":-0.039232902228832245,"86":-0.436487078666687,"87":-0.6429344415664673,"88":1.3396720886230469,"89":-0.5254791378974915,"90":0.25234976410865784,"91":-0.3420504927635193,"92":0.0854249820113182,"93":-0.03086875192821026,"94":0.5075953006744385,"95":-0.021119194105267525,"96":-0.1452910602092743,"97":-0.2829132378101349,"98":-0.4260988235473633,"99":0.012369186617434025,"100":1.0993176698684692,"101":-0.8114896416664124,"102":0.12638361752033234,"103":1.9072818756103516,"104":-0.46476852893829346,"105":-1.3644767999649048,"106":0.3886909484863281,"107":-2.705847978591919,"108":0.5729310512542725,"109":0.4213600158691406,"110":1.438101053237915,"111":-2.4033830165863037,"112":0.8457396626472473,"113":0.5384706854820251,"114":-0.6851256489753723,"115":0.11091667413711548,"116":-1.4880874156951904,"117":1.877649188041687,"118":-0.3672882616519928,"119":0.23446024954319,"120":-0.5265098214149475,"121":0.5498018860816956,"122":-0.9680922627449036,"123":1.0552459955215454,"124":-3.180257797241211,"125":1.320505142211914,"126":0.2851403057575226,"127":-0.018923765048384666,"128":0.5068416595458984,"129":0.18875449895858765,"130":-0.4116140902042389,"131":-0.17312723398208618,"132":-0.43256592750549316,"133":0.2608499526977539,"134":0.15428844094276428,"135":-0.06447448581457138,"136":-0.5469842553138733,"137":-0.3372640609741211,"138":-0.780072808265686,"139":-0.5314570069313049}},"cellActivationHidden":{"rows":10,"columns":10,"weights":{"0":-0.008078515529632568,"1":1.274204969406128,"2":2.142505407333374,"3":0.6509544253349304,"4":-0.7791979312896729,"5":0.4333232641220093,"6":3.6337618827819824,"7":0.12499284744262695,"8":-1.006677508354187,"9":1.2607759237289429,"10":0.5913295149803162,"11":-1.1065977811813354,"12":-1.0189297199249268,"13":1.447793960571289,"14":-1.5857560634613037,"15":0.9116222858428955,"16":-2.1544134616851807,"17":-2.5064358711242676,"18":1.3499152660369873,"19":-1.0799386501312256,"20":1.771419644355774,"21":2.1004133224487305,"22":-0.33324724435806274,"23":-0.6026179790496826,"24":-1.8902517557144165,"25":-0.006224213168025017,"26":0.5676443576812744,"27":-0.25475820899009705,"28":2.566133737564087,"29":3.2112882137298584,"30":-3.488123655319214,"31":1.2864420413970947,"32":1.5454163551330566,"33":-0.7973473072052002,"34":-0.7550174593925476,"35":1.4357318878173828,"36":-0.22280998528003693,"37":-1.5790643692016602,"38":-0.9045627117156982,"39":0.5365064144134521,"40":-1.6994668245315552,"41":-1.361930251121521,"42":-1.4056121110916138,"43":-1.1895644664764404,"44":-1.890882968902588,"45":-0.8512011766433716,"46":-0.8811377286911011,"47":-1.2975090742111206,"48":-0.28143808245658875,"49":-0.8163924217224121,"50":1.397137999534607,"51":2.2946767807006836,"52":3.188861131668091,"53":3.9213626384735107,"54":1.3252806663513184,"55":1.9955323934555054,"56":2.6766228675842285,"57":0.09591317176818848,"58":-0.4812329411506653,"59":0.7319474816322327,"60":-2.752070903778076,"61":1.6025562286376953,"62":-2.646653890609741,"63":0.8521343469619751,"64":0.9607903361320496,"65":-0.1303156465291977,"66":1.5179284811019897,"67":0.06877363473176956,"68":0.1724751740694046,"69":-0.3970485031604767,"70":-4.439754009246826,"71":-5.070342540740967,"72":-1.2456862926483154,"73":-2.924380302429199,"74":-2.314203977584839,"75":-0.6502619981765747,"76":1.3273932933807373,"77":-0.8473515510559082,"78":0.8372949361801147,"79":0.024008169770240784,"80":0.946860671043396,"81":1.4500339031219482,"82":-0.9082199335098267,"83":-1.6451839208602905,"84":-0.641393780708313,"85":1.2629876136779785,"86":0.0072418744675815105,"87":0.1514434516429901,"88":-0.5802723169326782,"89":3.0445244312286377,"90":-0.21528473496437073,"91":1.5997368097305298,"92":-0.33175355195999146,"93":3.299959659576416,"94":3.0539944171905518,"95":1.2452892065048218,"96":-0.9352161884307861,"97":2.50952410697937,"98":-1.886570692062378,"99":0.8698025941848755}},"cellActivationBias":{"rows":10,"columns":1,"weights":{"0":-0.014648099429905415,"1":0.8706282377243042,"2":0.9116501212120056,"3":-0.46114620566368103,"4":3.1870808601379395,"5":0.5947068333625793,"6":-0.9803493618965149,"7":0.07613391429185867,"8":1.639184594154358,"9":0.37608230113983154}}},{"inputMatrix":{"rows":20,"columns":10,"weights":{"0":1.3547502756118774,"1":2.021019458770752,"2":-1.4141037464141846,"3":3.4661448001861572,"4":4.159811496734619,"5":0.11375211179256439,"6":2.1818044185638428,"7":-2.205371379852295,"8":1.2379852533340454,"9":0.6673689484596252,"10":-0.0967603325843811,"11":-1.805967926979065,"12":-0.4361516237258911,"13":-2.7547476291656494,"14":-1.9045467376708984,"15":1.0520849227905273,"16":-0.9175589084625244,"17":-2.035836935043335,"18":2.7521145343780518,"19":0.10488853603601456,"20":0.20210838317871094,"21":0.16369333863258362,"22":1.6743818521499634,"23":3.6748502254486084,"24":4.796330451965332,"25":2.4989676475524902,"26":3.8842296600341797,"27":-0.45650815963745117,"28":0.03544735163450241,"29":-0.27772262692451477,"30":1.1693590879440308,"31":-0.7445879578590393,"32":-1.8324834108352661,"33":0.16801072657108307,"34":-1.2829258441925049,"35":-2.4909636974334717,"36":0.6150760054588318,"37":-3.1517367362976074,"38":1.5667799711227417,"39":-3.106813669204712,"40":0.11934926360845566,"41":1.9089502096176147,"42":0.17562474310398102,"43":-0.23867645859718323,"44":1.2849926948547363,"45":0.6220887899398804,"46":-0.7320084571838379,"47":-2.324399948120117,"48":-0.4909777045249939,"49":0.4593229293823242,"50":3.1403310298919678,"51":2.1008458137512207,"52":1.8204213380813599,"53":1.103918194770813,"54":3.0075631141662598,"55":1.431003451347351,"56":-2.2961676120758057,"57":-1.7374080419540405,"58":1.5808653831481934,"59":-1.1952871084213257,"60":-1.626975655555725,"61":-0.29031065106391907,"62":1.8595753908157349,"63":-1.7293168306350708,"64":2.2368340492248535,"65":2.8429794311523438,"66":1.503864049911499,"67":0.4265401065349579,"68":7.060656547546387,"69":-0.5573170781135559,"70":0.08721688389778137,"71":1.6447679996490479,"72":0.7060750126838684,"73":1.1879339218139648,"74":1.4279478788375854,"75":0.4763258993625641,"76":-1.7087584733963013,"77":-2.9469900131225586,"78":-0.8677877187728882,"79":-1.649524211883545,"80":-2.4157299995422363,"81":0.6788010597229004,"82":0.29356488585472107,"83":-0.4521907866001129,"84":0.8169905543327332,"85":2.3894288539886475,"86":-2.8558764457702637,"87":-1.197205901145935,"88":-0.9904512166976929,"89":-0.49585384130477905,"90":-1.2500447034835815,"91":-0.5923663377761841,"92":-1.8174878358840942,"93":1.2014544010162354,"94":1.1473610401153564,"95":-1.314193606376648,"96":1.7710058689117432,"97":-0.12634910643100739,"98":-2.034834623336792,"99":-1.367855191230774,"100":0.7161138653755188,"101":1.509312391281128,"102":3.6381027698516846,"103":2.485572099685669,"104":-1.796648621559143,"105":2.1360597610473633,"106":2.5766425132751465,"107":-2.556314706802368,"108":-0.23806793987751007,"109":-3.0258939266204834,"110":1.4401969909667969,"111":-0.01287925522774458,"112":-2.286045789718628,"113":2.966299057006836,"114":0.397977739572525,"115":1.0554007291793823,"116":-1.1900256872177124,"117":-0.5516151189804077,"118":-1.1187503337860107,"119":2.721696376800537,"120":0.8411833643913269,"121":0.5072526931762695,"122":0.7009522318840027,"123":-0.1593247652053833,"124":0.9934343099594116,"125":0.927586019039154,"126":-2.835552453994751,"127":1.9119958877563477,"128":1.0167303085327148,"129":0.6787376403808594,"130":1.3868695497512817,"131":1.0668697357177734,"132":0.055625054985284805,"133":1.3842041492462158,"134":2.329850673675537,"135":-0.30206069350242615,"136":1.0349488258361816,"137":0.12377244979143143,"138":1.0783711671829224,"139":-1.6227688789367676,"140":0.25652894377708435,"141":-1.004844307899475,"142":4.941471576690674,"143":-4.3865275382995605,"144":-2.315089464187622,"145":1.2678859233856201,"146":-0.3782566785812378,"147":-0.7159234881401062,"148":2.9800121784210205,"149":-1.4871374368667603,"150":3.0934159755706787,"151":0.6205518245697021,"152":2.1489546298980713,"153":1.2792928218841553,"154":-0.40588727593421936,"155":-4.6825151443481445,"156":-1.0699164867401123,"157":-1.2598257064819336,"158":1.4507300853729248,"159":5.082664489746094,"160":2.3038055896759033,"161":1.8590483665466309,"162":0.34759631752967834,"163":-1.4227073192596436,"164":0.05268572270870209,"165":1.8892735242843628,"166":-3.402209758758545,"167":1.9069514274597168,"168":0.1894434243440628,"169":-0.030843347311019897,"170":-1.296324610710144,"171":1.1688764095306396,"172":-0.5272623300552368,"173":1.368150234222412,"174":1.2157658338546753,"175":-1.9819198846817017,"176":1.1865252256393433,"177":-0.5784043073654175,"178":0.12738211452960968,"179":0.839821457862854,"180":1.2918988466262817,"181":0.6550052762031555,"182":-2.4545748233795166,"183":-1.3474363088607788,"184":2.5892980098724365,"185":-0.8063135147094727,"186":2.7106006145477295,"187":0.4493389129638672,"188":-1.6306254863739014,"189":1.287967324256897,"190":2.604008197784424,"191":-0.3834936022758484,"192":7.551461696624756,"193":-0.1566125750541687,"194":-4.29594612121582,"195":-0.2985932528972626,"196":-0.26026201248168945,"197":0.33587151765823364,"198":4.25795841217041,"199":-0.6889504194259644}},"inputHidden":{"rows":20,"columns":20,"weights":{"0":0.1312406063079834,"1":2.0889577865600586,"2":3.1090455055236816,"3":4.687932968139648,"4":2.589855670928955,"5":1.8610020875930786,"6":0.8018436431884766,"7":1.757059931755066,"8":-0.6153423190116882,"9":0.08100339025259018,"10":0.5658801794052124,"11":-2.846982955932617,"12":1.7448338270187378,"13":-0.6825056672096252,"14":0.8168777823448181,"15":1.3508408069610596,"16":2.3532323837280273,"17":1.0451899766921997,"18":0.17780128121376038,"19":2.6806256771087646,"20":2.8633484840393066,"21":3.682191848754883,"22":1.021511197090149,"23":2.2817978858947754,"24":0.4300723075866699,"25":0.6072903275489807,"26":-1.2075470685958862,"27":-3.109346628189087,"28":0.5404234528541565,"29":-1.7026501893997192,"30":-1.9344792366027832,"31":-3.3100979328155518,"32":-0.11400283873081207,"33":-0.7729431390762329,"34":-0.86190265417099,"35":0.3836366534233093,"36":-1.3261677026748657,"37":2.1743154525756836,"38":1.011823296546936,"39":-3.512497663497925,"40":-0.6391028165817261,"41":3.2516722679138184,"42":1.195611834526062,"43":-1.0886484384536743,"44":1.4460541009902954,"45":1.1278607845306396,"46":2.2974789142608643,"47":-0.7493905425071716,"48":-1.0627115964889526,"49":-6.174623966217041,"50":1.3247535228729248,"51":0.8233858346939087,"52":1.5715343952178955,"53":2.1676337718963623,"54":-1.4398009777069092,"55":-0.663806676864624,"56":0.5893532037734985,"57":1.040747880935669,"58":-3.8269073963165283,"59":-2.2847416400909424,"60":4.180610179901123,"61":3.5134472846984863,"62":-0.09820477664470673,"63":-0.450436532497406,"64":-0.1161026656627655,"65":3.8069589138031006,"66":-0.091044120490551,"67":-0.9163172245025635,"68":-2.5209617614746094,"69":0.8076385855674744,"70":0.6282649040222168,"71":-1.8175053596496582,"72":2.684016466140747,"73":2.085516929626465,"74":2.7786808013916016,"75":-1.3933898210525513,"76":-2.476034164428711,"77":2.456601142883301,"78":-0.20588436722755432,"79":0.018029559403657913,"80":1.8689415454864502,"81":1.589621901512146,"82":-1.6055105924606323,"83":0.012123768217861652,"84":4.649263858795166,"85":1.6083627939224243,"86":-1.555109977722168,"87":-0.017784541472792625,"88":-0.623644232749939,"89":0.530328094959259,"90":-1.335830569267273,"91":-1.2201018333435059,"92":0.6639569997787476,"93":-0.8398048281669617,"94":-0.19504953920841217,"95":-0.0557585135102272,"96":-0.6765615344047546,"97":2.1898045539855957,"98":1.5103471279144287,"99":3.941627025604248,"100":0.12326078861951828,"101":3.4498581886291504,"102":0.7225486040115356,"103":1.885679006576538,"104":2.932849884033203,"105":2.3945016860961914,"106":-3.2415809631347656,"107":-1.1088488101959229,"108":1.3571587800979614,"109":-0.05502631515264511,"110":-0.14101527631282806,"111":-1.489805817604065,"112":4.193244457244873,"113":0.8023127317428589,"114":6.8429718017578125,"115":-0.141135111451149,"116":-0.17666536569595337,"117":3.8465325832366943,"118":-0.6704196333885193,"119":0.5165823698043823,"120":-1.6069685220718384,"121":-0.3907517194747925,"122":4.1860456466674805,"123":1.163427710533142,"124":0.15971046686172485,"125":0.8894528150558472,"126":0.5351797342300415,"127":1.0064128637313843,"128":-2.3723697662353516,"129":-3.451409339904785,"130":-0.4881642162799835,"131":2.7233757972717285,"132":1.6822742223739624,"133":5.869104862213135,"134":-0.851023256778717,"135":0.5484007596969604,"136":-1.1599923372268677,"137":-0.6246362924575806,"138":-0.8014942407608032,"139":1.0756114721298218,"140":4.271116733551025,"141":-0.7812725901603699,"142":-0.1691271960735321,"143":-3.004594087600708,"144":-1.4075464010238647,"145":-1.7663764953613281,"146":0.423398494720459,"147":4.983007907867432,"148":3.847665786743164,"149":0.1420832872390747,"150":-1.3870117664337158,"151":-0.6748725175857544,"152":-1.4454386234283447,"153":-0.4724562466144562,"154":-1.7386140823364258,"155":-1.691909670829773,"156":-0.298520565032959,"157":-2.4300734996795654,"158":1.4563117027282715,"159":2.8415417671203613,"160":-0.5876426696777344,"161":1.058814525604248,"162":0.5480385422706604,"163":0.6294484734535217,"164":2.0815768241882324,"165":1.1496416330337524,"166":0.6365757584571838,"167":-2.7314517498016357,"168":3.6679611206054688,"169":1.8157751560211182,"170":1.2253202199935913,"171":1.791011929512024,"172":0.6233105063438416,"173":-3.1859383583068848,"174":1.942297101020813,"175":3.2231502532958984,"176":2.8921494483947754,"177":2.949230194091797,"178":-0.2763686180114746,"179":-1.7667255401611328,"180":-1.5004115104675293,"181":1.7515925168991089,"182":-1.7623690366744995,"183":2.411649703979492,"184":1.9737732410430908,"185":3.313750743865967,"186":-1.3217101097106934,"187":-1.5108438730239868,"188":1.2904390096664429,"189":1.4398274421691895,"190":-1.2476266622543335,"191":0.15381461381912231,"192":4.76622200012207,"193":-0.73990797996521,"194":2.0326344966888428,"195":2.3199703693389893,"196":-0.8028771281242371,"197":2.470386028289795,"198":-1.9420393705368042,"199":2.8100204467773438,"200":-1.0961740016937256,"201":1.007724404335022,"202":5.256937026977539,"203":-0.4810590445995331,"204":-0.8110109567642212,"205":-0.9317362308502197,"206":2.6330466270446777,"207":-1.071347713470459,"208":4.340838432312012,"209":-0.15146905183792114,"210":1.0831879377365112,"211":-2.2198173999786377,"212":1.8844560384750366,"213":-0.40657952427864075,"214":4.007797718048096,"215":-3.490051746368408,"216":-0.8525725603103638,"217":0.8179399967193604,"218":4.240007400512695,"219":-4.354030132293701,"220":-3.414750337600708,"221":-0.23473332822322845,"222":1.5975242853164673,"223":-1.9361776113510132,"224":-1.150928258895874,"225":-0.2570345997810364,"226":1.0248569250106812,"227":0.7645505666732788,"228":4.056889057159424,"229":-1.4759438037872314,"230":5.416566848754883,"231":0.5746119618415833,"232":-0.12887202203273773,"233":3.3745505809783936,"234":0.816430926322937,"235":-0.41957178711891174,"236":3.714019298553467,"237":0.7678024172782898,"238":2.079113245010376,"239":0.38804692029953003,"240":0.505258321762085,"241":1.3550671339035034,"242":0.878237247467041,"243":5.265789985656738,"244":1.1267781257629395,"245":3.0472381114959717,"246":-0.2524283826351166,"247":-0.1767755001783371,"248":-4.736371994018555,"249":-3.582709312438965,"250":-2.845482349395752,"251":-1.9314213991165161,"252":1.5157585144042969,"253":1.7066349983215332,"254":0.15733090043067932,"255":1.5107754468917847,"256":-0.7388734221458435,"257":1.1023144721984863,"258":-0.5736282467842102,"259":-2.287566900253296,"260":-1.5976126194000244,"261":-1.1961075067520142,"262":3.41304349899292,"263":0.5561363101005554,"264":1.6835365295410156,"265":2.763399600982666,"266":2.4384522438049316,"267":1.4230877161026,"268":-3.3261756896972656,"269":-3.549438953399658,"270":-0.9756559133529663,"271":0.4204050600528717,"272":3.5373589992523193,"273":4.715466022491455,"274":1.8890732526779175,"275":3.579207420349121,"276":-0.9477552771568298,"277":0.7996269464492798,"278":-1.9439303874969482,"279":1.4685673713684082,"280":-1.9654980897903442,"281":-0.05075966194272041,"282":-0.19637063145637512,"283":2.5139241218566895,"284":0.15721288323402405,"285":3.473644256591797,"286":1.8468341827392578,"287":-1.1454195976257324,"288":-1.0215932130813599,"289":-2.5324366092681885,"290":1.4699901342391968,"291":1.616837501525879,"292":0.5308907628059387,"293":2.5381715297698975,"294":1.998793601989746,"295":0.7360408902168274,"296":2.6491153240203857,"297":1.9500980377197266,"298":-1.3946657180786133,"299":-0.31412723660469055,"300":-1.4719898700714111,"301":0.28954413533210754,"302":3.4386367797851562,"303":0.989980161190033,"304":0.419197142124176,"305":1.168131947517395,"306":6.160328388214111,"307":-2.3527486324310303,"308":0.415622740983963,"309":-4.459167003631592,"310":0.3003062605857849,"311":-0.06234551966190338,"312":0.9024961590766907,"313":1.448824167251587,"314":1.3613358736038208,"315":-4.005840301513672,"316":-0.9234688878059387,"317":2.7485358715057373,"318":1.0546605587005615,"319":-1.8072751760482788,"320":0.6899160742759705,"321":-0.47306010127067566,"322":2.7931392192840576,"323":-1.2285255193710327,"324":-2.146928548812866,"325":0.14916187524795532,"326":4.561488151550293,"327":0.48549818992614746,"328":-2.4064362049102783,"329":0.7758461236953735,"330":0.41522860527038574,"331":-0.9604600071907043,"332":-1.0045316219329834,"333":5.477948188781738,"334":-2.4247238636016846,"335":1.6708883047103882,"336":-4.666712284088135,"337":-0.1336704045534134,"338":3.9068803787231445,"339":-0.7933794260025024,"340":1.555827021598816,"341":3.0128371715545654,"342":-1.9684991836547852,"343":0.6329110860824585,"344":2.998048782348633,"345":2.6539673805236816,"346":-1.039608120918274,"347":0.06347871571779251,"348":-0.27103549242019653,"349":1.7112534046173096,"350":-3.344712972640991,"351":0.21315446496009827,"352":1.9049941301345825,"353":0.4754694700241089,"354":0.04080381616950035,"355":1.414115071296692,"356":-1.2414213418960571,"357":5.435775279998779,"358":-1.4114407300949097,"359":1.8863437175750732,"360":1.6324933767318726,"361":2.2616920471191406,"362":-0.406585156917572,"363":3.126600742340088,"364":-2.234238624572754,"365":-0.8642346262931824,"366":1.008666753768921,"367":-1.6353700160980225,"368":-2.7494709491729736,"369":2.0882835388183594,"370":-1.783980131149292,"371":-6.057350158691406,"372":1.194088101387024,"373":-2.9807755947113037,"374":-3.1106793880462646,"375":4.984760284423828,"376":-0.6486881971359253,"377":0.6495620012283325,"378":-1.5102977752685547,"379":1.0907444953918457,"380":0.8498775362968445,"381":0.9444646835327148,"382":0.4034081697463989,"383":-0.6649260520935059,"384":-1.4965542554855347,"385":0.3728329837322235,"386":-2.878291130065918,"387":-1.2258193492889404,"388":-1.1763195991516113,"389":1.5114834308624268,"390":-1.2074626684188843,"391":0.400632381439209,"392":-0.1532476395368576,"393":-4.897860527038574,"394":0.8366948962211609,"395":0.8883847594261169,"396":-1.8263156414031982,"397":-0.677698016166687,"398":0.010210718959569931,"399":-2.1569018363952637}},"inputBias":{"rows":20,"columns":1,"weights":{"0":-3.899909019470215,"1":-2.1905035972595215,"2":0.9099098443984985,"3":-2.6407253742218018,"4":1.173949956893921,"5":-0.05812857672572136,"6":2.528125047683716,"7":1.7758736610412598,"8":0.054657865315675735,"9":-1.60499906539917,"10":3.5228633880615234,"11":2.3304178714752197,"12":1.3572924137115479,"13":-0.3738465905189514,"14":-3.1872410774230957,"15":-4.193320274353027,"16":-0.30313122272491455,"17":0.5399118065834045,"18":-2.4806649684906006,"19":1.454265832901001}},"forgetMatrix":{"rows":20,"columns":10,"weights":{"0":-1.2128169536590576,"1":-0.043250538408756256,"2":-2.7890968322753906,"3":2.705310344696045,"4":2.3297057151794434,"5":6.206940650939941,"6":-0.2884742319583893,"7":0.08592400699853897,"8":0.45544788241386414,"9":4.129580020904541,"10":-1.4598338603973389,"11":0.8742135763168335,"12":-0.2970461845397949,"13":-2.3370201587677,"14":-0.8494013547897339,"15":-2.8231892585754395,"16":2.0851681232452393,"17":-3.6057522296905518,"18":1.9174727201461792,"19":-1.8658716678619385,"20":1.9778821468353271,"21":3.4205265045166016,"22":-1.853276014328003,"23":2.7391982078552246,"24":6.919387340545654,"25":-0.18371590971946716,"26":-1.5033643245697021,"27":1.3037036657333374,"28":-3.5390288829803467,"29":-3.399916410446167,"30":5.201948642730713,"31":-0.48610663414001465,"32":0.4159781336784363,"33":-2.3105967044830322,"34":-1.7592253684997559,"35":-1.5165742635726929,"36":-0.8033847212791443,"37":-5.398486137390137,"38":4.360509395599365,"39":0.6944503784179688,"40":-1.7276208400726318,"41":-2.9646787643432617,"42":-0.931520402431488,"43":-4.845710754394531,"44":-0.26988816261291504,"45":0.9637260437011719,"46":4.534928321838379,"47":-4.509478569030762,"48":0.5529239177703857,"49":-0.78129643201828,"50":-1.6682683229446411,"51":-2.5009586811065674,"52":2.5400757789611816,"53":-5.910280227661133,"54":-0.3518746495246887,"55":0.42419540882110596,"56":0.32285410165786743,"57":-0.4958187937736511,"58":-1.1628435850143433,"59":-1.278538703918457,"60":-0.6039898991584778,"61":2.2367098331451416,"62":1.0126222372055054,"63":4.967771530151367,"64":0.2200227528810501,"65":1.0884732007980347,"66":4.444739818572998,"67":-3.2586827278137207,"68":-1.955340027809143,"69":-3.1892144680023193,"70":-1.9003111124038696,"71":-1.3545674085617065,"72":2.5926566123962402,"73":0.9741287231445312,"74":1.3004558086395264,"75":-0.1806168109178543,"76":-4.073716640472412,"77":0.11900348216295242,"78":-2.9175658226013184,"79":0.2729575037956238,"80":3.020644187927246,"81":1.2523393630981445,"82":-0.5772595405578613,"83":-1.3962550163269043,"84":0.9443509578704834,"85":6.3074564933776855,"86":-4.275370121002197,"87":1.1395496129989624,"88":2.414778709411621,"89":-4.173500061035156,"90":2.289005756378174,"91":1.3199172019958496,"92":-4.299901485443115,"93":1.2323297262191772,"94":3.447751760482788,"95":-0.1621510088443756,"96":0.31455788016319275,"97":-0.7633607983589172,"98":-2.6763393878936768,"99":2.1010749340057373,"100":3.4113528728485107,"101":-2.0199337005615234,"102":0.059795551002025604,"103":3.3567934036254883,"104":4.341111660003662,"105":2.2699437141418457,"106":3.1598737239837646,"107":3.3866050243377686,"108":-0.30842041969299316,"109":-5.355691909790039,"110":-0.24120530486106873,"111":-0.7020270824432373,"112":-0.1803959608078003,"113":-2.8318490982055664,"114":-2.304819107055664,"115":0.044248998165130615,"116":-0.9743857979774475,"117":-1.274057149887085,"118":-1.6576002836227417,"119":-4.829972267150879,"120":4.564427852630615,"121":-2.730300188064575,"122":-0.6520766019821167,"123":0.32397955656051636,"124":0.9908137321472168,"125":6.214860439300537,"126":1.2104418277740479,"127":0.25197720527648926,"128":0.7718319296836853,"129":3.142465591430664,"130":3.1677231788635254,"131":-1.0735050439834595,"132":1.2550971508026123,"133":1.6323081254959106,"134":-1.9742565155029297,"135":0.21527515351772308,"136":2.9854464530944824,"137":-5.229052543640137,"138":0.9995951652526855,"139":-1.0877984762191772,"140":2.018681764602661,"141":-0.7859575748443604,"142":-1.1406712532043457,"143":-2.5956974029541016,"144":0.7075202465057373,"145":-3.6756510734558105,"146":-0.7395416498184204,"147":-5.366107940673828,"148":0.3815660774707794,"149":-3.7651450634002686,"150":1.1897449493408203,"151":-1.2802013158798218,"152":-0.10831642895936966,"153":-1.0253924131393433,"154":-2.3409080505371094,"155":3.0942018032073975,"156":0.7809484004974365,"157":-4.914168357849121,"158":-0.9343103170394897,"159":-4.361296653747559,"160":-0.6181062459945679,"161":-1.0655289888381958,"162":3.0906383991241455,"163":2.5367825031280518,"164":4.841551780700684,"165":3.465717077255249,"166":-3.3254785537719727,"167":-1.1888574361801147,"168":-2.266489028930664,"169":3.154280424118042,"170":-1.5941354036331177,"171":1.4267972707748413,"172":0.9861392974853516,"173":1.0279178619384766,"174":0.2626360058784485,"175":0.5680172443389893,"176":2.623720407485962,"177":-1.3593676090240479,"178":0.8414852023124695,"179":1.0350130796432495,"180":-4.619520664215088,"181":-2.407074451446533,"182":-3.091644287109375,"183":0.005147590767592192,"184":0.12022826075553894,"185":1.0556719303131104,"186":4.022610664367676,"187":2.0238776206970215,"188":-1.1951433420181274,"189":-1.4697378873825073,"190":0.17342033982276917,"191":-3.82145094871521,"192":0.5074595212936401,"193":1.2206392288208008,"194":1.1371713876724243,"195":0.19034796953201294,"196":2.748098850250244,"197":2.0630009174346924,"198":0.344182550907135,"199":-1.6562572717666626}},"forgetHidden":{"rows":20,"columns":20,"weights":{"0":-0.6959958076477051,"1":-2.691364288330078,"2":0.23783759772777557,"3":-0.7716845273971558,"4":0.40302908420562744,"5":1.2252384424209595,"6":0.46997708082199097,"7":-0.6113851070404053,"8":2.9625351428985596,"9":-1.2199231386184692,"10":0.6729671359062195,"11":-1.7256193161010742,"12":1.3577423095703125,"13":0.1769159883260727,"14":-2.527498960494995,"15":0.18444307148456573,"16":2.5844779014587402,"17":0.3052637577056885,"18":3.508533000946045,"19":-5.199856281280518,"20":1.028775691986084,"21":2.5618226528167725,"22":0.36764201521873474,"23":-1.2553602457046509,"24":4.306015968322754,"25":2.0848052501678467,"26":0.7769163846969604,"27":-0.3742322325706482,"28":-0.10480234026908875,"29":-1.611187219619751,"30":-2.2511162757873535,"31":-2.193922281265259,"32":1.68268883228302,"33":-0.08831938356161118,"34":2.1881103515625,"35":-0.19018228352069855,"36":-0.9296715259552002,"37":1.8392287492752075,"38":-3.6000819206237793,"39":0.004125762730836868,"40":-1.0083279609680176,"41":-0.23716405034065247,"42":-1.1284140348434448,"43":2.4768452644348145,"44":-0.3028219938278198,"45":-0.607178270816803,"46":0.557159960269928,"47":0.08115364611148834,"48":0.3635752201080322,"49":1.326292872428894,"50":-1.840669870376587,"51":0.09323614835739136,"52":0.9504583477973938,"53":2.2008838653564453,"54":3.360687732696533,"55":-4.489047050476074,"56":0.06374619156122208,"57":2.124664306640625,"58":3.936483144760132,"59":0.18203917145729065,"60":-1.2376738786697388,"61":-1.3505170345306396,"62":0.5694612264633179,"63":2.071523904800415,"64":-1.1515153646469116,"65":1.2960680723190308,"66":-3.9427525997161865,"67":-4.172844409942627,"68":-3.4451024532318115,"69":-0.7400460839271545,"70":4.320470333099365,"71":3.7015645503997803,"72":0.027870701625943184,"73":-0.5487171411514282,"74":1.7154289484024048,"75":2.973416805267334,"76":3.3382489681243896,"77":0.08012206852436066,"78":3.6390159130096436,"79":1.9993836879730225,"80":1.985265851020813,"81":-2.029311418533325,"82":4.309645175933838,"83":4.883068561553955,"84":1.2917801141738892,"85":4.904675006866455,"86":5.724632740020752,"87":-0.599507212638855,"88":0.18841560184955597,"89":-1.3966379165649414,"90":0.8102325797080994,"91":0.6011691689491272,"92":2.7447774410247803,"93":0.8660940527915955,"94":2.576525926589966,"95":0.20860087871551514,"96":2.621621608734131,"97":3.6309432983398438,"98":-4.519651412963867,"99":1.2555350065231323,"100":0.24872036278247833,"101":2.798471450805664,"102":3.2099406719207764,"103":3.9250476360321045,"104":-0.7016056180000305,"105":0.8664028644561768,"106":0.3544377386569977,"107":-5.166425704956055,"108":-6.374148368835449,"109":-1.209468960762024,"110":0.5554102659225464,"111":1.1295228004455566,"112":0.6806989312171936,"113":1.294520378112793,"114":-1.81434166431427,"115":3.735389471054077,"116":-1.3662647008895874,"117":2.3104357719421387,"118":1.3830616474151611,"119":-0.041163500398397446,"120":0.1758342683315277,"121":-0.42153552174568176,"122":0.3649296760559082,"123":-1.1290136575698853,"124":-5.860321044921875,"125":-2.179605484008789,"126":-0.2317657321691513,"127":-6.1028947830200195,"128":2.5018014907836914,"129":-1.1835929155349731,"130":-0.5163952112197876,"131":-2.994992971420288,"132":-0.02378404699265957,"133":-0.9483646750450134,"134":0.3337388038635254,"135":0.8822665810585022,"136":-1.822898268699646,"137":2.061145782470703,"138":4.004736423492432,"139":-1.2867628335952759,"140":1.848345398902893,"141":2.411993980407715,"142":-2.1513712406158447,"143":1.7599058151245117,"144":0.3088788092136383,"145":2.938004732131958,"146":-3.1862668991088867,"147":0.7345304489135742,"148":-0.17990243434906006,"149":2.1005642414093018,"150":-1.1306248903274536,"151":-0.8613000512123108,"152":0.008600197732448578,"153":-1.7655754089355469,"154":-0.04621626436710358,"155":1.199571967124939,"156":-0.5181506872177124,"157":0.19958576560020447,"158":-3.8902790546417236,"159":3.5295827388763428,"160":-1.6090481281280518,"161":2.2486374378204346,"162":0.07212488353252411,"163":1.085214614868164,"164":0.5090051293373108,"165":1.3026379346847534,"166":0.532252848148346,"167":1.749521017074585,"168":2.2919256687164307,"169":-2.379016160964966,"170":-0.4257335364818573,"171":1.3562356233596802,"172":0.44351038336753845,"173":0.18998104333877563,"174":2.745117425918579,"175":-3.5569984912872314,"176":3.670804977416992,"177":0.3982134759426117,"178":-0.747843861579895,"179":-2.7968854904174805,"180":-2.452181339263916,"181":-0.5457594394683838,"182":1.3275967836380005,"183":-2.535017251968384,"184":-4.180606842041016,"185":-2.7035868167877197,"186":0.5764266848564148,"187":0.7399436831474304,"188":0.28396302461624146,"189":-2.263521432876587,"190":3.6904544830322266,"191":0.6716588139533997,"192":-2.5463151931762695,"193":1.0309104919433594,"194":-2.2132046222686768,"195":-1.6400052309036255,"196":1.1546040773391724,"197":-2.923862934112549,"198":2.125978469848633,"199":-2.0295395851135254,"200":-0.6281221508979797,"201":-1.4104254245758057,"202":-0.14513719081878662,"203":-1.6008673906326294,"204":0.35044214129447937,"205":-0.07900606095790863,"206":-0.30634593963623047,"207":2.0324056148529053,"208":3.200032949447632,"209":1.395471453666687,"210":2.6998822689056396,"211":0.9606170058250427,"212":-0.30964505672454834,"213":-1.0710573196411133,"214":5.535705089569092,"215":-0.7584893703460693,"216":2.158550977706909,"217":-0.2250402569770813,"218":-4.102252006530762,"219":0.30602115392684937,"220":-1.3618249893188477,"221":1.7613505125045776,"222":2.869408369064331,"223":-2.493581771850586,"224":-0.5953839421272278,"225":-1.02870774269104,"226":3.392646074295044,"227":-2.386756181716919,"228":-1.409260630607605,"229":-3.346421480178833,"230":-0.8345808386802673,"231":0.4171730875968933,"232":-1.457395315170288,"233":2.9958982467651367,"234":-2.567842960357666,"235":-0.9273344874382019,"236":-1.7742470502853394,"237":1.2874828577041626,"238":3.1289029121398926,"239":0.18073466420173645,"240":-1.4981539249420166,"241":-3.353827714920044,"242":1.5333181619644165,"243":3.355393886566162,"244":0.47592827677726746,"245":-0.15516898036003113,"246":2.4045772552490234,"247":-2.0775489807128906,"248":-0.905879557132721,"249":-0.9734319448471069,"250":2.5440049171447754,"251":0.3386703133583069,"252":-0.12732551991939545,"253":-0.8355360627174377,"254":0.5461200475692749,"255":-1.0621070861816406,"256":0.905213475227356,"257":-2.0753657817840576,"258":2.852483034133911,"259":-1.085873007774353,"260":2.903458833694458,"261":-1.0233120918273926,"262":-0.31240564584732056,"263":0.33091115951538086,"264":-1.631318211555481,"265":1.4704004526138306,"266":0.03648414835333824,"267":-5.705535411834717,"268":1.4982492923736572,"269":2.5169451236724854,"270":2.4466559886932373,"271":0.04940391331911087,"272":2.755237579345703,"273":-1.308312177658081,"274":3.564765214920044,"275":0.3731238543987274,"276":-0.26299574971199036,"277":0.5492379665374756,"278":0.14305630326271057,"279":0.48971304297447205,"280":3.6883013248443604,"281":1.7641758918762207,"282":-0.9397062063217163,"283":3.9042882919311523,"284":1.6842844486236572,"285":1.6386804580688477,"286":0.7628751397132874,"287":-2.321169853210449,"288":-0.8785272240638733,"289":0.38474664092063904,"290":-0.5176308751106262,"291":2.3978264331817627,"292":2.2775652408599854,"293":0.24287757277488708,"294":2.4736928939819336,"295":1.379886507987976,"296":5.063877105712891,"297":1.7549664974212646,"298":0.9646835327148438,"299":2.050187110900879,"300":0.5010926723480225,"301":0.5399091839790344,"302":-1.4606267213821411,"303":2.361431360244751,"304":1.1447774171829224,"305":3.5430166721343994,"306":-3.379668712615967,"307":-4.554078578948975,"308":-2.510120391845703,"309":-0.548157811164856,"310":-1.1044796705245972,"311":1.9618057012557983,"312":2.755970001220703,"313":0.7692817449569702,"314":3.947033405303955,"315":1.2907724380493164,"316":-1.2266854047775269,"317":-0.16196852922439575,"318":0.8518094420433044,"319":1.2561577558517456,"320":-0.18694579601287842,"321":1.5063449144363403,"322":-1.6541470289230347,"323":3.2200469970703125,"324":-0.9470023512840271,"325":1.811478614807129,"326":1.352287769317627,"327":-0.514552116394043,"328":-2.0952744483947754,"329":-1.453643798828125,"330":2.4241271018981934,"331":1.232654333114624,"332":-0.40078720450401306,"333":-2.018637180328369,"334":0.46133139729499817,"335":3.919288396835327,"336":0.6112362146377563,"337":3.1856579780578613,"338":0.44300514459609985,"339":1.5565838813781738,"340":1.3907034397125244,"341":2.4727301597595215,"342":-2.3167948722839355,"343":1.909183144569397,"344":2.88619065284729,"345":0.9800515174865723,"346":-1.8679134845733643,"347":-1.3732495307922363,"348":-1.0776070356369019,"349":2.607872724533081,"350":-3.449854612350464,"351":-1.9786015748977661,"352":2.9228270053863525,"353":0.8111435174942017,"354":0.05076922848820686,"355":1.6203352212905884,"356":-1.3137682676315308,"357":5.143707275390625,"358":-0.6141441464424133,"359":2.154346227645874,"360":1.8312674760818481,"361":2.494413375854492,"362":1.3715509176254272,"363":-2.636943817138672,"364":5.184775352478027,"365":0.7764788866043091,"366":-1.5272445678710938,"367":-3.4926674365997314,"368":-0.4853234589099884,"369":1.2521684169769287,"370":1.5155452489852905,"371":0.8722854256629944,"372":0.6652489304542542,"373":-2.153224229812622,"374":-1.8375378847122192,"375":-1.952905535697937,"376":3.9765396118164062,"377":1.5643291473388672,"378":-1.7482413053512573,"379":0.8188828229904175,"380":-2.068082094192505,"381":0.31757909059524536,"382":-1.9110922813415527,"383":4.743980407714844,"384":-1.1876636743545532,"385":1.0427578687667847,"386":0.35468900203704834,"387":-1.4560551643371582,"388":-0.8510907292366028,"389":0.7251631021499634,"390":-1.6436617374420166,"391":0.8005353212356567,"392":-1.4240179061889648,"393":-1.9825869798660278,"394":-1.72452712059021,"395":-1.4926037788391113,"396":2.6727805137634277,"397":2.298644542694092,"398":4.735771179199219,"399":-1.7413737773895264}},"forgetBias":{"rows":20,"columns":1,"weights":{"0":0,"1":0,"2":0,"3":0,"4":0,"5":0,"6":0,"7":0,"8":0,"9":0,"10":0,"11":0,"12":0,"13":0,"14":0,"15":0,"16":0,"17":0,"18":0,"19":0}},"outputMatrix":{"rows":20,"columns":10,"weights":{"0":5.087126731872559,"1":1.1707007884979248,"2":-1.6032840013504028,"3":1.8931571245193481,"4":-0.5769934058189392,"5":-1.6619433164596558,"6":-1.5556544065475464,"7":-2.734675407409668,"8":0.9202024340629578,"9":2.4175336360931396,"10":2.7659051418304443,"11":-1.3544495105743408,"12":-0.077484130859375,"13":-2.4432098865509033,"14":1.2660775184631348,"15":-2.4445419311523438,"16":2.330247640609741,"17":-1.184699535369873,"18":7.094192028045654,"19":4.423986911773682,"20":-2.862962245941162,"21":-3.014470338821411,"22":-3.8627002239227295,"23":-0.5281767845153809,"24":0.9975098967552185,"25":5.479301452636719,"26":-0.7662206292152405,"27":-3.91969895362854,"28":0.501455545425415,"29":-0.6945576071739197,"30":-5.381521224975586,"31":-1.4827709197998047,"32":0.08062484115362167,"33":-1.7233002185821533,"34":-0.7017813920974731,"35":0.011952206492424011,"36":5.364871025085449,"37":-0.6070468425750732,"38":-2.712120532989502,"39":-2.2878897190093994,"40":-0.31588461995124817,"41":-0.7594737410545349,"42":-1.5131713151931763,"43":0.3924408257007599,"44":1.7040743827819824,"45":5.347395896911621,"46":-1.7985622882843018,"47":1.3430010080337524,"48":-0.20842121541500092,"49":-1.0205090045928955,"50":1.0808608531951904,"51":3.0643019676208496,"52":0.6769652366638184,"53":0.8866143822669983,"54":2.564178228378296,"55":0.4602675139904022,"56":-2.016240358352661,"57":-2.1336638927459717,"58":0.13913463056087494,"59":0.021615231409668922,"60":2.4046921730041504,"61":-1.9438549280166626,"62":3.8483924865722656,"63":1.2670789957046509,"64":-1.5896307229995728,"65":1.6068644523620605,"66":-1.5570414066314697,"67":-1.6712417602539062,"68":4.6673736572265625,"69":-0.14761433005332947,"70":-0.5304610729217529,"71":0.6931140422821045,"72":-3.526923418045044,"73":-2.349364995956421,"74":2.263915538787842,"75":-1.3359768390655518,"76":-0.5929926037788391,"77":-1.1707035303115845,"78":-2.4971795082092285,"79":3.939148426055908,"80":3.5785858631134033,"81":3.3302979469299316,"82":-2.113616943359375,"83":0.6758292317390442,"84":3.2208123207092285,"85":1.3956329822540283,"86":2.3370954990386963,"87":2.8655710220336914,"88":0.044687166810035706,"89":0.1224248930811882,"90":-1.186812400817871,"91":0.6691126227378845,"92":1.8625603914260864,"93":7.005893707275391,"94":5.93573522567749,"95":0.534855306148529,"96":4.199474334716797,"97":-0.2947675883769989,"98":-1.192580223083496,"99":-5.143360614776611,"100":5.776515960693359,"101":2.760830879211426,"102":1.759016513824463,"103":3.2007880210876465,"104":3.1503472328186035,"105":0.356437087059021,"106":1.6441943645477295,"107":-4.194066524505615,"108":-3.695496082305908,"109":1.8698208332061768,"110":-0.07161315530538559,"111":1.549513578414917,"112":0.25226154923439026,"113":0.4045814573764801,"114":4.330492973327637,"115":-1.5925076007843018,"116":-2.5776662826538086,"117":-1.075918197631836,"118":-2.0170881748199463,"119":-1.533385157585144,"120":-0.40586432814598083,"121":3.7093329429626465,"122":0.7257717251777649,"123":1.1117933988571167,"124":0.4544096887111664,"125":0.2979240417480469,"126":-2.7665841579437256,"127":2.04551362991333,"128":1.9140442609786987,"129":-2.724898099899292,"130":2.267115592956543,"131":-2.064023017883301,"132":-1.799323320388794,"133":1.7907847166061401,"134":-0.6273019313812256,"135":0.9173765778541565,"136":5.118980407714844,"137":-2.3125691413879395,"138":2.135654926300049,"139":-0.3441884219646454,"140":-4.627679347991943,"141":2.980036735534668,"142":3.9251019954681396,"143":-0.39039692282676697,"144":-0.8579208254814148,"145":2.1506786346435547,"146":-1.0579490661621094,"147":0.5564038157463074,"148":0.6789728999137878,"149":2.1952788829803467,"150":2.435746192932129,"151":-0.49868637323379517,"152":-0.9465156197547913,"153":-0.3217991590499878,"154":-0.9292153716087341,"155":0.023498892784118652,"156":-5.853430271148682,"157":-3.4751782417297363,"158":3.6881227493286133,"159":1.9103573560714722,"160":2.2179346084594727,"161":0.11361552029848099,"162":0.24005469679832458,"163":-0.00042513367952778935,"164":0.4802074432373047,"165":3.286590814590454,"166":1.3996206521987915,"167":-1.4940556287765503,"168":-2.9108638763427734,"169":0.07935144007205963,"170":0.6832588315010071,"171":2.0893540382385254,"172":3.105358362197876,"173":1.5324122905731201,"174":0.47179722785949707,"175":3.3346126079559326,"176":2.336979389190674,"177":-1.2726616859436035,"178":-1.3895970582962036,"179":1.974088430404663,"180":-2.4330577850341797,"181":0.39322954416275024,"182":0.22039061784744263,"183":-2.2863221168518066,"184":-1.8469276428222656,"185":0.718124508857727,"186":4.00744104385376,"187":1.4771023988723755,"188":-0.3962027430534363,"189":1.6386460065841675,"190":1.3273112773895264,"191":-1.7607851028442383,"192":2.7325968742370605,"193":0.7389861345291138,"194":-4.195571422576904,"195":-0.9421361088752747,"196":-2.616091728210449,"197":-1.5722895860671997,"198":-3.937931776046753,"199":-0.04200303554534912}},"outputHidden":{"rows":20,"columns":20,"weights":{"0":0.3453206419944763,"1":1.3246824741363525,"2":3.1418468952178955,"3":1.6251678466796875,"4":1.3564010858535767,"5":1.4549988508224487,"6":-2.911306381225586,"7":0.29044508934020996,"8":-1.7621687650680542,"9":1.609928846359253,"10":2.4611144065856934,"11":-2.5223746299743652,"12":4.252536773681641,"13":2.277524471282959,"14":-1.8158392906188965,"15":-2.767252206802368,"16":-2.5487685203552246,"17":1.7064590454101562,"18":3.213667154312134,"19":2.7674126625061035,"20":-1.9269685745239258,"21":2.1162352561950684,"22":-0.550008237361908,"23":-0.027991602197289467,"24":0.4716307520866394,"25":-0.539466381072998,"26":1.6751341819763184,"27":-0.7743523120880127,"28":2.307541847229004,"29":-0.6083250045776367,"30":-0.6273247003555298,"31":-1.5613247156143188,"32":-0.6057739853858948,"33":1.4430935382843018,"34":0.4868542551994324,"35":0.5478952527046204,"36":0.5801523923873901,"37":1.5421448945999146,"38":1.2068291902542114,"39":1.34772527217865,"40":-3.0863873958587646,"41":1.339765191078186,"42":2.8600049018859863,"43":1.063076138496399,"44":-1.0632479190826416,"45":1.212770700454712,"46":-0.8862015604972839,"47":-0.44546836614608765,"48":-3.9951772689819336,"49":-3.3722243309020996,"50":-1.1570581197738647,"51":-0.20797385275363922,"52":1.571732997894287,"53":0.833077073097229,"54":-2.15651535987854,"55":0.7622997760772705,"56":-1.2635246515274048,"57":2.250884532928467,"58":-0.08657518774271011,"59":-1.812569260597229,"60":-1.1073980331420898,"61":0.9825749397277832,"62":0.5078305006027222,"63":1.727582573890686,"64":0.04438105598092079,"65":2.4042069911956787,"66":0.2239931970834732,"67":-2.418241262435913,"68":-1.709784984588623,"69":4.005113124847412,"70":-1.2212404012680054,"71":-1.262703537940979,"72":0.08991341292858124,"73":-1.5336158275604248,"74":1.284785509109497,"75":2.805265188217163,"76":4.133983612060547,"77":1.884440541267395,"78":2.211876630783081,"79":2.2916197776794434,"80":4.053600788116455,"81":-0.4197562634944916,"82":-0.4078911244869232,"83":0.282617449760437,"84":1.099929690361023,"85":1.1795114278793335,"86":-2.0430614948272705,"87":-0.030305204913020134,"88":0.6635333895683289,"89":1.7480943202972412,"90":-2.066633462905884,"91":-3.7738187313079834,"92":-0.6345880031585693,"93":-2.06911039352417,"94":1.1397589445114136,"95":-2.129810333251953,"96":-2.206874370574951,"97":1.2380541563034058,"98":-0.11123530566692352,"99":1.4781266450881958,"100":0.7344076633453369,"101":0.0026758858002722263,"102":-0.6548045873641968,"103":1.8012924194335938,"104":3.2311623096466064,"105":0.3520820438861847,"106":2.5550076961517334,"107":-3.624032974243164,"108":-0.3270007371902466,"109":1.0192898511886597,"110":-0.8058822751045227,"111":-2.952479839324951,"112":2.3408992290496826,"113":1.363044261932373,"114":2.030305862426758,"115":2.203173875808716,"116":0.9728115200996399,"117":3.402421474456787,"118":0.29059019684791565,"119":0.5766918659210205,"120":-0.46352431178092957,"121":2.5057384967803955,"122":-1.3881816864013672,"123":2.4753758907318115,"124":1.322381854057312,"125":-1.0015109777450562,"126":-2.2051801681518555,"127":-2.6328794956207275,"128":1.496153712272644,"129":0.9427782893180847,"130":-0.5931727290153503,"131":1.0514850616455078,"132":5.177643775939941,"133":2.947941541671753,"134":0.8602213263511658,"135":-3.7224230766296387,"136":1.139119029045105,"137":2.6104607582092285,"138":2.543600082397461,"139":2.039647102355957,"140":3.303499221801758,"141":1.9242082834243774,"142":-0.5306707620620728,"143":-0.0778580978512764,"144":-0.0324803963303566,"145":-1.3062317371368408,"146":-2.1404755115509033,"147":2.740443706512451,"148":2.806530475616455,"149":0.9931501150131226,"150":-1.1052080392837524,"151":0.17639756202697754,"152":1.0875245332717896,"153":-0.8721003532409668,"154":-0.10658500343561172,"155":2.4935595989227295,"156":-0.08634842932224274,"157":0.7069946527481079,"158":-1.4824717044830322,"159":1.0847957134246826,"160":-1.247899055480957,"161":1.2525508403778076,"162":1.0949369668960571,"163":1.3185524940490723,"164":1.4114221334457397,"165":0.8451920747756958,"166":-0.454195499420166,"167":0.8685356974601746,"168":-1.1028070449829102,"169":0.03494260460138321,"170":3.4907329082489014,"171":2.2692930698394775,"172":0.39561447501182556,"173":-2.385366678237915,"174":1.9736939668655396,"175":-0.5594980716705322,"176":3.013484477996826,"177":2.5628347396850586,"178":0.3983825743198395,"179":2.864854574203491,"180":-1.449044942855835,"181":-2.250983476638794,"182":1.8888188600540161,"183":0.9085589647293091,"184":0.43928948044776917,"185":1.2953298091888428,"186":2.276597738265991,"187":-2.6623644828796387,"188":-1.960523009300232,"189":0.4817625880241394,"190":0.35915300250053406,"191":-2.2716829776763916,"192":3.814685583114624,"193":1.512993574142456,"194":-0.29655152559280396,"195":-3.0198795795440674,"196":-1.992711067199707,"197":0.9321513772010803,"198":2.4604034423828125,"199":1.8985092639923096,"200":-1.6698017120361328,"201":0.5886744260787964,"202":3.749868392944336,"203":1.0406557321548462,"204":-0.19753499329090118,"205":-1.1448472738265991,"206":0.3932417035102844,"207":0.06137240305542946,"208":3.406961679458618,"209":-0.9931618571281433,"210":4.649706840515137,"211":-0.3524170219898224,"212":-0.2776543200016022,"213":0.6895704865455627,"214":1.2819373607635498,"215":-0.9469753503799438,"216":0.7706920504570007,"217":1.884291172027588,"218":0.011228215880692005,"219":-0.1474960893392563,"220":-1.5106922388076782,"221":2.1109530925750732,"222":0.397158145904541,"223":-0.39700186252593994,"224":-1.099841594696045,"225":-0.5204366445541382,"226":1.8472766876220703,"227":0.7296345829963684,"228":1.2677693367004395,"229":-4.11578369140625,"230":1.1395232677459717,"231":-1.2377760410308838,"232":0.9579405188560486,"233":2.0785281658172607,"234":1.089828610420227,"235":-1.5528770685195923,"236":-1.0730193853378296,"237":2.059476613998413,"238":2.289015293121338,"239":-2.1901357173919678,"240":-0.9766135215759277,"241":0.6999748349189758,"242":2.7013344764709473,"243":1.6614137887954712,"244":1.1138862371444702,"245":2.116577386856079,"246":1.1563169956207275,"247":-3.0487852096557617,"248":-1.5084930658340454,"249":-0.7282471060752869,"250":-0.13570520281791687,"251":1.2549320459365845,"252":0.9662073850631714,"253":5.838494300842285,"254":1.6717109680175781,"255":0.11568819731473923,"256":-1.3918794393539429,"257":1.4308685064315796,"258":0.16319440305233002,"259":1.5973013639450073,"260":-0.9844604134559631,"261":-0.5131093859672546,"262":3.3094382286071777,"263":-0.31821781396865845,"264":-1.3609946966171265,"265":1.424872636795044,"266":-1.1258981227874756,"267":2.0573365688323975,"268":-1.876644253730774,"269":1.6576043367385864,"270":1.4615285396575928,"271":0.9306665062904358,"272":2.9571280479431152,"273":3.558239698410034,"274":1.4694677591323853,"275":1.5277044773101807,"276":-0.246232271194458,"277":2.2596678733825684,"278":1.093766450881958,"279":0.9844769835472107,"280":-0.142644464969635,"281":1.3922984600067139,"282":1.9880074262619019,"283":2.157032012939453,"284":-0.6242972612380981,"285":1.854305386543274,"286":1.0539857149124146,"287":-2.5268611907958984,"288":-1.1617006063461304,"289":3.083589792251587,"290":2.6748046875,"291":2.268132209777832,"292":1.8588777780532837,"293":0.0411270447075367,"294":-0.7701582312583923,"295":3.4229109287261963,"296":-0.30735862255096436,"297":1.4138823747634888,"298":-1.2722221612930298,"299":-1.7128283977508545,"300":-2.623185396194458,"301":0.14138221740722656,"302":-0.7425844073295593,"303":3.1127431392669678,"304":0.35248899459838867,"305":2.1171584129333496,"306":0.4994862675666809,"307":-2.58099627494812,"308":-2.4133951663970947,"309":-2.9405524730682373,"310":1.0126365423202515,"311":2.434762477874756,"312":1.3753386735916138,"313":3.009446620941162,"314":2.1832621097564697,"315":1.4177476167678833,"316":0.8432028293609619,"317":1.301589012145996,"318":-1.4574239253997803,"319":-1.0816079378128052,"320":0.07231985032558441,"321":5.557210445404053,"322":0.7413465976715088,"323":1.9493905305862427,"324":0.9498431086540222,"325":3.0336272716522217,"326":0.1382121741771698,"327":1.0292967557907104,"328":0.7741681933403015,"329":3.0958290100097656,"330":-1.6187591552734375,"331":-0.5118536949157715,"332":2.718106508255005,"333":1.2345699071884155,"334":3.364769220352173,"335":0.6960593461990356,"336":-1.5905674695968628,"337":3.1121716499328613,"338":0.607937216758728,"339":3.730458974838257,"340":-0.9195576906204224,"341":1.4997706413269043,"342":-3.1121866703033447,"343":-1.4716620445251465,"344":-0.23225638270378113,"345":-1.5543917417526245,"346":-2.0707767009735107,"347":1.8971012830734253,"348":1.3355939388275146,"349":2.1397688388824463,"350":-3.4129650592803955,"351":-0.4632396996021271,"352":0.02137676440179348,"353":0.9134302139282227,"354":0.8695524334907532,"355":-0.8893588185310364,"356":-0.5878579020500183,"357":1.040027379989624,"358":-1.586666226387024,"359":2.826895236968994,"360":1.6976757049560547,"361":2.7507381439208984,"362":-0.12143321335315704,"363":0.7571729421615601,"364":-0.25939738750457764,"365":-1.0389569997787476,"366":2.4006850719451904,"367":-2.2261693477630615,"368":3.2965595722198486,"369":0.5449312329292297,"370":-2.9273970127105713,"371":-4.684237003326416,"372":-0.4486236572265625,"373":-1.861388921737671,"374":-1.440158724784851,"375":1.8308299779891968,"376":-2.3098337650299072,"377":0.5780755877494812,"378":-1.752301573753357,"379":-1.6783277988433838,"380":-1.192619800567627,"381":0.8432757258415222,"382":1.085008978843689,"383":1.6847507953643799,"384":-0.8879609107971191,"385":-0.9311972260475159,"386":-2.375861406326294,"387":2.4561383724212646,"388":-2.095690965652466,"389":-0.022390378639101982,"390":0.5049384236335754,"391":0.3558262884616852,"392":-0.2961815893650055,"393":0.6968486309051514,"394":6.184022426605225,"395":0.5838632583618164,"396":1.1537792682647705,"397":-0.35668545961380005,"398":4.463176250457764,"399":-1.6227786540985107}},"outputBias":{"rows":20,"columns":1,"weights":{"0":-2.7136833667755127,"1":-1.5452065467834473,"2":0.24500548839569092,"3":-2.283886671066284,"4":1.4982916116714478,"5":-1.6356637477874756,"6":0.4728735089302063,"7":2.118220329284668,"8":-0.5200479626655579,"9":-0.33446356654167175,"10":0.23255281150341034,"11":1.105103611946106,"12":1.709004521369934,"13":0.1769559383392334,"14":-3.4394705295562744,"15":-3.674527645111084,"16":-1.0926563739776611,"17":0.855052649974823,"18":-2.2255027294158936,"19":2.636674165725708}},"cellActivationMatrix":{"rows":20,"columns":10,"weights":{"0":0.11007778346538544,"1":0.8027673959732056,"2":-0.6669783592224121,"3":0.8528146147727966,"4":0.9154847860336304,"5":0.5987617373466492,"6":-1.7607223987579346,"7":-0.3464622497558594,"8":0.06930416077375412,"9":2.1721723079681396,"10":0.2631343603134155,"11":-2.5571908950805664,"12":-0.9657509326934814,"13":-2.298520088195801,"14":-1.5432250499725342,"15":0.6993824243545532,"16":0.9129382967948914,"17":-3.536515951156616,"18":-0.34125861525535583,"19":-0.024561859667301178,"20":-0.3688610792160034,"21":-0.09150616079568863,"22":-1.534864902496338,"23":-0.633205235004425,"24":-0.5857247710227966,"25":-1.6786599159240723,"26":0.12169696390628815,"27":-0.04937851056456566,"28":-0.7986913323402405,"29":1.0875844955444336,"30":0.14981414377689362,"31":-0.2281021624803543,"32":-1.6473222970962524,"33":-1.068730354309082,"34":0.8236830234527588,"35":-1.2794675827026367,"36":-2.6368165016174316,"37":0.2052682489156723,"38":0.8204257488250732,"39":-2.065955400466919,"40":0.3068620264530182,"41":0.3836640417575836,"42":0.39790239930152893,"43":-0.2770398259162903,"44":0.4679133892059326,"45":1.67438805103302,"46":0.017284700646996498,"47":-0.5027804970741272,"48":1.5010484457015991,"49":-0.9253784418106079,"50":2.5616419315338135,"51":0.7103597521781921,"52":0.4854303300380707,"53":0.2348203957080841,"54":0.28239694237709045,"55":0.9071469902992249,"56":0.311377614736557,"57":0.0393061563372612,"58":0.04962887242436409,"59":0.5877082347869873,"60":1.4950287342071533,"61":-0.46902233362197876,"62":-1.7377440929412842,"63":-1.2234773635864258,"64":-0.8082585334777832,"65":-0.6256660223007202,"66":-0.07404076308012009,"67":-1.155622124671936,"68":-0.5795819759368896,"69":1.4306398630142212,"70":0.40673187375068665,"71":-0.22181862592697144,"72":-1.2352561950683594,"73":-1.2110041379928589,"74":-2.341670036315918,"75":1.0872293710708618,"76":-1.1237596273422241,"77":-0.9619875550270081,"78":-2.607091188430786,"79":0.35862502455711365,"80":-0.1292395144701004,"81":1.7988559007644653,"82":-2.349813222885132,"83":-0.7894659042358398,"84":1.7501931190490723,"85":0.970801830291748,"86":-0.07128681242465973,"87":2.401615858078003,"88":0.6520307064056396,"89":0.3274345099925995,"90":-0.5111247301101685,"91":-0.03370114788413048,"92":0.3263258934020996,"93":0.553739607334137,"94":0.5113898515701294,"95":0.336399108171463,"96":0.8411205410957336,"97":0.9816941022872925,"98":1.022679328918457,"99":-1.4516938924789429,"100":-2.07478928565979,"101":-1.861904501914978,"102":-1.0989938974380493,"103":-0.1294596940279007,"104":-1.9396461248397827,"105":-2.353356122970581,"106":-1.5571999549865723,"107":-1.0752418041229248,"108":-0.9381697773933411,"109":0.7847381830215454,"110":-0.07216325402259827,"111":-0.6296402812004089,"112":2.7922487258911133,"113":0.6996578574180603,"114":-2.256772518157959,"115":-0.6249594688415527,"116":-1.3006497621536255,"117":-1.3997559547424316,"118":1.3492070436477661,"119":-1.776088833808899,"120":1.3868573904037476,"121":1.7032619714736938,"122":0.38838571310043335,"123":-0.42220547795295715,"124":0.6839472055435181,"125":0.7622729539871216,"126":1.5043760538101196,"127":-0.5115900635719299,"128":0.044353287667036057,"129":-0.8406996130943298,"130":1.606449842453003,"131":0.8029516935348511,"132":0.695131778717041,"133":2.1908698081970215,"134":0.946632444858551,"135":3.5860047340393066,"136":1.40280282497406,"137":0.10673409700393677,"138":-0.6721142530441284,"139":0.008627834729850292,"140":-1.269561529159546,"141":-2.765101194381714,"142":0.8875223994255066,"143":0.4167000949382782,"144":-2.013313055038452,"145":-0.36359429359436035,"146":0.997853696346283,"147":-0.27372878789901733,"148":0.6529982089996338,"149":-3.545207977294922,"150":1.6910343170166016,"151":-4.426302433013916,"152":1.0488084554672241,"153":-1.972050428390503,"154":-2.7433667182922363,"155":-0.607376754283905,"156":0.4188871681690216,"157":-0.9897108674049377,"158":2.021653413772583,"159":4.477755546569824,"160":-0.18015901744365692,"161":-2.8166587352752686,"162":0.1891603171825409,"163":-1.4838486909866333,"164":-0.8247160911560059,"165":-2.0868897438049316,"166":0.16621464490890503,"167":-0.6524909138679504,"168":2.688931703567505,"169":0.4308936893939972,"170":0.27362823486328125,"171":0.06535369902849197,"172":0.7641200423240662,"173":0.9718936681747437,"174":0.5470418334007263,"175":-0.33365312218666077,"176":0.8163596391677856,"177":-0.35107940435409546,"178":0.4063117802143097,"179":1.4071305990219116,"180":0.5320534110069275,"181":0.9398494362831116,"182":-1.8812413215637207,"183":0.6418125033378601,"184":0.6285591125488281,"185":-0.7328104376792908,"186":0.7859247922897339,"187":-0.1389579027891159,"188":0.13605789840221405,"189":-0.6830999255180359,"190":-1.0811569690704346,"191":-0.09032585471868515,"192":-1.5036633014678955,"193":1.890628457069397,"194":-0.04642919823527336,"195":0.2741672694683075,"196":2.871372699737549,"197":1.751692533493042,"198":3.120171070098877,"199":-1.8543787002563477}},"cellActivationHidden":{"rows":20,"columns":20,"weights":{"0":-0.6457194089889526,"1":3.093153715133667,"2":-0.38178694248199463,"3":1.0442701578140259,"4":0.01140537764877081,"5":0.5615019798278809,"6":-0.09709040075540543,"7":-1.3602467775344849,"8":-1.499826192855835,"9":-0.7561526894569397,"10":-0.819791316986084,"11":-0.10147380828857422,"12":1.5446619987487793,"13":-1.1888930797576904,"14":2.7210752964019775,"15":-0.3199709951877594,"16":-0.4747883975505829,"17":1.8336817026138306,"18":1.8164761066436768,"19":-0.8761610388755798,"20":1.3337379693984985,"21":0.9505574107170105,"22":-0.7182376384735107,"23":0.5304223895072937,"24":0.6085516214370728,"25":-0.23022720217704773,"26":-3.09297776222229,"27":1.0939964056015015,"28":1.3818436861038208,"29":0.20390234887599945,"30":-1.967315912246704,"31":-2.4205143451690674,"32":-0.05152936279773712,"33":0.037253573536872864,"34":0.4751017093658447,"35":0.781815230846405,"36":-2.8167314529418945,"37":2.673703908920288,"38":-0.05919045954942703,"39":1.442015528678894,"40":-2.641916513442993,"41":0.2625732421875,"42":-0.26498347520828247,"43":-2.4534335136413574,"44":-2.7049076557159424,"45":-1.383762240409851,"46":-1.5354691743850708,"47":2.7051568031311035,"48":1.3663079738616943,"49":-0.5254178643226624,"50":1.9572733640670776,"51":-1.2916852235794067,"52":-1.7658021450042725,"53":-1.6570135354995728,"54":-0.10196773707866669,"55":-0.7022954821586609,"56":1.6301721334457397,"57":0.0591881163418293,"58":-0.07845417410135269,"59":-0.7663382291793823,"60":1.5308154821395874,"61":2.5346198081970215,"62":-0.19767653942108154,"63":1.4834940433502197,"64":0.3408553898334503,"65":0.6192306876182556,"66":-0.011161260306835175,"67":0.6260660290718079,"68":0.59437495470047,"69":0.7059631943702698,"70":-0.9884259104728699,"71":0.239821657538414,"72":1.0368036031723022,"73":-1.2051440477371216,"74":0.06638652831315994,"75":0.6508089900016785,"76":0.37621521949768066,"77":3.0089428424835205,"78":1.091673731803894,"79":0.6379131078720093,"80":0.4502559304237366,"81":1.2383583784103394,"82":-0.2013544887304306,"83":0.03051430732011795,"84":1.6786432266235352,"85":0.8202233910560608,"86":-0.12966316938400269,"87":-1.3217297792434692,"88":-0.8298660516738892,"89":0.47028952836990356,"90":-0.03820400312542915,"91":-0.4810289144515991,"92":0.4512142837047577,"93":-1.3433102369308472,"94":-0.061777520924806595,"95":0.18657952547073364,"96":-1.1771281957626343,"97":1.0296560525894165,"98":-0.8166282176971436,"99":0.07775478810071945,"100":2.2566518783569336,"101":1.5628917217254639,"102":-1.3759089708328247,"103":0.7693220376968384,"104":0.5734708309173584,"105":-0.3420155942440033,"106":-2.320868968963623,"107":-0.2963780462741852,"108":2.388289451599121,"109":3.05666184425354,"110":-1.1028916835784912,"111":0.6705682873725891,"112":2.0403754711151123,"113":-0.06345625221729279,"114":-0.5262576341629028,"115":1.4179128408432007,"116":-1.8971796035766602,"117":2.551945686340332,"118":0.8791701793670654,"119":2.934706449508667,"120":-0.45442283153533936,"121":-1.371401071548462,"122":-0.4458998739719391,"123":0.13427788019180298,"124":-2.497257947921753,"125":-2.303457021713257,"126":-1.1374961137771606,"127":1.4859628677368164,"128":0.40867769718170166,"129":1.0592575073242188,"130":-0.027653928846120834,"131":0.03866146132349968,"132":-2.022526979446411,"133":-1.0029727220535278,"134":-0.44221001863479614,"135":-1.9394768476486206,"136":-0.1734490841627121,"137":-1.0945109128952026,"138":1.7570631504058838,"139":-0.38607731461524963,"140":0.23006659746170044,"141":0.017912043258547783,"142":-0.4979838728904724,"143":0.9705826640129089,"144":-0.18040111660957336,"145":-0.8859232068061829,"146":0.7655496001243591,"147":-0.6292822957038879,"148":-0.9328910708427429,"149":1.250088095664978,"150":0.7781416773796082,"151":-0.753165066242218,"152":-1.119458556175232,"153":0.25936949253082275,"154":0.6399394869804382,"155":-0.3345654606819153,"156":-0.9716413021087646,"157":-0.21930821239948273,"158":-0.4867928922176361,"159":2.053805351257324,"160":0.5319681167602539,"161":-0.25512176752090454,"162":-1.5802485942840576,"163":0.6434487700462341,"164":1.7189289331436157,"165":0.8321340084075928,"166":0.02456498332321644,"167":-2.992532253265381,"168":-0.3656187653541565,"169":2.033776044845581,"170":-0.6024587154388428,"171":-2.616001605987549,"172":1.0853792428970337,"173":0.1356021761894226,"174":0.8239651918411255,"175":1.3196994066238403,"176":-1.3829609155654907,"177":0.23982834815979004,"178":-0.6697382926940918,"179":0.30511656403541565,"180":0.9749097228050232,"181":0.7451398372650146,"182":-1.200207233428955,"183":1.5499330759048462,"184":2.4099979400634766,"185":2.562983989715576,"186":0.08797819912433624,"187":-1.870036244392395,"188":-0.13059666752815247,"189":-0.12082672864198685,"190":-0.8516308069229126,"191":-1.0275838375091553,"192":1.7736871242523193,"193":0.17394255101680756,"194":1.2776353359222412,"195":1.55339777469635,"196":-1.1386722326278687,"197":-0.43251749873161316,"198":-0.6717902421951294,"199":0.6291682720184326,"200":-1.137501835823059,"201":-1.2159430980682373,"202":2.1402437686920166,"203":0.6586269736289978,"204":0.2234511822462082,"205":0.325346976518631,"206":-0.8504905104637146,"207":-0.4093035161495209,"208":0.1148144006729126,"209":0.4114273190498352,"210":-0.14034037292003632,"211":-1.5760674476623535,"212":-0.8702740669250488,"213":-3.1264536380767822,"214":-2.5582165718078613,"215":-0.6361690759658813,"216":0.8125885128974915,"217":-2.965782642364502,"218":-1.5278055667877197,"219":-1.0409711599349976,"220":1.3062540292739868,"221":-2.4069700241088867,"222":-0.19589434564113617,"223":-1.1130874156951904,"224":0.2430879771709442,"225":-0.35971471667289734,"226":0.4653777778148651,"227":-0.19976806640625,"228":0.6319183111190796,"229":1.0925050973892212,"230":-2.705667734146118,"231":-2.422133445739746,"232":-1.4435774087905884,"233":0.020575731992721558,"234":-1.863548755645752,"235":0.27137792110443115,"236":-1.4720577001571655,"237":-2.078578233718872,"238":-2.624009847640991,"239":-0.3468925952911377,"240":0.803611159324646,"241":1.6358387470245361,"242":-1.416365146636963,"243":1.140735387802124,"244":1.1555595397949219,"245":0.4716632068157196,"246":-0.3840538263320923,"247":-1.6032452583312988,"248":0.3835260272026062,"249":0.7109892964363098,"250":-0.9684475064277649,"251":-1.5502768754959106,"252":1.0642640590667725,"253":-0.7636047005653381,"254":0.5270829796791077,"255":-0.32900676131248474,"256":0.0922892838716507,"257":3.1346888542175293,"258":-2.3513951301574707,"259":2.05495548248291,"260":0.319002628326416,"261":-1.1750600337982178,"262":2.0136947631835938,"263":-2.2352681159973145,"264":-0.4233926832675934,"265":-1.2795541286468506,"266":-0.06823659688234329,"267":0.1993693858385086,"268":2.7035696506500244,"269":-0.31386294960975647,"270":0.520418643951416,"271":-0.6369123458862305,"272":-1.220079779624939,"273":-1.5280956029891968,"274":-1.4720659255981445,"275":-0.4135889410972595,"276":-0.6834901571273804,"277":1.1028869152069092,"278":-0.9002503156661987,"279":-0.4341142475605011,"280":0.3399883210659027,"281":2.3323066234588623,"282":-0.603061318397522,"283":-0.4035101532936096,"284":2.7405614852905273,"285":0.2881070375442505,"286":0.2180955708026886,"287":4.300390720367432,"288":-2.551920175552368,"289":-0.7972366213798523,"290":-0.36767253279685974,"291":0.15710537135601044,"292":-0.8123631477355957,"293":1.296377182006836,"294":-1.7599953413009644,"295":-1.0129265785217285,"296":-0.483734667301178,"297":2.328416109085083,"298":-1.4354047775268555,"299":0.8560847640037537,"300":2.2196857929229736,"301":-3.0049891471862793,"302":0.4261036813259125,"303":0.7584751844406128,"304":1.688005805015564,"305":-0.9130722880363464,"306":-1.8483043909072876,"307":-1.8616156578063965,"308":2.1309828758239746,"309":1.740665316581726,"310":-0.15031355619430542,"311":-0.8315723538398743,"312":-0.5497879385948181,"313":-0.03883764147758484,"314":-1.3291540145874023,"315":-3.2056005001068115,"316":-0.7957708239555359,"317":-0.5377109050750732,"318":0.26196712255477905,"319":-0.6082096695899963,"320":0.6422132253646851,"321":0.04142962396144867,"322":-0.9539071321487427,"323":-0.8499560952186584,"324":0.06849291920661926,"325":-1.72745680809021,"326":-2.904113292694092,"327":1.3089426755905151,"328":0.21655535697937012,"329":2.615828275680542,"330":0.33974531292915344,"331":-0.7395833730697632,"332":-1.2172893285751343,"333":-3.078230142593384,"334":-1.4463999271392822,"335":-0.8310177326202393,"336":-0.07732135057449341,"337":0.3924351930618286,"338":-1.3975967168807983,"339":-0.899533212184906,"340":0.8361696004867554,"341":1.0707297325134277,"342":-0.7482432126998901,"343":0.40656667947769165,"344":2.1015708446502686,"345":1.4071303606033325,"346":-0.518890380859375,"347":-0.20114780962467194,"348":-0.3248814642429352,"349":1.0856372117996216,"350":-1.6942248344421387,"351":0.12029608339071274,"352":1.4584941864013672,"353":0.17370569705963135,"354":0.10914086550474167,"355":0.9765806794166565,"356":-0.6766173839569092,"357":1.7440823316574097,"358":-0.8947264552116394,"359":0.7817586660385132,"360":-1.4004532098770142,"361":-2.2593657970428467,"362":1.2609330415725708,"363":0.12905777990818024,"364":1.5668386220932007,"365":1.298167109489441,"366":2.7953314781188965,"367":-1.6986238956451416,"368":-1.510788917541504,"369":-1.7129788398742676,"370":-0.7428297996520996,"371":2.8425216674804688,"372":0.9851937294006348,"373":3.915022611618042,"374":0.4552265405654907,"375":-0.464000940322876,"376":-0.16877062618732452,"377":0.4691333472728729,"378":-4.331912994384766,"379":-0.5043348073959351,"380":0.8327770829200745,"381":0.7814706563949585,"382":-0.9799323678016663,"383":1.5118259191513062,"384":0.4048144519329071,"385":1.3029650449752808,"386":1.5065572261810303,"387":-2.6510918140411377,"388":-0.988148033618927,"389":-1.3640459775924683,"390":-1.6769824028015137,"391":-1.0146979093551636,"392":0.7479313611984253,"393":1.6729260683059692,"394":-0.5929505228996277,"395":1.5560382604599,"396":-1.4212982654571533,"397":-1.0380408763885498,"398":-0.21938319504261017,"399":-0.4278426766395569}},"cellActivationBias":{"rows":20,"columns":1,"weights":{"0":0.5081961750984192,"1":3.0536417961120605,"2":-0.9989627003669739,"3":-0.8679602146148682,"4":2.2426235675811768,"5":-0.7795518040657043,"6":-0.5322460532188416,"7":-1.351879358291626,"8":0.8029181361198425,"9":2.5640416145324707,"10":-2.5838229656219482,"11":1.4959650039672852,"12":0.36963894963264465,"13":-2.048145294189453,"14":-2.3260512351989746,"15":-1.0217257738113403,"16":-0.4833655059337616,"17":1.224603295326233,"18":-0.14098146557807922,"19":2.6450791358947754}}},{"inputMatrix":{"rows":10,"columns":20,"weights":{"0":3.904866933822632,"1":-1.0176934003829956,"2":1.0107743740081787,"3":-1.4325361251831055,"4":3.2530882358551025,"5":4.3302388191223145,"6":0.5699045062065125,"7":1.27496337890625,"8":2.947021007537842,"9":2.270831823348999,"10":-6.515010356903076,"11":2.9193522930145264,"12":-0.8738498687744141,"13":-2.717904567718506,"14":-3.3811185359954834,"15":2.945070743560791,"16":-0.29092010855674744,"17":1.326024055480957,"18":-6.947659492492676,"19":-0.8940392732620239,"20":-2.2503600120544434,"21":-2.872945785522461,"22":1.6263705492019653,"23":0.3375866711139679,"24":1.377455711364746,"25":1.2640461921691895,"26":-1.504423975944519,"27":-0.24909420311450958,"28":4.419473171234131,"29":-1.5447131395339966,"30":-1.578429102897644,"31":4.070953369140625,"32":0.9949640035629272,"33":0.431037038564682,"34":-6.555692195892334,"35":-1.1116591691970825,"36":0.5747190713882446,"37":-3.0294463634490967,"38":-3.3293192386627197,"39":0.3458824157714844,"40":1.5003694295883179,"41":4.106126308441162,"42":0.7245121598243713,"43":-3.281712055206299,"44":2.0451462268829346,"45":-0.0007233491051010787,"46":-5.233321189880371,"47":-0.0419996939599514,"48":1.9609230756759644,"49":8.16450023651123,"50":-1.9776558876037598,"51":4.39170503616333,"52":-1.2940125465393066,"53":2.9356744289398193,"54":-4.070934295654297,"55":-3.665408134460449,"56":3.9331159591674805,"57":-4.891258239746094,"58":-0.5783163905143738,"59":0.19608034193515778,"60":-1.6197618246078491,"61":2.7507200241088867,"62":1.718698263168335,"63":-3.913465738296509,"64":4.0063982009887695,"65":-1.2579624652862549,"66":-4.3651347160339355,"67":5.398553848266602,"68":1.0794659852981567,"69":2.5029194355010986,"70":7.8456902503967285,"71":2.54374361038208,"72":-2.7047765254974365,"73":-1.3184893131256104,"74":-3.0512962341308594,"75":2.927360773086548,"76":0.8413764834403992,"77":-3.8151373863220215,"78":-5.709667682647705,"79":5.331169128417969,"80":-2.0118160247802734,"81":-3.2327022552490234,"82":3.165349006652832,"83":3.1445536613464355,"84":-2.1535303592681885,"85":1.081657886505127,"86":2.44765043258667,"87":3.6882503032684326,"88":-4.350820541381836,"89":-3.395519733428955,"90":1.7216463088989258,"91":-3.5553040504455566,"92":3.1485347747802734,"93":-0.8937131762504578,"94":1.4875775575637817,"95":0.9443185329437256,"96":1.4572765827178955,"97":0.5579578876495361,"98":-1.4489353895187378,"99":-0.72322678565979,"100":1.2025628089904785,"101":-2.5405995845794678,"102":-5.462957859039307,"103":3.1270859241485596,"104":2.3536620140075684,"105":2.3597068786621094,"106":1.7811490297317505,"107":-2.163757562637329,"108":-1.3329681158065796,"109":-2.1908159255981445,"110":4.371790409088135,"111":9.365001678466797,"112":0.7787438631057739,"113":10.6140718460083,"114":1.4809906482696533,"115":1.6997727155685425,"116":0.1074954941868782,"117":-1.4237147569656372,"118":-7.58734655380249,"119":7.042484283447266,"120":0.8644118905067444,"121":-6.111931800842285,"122":-0.7905039191246033,"123":-2.1609251499176025,"124":0.7793886065483093,"125":0.5142793655395508,"126":-12.625899314880371,"127":-3.0810980796813965,"128":-1.5350031852722168,"129":1.0638965368270874,"130":-4.719836711883545,"131":-0.5030443668365479,"132":-2.614490032196045,"133":0.7869517207145691,"134":2.0009846687316895,"135":-1.3020347356796265,"136":3.117824077606201,"137":-3.152824640274048,"138":-0.3277422785758972,"139":1.9374016523361206,"140":1.6193833351135254,"141":-3.9101521968841553,"142":-1.0085618495941162,"143":-2.094287395477295,"144":5.048736572265625,"145":0.8189603090286255,"146":-8.825438499450684,"147":1.590313196182251,"148":-3.2782838344573975,"149":-2.2432520389556885,"150":3.968986749649048,"151":0.5643564462661743,"152":-3.256319522857666,"153":-0.9903079271316528,"154":3.129181385040283,"155":3.9874370098114014,"156":-5.933274745941162,"157":0.4020945727825165,"158":1.6069697141647339,"159":-5.872595310211182,"160":-3.076089859008789,"161":-3.0350148677825928,"162":-1.5429515838623047,"163":-3.3075926303863525,"164":-3.5495376586914062,"165":0.09949926286935806,"166":-4.444309711456299,"167":2.6671762466430664,"168":-0.2988828420639038,"169":0.3097033202648163,"170":-3.980536460876465,"171":1.4750124216079712,"172":-2.3841192722320557,"173":-1.2299206256866455,"174":2.044124126434326,"175":3.4371256828308105,"176":2.0892906188964844,"177":-3.0427258014678955,"178":6.8494157791137695,"179":-6.259422302246094,"180":1.1056556701660156,"181":3.4379937648773193,"182":-1.250492811203003,"183":0.4142041802406311,"184":0.4667952060699463,"185":2.4904165267944336,"186":2.717991352081299,"187":-5.721241474151611,"188":-2.541090965270996,"189":1.960931420326233,"190":0.5447153449058533,"191":6.017080783843994,"192":1.072327733039856,"193":6.9277167320251465,"194":-0.5781428217887878,"195":2.1639370918273926,"196":1.8002499341964722,"197":1.892924189567566,"198":-5.208979606628418,"199":-4.445254802703857}},