{"type":"LSTM","options":{"inputSize":20,"inputRange":20,"hiddenLayers":[10,20,10],"outputSize":20,"decayRate":0.999,"smoothEps":1e-8,"regc":0.000001,"clipval":5,"maxPredictionLength":100,"dataFormatter":{"indexTable":{"i":0,"d":1,"a":2,"g":3,"n":4,"ä":5,"r":6," ":7,"v":8,"e":9,"b":10,"t":11,"k":12,"l":13,"s":14,"u":15,"m":16,"stop-input":17,"start-output":18,"unrecognized":19},"characterTable":{"0":"i","1":"d","2":"a","3":"g","4":"n","5":"ä","6":"r","7":" ","8":"v","9":"e","10":"b","11":"t","12":"k","13":"l","14":"s","15":"u","16":"m","17":null,"18":null,"19":null},"values":[["i","d","a","g"],["n","ä","r"," ","v","a","r","e"," ","d","e","b","a","t","t","a","r","t","i","k","e","l","s","a","k","e","n"," ","s","k","u","l","l","e"," ","v","a","r","a"," ","i","n","l","ä","m","n","a","d"]],"characters":["i","d","a","g","n","ä","r"," ","v","e","b","t","k","l","s","u","m","stop-input","start-output","unrecognized"],"specialIndexes":[17,18,19]}},"input":{"rows":21,"columns":20,"weights":{"0":-0.7801001071929932,"1":0.2667067050933838,"2":-0.11237134784460068,"3":0.209542915225029,"4":0.06026400625705719,"5":0.16833755373954773,"6":0.05624615401029587,"7":-0.6246118545532227,"8":-0.517321765422821,"9":-0.1904495656490326,"10":0.41074249148368835,"11":0.1311730146408081,"12":-0.10557561367750168,"13":0.04387040063738823,"14":-0.1120034009218216,"15":-0.39433035254478455,"16":-0.14480307698249817,"17":-0.23181761801242828,"18":0.19480445981025696,"19":-0.10874304175376892,"20":-0.7776470184326172,"21":0.7762336134910583,"22":0.06412232667207718,"23":-0.3120179772377014,"24":-0.2139974981546402,"25":0.1995888650417328,"26":0.49334168434143066,"27":-0.041483160108327866,"28":-0.0035922646056860685,"29":-0.06022028997540474,"30":0.6819266080856323,"31":0.0541374646127224,"32":-0.21683427691459656,"33":-0.013928615488111973,"34":0.34002578258514404,"35":-0.12420892715454102,"36":-0.18524911999702454,"37":-0.08618483692407608,"38":0.3145079016685486,"39":-0.11486003547906876,"40":1.5298229455947876,"41":-1.1255601644515991,"42":1.6653534173965454,"43":-1.6293638944625854,"44":-0.6919581890106201,"45":0.03469004109501839,"46":0.2136685699224472,"47":0.6163953542709351,"48":-0.9849392175674438,"49":1.602953553199768,"50":-1.8379143476486206,"51":-1.4755851030349731,"52":0.26880377531051636,"53":1.0735167264938354,"54":3.2551467418670654,"55":0.17705191671848297,"56":-0.5207229852676392,"57":1.1390284299850464,"58":-3.184968948364258,"59":-0.444624662399292,"60":0.09847566485404968,"61":-0.42929235100746155,"62":0.632075846195221,"63":-0.23538051545619965,"64":-2.050516366958618,"65":0.7099863886833191,"66":-1.722007393836975,"67":0.16911593079566956,"68":0.4015284776687622,"69":1.3872712850570679,"70":-0.8489252924919128,"71":-0.43318402767181396,"72":-0.6015489101409912,"73":0.7614540457725525,"74":-0.661985456943512,"75":-0.39478540420532227,"76":1.5665596723556519,"77":0.12199544906616211,"78":-0.6906667947769165,"79":1.7796841859817505,"80":-1.2369378805160522,"81":0.11266757547855377,"82":-0.7625921368598938,"83":1.044121265411377,"84":-0.01103173103183508,"85":-0.16796794533729553,"86":-0.3072264790534973,"87":-2.151304244995117,"88":1.5266016721725464,"89":-1.038100242614746,"90":0.8566986322402954,"91":0.7247222661972046,"92":0.6660873889923096,"93":0.7241736650466919,"94":-0.4252943992614746,"95":1.6595640182495117,"96":0.4024029076099396,"97":-0.8956429958343506,"98":1.279799222946167,"99":-0.47046777606010437,"100":0.3406080901622772,"101":0.08668291568756104,"102":1.055704951286316,"103":-1.1493847370147705,"104":-0.5138572454452515,"105":1.3143008947372437,"106":-0.031391698867082596,"107":-0.10020742565393448,"108":-0.9385005235671997,"109":0.04681546613574028,"110":1.2286601066589355,"111":-0.9354789853096008,"112":-1.0377508401870728,"113":0.19228370487689972,"114":0.10011043399572372,"115":-0.609196662902832,"116":0.636471688747406,"117":0.9488400220870972,"118":-0.19322176277637482,"119":0.9931303262710571,"120":-1.0394090414047241,"121":0.4252361059188843,"122":0.7374503016471863,"123":-0.7098866701126099,"124":-0.5840700268745422,"125":2.0183908939361572,"126":0.6094409823417664,"127":-1.092808485031128,"128":-1.0037014484405518,"129":-0.8048416376113892,"130":1.3530961275100708,"131":-1.3084028959274292,"132":-2.036595106124878,"133":-0.44784802198410034,"134":0.636958658695221,"135":-1.2290706634521484,"136":0.2366224229335785,"137":1.2217241525650024,"138":0.5820990800857544,"139":1.1486560106277466,"140":1.1326383352279663,"141":-1.8183873891830444,"142":0.158554807305336,"143":0.027013195678591728,"144":-1.4344654083251953,"145":0.1176181212067604,"146":-1.945659875869751,"147":0.3732623755931854,"148":0.05686434730887413,"149":1.1613402366638184,"150":-0.742320716381073,"151":-0.2589479386806488,"152":-0.3319820165634155,"153":1.4995837211608887,"154":0.4438139498233795,"155":-0.33505281805992126,"156":0.9585129022598267,"157":0.15234635770320892,"158":-1.2552303075790405,"159":0.7055215239524841,"160":-0.830035388469696,"161":0.7027000188827515,"162":-0.7172476649284363,"163":0.6042382717132568,"164":0.8209638595581055,"165":-0.9279303550720215,"166":0.9899478554725647,"167":-1.137453556060791,"168":0.8962214589118958,"169":-0.5391206741333008,"170":0.7385218143463135,"171":0.6594698429107666,"172":0.8572846055030823,"173":-0.915722131729126,"174":-0.5978729128837585,"175":1.1417042016983032,"176":-0.8693716526031494,"177":-0.6398746371269226,"178":1.2504416704177856,"179":-0.7312572598457336,"180":0.024924233555793762,"181":-0.9619452357292175,"182":1.7753715515136719,"183":-1.2376914024353027,"184":-0.44186973571777344,"185":0.5549283027648926,"186":-0.4991177022457123,"187":0.05471198260784149,"188":-0.8891275525093079,"189":0.32172390818595886,"190":0.17224757373332977,"191":-2.0407729148864746,"192":-0.3965603709220886,"193":0.512463390827179,"194":0.5900982618331909,"195":-0.24763517081737518,"196":1.0708767175674438,"197":1.6657054424285889,"198":-0.6806212663650513,"199":1.304492473602295,"200":0.6574362516403198,"201":-0.8921459317207336,"202":1.9939789772033691,"203":-1.4942668676376343,"204":-0.6242226362228394,"205":1.1504831314086914,"206":-0.8366300463676453,"207":1.1315423250198364,"208":-0.35061898827552795,"209":0.18540194630622864,"210":0.6847824454307556,"211":-2.0566978454589844,"212":-0.8888064026832581,"213":1.2923407554626465,"214":0.6672806739807129,"215":-0.255003958940506,"216":1.6704630851745605,"217":1.5380877256393433,"218":-0.29746660590171814,"219":2.097679615020752,"220":-0.8143698573112488,"221":0.23277118802070618,"222":0.13084085285663605,"223":-0.6539456844329834,"224":-0.016089167445898056,"225":0.4667421877384186,"226":0.13074123859405518,"227":-0.18068963289260864,"228":0.2546595335006714,"229":0.5525616407394409,"230":0.28556063771247864,"231":0.08263880759477615,"232":-1.026307463645935,"233":-0.06336844712495804,"234":-1.0595064163208008,"235":0.26659029722213745,"236":-0.8503482937812805,"237":0.8771659135818481,"238":0.6869295239448547,"239":0.41131046414375305,"240":-0.2532167434692383,"241":-0.12897251546382904,"242":1.9031051397323608,"243":-1.8848049640655518,"244":0.20561377704143524,"245":2.2089028358459473,"246":0.4396181106567383,"247":-1.0070490837097168,"248":-1.3427042961120605,"249":-0.293790340423584,"250":1.2307372093200684,"251":-2.3275601863861084,"252":-2.189035177230835,"253":0.015590634196996689,"254":0.7858479022979736,"255":-0.22249053418636322,"256":-0.3829624652862549,"257":2.183729648590088,"258":0.5970707535743713,"259":1.5326683521270752,"260":-0.5665065050125122,"261":0.4969443380832672,"262":-0.03653264418244362,"263":-0.21570166945457458,"264":0.5887663960456848,"265":0.828711986541748,"266":0.38917720317840576,"267":-0.37814265489578247,"268":0.604035496711731,"269":-1.363264799118042,"270":1.5872958898544312,"271":0.09645447134971619,"272":0.0034920356702059507,"273":-0.6033034920692444,"274":-1.2345876693725586,"275":-0.029619332402944565,"276":-0.33870282769203186,"277":-0.019640091806650162,"278":0.5232390761375427,"279":-0.1483084112405777,"280":0.29172849655151367,"281":0.633807897567749,"282":0.06066808104515076,"283":-0.01734377071261406,"284":-0.5967148542404175,"285":0.7496147751808167,"286":-0.2678301930427551,"287":0.4616950452327728,"288":-0.10124756395816803,"289":0.0591251477599144,"290":-0.47890156507492065,"291":-0.1505906879901886,"292":-0.7620072364807129,"293":-0.024441197514533997,"294":-0.2918301820755005,"295":-0.8816267251968384,"296":0.13622410595417023,"297":-0.0596555732190609,"298":-0.653404712677002,"299":0.1679157018661499,"300":-0.9158065319061279,"301":1.3704257011413574,"302":1.3061209917068481,"303":-1.7635241746902466,"304":0.006495701149106026,"305":1.6930919885635376,"306":0.8419257402420044,"307":-1.4340556859970093,"308":-1.26498544216156,"309":-1.540022850036621,"310":1.2355015277862549,"311":-1.801392912864685,"312":-1.7124475240707397,"313":-1.3852570056915283,"314":0.7618017792701721,"315":-1.3097139596939087,"316":0.3420441448688507,"317":1.5300967693328857,"318":0.45601871609687805,"319":0.47767260670661926,"320":-0.36094024777412415,"321":1.2065880298614502,"322":0.23740258812904358,"323":-0.27659696340560913,"324":-0.11513519287109375,"325":0.2015230506658554,"326":0.6206772923469543,"327":-0.6886636018753052,"328":0.27095890045166016,"329":-0.3622339963912964,"330":-0.21043574810028076,"331":-0.11798073351383209,"332":-0.2426152229309082,"333":-0.06930799782276154,"334":0.06455085426568985,"335":-0.05003081634640694,"336":0.9789141416549683,"337":-0.07278451323509216,"338":0.3981875777244568,"339":0.47994765639305115,"340":0.05503983050584793,"341":1.9561984539031982,"342":-1.4657273292541504,"343":1.1728565692901611,"344":2.3802332878112793,"345":-1.4047372341156006,"346":1.8196613788604736,"347":0.042499929666519165,"348":0.42271462082862854,"349":-0.9160825610160828,"350":0.9703117609024048,"351":1.54818594455719,"352":1.646466612815857,"353":-2.3374359607696533,"354":-2.1727194786071777,"355":0.4055638313293457,"356":-2.3743789196014404,"357":-1.4230490922927856,"358":0.9383288025856018,"359":-2.0590507984161377,"360":0.3473627269268036,"361":2.73905348777771,"362":-2.277620553970337,"363":2.1609554290771484,"364":2.9447290897369385,"365":-1.7763540744781494,"366":2.5414013862609863,"367":0.22667540609836578,"368":-0.17769744992256165,"369":-2.3295884132385254,"370":0.4800299108028412,"371":2.3518593311309814,"372":1.8687154054641724,"373":-3.2153618335723877,"374":-2.0155203342437744,"375":0.49501463770866394,"376":-3.224684238433838,"377":-2.482433795928955,"378":-0.24336138367652893,"379":-2.99578595161438,"380":0.8312962651252747,"381":-1.243398904800415,"382":0.27120205760002136,"383":-0.026172123849391937,"384":-1.4812140464782715,"385":0.01225357037037611,"386":-2.328242540359497,"387":0.9132079482078552,"388":-0.26467636227607727,"389":1.2926603555679321,"390":-1.1136094331741333,"391":-0.1178414523601532,"392":-0.26269692182540894,"393":0.6798931360244751,"394":0.4499608874320984,"395":-0.5376221537590027,"396":0.8341602087020874,"397":0.22046327590942383,"398":-0.7966453433036804,"399":0.7027077078819275,"400":0.05265934020280838,"401":0.29864054918289185,"402":-0.2838842272758484,"403":0.28896620869636536,"404":0.5355488657951355,"405":-0.1324509084224701,"406":-0.08051194250583649,"407":0.2041691243648529,"408":-0.09603301435709,"409":-0.12044920772314072,"410":0.08153750002384186,"411":0.3374232053756714,"412":0.21571320295333862,"413":-0.42886754870414734,"414":-0.4376665949821472,"415":0.052688512951135635,"416":-0.46706995368003845,"417":-0.12056872248649597,"418":-0.01625199429690838,"419":-0.5296178460121155}},"hiddenLayers":[{"inputMatrix":{"rows":10,"columns":20,"weights":{"0":0.48523858189582825,"1":-0.5587098002433777,"2":0.6707805395126343,"3":-0.9278761744499207,"4":-0.4494788646697998,"5":0.5527961850166321,"6":-0.7144346237182617,"7":1.0126726627349854,"8":-0.3521084487438202,"9":1.1782543659210205,"10":-1.1419429779052734,"11":-0.6472718715667725,"12":-1.1668709516525269,"13":0.33990034461021423,"14":0.12450539320707321,"15":0.19831758737564087,"16":0.19473926723003387,"17":1.5600792169570923,"18":-0.41275495290756226,"19":0.597954511642456,"20":-0.5879548192024231,"21":-0.22700849175453186,"22":-0.345826655626297,"23":0.5020830631256104,"24":-0.5926152467727661,"25":0.4502362310886383,"26":-1.1580517292022705,"27":-0.38663023710250854,"28":0.4952172338962555,"29":-0.3183908462524414,"30":0.7254728674888611,"31":0.36329343914985657,"32":-0.7948974370956421,"33":0.25778433680534363,"34":-0.6331220865249634,"35":-0.6993001103401184,"36":1.0925055742263794,"37":-0.15079234540462494,"38":1.032887578010559,"39":0.9720408320426941,"40":0.7638416886329651,"41":-0.07253818213939667,"42":0.8295536637306213,"43":-0.7332626581192017,"44":-0.10190291702747345,"45":1.3895270824432373,"46":-0.6133850812911987,"47":0.6478328108787537,"48":-0.6883491277694702,"49":-0.05242105945944786,"50":0.4923047125339508,"51":-0.8980316519737244,"52":-0.8701081871986389,"53":-0.23846562206745148,"54":-0.0007018344476819038,"55":-1.2213752269744873,"56":0.16228070855140686,"57":0.8049380779266357,"58":-0.7976757884025574,"59":0.5568386912345886,"60":-0.28179726004600525,"61":0.2609906792640686,"62":0.4342271685600281,"63":-0.585692822933197,"64":0.42651841044425964,"65":0.6376491785049438,"66":0.5453430414199829,"67":-0.5428355932235718,"68":-0.6238898038864136,"69":-0.41842710971832275,"70":0.22655662894248962,"71":-0.4681347608566284,"72":-0.6569423675537109,"73":-0.2747834622859955,"74":-0.11444360017776489,"75":0.05682460218667984,"76":-0.20441514253616333,"77":0.6962918043136597,"78":0.4067721366882324,"79":0.04214031994342804,"80":-0.051269832998514175,"81":-0.39348143339157104,"82":1.3420416116714478,"83":-1.245553970336914,"84":-1.0840415954589844,"85":1.337477445602417,"86":-0.4901374876499176,"87":-0.2224605530500412,"88":-0.3849174976348877,"89":0.11926775425672531,"90":0.8772174715995789,"91":-1.3267267942428589,"92":-1.134350299835205,"93":0.46991488337516785,"94":0.587268054485321,"95":-1.7067844867706299,"96":0.3924354612827301,"97":0.38300734758377075,"98":-0.759126603603363,"99":1.0743540525436401,"100":0.4939826428890228,"101":0.5245229005813599,"102":-0.7432906031608582,"103":0.6923067569732666,"104":0.8405634760856628,"105":-0.47769248485565186,"106":0.266389399766922,"107":0.08283652365207672,"108":-0.06603071093559265,"109":-0.42674142122268677,"110":0.1011630967259407,"111":0.7216389775276184,"112":0.6637908220291138,"113":-0.6775201559066772,"114":-0.8785238862037659,"115":0.2651650011539459,"116":-0.5532312393188477,"117":-0.7341659665107727,"118":-0.09997714310884476,"119":-0.7215679287910461,"120":2.005594253540039,"121":-2.088472366333008,"122":0.6896635890007019,"123":-0.4944753050804138,"124":-0.5017157196998596,"125":0.49842482805252075,"126":-1.6978944540023804,"127":0.3721281886100769,"128":-1.3786803483963013,"129":0.12147656828165054,"130":-0.6814444065093994,"131":-0.8148875832557678,"132":-0.629185140132904,"133":0.4911244511604309,"134":0.5593211650848389,"135":-0.800728976726532,"136":0.3172217011451721,"137":0.8338646292686462,"138":-1.7722225189208984,"139":0.2366541624069214,"140":-0.5394620299339294,"141":-0.037574637681245804,"142":-0.15744464099407196,"143":0.300760418176651,"144":-0.6462370157241821,"145":0.5077568292617798,"146":-0.6018404364585876,"147":-0.3372364342212677,"148":-0.4956683814525604,"149":0.04496246948838234,"150":-0.23851324617862701,"151":0.2884610891342163,"152":-0.6573584675788879,"153":-0.2530618906021118,"154":-0.4174097776412964,"155":-0.7224292159080505,"156":0.4234069883823395,"157":-0.12270035594701767,"158":0.1024295836687088,"159":0.4307662546634674,"160":-0.27854034304618835,"161":0.41964101791381836,"162":0.6346789002418518,"163":-0.7743571996688843,"164":-0.07302163541316986,"165":1.3374828100204468,"166":0.29306381940841675,"167":-0.3045436143875122,"168":-0.4136160910129547,"169":-0.1282500922679901,"170":0.6557431221008301,"171":-0.612058699131012,"172":-0.9898748397827148,"173":-0.20687977969646454,"174":0.174549862742424,"175":-0.9964645504951477,"176":0.13384969532489777,"177":0.3813825845718384,"178":0.009938381612300873,"179":0.37370994687080383,"180":-1.0967352390289307,"181":-0.07177229225635529,"182":0.3449484407901764,"183":-0.4810655415058136,"184":0.25879645347595215,"185":0.8660169839859009,"186":0.2679067850112915,"187":-1.0909684896469116,"188":-0.15070897340774536,"189":-0.5440698862075806,"190":1.160814881324768,"191":-0.6203092932701111,"192":-0.8498042225837708,"193":-0.0942935049533844,"194":-0.2756314277648926,"195":-0.19742457568645477,"196":0.2887817621231079,"197":0.7996479272842407,"198":0.7660792469978333,"199":0.5844337940216064}},"inputHidden":{"rows":10,"columns":10,"weights":{"0":0.8137202858924866,"1":0.6235666275024414,"2":0.767821192741394,"3":-1.537693977355957,"4":-0.6338006258010864,"5":1.1697274446487427,"6":-0.60306316614151,"7":0.17644701898097992,"8":-0.8230783939361572,"9":-0.934619128704071,"10":-1.1800189018249512,"11":-1.389710783958435,"12":1.0221149921417236,"13":0.33791184425354004,"14":-0.24419546127319336,"15":1.6451057195663452,"16":-1.2979388236999512,"17":0.8372987508773804,"18":-0.8463722467422485,"19":-1.3548433780670166,"20":-0.3353358507156372,"21":0.0941818505525589,"22":1.0633500814437866,"23":-0.0777849406003952,"24":-0.17615605890750885,"25":0.39037638902664185,"26":-0.7388613820075989,"27":0.3049377501010895,"28":-1.0381748676300049,"29":-0.7639134526252747,"30":0.3260607123374939,"31":1.6104202270507812,"32":-1.3940632343292236,"33":-0.6317078471183777,"34":1.6672745943069458,"35":1.5768029689788818,"36":1.4351096153259277,"37":-0.7376703023910522,"38":1.288039207458496,"39":1.6769697666168213,"40":0.48293185234069824,"41":0.9222612977027893,"42":0.10904521495103836,"43":-1.3474552631378174,"44":-0.732698917388916,"45":1.2042880058288574,"46":0.04798087850213051,"47":0.15170376002788544,"48":-0.07143211364746094,"49":-0.36669912934303284,"50":0.29131177067756653,"51":0.29343539476394653,"52":-1.5360363721847534,"53":-0.47184985876083374,"54":1.2692596912384033,"55":0.6124283671379089,"56":1.3671636581420898,"57":-0.4370514750480652,"58":1.40786874294281,"59":1.2000595331192017,"60":0.4722837507724762,"61":-1.3492032289505005,"62":1.3110711574554443,"63":-0.9943852424621582,"64":-0.8867520689964294,"65":-0.2289116233587265,"66":-1.1510746479034424,"67":1.2241564989089966,"68":-1.4418506622314453,"69":-1.5694228410720825,"70":-1.2858582735061646,"71":1.8771456480026245,"72":-0.7485706806182861,"73":0.6577396392822266,"74":0.31746822595596313,"75":1.6044974327087402,"76":0.8880957365036011,"77":-0.7995226979255676,"78":0.6636572480201721,"79":1.1908997297286987,"80":0.6177054047584534,"81":0.012826823629438877,"82":0.9635800123214722,"83":0.46573296189308167,"84":-0.26532799005508423,"85":0.20157666504383087,"86":-0.8626815676689148,"87":-0.3292830288410187,"88":-0.9753222465515137,"89":-0.8499581813812256,"90":0.8613473176956177,"91":1.1832302808761597,"92":-0.23413541913032532,"93":-3.1129472255706787,"94":-2.12093186378479,"95":-0.43358734250068665,"96":0.3205684721469879,"97":-0.5614326000213623,"98":0.08462037146091461,"99":-0.7920585870742798}},"inputBias":{"rows":10,"columns":1,"weights":{"0":0.6115607619285583,"1":2.287454605102539,"2":-0.7485889792442322,"3":1.309680461883545,"4":0.03917575255036354,"5":0.22433821856975555,"6":0.1574317067861557,"7":-0.5446200966835022,"8":-0.6160974502563477,"9":0.44822534918785095}},"forgetMatrix":{"rows":10,"columns":20,"weights":{"0":-0.9303054213523865,"1":1.2900432348251343,"2":-0.4065583646297455,"3":0.24338041245937347,"4":0.3600136935710907,"5":-0.060234434902668,"6":1.0591557025909424,"7":-0.580857515335083,"8":0.5949963331222534,"9":-0.6171660423278809,"10":0.27696219086647034,"11":0.4689500033855438,"12":0.38617563247680664,"13":-1.0081167221069336,"14":-0.14407745003700256,"15":0.27414751052856445,"16":-0.3027575612068176,"17":-0.4800911247730255,"18":0.7133498191833496,"19":-0.4343392848968506,"20":1.273594856262207,"21":-1.0363085269927979,"22":1.1058014631271362,"23":-1.211106777191162,"24":1.2523653507232666,"25":0.005936892237514257,"26":-0.6145376563072205,"27":1.8381141424179077,"28":0.23946914076805115,"29":1.3915923833847046,"30":-0.5832807421684265,"31":-0.7502803802490234,"32":0.4867073595523834,"33":1.3773362636566162,"34":-0.7298720479011536,"35":1.2786293029785156,"36":-0.24123623967170715,"37":1.4056819677352905,"38":0.8282625079154968,"39":0.5577892661094666,"40":-0.27094766497612,"41":0.20339179039001465,"42":0.3931836187839508,"43":-0.7382454872131348,"44":0.01112736389040947,"45":1.209064245223999,"46":0.15787214040756226,"47":-0.11076321452856064,"48":0.24693162739276886,"49":0.17174144089221954,"50":0.21387863159179688,"51":-0.396864652633667,"52":-0.652260959148407,"53":-0.1712426096200943,"54":-0.1489812284708023,"55":-0.08329493552446365,"56":-0.048172250390052795,"57":0.5739191174507141,"58":0.7413281202316284,"59":0.2553771734237671,"60":-0.5920254588127136,"61":0.4654395580291748,"62":-0.6280953884124756,"63":0.6367582082748413,"64":0.5436185598373413,"65":-0.4538540840148926,"66":0.5910800099372864,"67":-0.7211077213287354,"68":0.9230489134788513,"69":-0.4731561541557312,"70":-0.17785963416099548,"71":0.6534097790718079,"72":0.32201114296913147,"73":-0.2820310592651367,"74":-0.44646039605140686,"75":0.5342864394187927,"76":-0.5968058109283447,"77":-0.5220750570297241,"78":0.5208421945571899,"79":-0.6341116428375244,"80":-0.7342895865440369,"81":0.4751308262348175,"82":0.8689613938331604,"83":-1.0730568170547485,"84":-0.4010118842124939,"85":1.7082725763320923,"86":0.5751703977584839,"87":-0.3463274836540222,"88":-0.5657684206962585,"89":-0.09056774526834488,"90":-0.057433344423770905,"91":-0.9097569584846497,"92":-1.3404459953308105,"93":0.00007830218237359077,"94":0.7297577261924744,"95":-0.8031501173973083,"96":0.48730289936065674,"97":1.3489022254943848,"98":0.5833445191383362,"99":0.9112913608551025,"100":-0.22986645996570587,"101":0.32041919231414795,"102":-1.1465325355529785,"103":1.0240355730056763,"104":0.5407816767692566,"105":-0.5353732109069824,"106":0.13228486478328705,"107":-0.35662609338760376,"108":0.4616255760192871,"109":-0.5435153841972351,"110":0.43530920147895813,"111":1.4199860095977783,"112":0.2975504398345947,"113":-0.5812324285507202,"114":-0.34269723296165466,"115":0.5299385786056519,"116":-0.7576504945755005,"117":-0.9611403942108154,"118":0.3666894733905792,"119":-0.987479031085968,"120":0.01018964871764183,"121":-0.6318167448043823,"122":-0.5687236785888672,"123":0.4949309229850769,"124":-0.3186543583869934,"125":-0.38887134194374084,"126":-0.858728289604187,"127":0.44756051898002625,"128":0.8516196608543396,"129":1.1650997400283813,"130":-1.5216435194015503,"131":0.6980143785476685,"132":0.28962206840515137,"133":0.5818338990211487,"134":-0.3371773660182953,"135":0.4685157239437103,"136":-0.1724463403224945,"137":-0.3226702809333801,"138":0.28515613079071045,"139":-0.1925206184387207,"140":-0.5903409719467163,"141":-0.36229825019836426,"142":1.149064064025879,"143":-1.1465234756469727,"144":-0.8375133872032166,"145":0.16012981534004211,"146":0.3479580283164978,"147":-0.020498601719737053,"148":0.4894248843193054,"149":0.5707341432571411,"150":0.6287896633148193,"151":-1.0467915534973145,"152":0.10012942552566528,"153":1.0175955295562744,"154":0.8015890121459961,"155":0.19470840692520142,"156":0.6917873024940491,"157":1.024971842765808,"158":0.4226147532463074,"159":0.9093137979507446,"160":0.19923405349254608,"161":-0.14136093854904175,"162":0.41283297538757324,"163":-0.5217263102531433,"164":-0.10916540771722794,"165":0.8846895098686218,"166":-0.3338557183742523,"167":0.3203906714916229,"168":-0.026245154440402985,"169":0.08318860083818436,"170":-0.27201956510543823,"171":-0.5008277297019958,"172":-0.8283498287200928,"173":-0.03492831066250801,"174":-0.08796840906143188,"175":-0.4613606929779053,"176":-0.04817735776305199,"177":0.898942232131958,"178":0.1934657096862793,"179":0.3740393817424774,"180":-0.3358015716075897,"181":-0.2519720196723938,"182":0.48044896125793457,"183":-0.7641069293022156,"184":-0.3649143576622009,"185":0.6314268112182617,"186":0.036367855966091156,"187":-0.35305652022361755,"188":0.19193913042545319,"189":0.2446749359369278,"190":-0.06838242709636688,"191":-0.5509768724441528,"192":-0.34147486090660095,"193":0.30473417043685913,"194":0.24698521196842194,"195":0.08857449144124985,"196":0.2242472916841507,"197":0.535298228263855,"198":0.3996921479701996,"199":0.5332682132720947}},"forgetHidden":{"rows":10,"columns":10,"weights":{"0":1.9546126127243042,"1":1.0179340839385986,"2":0.10417440533638,"3":1.0581398010253906,"4":-0.3009711503982544,"5":0.018318329006433487,"6":-0.4809506833553314,"7":-0.7106765508651733,"8":0.00701490230858326,"9":-0.11028961092233658,"10":0.9852055907249451,"11":-1.174862027168274,"12":0.03124828077852726,"13":0.4023948609828949,"14":-0.5464885234832764,"15":-0.5099666118621826,"16":-0.07814860343933105,"17":-0.281506210565567,"18":0.053197525441646576,"19":-0.741214394569397,"20":0.2365729808807373,"21":-1.2673664093017578,"22":1.5048178434371948,"23":0.3363366425037384,"24":-0.6274179816246033,"25":-0.16760031878948212,"26":-1.3505513668060303,"27":-0.10837007313966751,"28":-1.4959903955459595,"29":-1.5975173711776733,"30":0.2965603768825531,"31":0.8185757994651794,"32":-0.35935136675834656,"33":-1.2738120555877686,"34":-0.30262288451194763,"35":0.05069809779524803,"36":0.3247973620891571,"37":-0.08063073456287384,"38":0.27026423811912537,"39":0.04527189955115318,"40":0.4360111653804779,"41":0.2954222559928894,"42":0.7839664816856384,"43":-0.29822298884391785,"44":-1.3592392206192017,"45":0.5806084871292114,"46":-0.7594468593597412,"47":-0.6186343431472778,"48":-0.8061922788619995,"49":-0.7640459537506104,"50":-0.31210988759994507,"51":-0.4050859212875366,"52":0.02033393457531929,"53":0.41697362065315247,"54":0.11939843744039536,"55":0.5025997161865234,"56":0.2368144690990448,"57":0.5430379509925842,"58":0.0014671310782432556,"59":0.15480582416057587,"60":1.0685465335845947,"61":-0.08545111119747162,"62":0.7787109613418579,"63":-0.3273541331291199,"64":-1.3205101490020752,"65":-0.15180090069770813,"66":-0.6819753050804138,"67":-0.5790380239486694,"68":-0.8525142073631287,"69":-1.221698522567749,"70":0.10667772591114044,"71":0.39438995718955994,"72":0.5127012729644775,"73":0.055999308824539185,"74":-0.7403721213340759,"75":-0.07537051290273666,"76":-0.5917607545852661,"77":-0.5028247237205505,"78":-0.48854556679725647,"79":-0.2906096279621124,"80":0.5529876947402954,"81":-0.9944303631782532,"82":1.3582223653793335,"83":-0.12964195013046265,"84":-0.553777813911438,"85":-0.04321271553635597,"86":-1.1199781894683838,"87":-0.11866708099842072,"88":-1.3198649883270264,"89":-1.575666904449463,"90":-0.13075783848762512,"91":-1.3990974426269531,"92":1.6277798414230347,"93":0.14753544330596924,"94":-0.37064874172210693,"95":-0.36427760124206543,"96":-1.3324732780456543,"97":0.09234609454870224,"98":-1.7498693466186523,"99":-1.332123875617981}},"forgetBias":{"rows":10,"columns":1,"weights":{"0":0,"1":0,"2":0,"3":0,"4":0,"5":0,"6":0,"7":0,"8":0,"9":0}},"outputMatrix":{"rows":10,"columns":20,"weights":{"0":-0.022462086752057076,"1":0.021358175203204155,"2":0.37937474250793457,"3":-0.5193511843681335,"4":-0.6617558598518372,"5":0.833908200263977,"6":-0.28605201840400696,"7":-0.12496288120746613,"8":-0.4840978980064392,"9":0.2392481565475464,"10":-0.6804463863372803,"11":-0.4086190164089203,"12":-1.1733516454696655,"13":0.19202682375907898,"14":0.3711239695549011,"15":-0.4507237374782562,"16":0.16401080787181854,"17":0.6001977920532227,"18":-0.03666060417890549,"19":0.4906698167324066,"20":-0.3527841866016388,"21":-0.33757340908050537,"22":0.3334440290927887,"23":-0.31563428044319153,"24":-0.8527205586433411,"25":0.3212120532989502,"26":-0.07837190479040146,"27":-0.5691425800323486,"28":0.330252468585968,"29":-0.08339826762676239,"30":-0.18362195789813995,"31":-0.4731994867324829,"32":-0.3268786370754242,"33":0.8071882128715515,"34":0.583064079284668,"35":0.09045550972223282,"36":0.6312553286552429,"37":0.36550599336624146,"38":-0.05805695429444313,"39":0.6990141868591309,"40":0.7866438627243042,"41":-0.15369604527950287,"42":0.9515510201454163,"43":-1.1131641864776611,"44":0.11791341006755829,"45":1.68366539478302,"46":-0.762546718120575,"47":0.751379132270813,"48":-0.8473688364028931,"49":-0.040147144347429276,"50":0.39366185665130615,"51":-0.9400821924209595,"52":-1.2352573871612549,"53":-0.29152384400367737,"54":-0.045009683817625046,"55":-1.1305065155029297,"56":0.04808270186185837,"57":1.2067805528640747,"58":-0.9651146531105042,"59":0.530579686164856,"60":-0.3991815149784088,"61":-0.09947418421506882,"62":0.5697146654129028,"63":-0.6663915514945984,"64":-0.19498591125011444,"65":0.21088318526744843,"66":0.17241695523262024,"67":-0.4180678427219391,"68":-0.49289554357528687,"69":0.00998662505298853,"70":-0.171874538064003,"71":-0.6039740443229675,"72":-0.4493057131767273,"73":-0.09532664716243744,"74":0.5034067034721375,"75":0.007010410539805889,"76":0.14005768299102783,"77":0.732123851776123,"78":0.3099905550479889,"79":0.4011089503765106,"80":-0.01449676789343357,"81":0.024860266596078873,"82":1.6373661756515503,"83":-1.5751674175262451,"84":-0.5564867854118347,"85":1.7018498182296753,"86":-0.4788826107978821,"87":0.43329092860221863,"88":-1.0788336992263794,"89":-0.2787391245365143,"90":1.135180115699768,"91":-1.4418412446975708,"92":-1.5603888034820557,"93":0.04658915475010872,"94":0.5716285109519958,"95":-1.8251657485961914,"96":0.7407329678535461,"97":1.1088056564331055,"98":-0.41710659861564636,"99":1.258431077003479,"100":0.3590943217277527,"101":0.5035726428031921,"102":-0.5986123085021973,"103":0.7145379781723022,"104":0.903153121471405,"105":-0.5644097924232483,"106":0.3064168095588684,"107":0.00424851244315505,"108":-0.31164541840553284,"109":-0.46592581272125244,"110":-0.007831835187971592,"111":0.730571448802948,"112":0.5580580234527588,"113":-0.7706339955329895,"114":-0.7382732033729553,"115":0.351869136095047,"116":-0.5401056408882141,"117":-0.8106335401535034,"118":0.09823774546384811,"119":-0.8159080147743225,"120":0.6997168064117432,"121":-0.26697540283203125,"122":1.13971745967865,"123":-1.0731736421585083,"124":-0.260255366563797,"125":1.2644174098968506,"126":-0.7127067446708679,"127":0.7437083721160889,"128":-0.9627944827079773,"129":0.31109607219696045,"130":0.18358291685581207,"131":-0.9974350929260254,"132":-1.338255524635315,"133":0.011582285165786743,"134":0.28936633467674255,"135":-0.7727259397506714,"136":0.4320211410522461,"137":1.2097114324569702,"138":-0.6298292875289917,"139":0.6178509593009949,"140":0.6929591298103333,"141":-0.47493210434913635,"142":0.6426039934158325,"143":-0.5188152194023132,"144":0.11547533422708511,"145":0.8958795666694641,"146":-1.226248025894165,"147":0.9226829409599304,"148":-0.5590139627456665,"149":0.4734362065792084,"150":0.6934931874275208,"151":-0.40183568000793457,"152":-0.42092007398605347,"153":0.20411314070224762,"154":-0.5961917042732239,"155":0.04804283007979393,"156":0.34417062997817993,"157":1.0273157358169556,"158":-0.46129322052001953,"159":0.30542513728141785,"160":0.675857424736023,"161":-0.028599172830581665,"162":0.7556471824645996,"163":-0.7471557259559631,"164":-0.09821589291095734,"165":1.2676680088043213,"166":-0.7696677446365356,"167":0.8060033321380615,"168":-0.8740196824073792,"169":0.23888298869132996,"170":0.07438813149929047,"171":-0.8181849718093872,"172":-1.3136484622955322,"173":-0.04614521563053131,"174":0.2853090167045593,"175":-1.1054199934005737,"176":0.0673142820596695,"177":0.9508469104766846,"178":-1.023497223854065,"179":0.6173733472824097,"180":0.22976607084274292,"181":0.01032939925789833,"182":1.1051559448242188,"183":-1.4475294351577759,"184":-0.41714465618133545,"185":1.4880801439285278,"186":-0.5522189736366272,"187":0.5965774059295654,"188":-0.4866243302822113,"189":0.10536292940378189,"190":0.05459574982523918,"191":-0.7511695027351379,"192":-1.5375391244888306,"193":-0.025017984211444855,"194":0.3604435622692108,"195":-1.2370522022247314,"196":0.34470826387405396,"197":1.5198935270309448,"198":-0.1804283857345581,"199":0.7317281365394592}},"outputHidden":{"rows":10,"columns":10,"weights":{"0":2.227370023727417,"1":0.5764240026473999,"2":0.6753214597702026,"3":-2.1766703128814697,"4":-1.6257480382919312,"5":0.964978814125061,"6":-0.5534675717353821,"7":0.3316154181957245,"8":-0.6798307299613953,"9":-0.8129728436470032,"10":0.1968003660440445,"11":-1.5430322885513306,"12":1.2092020511627197,"13":0.5520247220993042,"14":-0.8932703733444214,"15":0.1693727970123291,"16":-1.591172456741333,"17":0.7758538126945496,"18":-0.994927167892456,"19":-1.1738276481628418,"20":0.074554942548275,"21":-0.5189377665519714,"22":1.098583459854126,"23":-0.3522833287715912,"24":-0.12525874376296997,"25":0.4658953547477722,"26":-0.8349050879478455,"27":0.9219629764556885,"28":-1.1498324871063232,"29":-1.242163062095642,"30":-0.4820583462715149,"31":1.092253565788269,"32":-0.8611301183700562,"33":-0.8554503321647644,"34":1.703100323677063,"35":1.5033764839172363,"36":0.9635245203971863,"37":0.3248094320297241,"38":0.8746541738510132,"39":1.1101900339126587,"40":-0.2834409177303314,"41":0.7103788256645203,"42":0.6819581985473633,"43":-0.9960584044456482,"44":-1.2558082342147827,"45":0.8063817024230957,"46":-0.45545846223831177,"47":0.7260029315948486,"48":-0.6025575995445251,"49":-0.4210568368434906,"50":0.287235826253891,"51":0.3716893792152405,"52":-1.655089020729065,"53":-0.4858243465423584,"54":1.3786381483078003,"55":0.7427951097488403,"56":1.3927425146102905,"57":-0.7211787700653076,"58":1.5083134174346924,"59":1.3392133712768555,"60":-0.04872650280594826,"61":-0.26351359486579895,"62":1.0353463888168335,"63":0.023633934557437897,"64":-0.16128970682621002,"65":0.028283724561333656,"66":-0.7521313428878784,"67":0.9233410358428955,"68":-0.9725257754325867,"69":-0.9965888261795044,"70":-2.299445629119873,"71":1.2943671941757202,"72":-0.14730282127857208,"73":0.6682363152503967,"74":0.4302330017089844,"75":1.258970856666565,"76":0.28052303194999695,"77":-0.10304839164018631,"78":0.1463419795036316,"79":0.31202173233032227,"80":0.23353435099124908,"81":0.061008039861917496,"82":1.1882212162017822,"83":-0.26326462626457214,"84":-0.21672333776950836,"85":0.4024503231048584,"86":-1.048272967338562,"87":0.9654414057731628,"88":-1.2954885959625244,"89":-1.2315385341644287,"90":-0.3473813831806183,"91":0.2234489768743515,"92":1.1105496883392334,"93":-0.16763243079185486,"94":-0.19072140753269196,"95":0.4869353473186493,"96":-0.8882884979248047,"97":0.8483991622924805,"98":-1.290671706199646,"99":-1.2964434623718262}},"outputBias":{"rows":10,"columns":1,"weights":{"0":0.3760658800601959,"1":2.2821133136749268,"2":-0.7017103433609009,"3":1.602870225906372,"4":0.15226532518863678,"5":0.533221423625946,"6":0.34972047805786133,"7":-0.5824570655822754,"8":-0.4784568250179291,"9":0.46819084882736206}},"cellActivationMatrix":{"rows":10,"columns":20,"weights":{"0":0.011346625164151192,"1":0.7833521366119385,"2":-0.6474727988243103,"3":0.4588679373264313,"4":0.546660304069519,"5":-0.2767234444618225,"6":0.1333288997411728,"7":0.5300235748291016,"8":0.8322610855102539,"9":0.1508217453956604,"10":0.16864918172359467,"11":0.8040938973426819,"12":0.5461187958717346,"13":-0.25559741258621216,"14":-1.4888019561767578,"15":0.9773054718971252,"16":-0.6476125121116638,"17":-0.32764217257499695,"18":0.7904634475708008,"19":-0.5169211626052856,"20":-0.6803245544433594,"21":0.07870519906282425,"22":-0.8793246150016785,"23":0.42753833532333374,"24":0.356701135635376,"25":-0.5840129256248474,"26":0.9710612893104553,"27":-1.1316912174224854,"28":0.3565877079963684,"29":-0.5797452926635742,"30":-0.7727671265602112,"31":0.9895225167274475,"32":0.28483521938323975,"33":0.0887000560760498,"34":-0.40283873677253723,"35":1.1314584016799927,"36":-0.7026594877243042,"37":-0.46721628308296204,"38":0.8208702802658081,"39":-0.4507162272930145,"40":0.4868321418762207,"41":0.25437527894973755,"42":1.0354657173156738,"43":-0.761269748210907,"44":-0.30167022347450256,"45":0.9078188538551331,"46":-0.9508652687072754,"47":0.2727680206298828,"48":-1.2737162113189697,"49":0.30020609498023987,"50":0.5288600921630859,"51":-0.9724077582359314,"52":-1.3263897895812988,"53":-0.11795969307422638,"54":0.4830932915210724,"55":-0.990992546081543,"56":0.398311048746109,"57":1.118085503578186,"58":-0.9143903851509094,"59":0.5400112867355347,"60":0.10536696016788483,"61":-0.34839192032814026,"62":0.23295946419239044,"63":-0.12174540758132935,"64":-0.8561515212059021,"65":-0.7880527973175049,"66":-0.1690366417169571,"67":0.3846086263656616,"68":1.0916600227355957,"69":0.8164352774620056,"70":-3.780585289001465,"71":-0.2844794690608978,"72":0.552062451839447,"73":0.5512617230415344,"74":0.1340286284685135,"75":0.38761019706726074,"76":0.47528180480003357,"77":0.028458626940846443,"78":-0.20043279230594635,"79":0.677574098110199,"80":0.23469951748847961,"81":-0.35774537920951843,"82":-0.45380643010139465,"83":0.8072530627250671,"84":-0.4159484803676605,"85":-0.610760509967804,"86":-1.0197798013687134,"87":0.07325569540262222,"88":0.5658197402954102,"89":0.3853943943977356,"90":-2.0537922382354736,"91":0.5034818649291992,"92":0.273712158203125,"93":0.28798213601112366,"94":0.05876791849732399,"95":0.11299710720777512,"96":0.11410015821456909,"97":-0.7420344948768616,"98":-0.4281991124153137,"99":-0.1244124323129654,"100":-0.685843288898468,"101":0.610862672328949,"102":-1.3989719152450562,"103":1.2450155019760132,"104":0.9578561782836914,"105":-0.7413421869277954,"106":0.16312547028064728,"107":0.018230224028229713,"108":-0.21397534012794495,"109":0.03352432698011398,"110":0.42060768604278564,"111":1.5382946729660034,"112":0.6151195168495178,"113":-0.5760666131973267,"114":-0.5635566115379333,"115":0.07792095094919205,"116":-0.8678700923919678,"117":-0.7952922582626343,"118":0.6352881193161011,"119":-1.4753193855285645,"120":-0.4819558560848236,"121":0.16012032330036163,"122":-0.8968770503997803,"123":0.9119024276733398,"124":0.2940710484981537,"125":-1.0298230648040771,"126":0.20026277005672455,"127":-0.3473047912120819,"128":0.2216986119747162,"129":-0.28247085213661194,"130":-0.6501837372779846,"131":1.0849591493606567,"132":1.0589839220046997,"133":-0.05003589391708374,"134":-0.18099626898765564,"135":0.9080532193183899,"136":-0.12389403581619263,"137":-0.9606398940086365,"138":0.6491848230361938,"139":-0.7006905674934387,"140":0.1763160675764084,"141":-0.213421031832695,"142":0.6376903057098389,"143":-0.3340562880039215,"144":-1.0010885000228882,"145":-0.045446764677762985,"146":0.34242233633995056,"147":0.34705623984336853,"148":-0.2842772603034973,"149":0.2827927768230438,"150":-0.5854257941246033,"151":-0.8307467103004456,"152":-0.279429167509079,"153":0.5359310507774353,"154":2.1897518634796143,"155":-1.5827211141586304,"156":1.2878702878952026,"157":0.09068543463945389,"158":-0.5586334466934204,"159":0.5891634821891785,"160":-0.34777623414993286,"161":-0.3961111009120941,"162":-1.0847127437591553,"163":1.0290155410766602,"164":-0.039652545005083084,"165":-1.0607596635818481,"166":0.4977608919143677,"167":-0.4816209673881531,"168":1.150342583656311,"169":-0.1391334980726242,"170":-0.8401552438735962,"171":0.8816669583320618,"172":1.2861571311950684,"173":0.35467320680618286,"174":-0.5159599184989929,"175":0.8511859178543091,"176":-0.31092873215675354,"177":-1.2913516759872437,"178":0.8770731091499329,"179":-0.5014287829399109,"180":-0.25248879194259644,"181":0.4313497245311737,"182":-0.6379033327102661,"183":0.6615696549415588,"184":0.22654065489768982,"185":-0.9039422869682312,"186":0.3640575110912323,"187":0.16675779223442078,"188":1.2306476831436157,"189":-0.011446240358054638,"190":-1.8798359632492065,"191":0.8497096300125122,"192":0.6564215421676636,"193":-0.01630120538175106,"194":0.047355085611343384,"195":1.8704313039779663,"196":0.10311128944158554,"197":0.07933027297258377,"198":1.2226245403289795,"199":-0.4013313353061676}},"cellActivationHidden":{"rows":10,"columns":10,"weights":{"0":-0.2131028026342392,"1":0.5143374800682068,"2":1.1598469018936157,"3":0.5224724411964417,"4":-0.5261853337287903,"5":-1.964341640472412,"6":-1.1360538005828857,"7":0.155966117978096,"8":-1.1015039682388306,"9":-1.2040647268295288,"10":0.0843430757522583,"11":-0.2001807689666748,"12":-0.6078241467475891,"13":0.2708491086959839,"14":1.0026055574417114,"15":0.10101398080587387,"16":0.522678554058075,"17":-0.012155840173363686,"18":0.6649158000946045,"19":1.3296366930007935,"20":-0.2602212429046631,"21":0.052506428211927414,"22":0.7278426289558411,"23":0.22993475198745728,"24":-0.312216192483902,"25":-0.35884419083595276,"26":-0.4518519639968872,"27":0.8168379068374634,"28":-0.7271555662155151,"29":-0.9059205055236816,"30":-0.4893551468849182,"31":-0.4550088047981262,"32":0.18376997113227844,"33":-1.2544000148773193,"34":-0.742458164691925,"35":-0.1958702653646469,"36":-0.20589104294776917,"37":0.9824061989784241,"38":-0.20763234794139862,"39":-0.7731702327728271,"40":-1.7126418352127075,"41":-1.624337077140808,"42":-0.18986934423446655,"43":1.644203782081604,"44":1.1216132640838623,"45":0.1232932060956955,"46":0.007328278385102749,"47":0.6511202454566956,"48":0.16294680535793304,"49":0.3346949517726898,"50":0.8225322365760803,"51":0.5091829299926758,"52":-0.180008664727211,"53":0.3050422668457031,"54":-0.061444249004125595,"55":-0.1921623796224594,"56":0.2590106129646301,"57":0.027783863246440887,"58":0.09536446630954742,"59":0.4039357602596283,"60":0.15274132788181305,"61":-0.3384419083595276,"62":-1.2334365844726562,"63":-0.288073867559433,"64":0.3838202655315399,"65":0.2558721899986267,"66":0.9266336560249329,"67":-0.3324301838874817,"68":1.2515549659729004,"69":1.1863757371902466,"70":-0.8717023730278015,"71":-0.811047375202179,"72":-0.2352430671453476,"73":-0.9920110702514648,"74":-0.33433082699775696,"75":1.09755277633667,"76":0.3367712199687958,"77":-0.18759196996688843,"78":0.17987725138664246,"79":0.07722517848014832,"80":0.09253384172916412,"81":-0.18724066019058228,"82":-0.597023069858551,"83":-0.3652956783771515,"84":0.0956791415810585,"85":0.477325439453125,"86":0.4305412769317627,"87":-1.3506311178207397,"88":0.49249592423439026,"89":0.7781606912612915,"90":0.4859130382537842,"91":-0.48296958208084106,"92":-1.093742847442627,"93":-0.37040019035339355,"94":0.6140104532241821,"95":0.22358162701129913,"96":0.6161612868309021,"97":-0.44091591238975525,"98":0.9921822547912598,"99":1.0315356254577637}},"cellActivationBias":{"rows":10,"columns":1,"weights":{"0":0.34338635206222534,"1":1.1666197776794434,"2":-0.22390057146549225,"3":-0.07083311676979065,"4":0.9249309301376343,"5":-0.010598833672702312,"6":0.06821709871292114,"7":-0.07335370033979416,"8":0.5420593023300171,"9":0.27023303508758545}}},{"inputMatrix":{"rows":20,"columns":10,"weights":{"0":-1.8363491296768188,"1":-2.0152339935302734,"2":0.5480138063430786,"3":-0.9941920638084412,"4":-0.5773460268974304,"5":1.5648130178451538,"6":-2.2796390056610107,"7":1.0178227424621582,"8":-0.5922247767448425,"9":-0.841536283493042,"10":0.3253362476825714,"11":0.7515069842338562,"12":-0.7214533686637878,"13":-0.3260129690170288,"14":0.8871938586235046,"15":0.7643122673034668,"16":1.3234083652496338,"17":-0.5265633463859558,"18":0.5816736221313477,"19":1.3130439519882202,"20":0.6964344382286072,"21":0.13356685638427734,"22":-0.5286851525306702,"23":0.8626033663749695,"24":1.0983426570892334,"25":0.013753686100244522,"26":1.0982075929641724,"27":-1.2810570001602173,"28":0.43489906191825867,"29":0.6841842532157898,"30":-1.3312729597091675,"31":-0.3661736845970154,"32":-0.47211071848869324,"33":-1.86760675907135,"34":-0.8279231786727905,"35":1.0899602174758911,"36":0.5796224474906921,"37":0.7854664325714111,"38":0.6148331165313721,"39":0.6243486404418945,"40":3.0418570041656494,"41":-1.4029676914215088,"42":0.04288913682103157,"43":0.23064522445201874,"44":-0.0842570886015892,"45":0.3491232991218567,"46":-0.2943364083766937,"47":-1.93582022190094,"48":-0.3166886866092682,"49":0.12433835864067078,"50":0.21526294946670532,"51":-0.21357814967632294,"52":0.14494159817695618,"53":-0.23017267882823944,"54":-1.5574902296066284,"55":1.122435212135315,"56":-0.38052305579185486,"57":-0.6678133606910706,"58":-0.19336701929569244,"59":-1.0293231010437012,"60":2.1196999549865723,"61":0.7261937856674194,"62":-1.280579924583435,"63":0.34033501148223877,"64":-0.7971657514572144,"65":1.1778994798660278,"66":1.378165602684021,"67":-0.7249847054481506,"68":1.1495380401611328,"69":0.7845104932785034,"70":1.9912981986999512,"71":0.11914252489805222,"72":0.1423029750585556,"73":-1.0640859603881836,"74":-1.3516789674758911,"75":0.7368083596229553,"76":-0.31307998299598694,"77":-1.0462825298309326,"78":-0.15546315908432007,"79":-0.46260327100753784,"80":-0.473917156457901,"81":-0.3814448416233063,"82":-0.5058155059814453,"83":-1.2578035593032837,"84":1.019268274307251,"85":2.8025004863739014,"86":0.40871310234069824,"87":-0.7635612487792969,"88":0.34435784816741943,"89":0.27103787660598755,"90":0.45605209469795227,"91":0.34045782685279846,"92":-0.7491348385810852,"93":-0.07615198194980621,"94":1.061638355255127,"95":0.18844959139823914,"96":0.5352138876914978,"97":-0.7135831713676453,"98":0.8029113411903381,"99":0.9559329748153687,"100":0.5402957201004028,"101":0.23048143088817596,"102":-0.018972137942910194,"103":0.004558487329632044,"104":1.1359378099441528,"105":-0.5325120091438293,"106":0.8326884508132935,"107":-0.5826086401939392,"108":-0.0469934307038784,"109":-0.013333368115127087,"110":1.9862017631530762,"111":-1.309903621673584,"112":0.5049563646316528,"113":-1.9701238870620728,"114":-0.3329244554042816,"115":1.3752248287200928,"116":-0.7337531447410583,"117":0.16000021994113922,"118":-0.7426067590713501,"119":-0.6547752618789673,"120":0.8018420338630676,"121":0.6142318248748779,"122":-0.3163436949253082,"123":-0.6706873774528503,"124":0.26937490701675415,"125":1.4208861589431763,"126":0.22091920673847198,"127":-1.505786657333374,"128":0.19871510565280914,"129":0.43308576941490173,"130":-1.6833126544952393,"131":-0.96672123670578,"132":-0.29726025462150574,"133":0.9635764956474304,"134":0.9021898508071899,"135":2.2074239253997803,"136":0.2341710925102234,"137":1.0787707567214966,"138":0.1751052290201187,"139":0.3801637589931488,"140":-2.047943115234375,"141":0.3539547026157379,"142":-0.0506279356777668,"143":1.5026710033416748,"144":-0.44923633337020874,"145":1.1034719944000244,"146":0.18053880333900452,"147":-1.0940380096435547,"148":0.3686276972293854,"149":0.5914443135261536,"150":-1.306805968284607,"151":0.4660663306713104,"152":-0.107193224132061,"153":-0.43649694323539734,"154":-1.2659692764282227,"155":2.1005594730377197,"156":0.08345005661249161,"157":-0.5595099925994873,"158":0.16150344908237457,"159":-0.34513163566589355,"160":-0.3782891035079956,"161":-0.598227322101593,"162":0.11463823169469833,"163":-2.4012153148651123,"164":-0.2389979511499405,"165":1.42414391040802,"166":0.13344645500183105,"167":-0.2191745787858963,"168":-0.28058740496635437,"169":-0.23083050549030304,"170":0.4285847842693329,"171":-0.08932594209909439,"172":-1.230414628982544,"173":0.2832110524177551,"174":1.6954927444458008,"175":1.8445897102355957,"176":1.3534414768218994,"177":-0.6586241126060486,"178":1.0793529748916626,"179":1.6372097730636597,"180":0.36770540475845337,"181":-1.0854548215866089,"182":0.702641487121582,"183":1.1872042417526245,"184":0.4596290588378906,"185":3.4467148780822754,"186":-0.7410739064216614,"187":0.6485196352005005,"188":-0.8609862923622131,"189":-0.6177931427955627,"190":0.7693523168563843,"191":-0.9731025099754333,"192":-0.0373677983880043,"193":0.8763806819915771,"194":0.8562877178192139,"195":0.4433518648147583,"196":0.09756994247436523,"197":-0.3684018552303314,"198":-0.056611571460962296,"199":0.18842490017414093}},"inputHidden":{"rows":20,"columns":20,"weights":{"0":0.6041905879974365,"1":0.26742851734161377,"2":0.03367020562291145,"3":-1.9088714122772217,"4":-0.9272845983505249,"5":0.28305482864379883,"6":-1.0171935558319092,"7":0.19278696179389954,"8":0.570701003074646,"9":0.48849475383758545,"10":-1.4677081108093262,"11":0.7689341902732849,"12":-1.0457137823104858,"13":0.8658334612846375,"14":-1.6591030359268188,"15":0.6644320487976074,"16":1.0077688694000244,"17":-0.9697169065475464,"18":1.3539719581604004,"19":-1.212830662727356,"20":-0.34937503933906555,"21":1.1680055856704712,"22":0.7855762243270874,"23":-1.637513518333435,"24":1.96384859085083,"25":-1.0318206548690796,"26":0.9563332796096802,"27":-1.222427487373352,"28":-0.8789439797401428,"29":0.7629848122596741,"30":0.8779899477958679,"31":-0.43137598037719727,"32":2.485118865966797,"33":-1.6191129684448242,"34":-0.4297732710838318,"35":-0.16712522506713867,"36":-2.0557782649993896,"37":1.0086978673934937,"38":-0.3086901009082794,"39":-0.4780042767524719,"40":-1.0714720487594604,"41":1.0385147333145142,"42":-0.7133207321166992,"43":-2.950812339782715,"44":-0.08957995474338531,"45":-1.2071343660354614,"46":0.8772865533828735,"47":-0.7169028520584106,"48":-0.8542141914367676,"49":-1.6861908435821533,"50":0.09575631469488144,"51":0.29045626521110535,"52":1.235251784324646,"53":-0.35651031136512756,"54":-0.8945948481559753,"55":-0.7579655051231384,"56":-0.057099685072898865,"57":0.7245294451713562,"58":-0.23896591365337372,"59":0.2264205515384674,"60":-2.259263038635254,"61":-1.104694128036499,"62":0.31155428290367126,"63":-1.258772850036621,"64":-0.8660160899162292,"65":-2.3295185565948486,"66":-0.05808819830417633,"67":0.29013413190841675,"68":1.1188340187072754,"69":1.1409096717834473,"70":-0.5236759185791016,"71":-2.2452447414398193,"72":2.190319299697876,"73":-0.9894601106643677,"74":-1.2178137302398682,"75":-1.473677396774292,"76":-1.8128442764282227,"77":-0.55757075548172,"78":-1.3277841806411743,"79":2.437265396118164,"80":0.31576666235923767,"81":2.262734889984131,"82":1.4655734300613403,"83":0.06443271785974503,"84":-0.7663460373878479,"85":0.6985455751419067,"86":2.5111091136932373,"87":-0.4047946333885193,"88":0.8566293716430664,"89":0.5783734917640686,"90":-0.06698782742023468,"91":-0.28073856234550476,"92":-2.5728633403778076,"93":-2.5969951152801514,"94":-2.2708163261413574,"95":-1.0513797998428345,"96":1.939843773841858,"97":0.1397283524274826,"98":0.29521307349205017,"99":-0.593674898147583,"100":2.1206905841827393,"101":-0.24110667407512665,"102":-0.3085964322090149,"103":-1.8469924926757812,"104":-1.446405053138733,"105":1.8173316717147827,"106":-0.6539099812507629,"107":-0.4735606908798218,"108":1.637453556060791,"109":-0.30184611678123474,"110":-0.24142047762870789,"111":2.68356990814209,"112":-0.7190783619880676,"113":0.4243732690811157,"114":-1.3653384447097778,"115":-0.24478977918624878,"116":-0.14523521065711975,"117":-0.0955330953001976,"118":1.115904688835144,"119":0.5683642625808716,"120":-1.0313299894332886,"121":-2.3912830352783203,"122":-1.106582522392273,"123":0.45400822162628174,"124":-1.110356330871582,"125":1.076598048210144,"126":-1.017093539237976,"127":-3.398364782333374,"128":1.8051563501358032,"129":-1.2179087400436401,"130":2.946906328201294,"131":-0.9113504886627197,"132":0.3797452449798584,"133":-0.7022120952606201,"134":0.9322386980056763,"135":1.01237952709198,"136":-1.2649898529052734,"137":0.4144646227359772,"138":-0.24181149899959564,"139":1.377429723739624,"140":0.8013860583305359,"141":0.06333549320697784,"142":0.6015681624412537,"143":-1.625722050666809,"144":-0.7370718121528625,"145":0.8799998760223389,"146":-0.5121325850486755,"147":-1.358487844467163,"148":1.8612502813339233,"149":0.29353561997413635,"150":-0.23070232570171356,"151":0.836332380771637,"152":-3.080989360809326,"153":0.7892236709594727,"154":-0.7588995695114136,"155":0.5522207617759705,"156":3.0136606693267822,"157":-0.1983034461736679,"158":0.8831695318222046,"159":-1.902677297592163,"160":0.4576498568058014,"161":1.548474669456482,"162":-1.0422558784484863,"163":-1.6901979446411133,"164":0.7065364122390747,"165":0.8161540627479553,"166":1.0757924318313599,"167":-2.539041042327881,"168":2.6255266666412354,"169":-0.626531720161438,"170":1.4698253870010376,"171":-0.45100027322769165,"172":-0.9712502956390381,"173":-1.0841516256332397,"174":-0.9125476479530334,"175":-2.1894452571868896,"176":-0.6694732904434204,"177":1.0644298791885376,"178":-0.3600676357746124,"179":0.371511846780777,"180":-0.8483038544654846,"181":0.48075640201568604,"182":-1.0094547271728516,"183":-1.9455618858337402,"184":1.4274460077285767,"185":-0.8124906420707703,"186":1.1755839586257935,"187":-1.4845694303512573,"188":-2.0071513652801514,"189":-1.1777524948120117,"190":0.6941647529602051,"191":-0.6355208158493042,"192":2.7138442993164062,"193":-1.0488039255142212,"194":0.07808831334114075,"195":0.12265247106552124,"196":-0.7008657455444336,"197":-0.047878850251436234,"198":-0.4643595814704895,"199":0.24811702966690063,"200":0.09229929000139236,"201":0.07658077031373978,"202":-1.6011091470718384,"203":0.5978313088417053,"204":-0.1590917557477951,"205":-0.11685861647129059,"206":2.2478582859039307,"207":0.32663026452064514,"208":-1.1130561828613281,"209":-1.1914600133895874,"210":0.4176067113876343,"211":0.05576878786087036,"212":1.7612133026123047,"213":-2.2876367568969727,"214":-1.2488548755645752,"215":-3.667454481124878,"216":-0.42060938477516174,"217":1.6848386526107788,"218":0.1369449645280838,"219":0.15489162504673004,"220":-1.0523542165756226,"221":-1.1307121515274048,"222":-1.4038095474243164,"223":-1.7064156532287598,"224":0.8498086333274841,"225":-1.0487340688705444,"226":0.10528244078159332,"227":-2.311009645462036,"228":-0.6964866518974304,"229":-1.0887105464935303,"230":0.019210845232009888,"231":-2.3851001262664795,"232":-0.5747057795524597,"233":-0.42792263627052307,"234":-1.7415393590927124,"235":-0.1832556277513504,"236":-0.13031581044197083,"237":-0.9438087344169617,"238":-1.3397895097732544,"239":0.525539755821228,"240":1.1185539960861206,"241":1.887910008430481,"242":-1.3801771402359009,"243":-0.10181405395269394,"244":0.3863748610019684,"245":1.177164912223816,"246":0.012171168811619282,"247":-2.3163866996765137,"248":1.458618402481079,"249":-1.0585685968399048,"250":0.6655426621437073,"251":0.9023264050483704,"252":-1.5752819776535034,"253":-1.0020941495895386,"254":0.1772645115852356,"255":-0.38117238879203796,"256":0.7364736199378967,"257":0.6934652924537659,"258":0.4264429807662964,"259":0.8287216424942017,"260":-0.12569160759449005,"261":-0.5242624878883362,"262":-0.24261009693145752,"263":-2.0157227516174316,"264":-0.7678861021995544,"265":0.8172339797019958,"266":0.5622721910476685,"267":-1.5718613862991333,"268":-1.6557409763336182,"269":0.022143542766571045,"270":-0.7691857814788818,"271":1.5880426168441772,"272":0.3823302984237671,"273":-0.6911909580230713,"274":-1.3536478281021118,"275":-0.710472047328949,"276":0.35586756467819214,"277":0.5113086104393005,"278":1.6613718271255493,"279":-0.9401851296424866,"280":-0.47213342785835266,"281":1.9728190898895264,"282":0.38896408677101135,"283":-0.6816736459732056,"284":2.606330394744873,"285":-1.0905474424362183,"286":0.5187861919403076,"287":1.4847816228866577,"288":-0.47940802574157715,"289":-0.5815130472183228,"290":-0.02066390961408615,"291":-0.04432567209005356,"292":-0.7327150702476501,"293":-0.29321128129959106,"294":0.7524452209472656,"295":0.15082421898841858,"296":-1.6926313638687134,"297":1.0118043422698975,"298":-1.1214067935943604,"299":0.10871366411447525,"300":0.3620162904262543,"301":-1.830986738204956,"302":-0.49959713220596313,"303":-1.4586973190307617,"304":0.5643460154533386,"305":0.8872013688087463,"306":-1.3202332258224487,"307":-1.2771117687225342,"308":-0.23448364436626434,"309":0.11765448749065399,"310":0.7431394457817078,"311":1.1578402519226074,"312":2.859912395477295,"313":-0.5373845100402832,"314":-1.0820664167404175,"315":1.2340141534805298,"316":-1.8855185508728027,"317":-0.9350646138191223,"318":1.0975027084350586,"319":-2.2846217155456543,"320":0.851840615272522,"321":2.086998462677002,"322":-1.0569289922714233,"323":0.6048629283905029,"324":0.4615798890590668,"325":1.1898733377456665,"326":-0.4396315813064575,"327":-3.194096565246582,"328":-0.0902540385723114,"329":-0.8403096795082092,"330":1.5737948417663574,"331":0.06416808813810349,"332":-0.4312919080257416,"333":-2.1985392570495605,"334":1.0261656045913696,"335":-0.6697115302085876,"336":-0.06837014108896255,"337":1.7586376667022705,"338":0.4045269191265106,"339":0.7651186585426331,"340":0.04609457030892372,"341":0.31527042388916016,"342":0.5378290414810181,"343":-0.7200650572776794,"344":0.251581609249115,"345":-0.3231365978717804,"346":0.03916604816913605,"347":-1.8389205932617188,"348":-1.1127985715866089,"349":0.2877545952796936,"350":0.5191938877105713,"351":0.8296542167663574,"352":0.8540622591972351,"353":-2.059438705444336,"354":-0.48953977227211,"355":-0.1292637139558792,"356":-0.2123846411705017,"357":-1.7562960386276245,"358":0.6284464001655579,"359":-0.5511451363563538,"360":-0.09918433427810669,"361":-0.502381443977356,"362":-0.6861225962638855,"363":0.557148277759552,"364":0.10259833931922913,"365":0.15784741938114166,"366":2.530041456222534,"367":0.5922223925590515,"368":-1.5438929796218872,"369":-0.7032999396324158,"370":1.3927381038665771,"371":-0.5456905364990234,"372":0.9613860845565796,"373":-2.8556466102600098,"374":-1.2659223079681396,"375":-0.9595858454704285,"376":-0.31312620639801025,"377":-0.1296684443950653,"378":-0.10477190464735031,"379":-1.662907361984253,"380":0.3316408693790436,"381":-0.011084964498877525,"382":-1.0124024152755737,"383":3.194262742996216,"384":0.5952658653259277,"385":0.7587398886680603,"386":-0.5752508640289307,"387":-0.028418393805623055,"388":-1.8278026580810547,"389":-0.10357599705457687,"390":0.8776881098747253,"391":1.3863353729248047,"392":0.8024818301200867,"393":-1.5191080570220947,"394":0.35149091482162476,"395":0.5832954049110413,"396":0.417203426361084,"397":-0.42967337369918823,"398":1.158822774887085,"399":-0.8439270257949829}},"inputBias":{"rows":20,"columns":1,"weights":{"0":1.4872041940689087,"1":-0.14192597568035126,"2":1.4057756662368774,"3":2.240741491317749,"4":-1.2982914447784424,"5":1.2249641418457031,"6":0.7240055799484253,"7":0.01466556265950203,"8":-0.22998842597007751,"9":1.8469675779342651,"10":0.2794252932071686,"11":0.790398359298706,"12":0.7427241206169128,"13":0.8277587294578552,"14":2.241666793823242,"15":0.8110387921333313,"16":1.1849188804626465,"17":-0.91935133934021,"18":-0.4293580651283264,"19":1.168927788734436}},"forgetMatrix":{"rows":20,"columns":10,"weights":{"0":0.5604696869850159,"1":-1.0553382635116577,"2":1.0790574550628662,"3":-0.051713135093450546,"4":-1.28165602684021,"5":-1.9880213737487793,"6":-1.164994716644287,"7":0.10801076143980026,"8":-1.2826056480407715,"9":-1.1691925525665283,"10":-1.4989032745361328,"11":0.14676322042942047,"12":0.4668971002101898,"13":0.11193980276584625,"14":-1.145708441734314,"15":0.3218149244785309,"16":-0.5810726881027222,"17":1.8737503290176392,"18":-0.5709773302078247,"19":-1.1962779760360718,"20":-0.7807351350784302,"21":0.08939845114946365,"22":-0.9224852323532104,"23":1.158792495727539,"24":0.14039188623428345,"25":-1.0422025918960571,"26":0.544808566570282,"27":-0.3959115445613861,"28":1.2760504484176636,"29":1.5156307220458984,"30":0.6029228568077087,"31":0.9326334595680237,"32":-1.2937945127487183,"33":0.6815258860588074,"34":1.5395078659057617,"35":-0.3724260926246643,"36":1.0071544647216797,"37":-0.8668607473373413,"38":1.4688588380813599,"39":1.0283600091934204,"40":0.2772535979747772,"41":-1.2086957693099976,"42":1.2574187517166138,"43":-0.8637958765029907,"44":-1.6365963220596313,"45":0.13865816593170166,"46":-1.174976110458374,"47":0.5789501070976257,"48":-1.5445953607559204,"49":-1.659940481185913,"50":0.07456507533788681,"51":-1.4844810962677002,"52":1.8328503370285034,"53":0.35149475932121277,"54":-0.4337729811668396,"55":-1.5835992097854614,"56":-1.6546597480773926,"57":0.9284474849700928,"58":-1.9697624444961548,"59":-1.686655879020691,"60":-2.152229070663452,"61":-1.0950524806976318,"62":0.25707578659057617,"63":1.8318372964859009,"64":-0.3078138828277588,"65":-1.5078049898147583,"66":-0.6484724283218384,"67":0.6831212043762207,"68":-0.032800666987895966,"69":-0.04993639513850212,"70":1.991337776184082,"71":1.3574798107147217,"72":-0.722321093082428,"73":-0.7972800135612488,"74":-0.9664788246154785,"75":0.5707887411117554,"76":0.617588222026825,"77":-0.5637689232826233,"78":0.841604471206665,"79":0.5957341194152832,"80":0.7244125008583069,"81":-1.7002344131469727,"82":0.8491988182067871,"83":-1.3979318141937256,"84":-3.0204756259918213,"85":-1.3904974460601807,"86":-0.8458573222160339,"87":0.46848931908607483,"88":-1.2735580205917358,"89":-0.6452109217643738,"90":0.5744205713272095,"91":-0.7979230284690857,"92":-0.3936336934566498,"93":0.9836710691452026,"94":1.4923404455184937,"95":-0.9428275227546692,"96":0.17111632227897644,"97":0.35215455293655396,"98":0.44599390029907227,"99":1.3507449626922607,"100":-0.03399824723601341,"101":0.6191824674606323,"102":0.46754610538482666,"103":1.932926893234253,"104":0.841951847076416,"105":-0.6937057375907898,"106":-0.3166944682598114,"107":0.46338212490081787,"108":-0.6040656566619873,"109":-0.3087634742259979,"110":0.9783703684806824,"111":-0.7593756318092346,"112":0.555183470249176,"113":-1.4207007884979248,"114":0.28335946798324585,"115":-0.7349511981010437,"116":-0.6698785424232483,"117":-0.2172936648130417,"118":-0.5690901875495911,"119":-0.4676497280597687,"120":-1.3175472021102905,"121":-0.7439478635787964,"122":0.9047303199768066,"123":0.5568063855171204,"124":0.4905764162540436,"125":-2.959839344024658,"126":-1.322180986404419,"127":1.4692474603652954,"128":-0.7664527297019958,"129":-0.959022581577301,"130":-0.8753960132598877,"131":-0.030048595741391182,"132":0.16136756539344788,"133":3.272639513015747,"134":1.754181981086731,"135":0.7529934048652649,"136":-0.5713624954223633,"137":0.8933631777763367,"138":-0.1974419206380844,"139":0.6952788829803467,"140":-3.136812925338745,"141":-0.08784355223178864,"142":-0.13763989508152008,"143":0.14790230989456177,"144":-0.16840845346450806,"145":0.17754052579402924,"146":-0.4107528626918793,"147":1.8421090841293335,"148":0.2957823574542999,"149":-0.2340923696756363,"150":-2.6522953510284424,"151":-1.62920343875885,"152":1.1685644388198853,"153":0.7508043646812439,"154":-1.9272949695587158,"155":-2.1362555027008057,"156":-0.8173854947090149,"157":1.6623883247375488,"158":-1.2732760906219482,"159":-1.68141770362854,"160":-1.6726216077804565,"161":0.4501757025718689,"162":0.3273938298225403,"163":1.4661681652069092,"164":0.6456679105758667,"165":-1.7519580125808716,"166":-1.1060423851013184,"167":0.882070004940033,"168":-0.5111522674560547,"169":-0.02348657138645649,"170":-0.1193040981888771,"171":-0.8788727521896362,"172":0.3317858874797821,"173":-0.3835442066192627,"174":-0.4916907250881195,"175":-0.17404036223888397,"176":-0.28307318687438965,"177":0.7716588377952576,"178":-0.5614257454872131,"179":-0.4317792057991028,"180":0.06182940676808357,"181":-0.1505168080329895,"182":0.7492268085479736,"183":-0.7772981524467468,"184":-0.7289337515830994,"185":-2.07891583442688,"186":-0.8262384533882141,"187":-0.2485479861497879,"188":-1.051299810409546,"189":-1.363966941833496,"190":0.3495236337184906,"191":0.76839679479599,"192":-0.7111353874206543,"193":-0.057929571717977524,"194":0.605427622795105,"195":-0.0008484941790811718,"196":0.709107518196106,"197":0.1979089379310608,"198":1.015916347503662,"199":1.8473252058029175}},"forgetHidden":{"rows":20,"columns":20,"weights":{"0":-0.9373325109481812,"1":-0.103921078145504,"2":1.1870354413986206,"3":1.040111780166626,"4":-0.10551571100950241,"5":-0.47630614042282104,"6":1.000667691230774,"7":0.08253132551908493,"8":-0.2888509929180145,"9":0.7151599526405334,"10":-0.029112037271261215,"11":-0.3872120976448059,"12":0.238323375582695,"13":-0.8105005025863647,"14":-0.17866869270801544,"15":-0.7175601124763489,"16":-0.8172834515571594,"17":0.1094055101275444,"18":-0.15609623491764069,"19":0.6809147000312805,"20":0.3986634612083435,"21":-0.4981983006000519,"22":-0.938352108001709,"23":1.2531403303146362,"24":1.425379753112793,"25":0.01543259434401989,"26":1.7194324731826782,"27":0.9481972455978394,"28":1.2938982248306274,"29":-0.7220197916030884,"30":0.21540440618991852,"31":-0.34440797567367554,"32":0.9927471876144409,"33":-1.1637159585952759,"34":-0.7309451103210449,"35":0.3620813488960266,"36":-1.267477035522461,"37":1.4633055925369263,"38":-0.4464021623134613,"39":1.6456605195999146,"40":0.32208433747291565,"41":0.04930243641138077,"42":0.19266502559185028,"43":1.247026801109314,"44":0.22300219535827637,"45":0.38455507159233093,"46":-1.1757771968841553,"47":0.8257846236228943,"48":-0.29279863834381104,"49":0.591315746307373,"50":-0.10739864408969879,"51":-0.13061222434043884,"52":-0.257628470659256,"53":0.6300380825996399,"54":0.9571791291236877,"55":0.6278722882270813,"56":0.45191481709480286,"57":-0.16714535653591156,"58":-0.44198617339134216,"59":0.1487133800983429,"60":-0.2651098966598511,"61":0.7258937954902649,"62":-1.418360948562622,"63":-0.6547889709472656,"64":1.213783621788025,"65":0.2772635519504547,"66":-0.049036841839551926,"67":-1.531013011932373,"68":-0.059961602091789246,"69":-1.2556467056274414,"70":1.3718724250793457,"71":-1.9727643728256226,"72":-0.1246255412697792,"73":-0.6903521418571472,"74":0.3287888467311859,"75":0.06634099781513214,"76":-0.9521383047103882,"77":-0.3944721817970276,"78":-1.8402143716812134,"79":1.3258219957351685,"80":0.247394397854805,"81":-0.6024523377418518,"82":0.48861774802207947,"83":-0.0715867355465889,"84":-0.21635393798351288,"85":0.5150212049484253,"86":1.1281875371932983,"87":-0.3157864212989807,"88":0.2236548215150833,"89":0.4276207685470581,"90":-0.3958846628665924,"91":0.2737444341182709,"92":0.14475522935390472,"93":0.26553651690483093,"94":-0.5833677649497986,"95":0.011601308360695839,"96":0.5480512380599976,"97":-0.612830638885498,"98":1.0023592710494995,"99":-0.8196959495544434,"100":-0.5168108940124512,"101":0.4616408050060272,"102":0.1976613998413086,"103":0.2559209167957306,"104":0.9747134447097778,"105":-0.4729532301425934,"106":0.5680038928985596,"107":0.23202170431613922,"108":-0.5144395232200623,"109":-0.22807708382606506,"110":-0.6155465841293335,"111":0.11417592316865921,"112":0.6190651655197144,"113":-0.329022079706192,"114":0.5624995231628418,"115":-0.5529488325119019,"116":-0.2910090386867523,"117":0.5817275047302246,"118":-0.5365641713142395,"119":-0.3473689556121826,"120":1.1270607709884644,"121":1.1709823608398438,"122":-0.026850465685129166,"123":-0.3547281324863434,"124":0.5470048785209656,"125":0.4050372242927551,"126":0.7967848777770996,"127":2.9240810871124268,"128":0.8808382749557495,"129":-1.2343281507492065,"130":-0.10223665088415146,"131":0.8272750377655029,"132":-0.7224202752113342,"133":1.5027092695236206,"134":-0.9477298855781555,"135":-2.581120491027832,"136":0.17117467522621155,"137":0.7550939321517944,"138":0.6472244262695312,"139":-1.0605442523956299,"140":-0.034820087254047394,"141":0.046398282051086426,"142":0.35343310236930847,"143":-0.8909400105476379,"144":-0.2989501953125,"145":0.5760313272476196,"146":0.05629279091954231,"147":-1.104602575302124,"148":0.44757458567619324,"149":0.9986806511878967,"150":-0.7755120992660522,"151":-0.12239136546850204,"152":-0.6952717304229736,"153":0.8494907021522522,"154":0.2512921988964081,"155":1.623079538345337,"156":1.1405664682388306,"157":0.38517364859580994,"158":-0.015222621150314808,"159":1.9799848794937134,"160":-0.3083069622516632,"161":0.6053978204727173,"162":-0.1402127593755722,"163":1.483698844909668,"164":0.6982015371322632,"165":-0.5212423205375671,"166":-0.15640565752983093,"167":-0.8883524537086487,"168":-0.2181369960308075,"169":-0.019295895472168922,"170":-0.4607805013656616,"171":-1.2655925750732422,"172":-0.37767282128334045,"173":0.8116899728775024,"174":0.5035722851753235,"175":0.2470424473285675,"176":0.6353334188461304,"177":0.19218625128269196,"178":-0.8982027769088745,"179":-0.37780696153640747,"180":-0.5219724774360657,"181":0.5870817303657532,"182":0.6124241352081299,"183":0.19410806894302368,"184":-0.15037304162979126,"185":-0.5331301689147949,"186":-0.009855004027485847,"187":0.14388741552829742,"188":-1.1421047449111938,"189":0.33839181065559387,"190":-0.284494549036026,"191":0.47488364577293396,"192":-1.5401054620742798,"193":0.33811885118484497,"194":0.20327843725681305,"195":0.793059766292572,"196":0.7243983149528503,"197":-0.6153587102890015,"198":0.13637389242649078,"199":-0.33431610465049744,"200":0.12613201141357422,"201":-0.34144946932792664,"202":-2.716010808944702,"203":0.1773148626089096,"204":0.38981807231903076,"205":0.7897250652313232,"206":0.26468807458877563,"207":1.0709161758422852,"208":-0.22316838800907135,"209":-2.5330629348754883,"210":1.2702841758728027,"211":0.32019108533859253,"212":0.23021496832370758,"213":-0.5174866318702698,"214":1.6074780225753784,"215":-1.0881389379501343,"216":-0.8959510922431946,"217":1.1710221767425537,"218":-0.9569861888885498,"219":0.9862808585166931,"220":1.7872403860092163,"221":-0.4262166917324066,"222":0.29870328307151794,"223":0.7817850112915039,"224":-0.45828473567962646,"225":1.3267419338226318,"226":-0.5780736207962036,"227":-2.2008142471313477,"228":2.138085126876831,"229":0.7644223570823669,"230":-0.5157233476638794,"231":0.8144990801811218,"232":-0.9712016582489014,"233":0.32144641876220703,"234":-1.1991111040115356,"235":-0.5430837869644165,"236":1.7238584756851196,"237":-1.4376276731491089,"238":1.3589626550674438,"239":-1.7030510902404785,"240":0.7711405754089355,"241":-0.678484320640564,"242":0.31791064143180847,"243":-0.5098084807395935,"244":-0.00454306323081255,"245":0.6586846709251404,"246":0.2765786945819855,"247":0.5183665156364441,"248":0.494077205657959,"249":0.5493935346603394,"250":0.3197724521160126,"251":-0.2114362269639969,"252":-0.2707633972167969,"253":-0.05420432984828949,"254":-0.01958644576370716,"255":0.20924755930900574,"256":0.5742763876914978,"257":-0.4517036974430084,"258":0.3211248815059662,"259":0.288499653339386,"260":0.9948743581771851,"261":-0.06375031173229218,"262":-0.028020888566970825,"263":0.8393779993057251,"264":-1.1017286777496338,"265":1.148058295249939,"266":1.1147406101226807,"267":0.31358397006988525,"268":-1.0205843448638916,"269":-0.31752511858940125,"270":0.9433839321136475,"271":0.2548700273036957,"272":-0.22388029098510742,"273":-0.45127248764038086,"274":1.2360661029815674,"275":-1.1031608581542969,"276":0.1674930453300476,"277":-0.06552170217037201,"278":0.6581493020057678,"279":0.30235424637794495,"280":0.6243841052055359,"281":0.45581334829330444,"282":-0.7640264630317688,"283":-0.4087814390659332,"284":0.3705498278141022,"285":0.23869900405406952,"286":-0.1707068681716919,"287":0.7766727209091187,"288":1.218510389328003,"289":-1.1068954467773438,"290":-0.094392329454422,"291":0.29415014386177063,"292":-1.2759032249450684,"293":0.8235056400299072,"294":-1.1359567642211914,"295":0.10392412543296814,"296":0.29158326983451843,"297":1.3283919095993042,"298":-0.6568936705589294,"299":0.33217695355415344,"300":0.25181064009666443,"301":0.7620391249656677,"302":0.7827811241149902,"303":-1.3379079103469849,"304":0.8208924531936646,"305":-1.6571954488754272,"306":0.8361088037490845,"307":-1.6850612163543701,"308":-0.0049208104610443115,"309":-0.1812034696340561,"310":-0.6553386449813843,"311":-0.729488730430603,"312":-0.5694852471351624,"313":0.1384471356868744,"314":-0.24792063236236572,"315":-1.394266128540039,"316":-1.1070364713668823,"317":-0.07335107028484344,"318":0.2008437067270279,"319":-2.0807735919952393,"320":-1.060114860534668,"321":0.7903499007225037,"322":-0.029321158304810524,"323":-2.561948537826538,"324":0.7017646431922913,"325":-0.9031380414962769,"326":-0.7818917632102966,"327":2.755753993988037,"328":-0.7813217639923096,"329":-0.021615227684378624,"330":-0.16080453991889954,"331":0.6822102069854736,"332":0.367529958486557,"333":1.7396008968353271,"334":-0.45642605423927307,"335":1.2501858472824097,"336":-0.021707789972424507,"337":-0.4056131839752197,"338":-0.9958998560905457,"339":-1.1625243425369263,"340":-1.4141209125518799,"341":1.4817955493927002,"342":-0.20280557870864868,"343":-0.37443339824676514,"344":1.1673343181610107,"345":-1.88467276096344,"346":0.7524840831756592,"347":-0.21741355955600739,"348":-1.0364325046539307,"349":0.23137196898460388,"350":0.15179042518138885,"351":-0.4201742708683014,"352":1.3439873456954956,"353":-0.9759672284126282,"354":0.5263754725456238,"355":-0.548976719379425,"356":-2.6358699798583984,"357":-0.46486732363700867,"358":-0.42108771204948425,"359":0.9239367842674255,"360":0.2854136824607849,"361":-0.016064923256635666,"362":0.5708965063095093,"363":0.11959221214056015,"364":-0.8015211224555969,"365":0.23574018478393555,"366":-3.0802080631256104,"367":-0.5280635356903076,"368":1.2296826839447021,"369":0.615614652633667,"370":-0.5502529144287109,"371":0.25656092166900635,"372":-0.5609427690505981,"373":0.5262187719345093,"374":-0.859664797782898,"375":-0.038696229457855225,"376":-0.17324595153331757,"377":-0.018761813640594482,"378":0.045693811029195786,"379":0.6838420629501343,"380":-1.3196301460266113,"381":1.7851580381393433,"382":0.05146624520421028,"383":-1.141523838043213,"384":0.07859604805707932,"385":-1.146677851676941,"386":0.22598454356193542,"387":-0.3566919267177582,"388":-0.35276269912719727,"389":-0.39379754662513733,"390":0.3426041305065155,"391":-0.5971274375915527,"392":0.05050601065158844,"393":-0.2975505590438843,"394":-0.3752181828022003,"395":-0.28270718455314636,"396":-0.5391159057617188,"397":0.7851917147636414,"398":-1.3283494710922241,"399":1.2768627405166626}},"forgetBias":{"rows":20,"columns":1,"weights":{"0":0,"1":0,"2":0,"3":0,"4":0,"5":0,"6":0,"7":0,"8":0,"9":0,"10":0,"11":0,"12":0,"13":0,"14":0,"15":0,"16":0,"17":0,"18":0,"19":0}},"outputMatrix":{"rows":20,"columns":10,"weights":{"0":-1.3815611600875854,"1":-3.046565532684326,"2":-0.1338648945093155,"3":0.47047337889671326,"4":-0.9136029481887817,"5":2.969075918197632,"6":-0.16053268313407898,"7":0.17543086409568787,"8":0.0550854355096817,"9":0.3187542259693146,"10":-0.3629555404186249,"11":0.5582911372184753,"12":-0.44312235713005066,"13":-1.5335320234298706,"14":-1.3169176578521729,"15":0.7186967134475708,"16":0.5323607921600342,"17":0.35515597462654114,"18":-0.10997501015663147,"19":0.1475408673286438,"20":0.5764899849891663,"21":-0.7064658999443054,"22":-0.46115317940711975,"23":0.6983046531677246,"24":1.6061369180679321,"25":0.317466139793396,"26":0.7883892059326172,"27":-0.9586156010627747,"28":0.2172815501689911,"29":0.7807815074920654,"30":-2.979954957962036,"31":-0.5413706302642822,"32":-0.45102137327194214,"33":-1.7061212062835693,"34":-0.45768553018569946,"35":1.9722185134887695,"36":0.28436392545700073,"37":1.2598572969436646,"38":0.5086303949356079,"39":0.348894327878952,"40":-0.49276307225227356,"41":-1.2680264711380005,"42":1.4277801513671875,"43":-1.4733822345733643,"44":-2.241122007369995,"45":0.18792477250099182,"46":-1.4084322452545166,"47":-0.331504225730896,"48":-1.2239166498184204,"49":-1.4960066080093384,"50":-0.3536170423030853,"51":-1.8844034671783447,"52":0.7579753994941711,"53":0.46807464957237244,"54":-1.5676113367080688,"55":0.5732354521751404,"56":-1.073596715927124,"57":-0.878072202205658,"58":-1.183110237121582,"59":-1.9167935848236084,"60":-1.09100341796875,"61":0.3166030943393707,"62":-0.011027209460735321,"63":-0.5045374631881714,"64":-1.5584319829940796,"65":0.12321238219738007,"66":0.46698105335235596,"67":0.817171037197113,"68":-0.32631760835647583,"69":-0.1574903428554535,"70":2.091383695602417,"71":0.8040143251419067,"72":0.18673978745937347,"73":1.6737089157104492,"74":0.35666823387145996,"75":1.1175423860549927,"76":-0.19909685850143433,"77":-0.9608773589134216,"78":0.07495953887701035,"79":-0.05636652559041977,"80":-0.16879452764987946,"81":-2.4862778186798096,"82":1.9771978855133057,"83":0.32476532459259033,"84":-0.09289539605379105,"85":1.1837832927703857,"86":-1.9611213207244873,"87":-0.3434172570705414,"88":-2.0832231044769287,"89":-1.338902473449707,"90":0.6368937492370605,"91":-0.20146964490413666,"92":-0.8300333023071289,"93":0.8671735525131226,"94":1.9829007387161255,"95":0.3613757789134979,"96":0.8571123480796814,"97":-0.534791111946106,"98":0.7656179070472717,"99":1.3131333589553833,"100":0.38547879457473755,"101":0.35536155104637146,"102":-0.10313785076141357,"103":-0.16117824614048004,"104":1.0541651248931885,"105":-1.414421558380127,"106":0.7107270359992981,"107":-0.3757553994655609,"108":-0.08576532453298569,"109":-0.05250151455402374,"110":0.14895007014274597,"111":-0.3278050124645233,"112":1.1936640739440918,"113":-1.6764274835586548,"114":-1.053100824356079,"115":1.015148639678955,"116":-1.1503626108169556,"117":0.3511101007461548,"118":-1.2841160297393799,"119":-1.1666574478149414,"120":0.003252316964790225,"121":0.26475706696510315,"122":1.1975067853927612,"123":-1.7910301685333252,"124":0.6602389812469482,"125":1.8126347064971924,"126":-0.9910393953323364,"127":0.01722482033073902,"128":-1.1533236503601074,"129":-0.4859939515590668,"130":-2.6051762104034424,"131":-0.22382879257202148,"132":-0.38203078508377075,"133":1.3085626363754272,"134":0.31643402576446533,"135":1.6457030773162842,"136":0.45721936225891113,"137":1.6406731605529785,"138":0.3864842653274536,"139":0.39562514424324036,"140":-1.8805673122406006,"141":-0.39859214425086975,"142":0.5965138673782349,"143":0.8935828804969788,"144":0.376033216714859,"145":1.418573260307312,"146":-0.4782908856868744,"147":-0.44256556034088135,"148":-0.05691952630877495,"149":-0.08777972310781479,"150":-4.556819915771484,"151":-0.48593786358833313,"152":-0.34881144762039185,"153":0.29761868715286255,"154":-0.8349760174751282,"155":1.6846907138824463,"156":0.36286938190460205,"157":0.5545526742935181,"158":0.030233493074774742,"159":0.2846732437610626,"160":-0.8090459108352661,"161":0.0660041943192482,"162":1.2556774616241455,"163":-0.5337404608726501,"164":0.40913712978363037,"165":0.9739732146263123,"166":-1.0529959201812744,"167":-0.3851282596588135,"168":-1.298542857170105,"169":-0.6767538785934448,"170":-0.2150818407535553,"171":-1.3662216663360596,"172":0.015201379545032978,"173":0.35405832529067993,"174":0.7080423831939697,"175":1.9912503957748413,"176":0.12143293768167496,"177":0.5770237445831299,"178":-0.11388742178678513,"179":0.4467858374118805,"180":-1.8557173013687134,"181":-2.1777901649475098,"182":0.697452962398529,"183":0.9258460998535156,"184":0.7637202143669128,"185":1.121830940246582,"186":-1.6305371522903442,"187":1.2170746326446533,"188":-0.6449354887008667,"189":-1.0084866285324097,"190":1.8436527252197266,"191":-2.2906041145324707,"192":0.025213219225406647,"193":0.9701896905899048,"194":0.9227588772773743,"195":-0.20545414090156555,"196":-0.22286128997802734,"197":-1.0427756309509277,"198":-0.19479914009571075,"199":0.342001736164093}},"outputHidden":{"rows":20,"columns":20,"weights":{"0":-0.6607592105865479,"1":0.4914112091064453,"2":0.5514131188392639,"3":-2.2799055576324463,"4":1.1375409364700317,"5":-0.27898111939430237,"6":-0.8850746750831604,"7":0.31676822900772095,"8":-0.4841162860393524,"9":0.33707356452941895,"10":0.46480169892311096,"11":-0.09837642312049866,"12":0.2570643126964569,"13":0.2846273183822632,"14":-1.9633146524429321,"15":0.6212263107299805,"16":0.9674689769744873,"17":0.5421814322471619,"18":-0.6056917309761047,"19":-1.1619654893875122,"20":1.012662410736084,"21":0.802038848400116,"22":0.49709346890449524,"23":0.25702375173568726,"24":0.9930105209350586,"25":-0.9249042868614197,"26":1.5710859298706055,"27":-1.2327709197998047,"28":-0.265119343996048,"29":1.0664453506469727,"30":-0.4703880250453949,"31":1.102142095565796,"32":2.9999494552612305,"33":-1.7065662145614624,"34":-1.418567180633545,"35":0.5292749404907227,"36":-1.7672017812728882,"37":0.5648921728134155,"38":1.3073675632476807,"39":0.9924242496490479,"40":-1.5351444482803345,"41":0.8749533295631409,"42":-0.46462148427963257,"43":-1.5994054079055786,"44":-1.0321048498153687,"45":-1.2994405031204224,"46":1.1446523666381836,"47":-0.681928277015686,"48":-1.285914659500122,"49":-1.5975522994995117,"50":0.8604806065559387,"51":-0.12727296352386475,"52":1.1353684663772583,"53":-0.42588648200035095,"54":-0.762351930141449,"55":-1.9551490545272827,"56":-0.9373379349708557,"57":0.12124744057655334,"58":-0.5409718751907349,"59":0.1763230860233307,"60":-1.2750523090362549,"61":-1.5906648635864258,"62":1.4834082126617432,"63":-1.6255238056182861,"64":-0.12197756767272949,"65":-1.7551097869873047,"66":-0.6023904085159302,"67":1.6799932718276978,"68":0.17946738004684448,"69":1.286346435546875,"70":-0.696273684501648,"71":-1.2638038396835327,"72":1.9777995347976685,"73":0.9070175290107727,"74":-1.3518702983856201,"75":0.3957814872264862,"76":-1.1317174434661865,"77":-1.3245652914047241,"78":-0.8743832111358643,"79":2.241014003753662,"80":-1.0905468463897705,"81":0.40862905979156494,"82":0.5310967564582825,"83":-0.3969234824180603,"84":0.8935044407844543,"85":-0.513481080532074,"86":0.07787986844778061,"87":-0.14142554998397827,"88":-0.7520185112953186,"89":0.5324339866638184,"90":-0.5704019069671631,"91":-0.5340394377708435,"92":0.7543662190437317,"93":1.094976544380188,"94":-2.0792503356933594,"95":0.6155291199684143,"96":-0.9648651480674744,"97":-0.24588803946971893,"98":-1.6928147077560425,"99":0.2955094873905182,"100":-0.5149850249290466,"101":0.1312595009803772,"102":0.1935642510652542,"103":-3.2090542316436768,"104":0.0039895460940897465,"105":-0.2816776633262634,"106":-1.1807804107666016,"107":0.014408431947231293,"108":-0.6199795603752136,"109":-0.3143250644207001,"110":-1.1151702404022217,"111":-0.5425959825515747,"112":-0.3827592134475708,"113":-0.13204683363437653,"114":-1.2096890211105347,"115":0.6854918003082275,"116":0.3164876103401184,"117":0.20222336053848267,"118":-0.9208096265792847,"119":-0.7743827700614929,"120":-0.33904391527175903,"121":-2.7308363914489746,"122":1.1646374464035034,"123":0.03509246185421944,"124":-0.5610059499740601,"125":0.2866424322128296,"126":2.2206332683563232,"127":-3.1627068519592285,"128":1.6196482181549072,"129":0.40687552094459534,"130":0.3560386598110199,"131":0.37538185715675354,"132":-0.36710309982299805,"133":-1.0766390562057495,"134":-2.131859302520752,"135":-0.1719023734331131,"136":-0.5264433026313782,"137":-0.056104738265275955,"138":0.2799678146839142,"139":0.9755521416664124,"140":0.339192658662796,"141":-0.605998158454895,"142":0.4729331135749817,"143":-1.203233242034912,"144":0.2007688283920288,"145":0.903603732585907,"146":-0.5736744999885559,"147":-3.259268045425415,"148":0.3460151255130768,"149":0.37031400203704834,"150":-1.1762173175811768,"151":0.7415248155593872,"152":-1.9159412384033203,"153":2.09031081199646,"154":-1.2659977674484253,"155":1.7664629220962524,"156":3.0942859649658203,"157":-0.8243584036827087,"158":0.6418237686157227,"159":-1.573402762413025,"160":0.17358101904392242,"161":-0.11772449314594269,"162":-0.19459132850170135,"163":-0.9907776713371277,"164":0.38055768609046936,"165":0.2510511875152588,"166":-1.2199801206588745,"167":-1.7671798467636108,"168":-0.8952939510345459,"169":0.01759853959083557,"170":0.22703464329242706,"171":0.6046909093856812,"172":-0.7204219698905945,"173":-0.6220211386680603,"174":-1.2019494771957397,"175":2.3135783672332764,"176":1.0251833200454712,"177":-0.3866158723831177,"178":0.7865418195724487,"179":-0.7501245141029358,"180":-0.8618112206459045,"181":0.5385015606880188,"182":0.24888701736927032,"183":-2.0849292278289795,"184":0.9048158526420593,"185":-0.7536818385124207,"186":0.4905455410480499,"187":-1.1323686838150024,"188":-2.552788496017456,"189":-0.7061173319816589,"190":-0.9714697003364563,"191":0.031005896627902985,"192":1.9208441972732544,"193":-0.8984310030937195,"194":-0.32618796825408936,"195":-0.45040926337242126,"196":-0.7586225867271423,"197":0.205505833029747,"198":-0.153660848736763,"199":-0.3953302204608917,"200":-0.15923820436000824,"201":-0.042069338262081146,"202":-1.7965835332870483,"203":0.9169182777404785,"204":0.06720640510320663,"205":-0.026653645560145378,"206":2.1560888290405273,"207":0.48397448658943176,"208":-1.3287408351898193,"209":-0.9189878702163696,"210":0.31010928750038147,"211":-0.2041601538658142,"212":1.4169520139694214,"213":-2.2777693271636963,"214":-1.1268388032913208,"215":-3.3845372200012207,"216":-0.6236051321029663,"217":1.9261537790298462,"218":-0.2535833418369293,"219":0.44521573185920715,"220":-0.09391942620277405,"221":-0.15697742998600006,"222":-0.4609893262386322,"223":0.46514153480529785,"224":-1.0622528791427612,"225":0.19688549637794495,"226":0.41551077365875244,"227":-0.7890130877494812,"228":0.08496159315109253,"229":-0.3865119516849518,"230":-0.7858615517616272,"231":0.03385395556688309,"232":-0.36321067810058594,"233":0.13091416656970978,"234":-0.967207670211792,"235":-0.33936604857444763,"236":0.2870030999183655,"237":-0.6573483943939209,"238":0.6213529109954834,"239":-0.5205560922622681,"240":0.7967618107795715,"241":2.0568697452545166,"242":-1.1157162189483643,"243":2.0920870304107666,"244":0.015223114751279354,"245":0.760982871055603,"246":1.9002554416656494,"247":-1.2131403684616089,"248":0.2172860950231552,"249":-1.3207145929336548,"250":0.6838933229446411,"251":1.4272156953811646,"252":0.16712084412574768,"253":-1.909926414489746,"254":0.9478119611740112,"255":-0.9715632200241089,"256":-0.7236538529396057,"257":1.8710908889770508,"258":0.8811367154121399,"259":0.11542917042970657,"260":-0.32655104994773865,"261":-0.577387809753418,"262":-0.16898836195468903,"263":-1.3252290487289429,"264":-1.4313322305679321,"265":0.7387911677360535,"266":0.7355675101280212,"267":-1.1801902055740356,"268":-1.48847496509552,"269":-0.08197207003831863,"270":-0.4582803249359131,"271":0.8083155155181885,"272":-0.0486670546233654,"273":-1.1809121370315552,"274":-0.8510953187942505,"275":-0.8938994407653809,"276":1.0484795570373535,"277":0.6198283433914185,"278":1.3916257619857788,"279":-1.3741073608398438,"280":-0.8897078037261963,"281":0.9096101522445679,"282":0.27756601572036743,"283":-0.27448296546936035,"284":2.5907983779907227,"285":-2.3578457832336426,"286":1.2753294706344604,"287":2.264547824859619,"288":-1.268647313117981,"289":0.16377794742584229,"290":-1.2147635221481323,"291":-0.7472614049911499,"292":0.8062478303909302,"293":-0.239635169506073,"294":0.7807930111885071,"295":-0.8946336507797241,"296":-2.7497308254241943,"297":0.25895074009895325,"298":-0.9352825880050659,"299":-0.5885691046714783,"300":0.3119063377380371,"301":-1.0952744483947754,"302":1.134489893913269,"303":-1.1395331621170044,"304":0.21585305035114288,"305":-0.06305783241987228,"306":0.3873851001262665,"307":1.2044585943222046,"308":-1.779058575630188,"309":0.9062801003456116,"310":-0.85179203748703,"311":1.4021077156066895,"312":2.321622848510742,"313":-1.1023730039596558,"314":-2.3403573036193848,"315":-0.7098544239997864,"316":-1.1539769172668457,"317":0.2740015387535095,"318":0.5391440391540527,"319":-1.0484544038772583,"320":0.9311080574989319,"321":2.175668239593506,"322":-0.9302154183387756,"323":1.254814624786377,"324":-0.12559236586093903,"325":0.4805988371372223,"326":1.9703296422958374,"327":-1.6379895210266113,"328":0.19155023992061615,"329":-1.1013152599334717,"330":1.2990710735321045,"331":1.2990479469299316,"332":-0.5367861986160278,"333":-1.8421075344085693,"334":1.5451686382293701,"335":-0.715070366859436,"336":0.0011678499868139625,"337":1.1658433675765991,"338":1.08318293094635,"339":0.5444443821907043,"340":-0.3404223620891571,"341":2.5534846782684326,"342":1.3664129972457886,"343":-1.2316557168960571,"344":-0.621610701084137,"345":-0.277664452791214,"346":0.4092857241630554,"347":-0.9521791338920593,"348":-0.5871012210845947,"349":1.1540390253067017,"350":-0.3057387173175812,"351":1.3824199438095093,"352":0.8672038912773132,"353":-2.291978359222412,"354":-1.0243442058563232,"355":-0.5841787457466125,"356":-0.5384112000465393,"357":-0.704023003578186,"358":0.5806158781051636,"359":-0.8416098356246948,"360":0.558804988861084,"361":0.011934646405279636,"362":0.4299524128437042,"363":0.5156810879707336,"364":-0.4547499418258667,"365":-0.09534097462892532,"366":-1.8651257753372192,"367":-0.7521716356277466,"368":-0.1732054054737091,"369":0.41936221718788147,"370":-1.1282804012298584,"371":-0.19645476341247559,"372":-1.5887458324432373,"373":0.24776028096675873,"374":-0.8113490343093872,"375":0.33124083280563354,"376":1.8298226594924927,"377":-0.6400860548019409,"378":-0.059259530156850815,"379":-1.874240517616272,"380":0.3955931067466736,"381":0.7025372982025146,"382":-0.20560000836849213,"383":3.3222877979278564,"384":1.1258156299591064,"385":0.030260387808084488,"386":-0.06751616299152374,"387":-1.2505989074707031,"388":-1.8444397449493408,"389":0.9240462779998779,"390":-0.6601082682609558,"391":0.7141886949539185,"392":1.6572636365890503,"393":0.5532150268554688,"394":-0.1984797716140747,"395":2.148369789123535,"396":0.2175014466047287,"397":-0.9223102927207947,"398":0.2958652973175049,"399":3.7496790885925293}},"outputBias":{"rows":20,"columns":1,"weights":{"0":1.8645713329315186,"1":-0.7782812118530273,"2":1.4248664379119873,"3":2.548713445663452,"4":-1.3548592329025269,"5":1.5390543937683105,"6":1.1436902284622192,"7":-0.16633479297161102,"8":-0.18301856517791748,"9":1.9816954135894775,"10":0.4392762780189514,"11":1.4574109315872192,"12":0.942863404750824,"13":1.0022517442703247,"14":2.6586318016052246,"15":0.36488550901412964,"16":1.3231244087219238,"17":-0.9570695161819458,"18":0.3294215798377991,"19":1.1486021280288696}},"cellActivationMatrix":{"rows":20,"columns":10,"weights":{"0":1.1142370700836182,"1":-1.370112657546997,"2":1.3229411840438843,"3":-1.156079649925232,"4":-1.973900556564331,"5":0.2589954137802124,"6":-1.3037312030792236,"7":-0.6742225885391235,"8":-1.1816564798355103,"9":-1.1730259656906128,"10":0.8313226699829102,"11":1.1011476516723633,"12":-1.0168131589889526,"13":1.085687518119812,"14":1.2964884042739868,"15":0.9454054236412048,"16":1.0287007093429565,"17":-0.6726016998291016,"18":0.8373441100120544,"19":1.447879433631897,"20":-0.015602546744048595,"21":-0.7635613083839417,"22":1.1766822338104248,"23":-0.24922893941402435,"24":0.43593770265579224,"25":-0.6720638871192932,"26":-0.45350760221481323,"27":0.36035287380218506,"28":-1.1357111930847168,"29":-0.9333531856536865,"30":0.14426934719085693,"31":-0.9065911769866943,"32":0.5047526955604553,"33":-1.2046093940734863,"34":-0.440771222114563,"35":-0.5574367046356201,"36":-0.49993956089019775,"37":1.1826027631759644,"38":-0.6222449541091919,"39":-0.5764098167419434,"40":-1.113937258720398,"41":0.7234766483306885,"42":-0.7502686977386475,"43":0.7776734828948975,"44":1.422845482826233,"45":-0.873939037322998,"46":0.46702298521995544,"47":1.0912458896636963,"48":0.6527280211448669,"49":0.7941958904266357,"50":0.991498589515686,"51":-0.999243438243866,"52":1.3557474613189697,"53":-0.2664543092250824,"54":-0.40897226333618164,"55":0.14079619944095612,"56":-1.2475553750991821,"57":-0.6076165437698364,"58":-1.3100088834762573,"59":-1.225833535194397,"60":1.2722162008285522,"61":0.30248403549194336,"62":-0.027955345809459686,"63":1.61468505859375,"64":2.0221149921417236,"65":0.7730076909065247,"66":0.20493899285793304,"67":0.34244921803474426,"68":-0.06270774453878403,"69":1.023972511291504,"70":-2.2525453567504883,"71":-0.18388631939888,"72":-0.5641393065452576,"73":0.4382206201553345,"74":0.8874492645263672,"75":1.810746192932129,"76":0.7739918231964111,"77":1.290381669998169,"78":0.5169771909713745,"79":0.8944687247276306,"80":0.2878570854663849,"81":-1.5900264978408813,"82":1.552857518196106,"83":0.2104571908712387,"84":-1.6192234754562378,"85":0.3633897006511688,"86":-1.261111855506897,"87":-0.3367210030555725,"88":-1.4542076587677002,"89":-1.4673265218734741,"90":0.14688217639923096,"91":-0.8496132493019104,"92":0.4459399878978729,"93":-0.10909644514322281,"94":-0.17995890974998474,"95":-0.27440324425697327,"96":-0.23441211879253387,"97":0.06738676130771637,"98":-0.496137797832489,"99":-0.6249170899391174,"100":-0.011515695601701736,"101":-0.30397361516952515,"102":-0.048802509903907776,"103":0.8790998458862305,"104":0.42575109004974365,"105":1.138812780380249,"106":0.0537530742585659,"107":-0.1539817899465561,"108":0.016063954681158066,"109":0.6584959030151367,"110":-0.038726307451725006,"111":-0.759917140007019,"112":1.0111451148986816,"113":0.012380841188132763,"114":-0.5014708042144775,"115":0.8570598363876343,"116":-1.008560299873352,"117":-0.6457087993621826,"118":-1.0324122905731201,"119":-1.1031031608581543,"120":-0.2574101984500885,"121":1.3724676370620728,"122":-1.2378103733062744,"123":-0.48051050305366516,"124":1.4936140775680542,"125":-0.05547446012496948,"126":0.9700934886932373,"127":-0.11960242688655853,"128":1.2201628684997559,"129":1.2933435440063477,"130":0.7684128880500793,"131":0.5119717717170715,"132":-0.5901758074760437,"133":-1.7270913124084473,"134":-0.7155641913414001,"135":-1.1521236896514893,"136":1.0493431091308594,"137":-0.9186419248580933,"138":0.7632483839988708,"139":-0.24313895404338837,"140":0.632168710231781,"141":-0.03626648709177971,"142":-0.709735631942749,"143":-0.8555462956428528,"144":0.12963972985744476,"145":-1.6198852062225342,"146":1.567030668258667,"147":-1.0144312381744385,"148":0.7662922143936157,"149":1.2264600992202759,"150":0.7383008599281311,"151":-0.5302878618240356,"152":0.07852403819561005,"153":-2.241590738296509,"154":-2.3964903354644775,"155":-1.1420668363571167,"156":0.04832170903682709,"157":-0.3044067919254303,"158":-0.14161458611488342,"159":-1.1889568567276,"160":0.5983105301856995,"161":-0.44005027413368225,"162":1.0049349069595337,"163":-0.8572978377342224,"164":-2.25473952293396,"165":0.73070228099823,"166":-1.0243281126022339,"167":-1.328895926475525,"168":-1.0376598834991455,"169":-1.3961148262023926,"170":0.5169301629066467,"171":0.7687670588493347,"172":-0.6237797737121582,"173":0.4366917014122009,"174":-0.2755233645439148,"175":1.3111324310302734,"176":0.6507860422134399,"177":0.06339113414287567,"178":0.29047414660453796,"179":0.6505724191665649,"180":0.6767278909683228,"181":-1.3222500085830688,"182":1.007948398590088,"183":-0.7148120403289795,"184":-1.4803634881973267,"185":0.21924836933612823,"186":-1.028625249862671,"187":0.7222967147827148,"188":-1.26630437374115,"189":-1.2341861724853516,"190":-0.15335659682750702,"191":0.7936640381813049,"192":-0.4797818958759308,"193":0.6540728211402893,"194":1.1513980627059937,"195":1.5756118297576904,"196":0.3947187066078186,"197":-0.1711583286523819,"198":0.42534422874450684,"199":0.4903995394706726}},"cellActivationHidden":{"rows":20,"columns":20,"weights":{"0":-1.4746876955032349,"1":0.04427623748779297,"2":-0.2109929919242859,"3":0.6635848879814148,"4":0.6635574698448181,"5":-1.0997859239578247,"6":0.8259378671646118,"7":0.025632204487919807,"8":-0.9516946077346802,"9":-0.08295949548482895,"10":0.29797694087028503,"11":0.18041010200977325,"12":1.501556396484375,"13":-0.044447362422943115,"14":-0.5058038234710693,"15":-0.4793865978717804,"16":-1.1877524852752686,"17":0.04773987457156181,"18":-0.05288653448224068,"19":-0.5614109039306641,"20":0.13417474925518036,"21":-0.9281105399131775,"22":0.4772842824459076,"23":-0.2214445173740387,"24":0.2723146080970764,"25":0.16598963737487793,"26":-0.07205651700496674,"27":-0.6099222898483276,"28":0.015513161197304726,"29":0.40053290128707886,"30":-0.04490611329674721,"31":0.19310960173606873,"32":0.5033937692642212,"33":0.01711534895002842,"34":-0.013852762058377266,"35":0.6010735630989075,"36":-0.5015132427215576,"37":-0.18584701418876648,"38":0.22481559216976166,"39":-0.03920116648077965,"40":-0.5035262107849121,"41":1.0411853790283203,"42":-0.5698674321174622,"43":0.1314447522163391,"44":-0.31267014145851135,"45":-0.38960912823677063,"46":1.1461503505706787,"47":-0.31690463423728943,"48":-0.6783566474914551,"49":-0.48700979351997375,"50":1.28789222240448,"51":-0.08870156854391098,"52":0.525623619556427,"53":-0.6882780194282532,"54":0.6927239894866943,"55":-0.3234398365020752,"56":-0.6572239995002747,"57":0.7998782992362976,"58":-0.5516031980514526,"59":0.3820246756076813,"60":1.0122660398483276,"61":-0.404162734746933,"62":0.37766024470329285,"63":-0.9792889356613159,"64":-0.7822058796882629,"65":1.7052439451217651,"66":-0.27943655848503113,"67":0.8234007358551025,"68":1.0870641469955444,"69":0.8482982516288757,"70":-0.689812421798706,"71":2.0354502201080322,"72":-0.0872906967997551,"73":0.26455438137054443,"74":-0.7876956462860107,"75":0.5726003050804138,"76":0.6598374247550964,"77":-0.6456810235977173,"78":1.0363433361053467,"79":-1.6233488321304321,"80":-0.006315391510725021,"81":0.17235755920410156,"82":-0.7367116212844849,"83":1.8388216495513916,"84":-0.26687684655189514,"85":0.3254852294921875,"86":0.1978943943977356,"87":0.9754067063331604,"88":-0.08428895473480225,"89":0.11497515439987183,"90":-0.027626249939203262,"91":0.5854929089546204,"92":-0.0052535925060510635,"93":-0.19306311011314392,"94":0.8746777772903442,"95":-1.041548490524292,"96":-0.09075877815485,"97":0.2699275016784668,"98":0.39162975549697876,"99":0.40868374705314636,"100":0.16016918420791626,"101":0.3382205367088318,"102":-0.4512307345867157,"103":1.0564152002334595,"104":0.13924077153205872,"105":-0.5157363414764404,"106":0.3894100785255432,"107":-0.5432939529418945,"108":-0.24380041658878326,"109":-0.49025553464889526,"110":0.5955213904380798,"111":-0.4203387200832367,"112":0.837425947189331,"113":-0.18176434934139252,"114":-0.21790781617164612,"115":-0.2736789584159851,"116":-0.9347849488258362,"117":-0.632933497428894,"118":0.20481058955192566,"119":-0.243586003780365,"120":-1.0470553636550903,"121":-1.2380642890930176,"122":0.7821570634841919,"123":0.07800772786140442,"124":-1.1973955631256104,"125":0.3584662675857544,"126":-0.7970820069313049,"127":-1.0156100988388062,"128":0.7051289677619934,"129":2.1409785747528076,"130":-0.40894877910614014,"131":-0.10620076209306717,"132":-0.9361133575439453,"133":0.26369890570640564,"134":-0.35926979780197144,"135":0.2724760174751282,"136":0.5180765390396118,"137":-1.5293582677841187,"138":1.241073489189148,"139":-2.0877342224121094,"140":0.2725023329257965,"141":-0.9073829054832458,"142":1.6955584287643433,"143":-0.4318928122520447,"144":-1.6084412336349487,"145":0.33936572074890137,"146":-0.12299419194459915,"147":0.715483546257019,"148":0.8241806030273438,"149":1.2589830160140991,"150":-0.7257652878761292,"151":0.5058059692382812,"152":-0.11372534930706024,"153":0.28208187222480774,"154":-0.3968822956085205,"155":0.29962852597236633,"156":0.6090226769447327,"157":-0.7775698304176331,"158":-0.10983376204967499,"159":-1.7941519021987915,"160":-0.19883549213409424,"161":0.13994021713733673,"162":-0.36723101139068604,"163":0.11904143542051315,"164":-0.22566042840480804,"165":-0.7200396656990051,"166":0.80934077501297,"167":-0.5057393312454224,"168":0.14005929231643677,"169":-0.3179745674133301,"170":0.20454618334770203,"171":-1.0135667324066162,"172":1.0771355628967285,"173":-0.1070178747177124,"174":-0.4113779664039612,"175":-0.4684281647205353,"176":-1.257970929145813,"177":0.0931057557463646,"178":-0.2629513144493103,"179":-0.8529543280601501,"180":-0.9721426367759705,"181":0.7254465818405151,"182":-0.4047749936580658,"183":0.3374061584472656,"184":0.1598723977804184,"185":-0.6298356056213379,"186":1.0087467432022095,"187":0.013190570287406445,