{"type":"LSTM","options":{"inputSize":14,"inputRange":14,"hiddenLayers":[10,20,10],"outputSize":14,"decayRate":0.999,"smoothEps":1e-8,"regc":0.000001,"clipval":5,"maxPredictionLength":100,"dataFormatter":{"values":[["2","8","7","5"," ","3","2","8","7"," ","5","1","0","9"," ","5","1","0","8"," ","8","3","0"," ","2","8","7","5"," ","5","1","0","8"," ","1","6","4","2"," ","5","2"," ","5","1","0","8"," ","1","6","3","8"," ","5","1","1","2"," ","5","1","1","3"," ","3","2","8","7"," ","5","1","1","0"," ","5","1","0","8"," ","8","6","1"," ","2","5","3"," ","2","5","3"," ","4","1","2","1"," ","5","1","1","3"," ","5","1","0","8"," ","5","5","0"," ","1","0","8","4"," ","5","1","0","8"," ","2","8","7","5"," ","1","0","8","4"," ","5","5","0"," ","6","4","3"," ","3","2","8","7"," ","5","1","0","8"," ","1","6","4","2"," ","5","2"," ","5","1","0","8"," ","1","6","3","8"," ","5","1","1","2"," ","5","1","1","0"," ","4","5"," ","5","1","0","8"," ","5","0"," ","5","1","0","8"," ","8","6","1"," ","2","5","3"," ","2","5","3"," ","4","1","2","1"," ","5","1","1","3"," ","2","1","7","1"," ","5","1","0","8"," ","5","5","0"," ","1","6","3","8"," ","4","5"," ","2","8","7","4"," ","5","1","0","9"," ","5","0"," ","5","1","0","9"," ","4","6","3","9"," ","3","2","8","7"," ","5","1","0","9"," ","5","1","0","8"," ","2","1","0","8"," ","5","1","1","0"," ","5","1","0","8"," ","5","1","1","4"," ","3","2","8","7"," ","2","8","7","5"," ","5","5","0"," ","1","6","3","8"," ","2","7","9","5"," "],["4","9","9"," ","4","1","2","1"," ","4","1","2","1"," ","4","1","2","1"," ","4","4","0"," ","5","1","0","8"," ","2","8","7","5"," ","8","3","0"," ","5","1","0","9"," ","5","0"," ","6","4","3"," ","8","3","0"," ","5","1","1","0"," ","5","1","0","8"," ","5","1","1","1"," ","5","1","1","0"," ","1","0","8","4"," ","5","1","0","9"," ","5","1","0","8"," ","5","1","0","9"," ","3","2","8","7"," ","6","4","3"," ","8","3","0"," ","5","1","0","9"," ","5","1","0","9"," ","3","2","8","7"," ","6","4","3"," ","5","1","0","8"," ","1","6","3","8"," ","4","5"," ","5","1","0","9"," ","5","1","0","8"," ","5","0"," ","5","1","0","9"," ","6","4","3"," ","3","2","8","7"," ","5","1","0","8"," ","4","6","3","9"," ","1","0","8","4"," ","5","1","0","8"," ","5","1","1","1"," ","3","2","8","7"," ","2","8","7","4"," "]],"indexTable":{"0":7,"1":6,"2":0,"3":5,"4":10,"5":3,"6":9,"7":2,"8":1,"9":8," ":4,"stop-input":11,"start-output":12,"unrecognized":13},"characterTable":{"0":"2","1":"8","2":"7","3":"5","4":" ","5":"3","6":"1","7":"0","8":"9","9":"6","10":"4","11":null,"12":null,"13":null},"characters":["2","8","7","5"," ","3","1","0","9","6","4","stop-input","start-output","unrecognized"],"specialIndexes":[11,12,13]}},"input":{"rows":15,"columns":14,"weights":{"0":-0.8538210391998291,"1":-0.7731680274009705,"2":-0.6374818682670593,"3":1.1065421104431152,"4":0.01908031478524208,"5":1.5406885147094727,"6":-1.0860447883605957,"7":-1.0544542074203491,"8":0.004580372013151646,"9":-0.9604382514953613,"10":0.4928017556667328,"11":1.2260267734527588,"12":0.03971053287386894,"13":1.5941951274871826,"14":-0.17477449774742126,"15":0.17810551822185516,"16":3.9526374340057373,"17":-1.702839970588684,"18":-1.8142400979995728,"19":-1.1940789222717285,"20":-2.469330310821533,"21":-0.46513277292251587,"22":1.2046819925308228,"23":0.8995918035507202,"24":-1.7608901262283325,"25":-0.535541832447052,"26":-1.3727829456329346,"27":-2.0508005619049072,"28":3.7499756813049316,"29":-0.1399930715560913,"30":0.36682549118995667,"31":-0.42001551389694214,"32":2.3523409366607666,"33":-0.9502089023590088,"34":7.873915195465088,"35":2.4982762336730957,"36":-0.6629965305328369,"37":2.6645092964172363,"38":1.655153751373291,"39":3.8334078788757324,"40":2.7884950637817383,"41":-1.0107327699661255,"42":-4.177174091339111,"43":-2.6048686504364014,"44":-1.7904499769210815,"45":1.6423548460006714,"46":-0.3838382661342621,"47":2.3822855949401855,"48":1.7945197820663452,"49":-2.2706081867218018,"50":0.7412440180778503,"51":-3.081735849380493,"52":3.8846914768218994,"53":-0.3119504153728485,"54":3.4085147380828857,"55":3.3040809631347656,"56":-2.2145791053771973,"57":-0.6325330138206482,"58":0.7668504118919373,"59":-3.757286548614502,"60":-0.7722324728965759,"61":-1.1882895231246948,"62":-0.9695069193840027,"63":-1.9485888481140137,"64":1.6284688711166382,"65":0.012451715767383575,"66":-0.2846131920814514,"67":-0.006226561963558197,"68":-0.680742621421814,"69":-0.2949058413505554,"70":0.6412368416786194,"71":-1.1240307092666626,"72":1.3281513452529907,"73":2.2541730403900146,"74":-0.20081309974193573,"75":0.7279050350189209,"76":1.0489580631256104,"77":0.8587365746498108,"78":1.3817009925842285,"79":1.095598578453064,"80":0.8256431818008423,"81":-1.2339446544647217,"82":0.4506404995918274,"83":0.756784975528717,"84":0.21613317728042603,"85":-0.8519965410232544,"86":0.02316437102854252,"87":4.635720252990723,"88":-0.2545337378978729,"89":-0.47652098536491394,"90":2.8188767433166504,"91":-0.7878707647323608,"92":1.2564125061035156,"93":-3.0904617309570312,"94":0.4916229248046875,"95":-3.387132167816162,"96":1.6539860963821411,"97":0.7661821842193604,"98":1.628347635269165,"99":-1.1939067840576172,"100":-0.6206812858581543,"101":0.3290483355522156,"102":-0.8739033341407776,"103":2.8395678997039795,"104":2.0652663707733154,"105":-0.9298182129859924,"106":-1.8746521472930908,"107":-2.7085251808166504,"108":1.3388230800628662,"109":0.9804282188415527,"110":3.085214138031006,"111":0.09235446900129318,"112":1.2823572158813477,"113":-1.983741283416748,"114":-2.4263195991516113,"115":0.2973646819591522,"116":1.2647696733474731,"117":-0.01819922775030136,"118":1.643419623374939,"119":2.0392305850982666,"120":-1.1432344913482666,"121":1.7108405828475952,"122":0.12005964666604996,"123":-0.3107157349586487,"124":-0.8460581302642822,"125":-1.2493629455566406,"126":-0.7606353163719177,"127":1.2490553855895996,"128":-1.5679957866668701,"129":-1.9013334512710571,"130":0.9653363227844238,"131":0.5850483775138855,"132":0.3072752356529236,"133":-0.21072649955749512,"134":-2.834946632385254,"135":0.30175212025642395,"136":0.8331076502799988,"137":0.7859559059143066,"138":0.11102323979139328,"139":-1.9412755966186523,"140":-0.4956549108028412,"141":-2.1847903728485107,"142":-1.4522895812988281,"143":4.109805583953857,"144":2.4285998344421387,"145":0.47656744718551636,"146":-0.22066453099250793,"147":-1.9135944843292236,"148":-0.6991831064224243,"149":-3.5973191261291504,"150":2.7978391647338867,"151":0.822970449924469,"152":3.483242988586426,"153":0.6986932158470154,"154":0.665311872959137,"155":0.24699187278747559,"156":0.7472445368766785,"157":-1.068259358406067,"158":0.46606016159057617,"159":0.02644922398030758,"160":-0.21638812124729156,"161":0.6004260778427124,"162":1.1616381406784058,"163":-0.49464669823646545,"164":1.3502739667892456,"165":-1.166938304901123,"166":1.6027240753173828,"167":-1.4642070531845093,"168":-1.4219892024993896,"169":-3.6977386474609375,"170":-2.210547924041748,"171":1.6672136783599854,"172":1.2621971368789673,"173":-0.6411092877388,"174":-3.4911742210388184,"175":-2.5780911445617676,"176":1.9603791236877441,"177":-4.682433128356934,"178":2.703146457672119,"179":0.12616011500358582,"180":2.8171966075897217,"181":0.03239841014146805,"182":-0.6163020730018616,"183":-1.493059515953064,"184":-2.7627265453338623,"185":4.496068000793457,"186":-0.5791388750076294,"187":-0.3456750810146332,"188":3.87455677986145,"189":-3.179654598236084,"190":-0.4690426290035248,"191":-4.068055152893066,"192":-1.1266876459121704,"193":2.1892130374908447,"194":-1.3269270658493042,"195":2.6255292892456055,"196":-0.04055223986506462,"197":0.052388522773981094,"198":0.039934154599905014,"199":-0.05788517743349075,"200":0.07165379077196121,"201":0.03703010827302933,"202":0.07052062451839447,"203":-0.044551167637109756,"204":-0.03720739483833313,"205":0.033802200108766556,"206":-0.033328086137771606,"207":0.057219281792640686,"208":-0.0314587838947773,"209":0.021675001829862595}},"hiddenLayers":[{"inputMatrix":{"rows":10,"columns":14,"weights":{"0":-0.42953765392303467,"1":-0.14099323749542236,"2":1.1974278688430786,"3":-0.44221019744873047,"4":-1.5428190231323242,"5":-0.5366573929786682,"6":-2.5247843265533447,"7":-0.46430379152297974,"8":1.0660178661346436,"9":-0.21518823504447937,"10":-0.5311940312385559,"11":-0.5309699773788452,"12":-0.5583503246307373,"13":0.768751323223114,"14":-0.23932816088199615,"15":-1.9327336549758911,"16":-0.38393208384513855,"17":0.3317449390888214,"18":1.0239439010620117,"19":1.1809502840042114,"20":0.6784954071044922,"21":-0.9634067416191101,"22":-0.3718923330307007,"23":-0.6930829286575317,"24":1.0285494327545166,"25":0.935814619064331,"26":0.2786312997341156,"27":-0.04004690423607826,"28":-1.162041187286377,"29":-0.058100536465644836,"30":0.32844316959381104,"31":0.6055994629859924,"32":-0.16839717328548431,"33":-0.1458081603050232,"34":0.3059990108013153,"35":-0.7180614471435547,"36":0.006695781368762255,"37":-0.1285429149866104,"38":-0.343364953994751,"39":0.05850007385015488,"40":0.16383013129234314,"41":-0.6211680173873901,"42":-0.6026222109794617,"43":-0.2521737813949585,"44":-0.05707000941038132,"45":0.7560437321662903,"46":0.765277087688446,"47":1.3964723348617554,"48":0.5456189513206482,"49":-0.43995431065559387,"50":-0.23651324212551117,"51":-0.5616019368171692,"52":1.5901037454605103,"53":-0.17259879410266876,"54":1.8625504970550537,"55":0.08559751510620117,"56":-0.5979867577552795,"57":-0.1332239955663681,"58":-0.4908985197544098,"59":0.1953076422214508,"60":0.5188497304916382,"61":0.2762187123298645,"62":0.5360249876976013,"63":-0.7216992974281311,"64":-0.7369809150695801,"65":-0.7533928751945496,"66":0.4700886011123657,"67":0.5465101599693298,"68":0.7897239327430725,"69":0.1376991868019104,"70":0.1910170614719391,"71":0.9640065431594849,"72":-0.6538670063018799,"73":-0.48784637451171875,"74":-0.5436016321182251,"75":0.7561014890670776,"76":-2.0106961727142334,"77":0.547126293182373,"78":-0.7368558049201965,"79":0.08112182468175888,"80":-0.3737202286720276,"81":0.7965351939201355,"82":-0.6280335783958435,"83":1.3892499208450317,"84":-0.9008100628852844,"85":-0.0853496715426445,"86":-0.8888033628463745,"87":0.32913175225257874,"88":0.3994186818599701,"89":-0.13509969413280487,"90":-0.043833374977111816,"91":0.12568514049053192,"92":-0.02546732686460018,"93":-0.2560492157936096,"94":-0.0753837302327156,"95":-0.047994885593652725,"96":-0.36805102229118347,"97":0.5514640212059021,"98":1.2225717306137085,"99":1.3453457355499268,"100":0.16870470345020294,"101":-0.03698468580842018,"102":-0.07738184183835983,"103":-1.0528695583343506,"104":-0.40943917632102966,"105":1.2554036378860474,"106":0.12917499244213104,"107":1.0972033739089966,"108":-0.415303111076355,"109":0.1858828216791153,"110":-1.242606282234192,"111":-0.002697638003155589,"112":0.2959865629673004,"113":-0.050755057483911514,"114":-0.5695238709449768,"115":0.7998135089874268,"116":0.18984128534793854,"117":0.5589309334754944,"118":0.2430627942085266,"119":-0.018158935010433197,"120":0.12549041211605072,"121":-0.15717120468616486,"122":0.4092708230018616,"123":-0.2693118751049042,"124":0.19257651269435883,"125":0.12445476651191711,"126":-0.5824819803237915,"127":-0.5589488744735718,"128":-0.5588652491569519,"129":-0.13016211986541748,"130":-0.1872217357158661,"131":-0.10188120603561401,"132":-0.8418777585029602,"133":-0.5832357406616211,"134":-0.1765240728855133,"135":-0.9154955148696899,"136":-0.21067088842391968,"137":0.37785714864730835,"138":-0.5026498436927795,"139":1.6517924070358276}},"inputHidden":{"rows":10,"columns":10,"weights":{"0":-0.3912929594516754,"1":1.5165503025054932,"2":-0.6955212950706482,"3":1.4283250570297241,"4":0.17689310014247894,"5":1.1393671035766602,"6":0.838422954082489,"7":0.03366856649518013,"8":0.7040039896965027,"9":1.7137210369110107,"10":0.9568188786506653,"11":-0.06823690980672836,"12":-1.514959454536438,"13":1.0265165567398071,"14":-0.3116852939128876,"15":0.6554127335548401,"16":-0.3327053189277649,"17":0.7852132320404053,"18":-0.10408979654312134,"19":-0.6179152131080627,"20":1.7318875789642334,"21":-1.2742278575897217,"22":0.7124478816986084,"23":-0.15201154351234436,"24":-1.7002332210540771,"25":1.8387197256088257,"26":-0.037582915276288986,"27":0.7477616667747498,"28":-0.9634516835212708,"29":0.5773038864135742,"30":-0.844338059425354,"31":-1.1228803396224976,"32":0.8581191897392273,"33":-0.5522615313529968,"34":-1.761338472366333,"35":-0.1906096488237381,"36":-0.3546879291534424,"37":0.5614941120147705,"38":2.0202791690826416,"39":0.2836945354938507,"40":0.034832898527383804,"41":-0.24442902207374573,"42":-1.1399836540222168,"43":-0.12403544783592224,"44":-0.4625890552997589,"45":-0.2609978914260864,"46":0.953011691570282,"47":1.9736229181289673,"48":0.27119043469429016,"49":-0.4133719801902771,"50":-0.09578820317983627,"51":1.0475918054580688,"52":0.9574905633926392,"53":2.0455269813537598,"54":0.10002101212739944,"55":0.12259870022535324,"56":0.7553153038024902,"57":1.1253849267959595,"58":-0.3369598984718323,"59":1.7438092231750488,"60":0.5706197619438171,"61":-0.3401496708393097,"62":0.7699787616729736,"63":0.20732249319553375,"64":-0.060306645929813385,"65":-0.005707198288291693,"66":-0.8844408988952637,"67":-1.022146463394165,"68":0.2564510405063629,"69":-0.9558588266372681,"70":-0.03297979012131691,"71":0.9553160071372986,"72":0.7377920746803284,"73":0.752368688583374,"74":0.6787514686584473,"75":-0.18094411492347717,"76":-1.403719425201416,"77":0.21285158395767212,"78":-1.1848349571228027,"79":1.8452707529067993,"80":1.09291672706604,"81":-0.26895052194595337,"82":0.18932560086250305,"83":0.43987590074539185,"84":-0.995502233505249,"85":0.8890365958213806,"86":-2.783952474594116,"87":-0.166970357298851,"88":0.5569906830787659,"89":-0.5679445862770081,"90":0.7917311787605286,"91":1.0195939540863037,"92":-0.4165842533111572,"93":0.9232885241508484,"94":0.42328953742980957,"95":0.7129969000816345,"96":0.4133967161178589,"97":1.3065649271011353,"98":-1.694399356842041,"99":-0.262074738740921}},"inputBias":{"rows":10,"columns":1,"weights":{"0":-0.6281982660293579,"1":-1.0089036226272583,"2":0.9470742344856262,"3":-0.6774682402610779,"4":1.4234188795089722,"5":0.5025664567947388,"6":-0.16496603190898895,"7":-0.974142849445343,"8":0.33618518710136414,"9":-0.5217272043228149}},"forgetMatrix":{"rows":10,"columns":14,"weights":{"0":0.032028451561927795,"1":-0.17445802688598633,"2":1.3670984506607056,"3":-0.7517708539962769,"4":-1.1116045713424683,"5":0.8923661708831787,"6":-1.9499289989471436,"7":0.007048059720546007,"8":0.07961968332529068,"9":-0.1699608862400055,"10":-0.2896203100681305,"11":0.28355589509010315,"12":0.4920307397842407,"13":0.09074864536523819,"14":0.8655418753623962,"15":-0.3028699457645416,"16":0.3667110800743103,"17":-0.4401194155216217,"18":0.3276166021823883,"19":0.008775369264185429,"20":-0.6927631497383118,"21":-0.2136865109205246,"22":-0.5310280323028564,"23":-1.3015072345733643,"24":0.08564109355211258,"25":0.38616305589675903,"26":0.20017795264720917,"27":-0.1908748745918274,"28":2.0677947998046875,"29":0.8007043600082397,"30":0.8361056447029114,"31":-0.11518445611000061,"32":-0.2005394846200943,"33":-0.49226921796798706,"34":-0.6169698238372803,"35":1.387600302696228,"36":0.3537008762359619,"37":1.6445175409317017,"38":-0.35253891348838806,"39":-0.22111226618289948,"40":0.24876953661441803,"41":-0.035760343074798584,"42":0.26725804805755615,"43":0.3342505693435669,"44":-0.8596498370170593,"45":0.21783381700515747,"46":0.7080531716346741,"47":0.6190196871757507,"48":0.15647271275520325,"49":0.23058077692985535,"50":-0.13020950555801392,"51":0.3714749217033386,"52":0.15292753279209137,"53":0.7760310173034668,"54":-0.5183225274085999,"55":0.5896826386451721,"56":0.5814777612686157,"57":0.38164448738098145,"58":0.1671205312013626,"59":-0.32255497574806213,"60":-0.5882222652435303,"61":-0.0055794483050704,"62":-1.6257213354110718,"63":0.9295233488082886,"64":0.653340220451355,"65":0.3198433816432953,"66":-0.1503533124923706,"67":-0.9136494994163513,"68":-0.6492466330528259,"69":0.5445333123207092,"70":0.40106451511383057,"71":-0.14871655404567719,"72":0.6332513689994812,"73":-0.8631573915481567,"74":-0.7565117478370667,"75":-0.34386882185935974,"76":-1.5808467864990234,"77":1.0551012754440308,"78":0.43896472454071045,"79":0.5367937088012695,"80":-1.2495518922805786,"81":-0.34271538257598877,"82":-1.163498044013977,"83":0.31403934955596924,"84":0.5703721642494202,"85":-0.39184826612472534,"86":-0.01895141787827015,"87":-0.6563036441802979,"88":0.18930478394031525,"89":0.02492625080049038,"90":0.8153167963027954,"91":-0.30612897872924805,"92":-0.1465514451265335,"93":0.5380412936210632,"94":0.03197431191802025,"95":-0.524921178817749,"96":-0.3102722764015198,"97":0.8866363763809204,"98":0.48729193210601807,"99":0.1102902889251709,"100":1.1283706426620483,"101":-1.0232495069503784,"102":-3.071058750152588,"103":-0.7420588731765747,"104":-0.856941819190979,"105":0.07446819543838501,"106":2.4209024906158447,"107":0.28945299983024597,"108":-0.4069584608078003,"109":-1.2823268175125122,"110":-0.2898351848125458,"111":-0.7352866530418396,"112":1.084520697593689,"113":-0.035899773240089417,"114":-0.2133336216211319,"115":0.23815202713012695,"116":-0.1914047747850418,"117":0.6756292581558228,"118":0.3105820417404175,"119":0.8573175072669983,"120":-0.32847142219543457,"121":-0.0792207196354866,"122":-0.01860499009490013,"123":1.089959979057312,"124":-0.4750889837741852,"125":0.17695103585720062,"126":0.009535767138004303,"127":0.6600303649902344,"128":-0.8139094114303589,"129":0.07108460366725922,"130":-0.0686265379190445,"131":-0.8475817441940308,"132":-0.26445069909095764,"133":0.390639066696167,"134":0.049680255353450775,"135":0.2077174335718155,"136":-0.38319340348243713,"137":1.615736484527588,"138":-0.4446484446525574,"139":1.6414449214935303}},"forgetHidden":{"rows":10,"columns":10,"weights":{"0":-0.0450480580329895,"1":-3.3898978233337402,"2":-3.1919121742248535,"3":-0.0588039793074131,"4":-0.22306402027606964,"5":-0.23379568755626678,"6":2.0838427543640137,"7":2.0467331409454346,"8":0.4012107253074646,"9":-0.01481982134282589,"10":-1.340371012687683,"11":1.0188798904418945,"12":0.20721372961997986,"13":0.29871273040771484,"14":1.0114078521728516,"15":1.0050588846206665,"16":-0.4811515510082245,"17":0.8695140480995178,"18":-1.8436813354492188,"19":0.6548351049423218,"20":1.7944422960281372,"21":-1.9466601610183716,"22":-0.04690731689333916,"23":0.7855620384216309,"24":-0.26830410957336426,"25":1.1430926322937012,"26":-0.4254937171936035,"27":-0.9971017241477966,"28":0.43623512983322144,"29":-2.280646800994873,"30":0.24254220724105835,"31":0.9212526679039001,"32":-0.9839322566986084,"33":-0.04598771035671234,"34":-0.033968497067689896,"35":-1.4195955991744995,"36":0.6689167022705078,"37":-0.23197485506534576,"38":-1.3983237743377686,"39":-0.503542423248291,"40":0.20403268933296204,"41":0.3849254846572876,"42":-1.2289496660232544,"43":0.056415949016809464,"44":0.09034404903650284,"45":0.16930563747882843,"46":0.1685643047094345,"47":5.009316921234131,"48":0.29206037521362305,"49":0.9388887882232666,"50":0.4428118169307709,"51":-4.062869071960449,"52":-0.7199824452400208,"53":-0.29294607043266296,"54":-1.2711422443389893,"55":0.688888430595398,"56":0.9910198450088501,"57":0.3057049512863159,"58":-1.3321930170059204,"59":0.9383537769317627,"60":1.347521185874939,"61":-0.3061384856700897,"62":1.844677448272705,"63":-2.724133253097534,"64":-1.2988051176071167,"65":1.0522348880767822,"66":-2.6711816787719727,"67":0.18156012892723083,"68":1.8898025751113892,"69":-1.6588748693466187,"70":-1.4971610307693481,"71":0.8191890120506287,"72":0.17088943719863892,"73":-0.426853209733963,"74":0.04745747521519661,"75":0.47022122144699097,"76":2.3918581008911133,"77":-0.9052371978759766,"78":0.018162226304411888,"79":2.1841773986816406,"80":0.6126190423965454,"81":-0.13963118195533752,"82":1.9544836282730103,"83":-0.7164905667304993,"84":-0.3265891969203949,"85":-1.1609392166137695,"86":-0.38875314593315125,"87":0.5636932849884033,"88":1.0825802087783813,"89":0.1997915655374527,"90":1.0401960611343384,"91":-1.3033092021942139,"92":-1.3369393348693848,"93":-2.7020225524902344,"94":-0.953260600566864,"95":1.371373176574707,"96":0.028299110010266304,"97":0.03441839665174484,"98":0.12442219257354736,"99":0.405812531709671}},"forgetBias":{"rows":10,"columns":1,"weights":{"0":0,"1":0,"2":0,"3":0,"4":0,"5":0,"6":0,"7":0,"8":0,"9":0}},"outputMatrix":{"rows":10,"columns":14,"weights":{"0":0.022583357989788055,"1":-0.6144030690193176,"2":0.21331970393657684,"3":-0.23313000798225403,"4":-0.6895803809165955,"5":-0.1962740570306778,"6":-0.6224675178527832,"7":-0.6927681565284729,"8":0.4055826663970947,"9":-0.10768716037273407,"10":-0.1112673431634903,"11":-0.21883244812488556,"12":-0.07344566285610199,"13":-0.10060053318738937,"14":0.13503311574459076,"15":-1.2471110820770264,"16":-0.2944631278514862,"17":0.05586801841855049,"18":0.814025342464447,"19":1.2185560464859009,"20":0.38233235478401184,"21":0.0007629136089235544,"22":-0.4139367341995239,"23":-1.1290850639343262,"24":0.8830849528312683,"25":1.0809481143951416,"26":0.9538719058036804,"27":-0.09411930292844772,"28":-1.135555624961853,"29":-0.15519288182258606,"30":2.425157070159912,"31":0.5902364253997803,"32":-2.604947328567505,"33":-0.9428036212921143,"34":-0.49848365783691406,"35":-0.5626049637794495,"36":0.4154881238937378,"37":0.8851093053817749,"38":-1.5783616304397583,"39":-0.17712007462978363,"40":-0.8074244856834412,"41":2.278825521469116,"42":-0.8881134986877441,"43":-0.5939270257949829,"44":-0.17827846109867096,"45":1.0458521842956543,"46":0.08332782238721848,"47":-0.06341791152954102,"48":0.4537704885005951,"49":-0.863013505935669,"50":0.3094801604747772,"51":-0.23898831009864807,"52":-0.11903969198465347,"53":-0.34622883796691895,"54":-0.517629086971283,"55":0.6101488471031189,"56":0.35775041580200195,"57":0.16411636769771576,"58":-0.2075313925743103,"59":1.3460127115249634,"60":-0.3975178897380829,"61":0.0642034262418747,"62":0.191032275557518,"63":0.015216530300676823,"64":-0.49050286412239075,"65":-0.7367153763771057,"66":0.0627470314502716,"67":0.6434251666069031,"68":0.10812395811080933,"69":0.9999427795410156,"70":0.12753431499004364,"71":0.12201733142137527,"72":-0.2240491658449173,"73":-0.4021173119544983,"74":0.3860156238079071,"75":0.5504955649375916,"76":-0.7660965919494629,"77":0.2087012231349945,"78":-0.31045663356781006,"79":-0.20748606324195862,"80":0.4389796853065491,"81":1.2428947687149048,"82":0.03205825760960579,"83":0.6059384346008301,"84":-0.011014988645911217,"85":0.06147301569581032,"86":-0.43467724323272705,"87":-0.14208707213401794,"88":-0.23925743997097015,"89":0.1499783843755722,"90":0.43527573347091675,"91":-0.13770626485347748,"92":0.012999113649129868,"93":-0.053082600235939026,"94":0.4039750397205353,"95":-0.35419002175331116,"96":0.36477482318878174,"97":0.33106422424316406,"98":1.0987155437469482,"99":0.70205157995224,"100":0.1343870609998703,"101":0.35407236218452454,"102":-0.7496470212936401,"103":-0.7688592076301575,"104":-0.16845132410526276,"105":0.6277418732643127,"106":0.4807226359844208,"107":1.9893814325332642,"108":-0.8219515681266785,"109":-1.1385372877120972,"110":-0.771956741809845,"111":0.003929144702851772,"112":0.4277147054672241,"113":-0.43015822768211365,"114":-0.7684106230735779,"115":1.484278678894043,"116":0.130514994263649,"117":-0.24311819672584534,"118":0.73407381772995,"119":0.19557414948940277,"120":0.393220990896225,"121":-0.3855476975440979,"122":-0.09600527584552765,"123":-0.11119214445352554,"124":-0.06453748047351837,"125":1.4517077207565308,"126":-0.15961620211601257,"127":-0.6751829385757446,"128":-1.6543185710906982,"129":-1.1044554710388184,"130":-0.2926999628543854,"131":0.21860481798648834,"132":-0.4335325360298157,"133":-0.255713552236557,"134":0.11217060685157776,"135":-0.08410879969596863,"136":0.5156587362289429,"137":1.9527347087860107,"138":0.3548831343650818,"139":0.8875693082809448}},"outputHidden":{"rows":10,"columns":10,"weights":{"0":0.3564505875110626,"1":0.7856826782226562,"2":-0.3717004656791687,"3":0.7068461775779724,"4":0.49878838658332825,"5":0.70518559217453,"6":0.2522028684616089,"7":0.21426664292812347,"8":0.06364327669143677,"9":0.6055895686149597,"10":-0.2203981876373291,"11":-0.27460619807243347,"12":-0.8395689129829407,"13":0.232957661151886,"14":-0.8936465382575989,"15":0.09774772077798843,"16":-0.43903225660324097,"17":0.9107097387313843,"18":0.2633107304573059,"19":-0.8170634508132935,"20":0.6367124319076538,"21":-2.96097993850708,"22":2.2466328144073486,"23":-1.9749867916107178,"24":-1.7758527994155884,"25":1.6234246492385864,"26":-2.0282843112945557,"27":-1.5114516019821167,"28":1.8139894008636475,"29":0.5032167434692383,"30":-0.8353427648544312,"31":1.4930925369262695,"32":-0.32591933012008667,"33":1.6400240659713745,"34":0.2165505737066269,"35":-0.695025622844696,"36":1.211606502532959,"37":1.4501025676727295,"38":-0.7385056018829346,"39":-0.8754656314849854,"40":-0.03747186437249184,"41":0.7403521537780762,"42":-1.0387372970581055,"43":0.35934609174728394,"44":-1.0305368900299072,"45":-0.8499866724014282,"46":1.7050695419311523,"47":0.5981020927429199,"48":0.26610875129699707,"49":0.45313096046447754,"50":1.2760095596313477,"51":0.7452035546302795,"52":0.684811532497406,"53":0.9904857873916626,"54":1.2437536716461182,"55":0.85720294713974,"56":-0.827628493309021,"57":-0.161842480301857,"58":-0.27748602628707886,"59":0.8831605315208435,"60":1.0837239027023315,"61":0.17267660796642303,"62":2.155604839324951,"63":-1.2426834106445312,"64":-0.5935458540916443,"65":1.052541971206665,"66":-4.1606340408325195,"67":0.18897642195224762,"68":0.9710956811904907,"69":-2.8490889072418213,"70":0.9243153929710388,"71":0.563312292098999,"72":1.6452058553695679,"73":0.20803608000278473,"74":1.01888108253479,"75":0.9895269274711609,"76":-1.992646336555481,"77":-0.11275434494018555,"78":-0.7586911916732788,"79":1.320366382598877,"80":-0.8814066052436829,"81":-0.44520190358161926,"82":-0.23558324575424194,"83":0.5453946590423584,"84":-0.16151517629623413,"85":-0.8258235454559326,"86":0.5918676853179932,"87":0.2825891375541687,"88":0.09565774351358414,"89":0.06837458908557892,"90":0.32070961594581604,"91":3.1629958152770996,"92":-0.20269224047660828,"93":1.8655837774276733,"94":2.591001272201538,"95":0.25720781087875366,"96":-0.3932541310787201,"97":0.5993282198905945,"98":-3.0852832794189453,"99":-0.9230786561965942}},"outputBias":{"rows":10,"columns":1,"weights":{"0":-0.7976734638214111,"1":-0.5152965784072876,"2":0.18701018393039703,"3":-1.7567355632781982,"4":0.506302535533905,"5":0.6147680878639221,"6":-0.507449746131897,"7":-0.8792208433151245,"8":0.5741807818412781,"9":-0.791013240814209}},"cellActivationMatrix":{"rows":10,"columns":14,"weights":{"0":-0.2938516438007355,"1":0.4730360209941864,"2":0.7718865871429443,"3":-1.5423697233200073,"4":-1.4837156534194946,"5":-0.2755526900291443,"6":-1.759933352470398,"7":-1.456943392753601,"8":-0.04926310107111931,"9":0.2790907621383667,"10":-1.1215709447860718,"11":0.757612407207489,"12":-0.7599929571151733,"13":0.6731524467468262,"14":-0.9247996211051941,"15":-0.45914581418037415,"16":-0.5543756484985352,"17":0.6380481719970703,"18":0.4290454089641571,"19":0.16400933265686035,"20":0.12897077202796936,"21":-1.1779295206069946,"22":0.03922735154628754,"23":0.12410669773817062,"24":0.966671347618103,"25":-0.9862863421440125,"26":0.8612431883811951,"27":-0.16447073221206665,"28":-0.6336372494697571,"29":-1.0601264238357544,"30":0.4304008185863495,"31":-0.6028232574462891,"32":-1.0621089935302734,"33":-0.4873660206794739,"34":-0.3049749732017517,"35":-0.6145864129066467,"36":0.22534602880477905,"37":0.784825325012207,"38":-2.487609624862671,"39":-0.07051359117031097,"40":-1.5313923358917236,"41":2.4818332195281982,"42":-0.955629289150238,"43":-0.9244138598442078,"44":1.1221199035644531,"45":-0.9315181970596313,"46":0.22678698599338531,"47":-0.17614130675792694,"48":-0.4094122648239136,"49":-0.6528691053390503,"50":0.08938136696815491,"51":-0.45406344532966614,"52":1.1045528650283813,"53":0.13740670680999756,"54":1.326657772064209,"55":-1.374683141708374,"56":-0.5708310008049011,"57":-0.36054039001464844,"58":-0.2726702392101288,"59":-0.3076592683792114,"60":-0.11044391989707947,"61":0.3349951505661011,"62":-1.4279004335403442,"63":0.01433117687702179,"64":-0.14733128249645233,"65":-0.5783341526985168,"66":0.638434886932373,"67":-0.22001653909683228,"68":0.9642357230186462,"69":-1.0258312225341797,"70":-0.4693912863731384,"71":0.8722869753837585,"72":0.20712652802467346,"73":-0.29042667150497437,"74":-0.9155713319778442,"75":0.3824560046195984,"76":-1.723672866821289,"77":0.2767871618270874,"78":0.22165918350219727,"79":-0.01871126890182495,"80":-0.31279176473617554,"81":0.5234588384628296,"82":-0.42225322127342224,"83":1.0131696462631226,"84":-0.15286195278167725,"85":-0.35771435499191284,"86":0.2881634533405304,"87":0.11878488957881927,"88":0.41083014011383057,"89":0.053547993302345276,"90":0.02314157225191593,"91":-0.2923087179660797,"92":-0.0625116154551506,"93":-0.33839932084083557,"94":0.25419384241104126,"95":0.14108967781066895,"96":0.3954731225967407,"97":0.31386613845825195,"98":-0.3064206540584564,"99":-0.7327412962913513,"100":0.2887265682220459,"101":0.15592381358146667,"102":1.1887922286987305,"103":2.2586615085601807,"104":0.07877036184072495,"105":-0.5979006290435791,"106":-1.119605302810669,"107":-1.4406306743621826,"108":0.6709901690483093,"109":1.3562554121017456,"110":0.9000028967857361,"111":-2.5447866916656494,"112":0.11489742994308472,"113":0.36905160546302795,"114":-0.5948930978775024,"115":0.3123769462108612,"116":0.17696288228034973,"117":-0.007009600289165974,"118":-0.09866315126419067,"119":0.30004268884658813,"120":-0.47737401723861694,"121":0.126006081700325,"122":-0.44911330938339233,"123":0.4239013195037842,"124":-1.2736374139785767,"125":0.9831456542015076,"126":0.11056728661060333,"127":0.0362171046435833,"128":-0.11819195002317429,"129":0.1934158354997635,"130":0.12132640182971954,"131":-0.07523418217897415,"132":-1.0149216651916504,"133":-0.1364414393901825,"134":0.1623600572347641,"135":0.0699610635638237,"136":0.37291720509529114,"137":0.0062581636011600494,"138":0.5286505222320557,"139":-0.35554489493370056}},"cellActivationHidden":{"rows":10,"columns":10,"weights":{"0":0.9060462713241577,"1":1.021605372428894,"2":2.764101266860962,"3":0.824446439743042,"4":0.0366828627884388,"5":0.8375486135482788,"6":0.968948245048523,"7":-0.07981138676404953,"8":0.5765053033828735,"9":0.7744568586349487,"10":-0.416771799325943,"11":-1.1999372243881226,"12":-2.0374741554260254,"13":0.03983728215098381,"14":-0.6918776035308838,"15":0.9810166954994202,"16":-0.6791262030601501,"17":-1.2154130935668945,"18":0.06161368265748024,"19":-0.48045212030410767,"20":0.8811883330345154,"21":0.3497990071773529,"22":0.7818813920021057,"23":0.12225805968046188,"24":-2.735952377319336,"25":-0.01470956765115261,"26":-0.4134126901626587,"27":-1.0204399824142456,"28":2.2319910526275635,"29":2.2246315479278564,"30":-1.0422725677490234,"31":-0.9059758186340332,"32":1.9077041149139404,"33":-1.7755745649337769,"34":-0.6674967408180237,"35":1.1947604417800903,"36":-0.12374476343393326,"37":-1.2812505960464478,"38":1.0101289749145508,"39":-0.12777777016162872,"40":0.3151330053806305,"41":-2.4273767471313477,"42":-0.04031083360314369,"43":-1.8014121055603027,"44":-1.2450119256973267,"45":1.1592466831207275,"46":-0.9917101263999939,"47":-0.4464409351348877,"48":0.9018476009368896,"49":-0.5988499522209167,"50":1.5944461822509766,"51":1.7111859321594238,"52":2.449012041091919,"53":2.1256330013275146,"54":-0.03801586851477623,"55":-0.48012033104896545,"56":0.8672812581062317,"57":-0.8242856860160828,"58":0.6270791888237,"59":0.759022057056427,"60":-0.9247654676437378,"61":0.20047548413276672,"62":-1.287385106086731,"63":0.39721351861953735,"64":0.5173453092575073,"65":-0.7339799404144287,"66":1.1158331632614136,"67":0.33076685667037964,"68":-0.6111626029014587,"69":0.39517712593078613,"70":-1.0120363235473633,"71":-3.1138288974761963,"72":-1.5812739133834839,"73":-0.9050329327583313,"74":0.5551450848579407,"75":-1.0358670949935913,"76":-0.043640073388814926,"77":1.1098847389221191,"78":-0.5548626780509949,"79":-1.4411215782165527,"80":1.3851611614227295,"81":0.2167772352695465,"82":0.4074675142765045,"83":-0.2924465835094452,"84":0.2499454915523529,"85":1.0317416191101074,"86":0.03990640863776207,"87":-0.8575197458267212,"88":-0.6465238332748413,"89":1.9456349611282349,"90":-0.45395365357398987,"91":2.9407544136047363,"92":0.23365755379199982,"93":3.586827039718628,"94":1.9161651134490967,"95":-0.5545639395713806,"96":0.2933262586593628,"97":0.4091765284538269,"98":-1.96387779712677,"99":-0.08749870210886002}},"cellActivationBias":{"rows":10,"columns":1,"weights":{"0":-0.5972451567649841,"1":0.6921588182449341,"2":1.0829458236694336,"3":-1.0797927379608154,"4":2.660365104675293,"5":0.09228713810443878,"6":0.3677382171154022,"7":0.11420778185129166,"8":1.9819644689559937,"9":-0.5682340860366821}}},{"inputMatrix":{"rows":20,"columns":10,"weights":{"0":2.5900447368621826,"1":2.064866542816162,"2":0.6343571543693542,"3":1.0031458139419556,"4":1.1366486549377441,"5":-0.17995750904083252,"6":0.8973537683486938,"7":-1.551941990852356,"8":1.8637731075286865,"9":0.29334205389022827,"10":0.5166471600532532,"11":-0.2472648173570633,"12":1.0319302082061768,"13":-2.2472805976867676,"14":-0.9708863496780396,"15":-0.1698468029499054,"16":-0.23573528230190277,"17":-0.24898302555084229,"18":0.9752258062362671,"19":-0.3676778972148895,"20":-0.217165008187294,"21":-0.057369887828826904,"22":0.11499514430761337,"23":-0.19012628495693207,"24":1.1295888423919678,"25":-0.8358696699142456,"26":0.7724570035934448,"27":-1.1896522045135498,"28":0.4626637399196625,"29":-0.05990152806043625,"30":0.7054044008255005,"31":0.007318025920540094,"32":1.40482497215271,"33":0.6039297580718994,"34":-0.26825952529907227,"35":-1.421095848083496,"36":0.6361010074615479,"37":-0.13194270431995392,"38":0.2979627549648285,"39":-0.6665166020393372,"40":0.9277846813201904,"41":-0.8591922521591187,"42":-0.6527641415596008,"43":0.8500433564186096,"44":1.0811704397201538,"45":0.02932746149599552,"46":-0.3171338140964508,"47":0.22121591866016388,"48":-0.7195273637771606,"49":-0.6457717418670654,"50":1.4353396892547607,"51":2.285155773162842,"52":0.5499223470687866,"53":1.1991583108901978,"54":1.544007420539856,"55":0.42479556798934937,"56":-1.3999714851379395,"57":-1.37992525100708,"58":-0.35655876994132996,"59":1.2122042179107666,"60":-1.8680410385131836,"61":-1.1023081541061401,"62":1.9955295324325562,"63":-2.323183298110962,"64":-0.737954318523407,"65":0.004448060877621174,"66":-0.4667551815509796,"67":-0.8939732313156128,"68":2.68780779838562,"69":-0.8268095850944519,"70":0.09725864976644516,"71":1.0083539485931396,"72":0.40640851855278015,"73":0.6508805751800537,"74":0.103702612221241,"75":-0.5188978314399719,"76":-1.3153325319290161,"77":0.04225177317857742,"78":0.5433894395828247,"79":1.3002556562423706,"80":0.10572565346956253,"81":0.546980619430542,"82":-0.3728742003440857,"83":-0.001127946306951344,"84":-0.17147190868854523,"85":1.294777274131775,"86":-1.3078718185424805,"87":0.5180467963218689,"88":0.622006356716156,"89":-1.556201457977295,"90":0.25019076466560364,"91":0.46754518151283264,"92":-0.32959651947021484,"93":0.8379716277122498,"94":1.0312353372573853,"95":-0.1779068261384964,"96":0.36246955394744873,"97":-0.6366388201713562,"98":-1.332409381866455,"99":-0.9065064191818237,"100":-0.17438960075378418,"101":2.127091407775879,"102":2.2437243461608887,"103":2.6540143489837646,"104":-0.048643819987773895,"105":-0.6646451354026794,"106":-0.5167509317398071,"107":-0.9825067520141602,"108":-1.2882559299468994,"109":-0.3041519224643707,"110":0.521924614906311,"111":0.708798348903656,"112":-0.011271631345152855,"113":2.162849187850952,"114":1.1244112253189087,"115":0.395650714635849,"116":-0.9197755455970764,"117":-0.28907501697540283,"118":-0.6679295897483826,"119":-0.4989478290081024,"120":-0.3053525388240814,"121":0.3097972869873047,"122":1.0436022281646729,"123":-0.7303338050842285,"124":0.1615295559167862,"125":-0.7946362495422363,"126":-2.2060482501983643,"127":-0.38653555512428284,"128":0.3666185140609741,"129":1.4858478307724,"130":0.5417490005493164,"131":-0.03369203582406044,"132":-0.15640421211719513,"133":-1.240234136581421,"134":-0.12375320494174957,"135":0.1393357813358307,"136":-0.6984193921089172,"137":-0.19280491769313812,"138":-0.06371791660785675,"139":-2.0346145629882812,"140":-0.0044310796074569225,"141":0.09785136580467224,"142":1.6144728660583496,"143":-1.737001657485962,"144":-0.513820230960846,"145":-0.6828170418739319,"146":-2.089841365814209,"147":1.0313632488250732,"148":0.7526649832725525,"149":-0.7813392877578735,"150":1.5840098857879639,"151":0.004718306474387646,"152":1.6078988313674927,"153":-0.5793763399124146,"154":-0.056346338242292404,"155":-1.9186177253723145,"156":-2.1425654888153076,"157":-1.8506758213043213,"158":0.8880509734153748,"159":-0.12217691540718079,"160":2.7690987586975098,"161":1.428518295288086,"162":0.5922322869300842,"163":-0.28240740299224854,"164":0.47998568415641785,"165":0.9608654975891113,"166":-1.039139747619629,"167":-1.4491889476776123,"168":-0.47165748476982117,"169":1.41938054561615,"170":-1.0019651651382446,"171":1.0781537294387817,"172":0.6130357980728149,"173":0.7526819109916687,"174":1.2909311056137085,"175":-2.0323429107666016,"176":2.0503780841827393,"177":1.0215421915054321,"178":-0.6703290939331055,"179":0.6475590467453003,"180":0.914211630821228,"181":0.5928306579589844,"182":-0.9151867628097534,"183":0.005296031944453716,"184":0.38208043575286865,"185":0.03229297325015068,"186":-0.0000012074588084942661,"187":0.3580127954483032,"188":-0.7802380323410034,"189":1.6951407194137573,"190":0.4337908625602722,"191":-1.1376979351043701,"192":3.4790666103363037,"193":-1.5449199676513672,"194":-1.9692637920379639,"195":-0.270108163356781,"196":-0.6975853443145752,"197":-1.236358404159546,"198":1.9247747659683228,"199":0.2112274467945099}},"inputHidden":{"rows":20,"columns":20,"weights":{"0":-1.0314685106277466,"1":2.363416910171509,"2":2.010735034942627,"3":2.6399612426757812,"4":1.0154156684875488,"5":1.5010138750076294,"6":-0.8088870644569397,"7":0.8155714869499207,"8":-0.5981540083885193,"9":-0.030805036425590515,"10":-0.151096910238266,"11":-0.8847357630729675,"12":1.2930896282196045,"13":0.2757168710231781,"14":1.3979506492614746,"15":-0.03428349271416664,"16":0.02208663895726204,"17":2.196664810180664,"18":0.3350982069969177,"19":1.1298731565475464,"20":0.029014186933636665,"21":0.0029259449802339077,"22":0.1995433121919632,"23":0.4636892080307007,"24":0.1462198942899704,"25":-0.03811727464199066,"26":0.41430917382240295,"27":-1.5688294172286987,"28":1.0315980911254883,"29":-0.2902888059616089,"30":-0.6530243754386902,"31":-0.43522635102272034,"32":0.19423772394657135,"33":0.7394052147865295,"34":1.5335156917572021,"35":-1.0238820314407349,"36":-1.5685819387435913,"37":1.5250978469848633,"38":0.47117510437965393,"39":-0.6546229124069214,"40":-1.16102135181427,"41":1.0345425605773926,"42":1.5302428007125854,"43":-0.9982384443283081,"44":1.1914228200912476,"45":1.3088037967681885,"46":2.1523118019104004,"47":-1.105991005897522,"48":-1.416222333908081,"49":-5.311017990112305,"50":1.3029152154922485,"51":1.5097551345825195,"52":0.34600579738616943,"53":-0.16028963029384613,"54":-1.5244898796081543,"55":-0.5423204302787781,"56":1.3588411808013916,"57":0.8030456900596619,"58":-0.3956340551376343,"59":-2.183427095413208,"60":2.140810489654541,"61":1.271833062171936,"62":-0.04973730817437172,"63":1.4680702686309814,"64":0.021073559299111366,"65":1.9024757146835327,"66":0.25559374690055847,"67":-0.7781595587730408,"68":-4.434586048126221,"69":0.899661123752594,"70":-1.2473559379577637,"71":-1.1558778285980225,"72":2.454638719558716,"73":2.458123207092285,"74":3.118521213531494,"75":-0.9011313319206238,"76":-1.7007701396942139,"77":2.02624249458313,"78":0.9661945700645447,"79":-1.192647933959961,"80":0.06984720379114151,"81":-0.08126357197761536,"82":-0.6412128210067749,"83":-0.18516860902309418,"84":1.0080506801605225,"85":-0.5385109782218933,"86":0.12882010638713837,"87":1.148277759552002,"88":-0.12930361926555634,"89":-1.259659767150879,"90":0.05577469617128372,"91":-0.9798024892807007,"92":-0.2936112582683563,"93":1.1500438451766968,"94":0.9989758133888245,"95":-0.8411917090415955,"96":-1.0261545181274414,"97":-0.28263455629348755,"98":-0.8118301033973694,"99":0.046140752732753754,"100":-0.2418806254863739,"101":1.1198971271514893,"102":2.8403637409210205,"103":1.8586634397506714,"104":0.8755967020988464,"105":1.542397141456604,"106":-0.3366413414478302,"107":-1.372721791267395,"108":0.7721095085144043,"109":-2.195068359375,"110":0.5943731069564819,"111":0.03361182659864426,"112":2.0241310596466064,"113":1.6414754390716553,"114":0.9342700839042664,"115":-0.21074260771274567,"116":-0.030287353321909904,"117":2.274707317352295,"118":1.2006086111068726,"119":-0.3966841697692871,"120":0.6555759310722351,"121":0.09340232610702515,"122":2.7330238819122314,"123":1.0300662517547607,"124":0.6610450148582458,"125":1.2184392213821411,"126":-0.8593958616256714,"127":-1.0336107015609741,"128":-0.37373706698417664,"129":-1.6992697715759277,"130":-0.38057637214660645,"131":-0.7326305508613586,"132":2.1702377796173096,"133":3.131784439086914,"134":1.4660632610321045,"135":-0.33965611457824707,"136":-0.47011691331863403,"137":-0.11898373067378998,"138":-0.32280823588371277,"139":0.43628406524658203,"140":0.8031055927276611,"141":1.2629154920578003,"142":-0.4317912757396698,"143":-0.024547522887587547,"144":0.5947191715240479,"145":-0.2251662313938141,"146":-0.5921849608421326,"147":2.064548969268799,"148":0.6545860767364502,"149":1.0705854892730713,"150":-0.1308838427066803,"151":-1.1161593198776245,"152":-0.20477509498596191,"153":0.507012665271759,"154":0.46176058053970337,"155":-1.2820154428482056,"156":-0.9619361758232117,"157":-0.22794273495674133,"158":-0.7028512358665466,"159":0.23495453596115112,"160":-2.667630434036255,"161":1.0431134700775146,"162":1.2485545873641968,"163":-0.07040901482105255,"164":1.2632776498794556,"165":-0.3446218967437744,"166":0.9038418531417847,"167":-2.6177258491516113,"168":0.7255430221557617,"169":0.10053141415119171,"170":0.4305596351623535,"171":0.9312834143638611,"172":-0.2923891246318817,"173":-0.7246655225753784,"174":0.7750906944274902,"175":0.7792152166366577,"176":2.177136182785034,"177":2.8512492179870605,"178":0.6902797222137451,"179":-0.9685602188110352,"180":-1.38657546043396,"181":1.4644724130630493,"182":1.911457896232605,"183":1.4617301225662231,"184":0.4026414155960083,"185":1.7986845970153809,"186":1.363779067993164,"187":-1.071908950805664,"188":-1.5560716390609741,"189":-0.5242144465446472,"190":-0.3838028013706207,"191":0.7792805433273315,"192":1.7478207349777222,"193":0.5479665398597717,"194":1.2159888744354248,"195":0.9349561929702759,"196":0.5492738485336304,"197":1.227756381034851,"198":0.41217145323753357,"199":-0.20879054069519043,"200":-1.7283873558044434,"201":2.6406261920928955,"202":2.9923064708709717,"203":1.7911865711212158,"204":-0.057707421481609344,"205":0.9881905317306519,"206":0.8308237791061401,"207":-0.08234197646379471,"208":0.7608668208122253,"209":0.05199229344725609,"210":1.2652019262313843,"211":0.6337838172912598,"212":2.447765827178955,"213":-1.3532280921936035,"214":1.0849621295928955,"215":-0.5331129431724548,"216":0.40818363428115845,"217":1.578865885734558,"218":1.1281630992889404,"219":-0.2543703615665436,"220":-1.3912795782089233,"221":1.3668259382247925,"222":0.23149394989013672,"223":-0.036856215447187424,"224":-0.02293207310140133,"225":0.8528050184249878,"226":0.6320624351501465,"227":0.4407570958137512,"228":1.4009850025177002,"229":-0.34746798872947693,"230":1.8958522081375122,"231":0.9341025352478027,"232":0.7516679763793945,"233":1.9721273183822632,"234":0.7936076521873474,"235":0.42199379205703735,"236":0.9201611876487732,"237":2.1625659465789795,"238":0.2576003670692444,"239":-0.8954973816871643,"240":0.509752631187439,"241":0.6905139088630676,"242":0.964028000831604,"243":1.6654086112976074,"244":0.2574594020843506,"245":2.1420068740844727,"246":1.2284351587295532,"247":-0.8980000615119934,"248":-2.754967451095581,"249":-3.765833616256714,"250":-1.2746918201446533,"251":-0.4894901514053345,"252":1.1600971221923828,"253":1.1022337675094604,"254":1.478500247001648,"255":-0.26652735471725464,"256":-0.7702623605728149,"257":1.2204267978668213,"258":0.5963630676269531,"259":-2.2552850246429443,"260":-1.3593190908432007,"261":2.0339386463165283,"262":3.623288869857788,"263":1.6017202138900757,"264":1.2270857095718384,"265":2.1221163272857666,"266":2.396851062774658,"267":-0.017797265201807022,"268":-0.9501882791519165,"269":-2.006746768951416,"270":-0.37707579135894775,"271":0.9095542430877686,"272":2.8833348751068115,"273":0.9997000098228455,"274":2.6020469665527344,"275":0.5248467922210693,"276":1.3264589309692383,"277":0.9220396280288696,"278":0.07422999292612076,"279":0.05345509946346283,"280":-1.1483633518218994,"281":0.23131930828094482,"282":0.16598676145076752,"283":2.1396701335906982,"284":-0.005345755256712437,"285":2.7990005016326904,"286":0.2960644066333771,"287":0.05696877837181091,"288":-1.9266529083251953,"289":-1.7608981132507324,"290":0.9725254774093628,"291":2.4216699600219727,"292":1.1960686445236206,"293":0.13437519967556,"294":3.1567416191101074,"295":-0.3684377372264862,"296":0.174971342086792,"297":0.5056273341178894,"298":0.12409044802188873,"299":-0.8926196694374084,"300":-1.8016356229782104,"301":1.8034275770187378,"302":2.3072259426116943,"303":0.9077252745628357,"304":-0.25930455327033997,"305":0.9014430046081543,"306":2.2420272827148438,"307":0.0582900233566761,"308":0.11911121010780334,"309":-1.1852878332138062,"310":0.15937165915966034,"311":-0.7493923902511597,"312":0.4234025180339813,"313":0.4618109166622162,"314":0.9712732434272766,"315":-1.1974005699157715,"316":0.2361881285905838,"317":2.227959156036377,"318":0.16577519476413727,"319":0.1560966670513153,"320":0.5463293194770813,"321":1.6514966487884521,"322":0.9808089733123779,"323":0.010177242569625378,"324":-2.1565115451812744,"325":0.5893644690513611,"326":1.0602220296859741,"327":0.12998823821544647,"328":-1.4271777868270874,"329":1.3572982549667358,"330":0.22846154868602753,"331":0.7296586632728577,"332":1.276317834854126,"333":3.0894269943237305,"334":-0.5338031053543091,"335":0.83028644323349,"336":0.23167473077774048,"337":1.4764879941940308,"338":0.984546959400177,"339":0.7811540365219116,"340":-0.35460227727890015,"341":0.7293271422386169,"342":0.07341822236776352,"343":-0.009999159723520279,"344":0.4448397755622864,"345":-0.5782535076141357,"346":0.46212688088417053,"347":1.3019322156906128,"348":0.4983566701412201,"349":0.38910579681396484,"350":0.2968757152557373,"351":1.00257408618927,"352":-0.9977092742919922,"353":-0.9986901879310608,"354":-0.2709586024284363,"355":0.02776571922004223,"356":0.20446252822875977,"357":0.946266770362854,"358":-2.2707743644714355,"359":0.3941853940486908,"360":0.8450706005096436,"361":0.7760651707649231,"362":-0.34550291299819946,"363":0.013507086783647537,"364":-1.7564425468444824,"365":-1.3898261785507202,"366":-0.11848011612892151,"367":0.8100419044494629,"368":-1.5600965023040771,"369":0.4106511175632477,"370":-0.929763913154602,"371":-1.3276287317276,"372":0.018411599099636078,"373":-0.16294938325881958,"374":-0.20000146329402924,"375":0.3415636420249939,"376":-0.7040102481842041,"377":0.6300137639045715,"378":-0.24477475881576538,"379":0.7649701237678528,"380":-0.12100377678871155,"381":0.39091604948043823,"382":0.46127942204475403,"383":2.0239105224609375,"384":0.19638627767562866,"385":1.4892070293426514,"386":1.1498945951461792,"387":-1.349554419517517,"388":-2.8675050735473633,"389":0.6436664462089539,"390":-0.23998047411441803,"391":-0.633583664894104,"392":1.2710559368133545,"393":-0.958057165145874,"394":1.2009613513946533,"395":-0.09152467548847198,"396":-0.018761280924081802,"397":0.7089267373085022,"398":0.4899771213531494,"399":-0.6648803353309631}},"inputBias":{"rows":20,"columns":1,"weights":{"0":-0.13798430562019348,"1":-1.6504071950912476,"2":1.0560529232025146,"3":-2.799821615219116,"4":0.6409251689910889,"5":-2.18697190284729,"6":0.8558726906776428,"7":-0.8829530477523804,"8":0.7242450714111328,"9":-0.709788978099823,"10":1.2828941345214844,"11":0.23216846585273743,"12":0.49160051345825195,"13":0.6446223855018616,"14":-1.5700547695159912,"15":-2.270677328109741,"16":0.013597517274320126,"17":0.38072147965431213,"18":-1.3821935653686523,"19":2.2326278686523438}},"forgetMatrix":{"rows":20,"columns":10,"weights":{"0":0.05207192525267601,"1":-1.7988157272338867,"2":-0.4862939417362213,"3":-1.1648919582366943,"4":-0.6629424691200256,"5":-0.25956982374191284,"6":0.6652131080627441,"7":-0.2924952507019043,"8":-0.6445682644844055,"9":1.4599699974060059,"10":-0.4448964297771454,"11":-0.580654501914978,"12":1.804478645324707,"13":-1.3785487413406372,"14":-1.0676287412643433,"15":-1.7154556512832642,"16":0.3952837586402893,"17":-0.6282919049263,"18":0.8031842112541199,"19":0.3539673984050751,"20":4.4796342849731445,"21":2.9747633934020996,"22":-1.8684202432632446,"23":1.9375309944152832,"24":2.9270012378692627,"25":1.3447173833847046,"26":-0.18652188777923584,"27":-0.0997249111533165,"28":-3.447042226791382,"29":-0.38055527210235596,"30":3.6912622451782227,"31":-1.6466692686080933,"32":1.3070850372314453,"33":-0.6915140748023987,"34":-3.093714952468872,"35":2.713702440261841,"36":-0.7392432689666748,"37":-1.9218069314956665,"38":2.387620210647583,"39":0.16677747666835785,"40":-0.18684031069278717,"41":-3.64211106300354,"42":-2.5668070316314697,"43":-2.1937222480773926,"44":2.911810874938965,"45":1.2424408197402954,"46":4.069089889526367,"47":-0.05555514991283417,"48":0.7046714425086975,"49":-0.9163139462471008,"50":0.22301247715950012,"51":-0.9944853782653809,"52":1.0081875324249268,"53":-2.433307409286499,"54":-0.38775044679641724,"55":-0.8314142227172852,"56":-0.3626837432384491,"57":-1.1379468441009521,"58":-0.45059049129486084,"59":-2.2253901958465576,"60":0.9295523166656494,"61":0.8237146735191345,"62":-2.169802665710449,"63":2.974188804626465,"64":2.3851428031921387,"65":0.9881197214126587,"66":2.3751354217529297,"67":-0.01336069218814373,"68":-2.1228160858154297,"69":-1.9099029302597046,"70":1.0593091249465942,"71":-1.1041834354400635,"72":0.5752004384994507,"73":-0.9946940541267395,"74":0.08392568677663803,"75":1.2035536766052246,"76":-0.32273659110069275,"77":0.7634162902832031,"78":0.9120901823043823,"79":0.23570729792118073,"80":1.347603440284729,"81":-0.47598960995674133,"82":-0.5635085701942444,"83":-1.3584725856781006,"84":-0.35014888644218445,"85":1.45550537109375,"86":-2.1118969917297363,"87":1.9529536962509155,"88":1.1635560989379883,"89":-1.555467128753662,"90":1.687084436416626,"91":3.532668113708496,"92":-3.113901138305664,"93":3.3632354736328125,"94":5.738770484924316,"95":1.3672558069229126,"96":2.2453019618988037,"97":1.2152318954467773,"98":-2.07761549949646,"99":2.0885865688323975,"100":0.8910108208656311,"101":-1.9496564865112305,"102":0.2719050645828247,"103":0.26513394713401794,"104":0.27272549271583557,"105":0.9315364956855774,"106":-0.43818071484565735,"107":-0.13903535902500153,"108":-1.7822316884994507,"109":-3.660630941390991,"110":-0.6910828351974487,"111":-0.20958620309829712,"112":0.9276779294013977,"113":-0.31564512848854065,"114":0.12076663970947266,"115":-1.3067688941955566,"116":-0.5230466723442078,"117":1.2064071893692017,"118":-2.259047746658325,"119":-2.3462088108062744,"120":1.7924845218658447,"121":-0.48401978611946106,"122":0.8371709585189819,"123":0.719270646572113,"124":-0.6617555618286133,"125":1.9600986242294312,"126":-2.2143654823303223,"127":-2.323211669921875,"128":0.3307513892650604,"129":0.23932981491088867,"130":2.432979106903076,"131":0.17505964636802673,"132":-1.470741868019104,"133":1.8058664798736572,"134":1.3753080368041992,"135":3.176255226135254,"136":0.13754664361476898,"137":-0.2767680585384369,"138":-0.46694517135620117,"139":-1.0532358884811401,"140":4.871684551239014,"141":-1.124629259109497,"142":1.2833725214004517,"143":-1.6442607641220093,"144":-1.4435368776321411,"145":4.071459770202637,"146":-1.5086493492126465,"147":-5.591873645782471,"148":1.3110445737838745,"149":0.3131973147392273,"150":2.91849946975708,"151":1.7417546510696411,"152":0.4392046332359314,"153":0.7023086547851562,"154":1.317557692527771,"155":2.5081732273101807,"156":-1.5898966789245605,"157":-1.765148401260376,"158":-1.1475788354873657,"159":-3.2588629722595215,"160":1.3439357280731201,"161":0.14172139763832092,"162":2.009840488433838,"163":-0.1694185584783554,"164":0.7579735517501831,"165":2.4798171520233154,"166":0.37953877449035645,"167":-1.66842782497406,"168":-1.37004816532135,"169":0.5575875043869019,"170":-1.2966207265853882,"171":1.3883302211761475,"172":0.49540382623672485,"173":0.18752643465995789,"174":0.7260136604309082,"175":-0.8727051615715027,"176":4.795503616333008,"177":-0.4918450713157654,"178":1.19106125831604,"179":0.6853929758071899,"180":-2.0409040451049805,"181":-0.22657862305641174,"182":-1.4819265604019165,"183":2.123056173324585,"184":2.4120888710021973,"185":-0.9205231666564941,"186":2.6510825157165527,"187":1.949608325958252,"188":-0.6820145845413208,"189":-0.7091596722602844,"190":-0.6408345699310303,"191":0.5641029477119446,"192":-1.952046513557434,"193":1.5220685005187988,"194":2.092769145965576,"195":2.0229170322418213,"196":0.022273005917668343,"197":2.4423747062683105,"198":0.37013497948646545,"199":-0.7016692161560059}},"forgetHidden":{"rows":20,"columns":20,"weights":{"0":-1.1856775283813477,"1":-0.15695451200008392,"2":-0.15039455890655518,"3":-0.6283652782440186,"4":0.012508499436080456,"5":1.0862832069396973,"6":0.5414340496063232,"7":-0.32031500339508057,"8":-0.22871027886867523,"9":-2.168151378631592,"10":1.302148699760437,"11":1.5648388862609863,"12":0.1260167807340622,"13":1.4062875509262085,"14":-0.3205370604991913,"15":0.8851574063301086,"16":1.3734339475631714,"17":0.7243937849998474,"18":0.48779040575027466,"19":-1.5072517395019531,"20":0.0071706827729940414,"21":1.4000623226165771,"22":1.8232616186141968,"23":1.2329621315002441,"24":3.402611255645752,"25":2.263550043106079,"26":-0.3484518527984619,"27":-0.13014079630374908,"28":-0.3147040009498596,"29":-0.34915363788604736,"30":-0.8983080387115479,"31":-1.0182653665542603,"32":2.2026515007019043,"33":-0.3901456594467163,"34":2.823850631713867,"35":-0.27896690368652344,"36":-2.067232847213745,"37":-0.02606591396033764,"38":-0.554732620716095,"39":-1.417651891708374,"40":-1.1664981842041016,"41":0.4289027452468872,"42":0.1833166480064392,"43":-0.0029285086784511805,"44":-0.9134289622306824,"45":-1.12937593460083,"46":0.8942387104034424,"47":-1.3729020357131958,"48":0.6344556212425232,"49":-0.6185126900672913,"50":0.3966723382472992,"51":-0.1892600953578949,"52":1.1569185256958008,"53":0.696471631526947,"54":0.7674281597137451,"55":-1.9818476438522339,"56":0.007872562855482101,"57":2.1877799034118652,"58":2.380805492401123,"59":-0.1498836874961853,"60":-1.2711453437805176,"61":-1.2841914892196655,"62":0.4012954533100128,"63":1.1959179639816284,"64":-1.6956713199615479,"65":1.2006560564041138,"66":-0.6350893378257751,"67":-2.709759473800659,"68":-0.33679571747779846,"69":-0.07855472713708878,"70":1.7987622022628784,"71":2.4889142513275146,"72":0.8537359833717346,"73":-0.06847605854272842,"74":1.419308066368103,"75":1.1846967935562134,"76":1.3808759450912476,"77":0.04453979805111885,"78":0.692760705947876,"79":-0.6100350618362427,"80":-0.5623511672019958,"81":-0.3297902047634125,"82":2.1336522102355957,"83":1.4327164888381958,"84":-0.6065310835838318,"85":4.083963871002197,"86":4.2870588302612305,"87":0.049880754202604294,"88":-0.8040726780891418,"89":-0.5903387665748596,"90":0.823599636554718,"91":1.0655397176742554,"92":1.6521579027175903,"93":0.8507435321807861,"94":0.176952064037323,"95":0.5344693064689636,"96":3.287132740020752,"97":1.7383532524108887,"98":-0.47609782218933105,"99":1.0359238386154175,"100":-1.568098545074463,"101":2.1998372077941895,"102":2.5798964500427246,"103":0.9605725407600403,"104":-3.189100980758667,"105":-0.6421411633491516,"106":0.8138692378997803,"107":-3.0216424465179443,"108":-4.261082649230957,"109":-0.587758481502533,"110":1.3652454614639282,"111":0.3787853419780731,"112":0.6714615821838379,"113":1.6528725624084473,"114":-0.1554000973701477,"115":2.0829684734344482,"116":1.0207542181015015,"117":1.5514280796051025,"118":0.3683296740055084,"119":-1.1795135736465454,"120":0.7096856832504272,"121":-0.1516542285680771,"122":-0.400716096162796,"123":-0.1922641396522522,"124":-5.713286399841309,"125":-2.3723509311676025,"126":0.42494484782218933,"127":-2.377669095993042,"128":1.0186084508895874,"129":-0.2048681080341339,"130":-1.0709582567214966,"131":-1.8305662870407104,"132":-0.38463321328163147,"133":-0.41242170333862305,"134":-0.5378654599189758,"135":-0.5870873928070068,"136":1.375806212425232,"137":2.5267624855041504,"138":2.377711057662964,"139":-1.2743357419967651,"140":1.7490442991256714,"141":0.33510684967041016,"142":1.5782698392868042,"143":-0.4301067590713501,"144":-0.6361699104309082,"145":1.5937070846557617,"146":-1.0826529264450073,"147":0.7718434929847717,"148":0.04549455642700195,"149":-0.5239785313606262,"150":0.3568812608718872,"151":-0.808190107345581,"152":-0.7217071652412415,"153":-0.09703683108091354,"154":-0.29749035835266113,"155":-1.4445734024047852,"156":-0.7809023857116699,"157":-0.12306030094623566,"158":0.2494172304868698,"159":-0.5002124309539795,"160":-1.0118939876556396,"161":2.5777928829193115,"162":0.8929606676101685,"163":0.3782084584236145,"164":-0.21830157935619354,"165":1.9047938585281372,"166":1.3740772008895874,"167":-0.6134225726127625,"168":-1.2210537195205688,"169":-2.1016197204589844,"170":0.5188195109367371,"171":0.9985907077789307,"172":0.058242689818143845,"173":0.04338918626308441,"174":0.8899060487747192,"175":1.3602352142333984,"176":2.2493128776550293,"177":0.36636170744895935,"178":0.6602815985679626,"179":-2.8282840251922607,"180":-1.465499997138977,"181":2.2926156520843506,"182":-0.18309716880321503,"183":-0.2966686189174652,"184":-1.76443350315094,"185":0.46148014068603516,"186":-0.43188104033470154,"187":-1.461026906967163,"188":0.29830992221832275,"189":-0.0659642294049263,"190":1.0332125425338745,"191":0.31297898292541504,"192":-0.2759121358394623,"193":-0.18914754688739777,"194":0.10117592662572861,"195":0.4460298717021942,"196":0.8435493111610413,"197":0.6578982472419739,"198":1.1395372152328491,"199":-0.03468409180641174,"200":-0.4499894678592682,"201":1.288603663444519,"202":0.22066785395145416,"203":0.057802051305770874,"204":1.8338929414749146,"205":2.0227162837982178,"206":-0.3450859487056732,"207":-1.1034821271896362,"208":-0.4111343026161194,"209":-1.9684051275253296,"210":0.5581448078155518,"211":1.5188603401184082,"212":0.6355891227722168,"213":1.2747613191604614,"214":0.25970593094825745,"215":1.814673900604248,"216":1.4463237524032593,"217":-0.08090293407440186,"218":-0.5993120074272156,"219":0.029243314638733864,"220":-0.46380114555358887,"221":2.0049796104431152,"222":1.976924180984497,"223":0.6592081189155579,"224":-0.46169382333755493,"225":0.6417295336723328,"226":1.8663774728775024,"227":-1.975226879119873,"228":-0.9213082790374756,"229":-1.7717077732086182,"230":-0.6502377986907959,"231":-0.038929302245378494,"232":0.10157155245542526,"233":1.0546432733535767,"234":-0.36900120973587036,"235":0.6282458305358887,"236":0.006755531765520573,"237":1.5327755212783813,"238":1.6005713939666748,"239":1.4316147565841675,"240":-1.0804800987243652,"241":0.24738368391990662,"242":0.0226113423705101,"243":0.5239925384521484,"244":0.3986698091030121,"245":-0.32224127650260925,"246":1.097859501838684,"247":-0.7065851092338562,"248":-0.40871039032936096,"249":-0.5626525282859802,"250":1.4480597972869873,"251":1.204583764076233,"252":1.3288720846176147,"253":0.28829267621040344,"254":0.8174437880516052,"255":0.9382846355438232,"256":1.4197628498077393,"257":-2.0615274906158447,"258":0.7307863235473633,"259":-0.10917073488235474,"260":-0.393716424703598,"261":0.28623372316360474,"262":0.8619480133056641,"263":0.16250170767307281,"264":-2.392054557800293,"265":0.18560272455215454,"266":-0.24100404977798462,"267":-2.8891284465789795,"268":-0.018110284581780434,"269":-1.06637704372406,"270":1.744398593902588,"271":1.1226283311843872,"272":0.713347852230072,"273":0.7131341695785522,"274":1.113797664642334,"275":0.36492297053337097,"276":1.8512024879455566,"277":-0.9011988639831543,"278":0.2719208896160126,"279":0.1283280998468399,"280":2.3054471015930176,"281":-0.4481149911880493,"282":1.90037202835083,"283":0.7037453055381775,"284":-0.3361782729625702,"285":0.2811066210269928,"286":-2.26328706741333,"287":-2.3138039112091064,"288":-0.5739173293113708,"289":0.2634704113006592,"290":1.4066611528396606,"291":-0.1182185485959053,"292":0.6895591616630554,"293":-0.41773030161857605,"294":0.30422723293304443,"295":-0.3247663378715515,"296":1.8933812379837036,"297":0.11909159272909164,"298":1.3569669723510742,"299":1.5542060136795044,"300":-0.4983581602573395,"301":1.438611626625061,"302":0.46340736746788025,"303":1.6103792190551758,"304":-0.08219297230243683,"305":1.3577663898468018,"306":0.7534334063529968,"307":-1.0205122232437134,"308":-1.8676657676696777,"309":-1.4047801494598389,"310":0.3642368018627167,"311":0.6208460330963135,"312":1.1853201389312744,"313":1.6962238550186157,"314":0.840380847454071,"315":0.9745326638221741,"316":0.3351540267467499,"317":-0.9931015968322754,"318":-0.8581629395484924,"319":-0.51557856798172,"320":-0.7629982829093933,"321":1.323944091796875,"322":1.0521999597549438,"323":0.26406121253967285,"324":-1.4054365158081055,"325":0.5089449882507324,"326":0.847549557685852,"327":-1.2518001794815063,"328":-3.1238021850585938,"329":-1.6400855779647827,"330":1.075620174407959,"331":-0.1405813843011856,"332":-0.4907134175300598,"333":-0.027802301570773125,"334":-0.3257621228694916,"335":2.1172373294830322,"336":0.15740689635276794,"337":2.036038875579834,"338":2.016197919845581,"339":-0.1008695438504219,"340":0.7904253602027893,"341":-0.11672354489564896,"342":-0.5614692568778992,"343":-0.5335685610771179,"344":-1.2457716464996338,"345":-3.185887575149536,"346":-2.5765323638916016,"347":0.9313035011291504,"348":-0.5101588368415833,"349":0.7709907293319702,"350":-0.6105588674545288,"351":-0.4228915870189667,"352":-0.14271047711372375,"353":-0.30454087257385254,"354":-0.7561521530151367,"355":0.8798566460609436,"356":-0.9767146110534668,"357":1.410041093826294,"358":0.6632929444313049,"359":1.2201930284500122,"360":0.27020925283432007,"361":2.1221909523010254,"362":-0.8628859519958496,"363":-1.856704592704773,"364":4.431570529937744,"365":0.8098232746124268,"366":-0.2361278384923935,"367":-0.6183484196662903,"368":-0.08637797832489014,"369":0.7550498843193054,"370":-0.32036155462265015,"371":0.019737403839826584,"372":0.42975562810897827,"373":-0.6175838112831116,"374":-0.9066432118415833,"375":1.1505329608917236,"376":0.2407134622335434,"377":0.6928693056106567,"378":-1.3364851474761963,"379":0.564503014087677,"380":-0.8370490670204163,"381":1.480880618095398,"382":-0.4399367868900299,"383":2.5205514430999756,"384":-1.4356170892715454,"385":-0.3073000907897949,"386":1.2567477226257324,"387":-1.7437551021575928,"388":1.7827869653701782,"389":1.9776122570037842,"390":-0.2962592840194702,"391":-0.1990099996328354,"392":-1.3956066370010376,"393":-2.018634557723999,"394":-0.6337502002716064,"395":-1.042884111404419,"396":1.9306776523590088,"397":2.580298900604248,"398":0.11142931878566742,"399":-1.6536128520965576}},"forgetBias":{"rows":20,"columns":1,"weights":{"0":0,"1":0,"2":0,"3":0,"4":0,"5":0,"6":0,"7":0,"8":0,"9":0,"10":0,"11":0,"12":0,"13":0,"14":0,"15":0,"16":0,"17":0,"18":0,"19":0}},"outputMatrix":{"rows":20,"columns":10,"weights":{"0":1.3273965120315552,"1":1.7126102447509766,"2":0.18730999529361725,"3":0.47515371441841125,"4":0.9977881908416748,"5":0.17673417925834656,"6":-0.15369004011154175,"7":0.10029210150241852,"8":1.3522071838378906,"9":0.3459918200969696,"10":1.3352885246276855,"11":-0.9299956560134888,"12":0.6347171068191528,"13":-1.5378352403640747,"14":-1.7765003442764282,"15":0.2689131796360016,"16":0.2883313000202179,"17":-0.7829362154006958,"18":1.3076187372207642,"19":2.629380941390991,"20":0.35669806599617004,"21":-0.38841381669044495,"22":0.059843841940164566,"23":-0.7010864615440369,"24":-0.10691990703344345,"25":3.8711280822753906,"26":0.12876667082309723,"27":-1.2378472089767456,"28":0.816800057888031,"29":0.8081966042518616,"30":0.3066912293434143,"31":0.8599385619163513,"32":0.8028745651245117,"33":-0.13019175827503204,"34":0.25658082962036133,"35":-0.03672057390213013,"36":-0.10101962089538574,"37":-0.07182614505290985,"38":0.295027494430542,"39":-0.4633744955062866,"40":-0.8787117600440979,"41":-0.8305415511131287,"42":-2.6842377185821533,"43":1.4662187099456787,"44":0.6108107566833496,"45":1.1800477504730225,"46":1.0700753927230835,"47":1.7714821100234985,"48":-0.7359627485275269,"49":-1.0339981317520142,"50":1.2386131286621094,"51":3.423912286758423,"52":-0.3294632136821747,"53":1.9665030241012573,"54":2.8088765144348145,"55":-0.17603696882724762,"56":-0.08829667419195175,"57":-1.3328863382339478,"58":-0.6672940254211426,"59":0.685981810092926,"60":0.5547004342079163,"61":-2.0212056636810303,"62":3.236806631088257,"63":-0.28268930315971375,"64":-1.1834628582000732,"65":0.4842745363712311,"66":-1.3708730936050415,"67":-1.2400399446487427,"68":0.8694045543670654,"69":-0.06874086707830429,"70":-0.040062159299850464,"71":1.4578014612197876,"72":-0.539103090763092,"73":-0.21384000778198242,"74":1.6064372062683105,"75":0.4237681031227112,"76":-0.9000426530838013,"77":0.10269415378570557,"78":-0.913777768611908,"79":0.24369890987873077,"80":0.4724380075931549,"81":2.7816646099090576,"82":0.152174711227417,"83":-0.17541153728961945,"84":2.127117872238159,"85":1.686783790588379,"86":-1.0324960947036743,"87":0.28463438153266907,"88":-0.9592375755310059,"89":-0.7570184469223022,"90":0.959051787853241,"91":0.533859372138977,"92":-0.3168252110481262,"93":2.192807912826538,"94":2.728945255279541,"95":0.6326793432235718,"96":0.5509646534919739,"97":-0.05695611983537674,"98":-2.3687875270843506,"99":-0.21466107666492462,"100":1.2779408693313599,"101":1.5546972751617432,"102":-0.08575855940580368,"103":3.3548405170440674,"104":0.9836851358413696,"105":-0.45054593682289124,"106":-1.4855642318725586,"107":-3.67356014251709,"108":-1.3738404512405396,"109":-0.2857925593852997,"110":-0.4107648432254791,"111":1.7807458639144897,"112":-0.9623758792877197,"113":1.877707600593567,"114":1.1543203592300415,"115":-0.8691181540489197,"116":-1.0083714723587036,"117":-0.2523382902145386,"118":-2.3280749320983887,"119":-0.6568560600280762,"120":-0.23620495200157166,"121":-0.13209067285060883,"122":0.12613648176193237,"123":-0.415823757648468,"124":0.4993823766708374,"125":-0.014930383302271366,"126":0.4075078070163727,"127":-0.3862977623939514,"128":1.2596325874328613,"129":0.44550982117652893,"130":0.6867702007293701,"131":-0.05271969735622406,"132":0.3382982909679413,"133":-1.3321741819381714,"134":-0.14912481606006622,"135":0.48865628242492676,"136":-0.16997738182544708,"137":-0.49688825011253357,"138":0.08019351959228516,"139":-0.8372757434844971,"140":0.763171911239624,"141":1.6826642751693726,"142":1.620137333869934,"143":-2.6885910034179688,"144":-0.032537274062633514,"145":1.3522800207138062,"146":-2.4606778621673584,"147":0.35383760929107666,"148":0.4285316467285156,"149":0.11737976968288422,"150":1.8613073825836182,"151":1.1214438676834106,"152":1.8743234872817993,"153":-0.7628890872001648,"154":0.869277834892273,"155":1.5316030979156494,"156":-3.521610736846924,"157":-2.8436405658721924,"158":0.3305370509624481,"159":-0.4103236794471741,"160":1.9935712814331055,"161":1.5075620412826538,"162":-1.1010024547576904,"163":0.5420287251472473,"164":0.8151631951332092,"165":1.8228845596313477,"166":-1.4378938674926758,"167":-0.10212674736976624,"168":-1.8002723455429077,"169":-0.30090245604515076,"170":-0.035016294568777084,"171":0.8577908873558044,"172":0.7024062275886536,"173":0.9436315894126892,"174":0.617439329624176,"175":-0.07933364063501358,"176":1.4250303506851196,"177":0.20952193439006805,"178":-0.32040107250213623,"179":0.7518720030784607,"180":0.21796536445617676,"181":0.3238241672515869,"182":-0.8948888778686523,"183":-0.924307644367218,"184":-0.4661569595336914,"185":-0.971030592918396,"186":-0.3923395574092865,"187":1.05185067653656,"188":-0.1844143569469452,"189":-0.3030543327331543,"190":0.8046112060546875,"191":-0.24402344226837158,"192":3.1395153999328613,"193":0.8366851210594177,"194":0.02715245634317398,"195":0.3604617118835449,"196":-0.7713721990585327,"197":0.11308471858501434,"198":-0.9275981783866882,"199":-0.5684524774551392}},"outputHidden":{"rows":20,"columns":20,"weights":{"0":-0.7977234125137329,"1":2.791811943054199,"2":1.9481310844421387,"3":1.7170658111572266,"4":1.406440258026123,"5":1.7903579473495483,"6":0.8065361976623535,"7":0.5227301120758057,"8":-1.5087761878967285,"9":0.44027143716812134,"10":0.11107715964317322,"11":-0.7217293977737427,"12":1.927312970161438,"13":2.134791612625122,"14":1.2666016817092896,"15":-0.29985740780830383,"16":-0.19893012940883636,"17":3.87264347076416,"18":1.121602177619934,"19":-0.3028813898563385,"20":-0.5367364287376404,"21":1.519891381263733,"22":0.16132265329360962,"23":-0.7015740275382996,"24":-0.3879852890968323,"25":-1.033821702003479,"26":0.026996292173862457,"27":-1.3273155689239502,"28":0.7528366446495056,"29":-0.5107375383377075,"30":0.5040651559829712,"31":-0.4246889054775238,"32":-0.5098200440406799,"33":0.29731640219688416,"34":-0.032530639320611954,"35":0.1609441339969635,"36":-0.05192241072654724,"37":1.7351499795913696,"38":1.5343823432922363,"39":-0.5815035700798035,"40":-0.8925796747207642,"41":-0.41021260619163513,"42":3.0499706268310547,"43":1.0250247716903687,"44":-0.4552323818206787,"45":0.8586510419845581,"46":1.0265430212020874,"47":-1.5725699663162231,"48":0.19863930344581604,"49":-2.5112905502319336,"50":0.5806105136871338,"51":0.7628480195999146,"52":1.295927882194519,"53":1.5937278270721436,"54":-0.37949666380882263,"55":0.03936721011996269,"56":0.599462628364563,"57":2.110429048538208,"58":1.1880526542663574,"59":-1.2303227186203003,"60":-0.5002107620239258,"61":1.639693021774292,"62":1.4046448469161987,"63":0.8352330327033997,"64":-0.144904226064682,"65":1.6999224424362183,"66":1.0061681270599365,"67":-1.5605974197387695,"68":-1.1914818286895752,"69":-0.0038532798644155264,"70":0.4769330322742462,"71":0.8076398372650146,"72":1.0044220685958862,"73":0.7819820046424866,"74":1.1077241897583008,"75":1.6398532390594482,"76":0.5567569732666016,"77":1.9866195917129517,"78":1.1113241910934448,"79":-0.2454194724559784,"80":3.4769792556762695,"81":-0.7497252225875854,"82":-0.21548765897750854,"83":-0.1951105296611786,"84":-0.21156997978687286,"85":0.6326958537101746,"86":-2.2522671222686768,"87":0.5925124287605286,"88":-0.358798086643219,"89":0.15804889798164368,"90":-1.4600259065628052,"91":-1.8707484006881714,"92":-0.696464478969574,"93":-1.1138461828231812,"94":-0.05860567092895508,"95":-2.49725604057312,"96":-1.9257782697677612,"97":0.640307605266571,"98":-0.8393387198448181,"99":0.05818609148263931,"100":-0.5945825576782227,"101":0.5433146357536316,"102":1.0368887186050415,"103":1.5688440799713135,"104":1.006651759147644,"105":-0.9584798216819763,"106":-0.2154771238565445,"107":-1.7945005893707275,"108":-0.378551721572876,"109":-1.504059910774231,"110":0.4141944646835327,"111":0.14838087558746338,"112":1.6968064308166504,"113":0.8778440952301025,"114":0.2859443128108978,"115":0.5495853424072266,"116":0.2699066996574402,"117":2.4208574295043945,"118":1.1270718574523926,"119":-0.7373379468917847,"120":-0.5183265209197998,"121":1.5371023416519165,"122":-0.6029329299926758,"123":0.9610834717750549,"124":0.544370174407959,"125":-1.5334471464157104,"126":-0.393776535987854,"127":-0.1124790757894516,"128":-0.7590641975402832,"129":0.8279081583023071,"130":1.5196342468261719,"131":0.6137621402740479,"132":3.0277676582336426,"133":2.026463031768799,"134":0.42450734972953796,"135":-0.5348681807518005,"136":0.16656728088855743,"137":0.9934092164039612,"138":0.12524822354316711,"139":0.960968017578125,"140":1.3792272806167603,"141":0.24233292043209076,"142":-0.6413739919662476,"143":0.23055711388587952,"144":0.018497172743082047,"145":-0.7934829592704773,"146":-0.7524892687797546,"147":0.8638806939125061,"148":0.10946989059448242,"149":0.6788646578788757,"150":-0.3971778154373169,"151":-0.39473986625671387,"152":0.46059995889663696,"153":0.3150591254234314,"154":0.20973311364650726,"155":-0.6189916133880615,"156":-0.4809514284133911,"157":0.7489277720451355,"158":-0.409593403339386,"159":0.8647217154502869,"160":-0.7060897350311279,"161":0.7037826180458069,"162":0.21109434962272644,"163":1.2406210899353027,"164":1.4072672128677368,"165":0.46092671155929565,"166":0.5632097125053406,"167":-1.5667095184326172,"168":0.2861606776714325,"169":1.2303152084350586,"170":1.089782953262329,"171":1.245185375213623,"172":1.7998223304748535,"173":-1.3639028072357178,"174":1.5246750116348267,"175":1.8294626474380493,"176":0.8479254245758057,"177":2.121795654296875,"178":1.6851816177368164,"179":0.5612490177154541,"180":-0.33332276344299316,"181":0.29969605803489685,"182":0.5814751386642456,"183":2.3655190467834473,"184":-0.7198452949523926,"185":0.8774725794792175,"186":-0.9580333828926086,"187":-2.0819482803344727,"188":-2.1715075969696045,"189":1.3615801334381104,"190":-0.08291155844926834,"191":0.014142234809696674,"192":2.219832181930542,"193":0.029577026143670082,"194":1.993414044380188,"195":2.015947103500366,"196":-0.2060708999633789,"197":1.4049413204193115,"198":1.5707287788391113,"199":1.1783826351165771,"200":-1.4828959703445435,"201":2.3905906677246094,"202":1.633933186531067,"203":1.6733266115188599,"204":-0.24376945197582245,"205":-0.31851112842559814,"206":0.5862377882003784,"207":0.595032811164856,"208":0.39472782611846924,"209":-0.2049860954284668,"210":0.7437005639076233,"211":-0.15239517390727997,"212":1.1517703533172607,"213":0.3072880804538727,"214":0.7737908959388733,"215":-0.43562495708465576,"216":0.5900164246559143,"217":1.9469811916351318,"218":1.0422548055648804,"219":-0.25288358330726624,"220":-0.7799632549285889,"221":1.6867084503173828,"222":1.3529376983642578,"223":0.9205970764160156,"224":-0.6517705321311951,"225":0.2628514766693115,"226":1.3422152996063232,"227":0.22409388422966003,"228":1.3722822666168213,"229":-1.038822889328003,"230":0.5137853026390076,"231":-0.5636783242225647,"232":1.3463183641433716,"233":1.02117919921875,"234":0.41156554222106934,"235":-0.7613450884819031,"236":-0.6063082814216614,"237":2.282137393951416,"238":-0.033755674958229065,"239":0.1168912798166275,"240":-0.5039834976196289,"241":1.379065990447998,"242":2.2231764793395996,"243":1.4563744068145752,"244":1.0358223915100098,"245":1.3873764276504517,"246":0.907448947429657,"247":-1.0560723543167114,"248":-0.5115242600440979,"249":-1.1181751489639282,"250":0.5024493932723999,"251":0.7278174161911011,"252":2.2207694053649902,"253":2.8428051471710205,"254":1.574920892715454,"255":0.78312087059021,"256":0.9033464789390564,"257":0.5697561502456665,"258":0.33751770853996277,"259":0.17735165357589722,"260":-0.22820314764976501,"261":1.5158745050430298,"262":2.102987766265869,"263":1.2153109312057495,"264":-0.34393957257270813,"265":0.7890544533729553,"266":0.3844988942146301,"267":-0.21381814777851105,"268":-2.09544038772583,"269":1.2078779935836792,"270":0.038464002311229706,"271":0.4895220100879669,"272":2.4343724250793457,"273":0.7556288838386536,"274":1.9588512182235718,"275":0.9488142132759094,"276":0.2683080732822418,"277":2.6493945121765137,"278":0.42762118577957153,"279":0.272152304649353,"280":0.2824612557888031,"281":0.2987416386604309,"282":1.767310380935669,"283":1.4032214879989624,"284":0.18401122093200684,"285":1.7982770204544067,"286":0.6235527396202087,"287":0.2034708559513092,"288":-1.8001229763031006,"289":1.121976613998413,"290":0.7207045555114746,"291":0.5801621675491333,"292":1.0515297651290894,"293":-0.5635039210319519,"294":0.9620904326438904,"295":0.8765826225280762,"296":0.4396408796310425,"297":0.6953900456428528,"298":0.08164234459400177,"299":-0.2640315592288971,"300":-0.7541008591651917,"301":1.7828876972198486,"302":0.8588520884513855,"303":1.7172013521194458,"304":0.22340334951877594,"305":1.2702343463897705,"306":0.9686416983604431,"307":-0.4106462597846985,"308":-1.2225358486175537,"309":-0.018106965348124504,"310":0.7297946810722351,"311":0.3801257312297821,"312":1.7503377199172974,"313":-0.03144627809524536,"314":1.3585834503173828,"315":0.8196992874145508,"316":0.629623293876648,"317":2.0173428058624268,"318":0.2662838399410248,"319":0.12463341653347015,"320":-0.7221110463142395,"321":3.324246644973755,"322":0.874740481376648,"323":1.1034034490585327,"324":0.1736464500427246,"325":0.852549135684967,"326":0.04960067942738533,"327":0.8545418977737427,"328":-0.31332194805145264,"329":0.4625685513019562,"330":0.551199197769165,"331":0.02506648749113083,"332":1.3441976308822632,"333":-1.7216389179229736,"334":1.4710326194763184,"335":1.6392771005630493,"336":-0.6195961236953735,"337":2.1464221477508545,"338":0.9576520323753357,"339":0.622953474521637,"340":-0.007231700234115124,"341":0.36827895045280457,"342":-2.2940993309020996,"343":-0.7770284414291382,"344":-0.42532816529273987,"345":-2.2549784183502197,"346":-1.1809861660003662,"347":1.8304667472839355,"348":1.2856029272079468,"349":1.0773781538009644,"350":-1.4991533756256104,"351":-0.40170466899871826,"352":1.1472406387329102,"353":-1.2663304805755615,"354":0.3199436068534851,"355":-0.253646582365036,"356":0.1686725616455078,"357":0.3762752115726471,"358":-1.0266796350479126,"359":2.179901599884033,"360":1.1393769979476929,"361":1.0318963527679443,"362":-0.03679865226149559,"363":0.9233532547950745,"364":0.3635902404785156,"365":-0.606747567653656,"366":0.37369242310523987,"367":0.983799934387207,"368":-0.05958082154393196,"369":-0.3019012212753296,"370":-1.0617866516113281,"371":-1.6313763856887817,"372":0.8132085204124451,"373":-0.13587132096290588,"374":-0.06956028193235397,"375":-0.862686038017273,"376":-1.5217781066894531,"377":-0.11183364689350128,"378":-1.5065685510635376,"379":0.8282837271690369,"380":-0.17422795295715332,"381":1.8575127124786377,"382":-1.7803651094436646,"383":1.116729497909546,"384":0.8187273740768433,"385":0.9538503289222717,"386":-0.2311311811208725,"387":-0.5890318155288696,"388":-1.2671231031417847,"389":3.250214099884033,"390":-0.3101995289325714,"391":-0.16998565196990967,"392":0.3232315182685852,"393":-0.38715752959251404,"394":1.292649745941162,"395":-0.014673803932964802,"396":0.3491857945919037,"397":2.2634267807006836,"398":0.010849754326045513,"399":0.7074801921844482}},"outputBias":{"rows":20,"columns":1,"weights":{"0":0.24661868810653687,"1":-1.7079278230667114,"2":1.4005199670791626,"3":-2.707286834716797,"4":0.9792128801345825,"5":-1.9884611368179321,"6":0.552145779132843,"7":0.1669970601797104,"8":-0.545945942401886,"9":-0.2030341923236847,"10":0.6937763690948486,"11":-0.258516401052475,"12":0.4858517348766327,"13":0.38074496388435364,"14":-1.7164829969406128,"15":-0.613858163356781,"16":-1.1726607084274292,"17":0.6121105551719666,"18":-0.7289058566093445,"19":2.9628336429595947}},"cellActivationMatrix":{"rows":20,"columns":10,"weights":{"0":0.3290078341960907,"1":0.7746290564537048,"2":-1.321904182434082,"3":1.6401170492172241,"4":0.4542328417301178,"5":0.2622494697570801,"6":-0.07124238461256027,"7":1.170461893081665,"8":-0.8963106870651245,"9":-0.9802032113075256,"10":0.9895154237747192,"11":-2.0938408374786377,"12":0.7143623232841492,"13":-0.23310472071170807,"14":-1.055845856666565,"15":0.7148497700691223,"16":0.32281139492988586,"17":-1.170370101928711,"18":0.8631675839424133,"19":-1.5276246070861816,"20":0.7518163919448853,"21":-0.572622537612915,"22":0.8416852951049805,"23":-0.7287691831588745,"24":0.29532209038734436,"25":0.2903405725955963,"26":0.4593905806541443,"27":-0.6051920652389526,"28":-0.14426803588867188,"29":1.618564486503601,"30":1.5710989236831665,"31":-2.0758321285247803,"32":-1.4198582172393799,"33":-0.39931654930114746,"34":-1.6853277683258057,"35":0.16316024959087372,"36":-1.3963743448257446,"37":-1.3012778759002686,"38":1.0792884826660156,"39":-0.5858191251754761,"40":0.11352832615375519,"41":-0.24216489493846893,"42":-0.5071645379066467,"43":-0.396418958902359,"44":-0.5261406898498535,"45":0.27906301617622375,"46":-1.188361406326294,"47":-0.01602531410753727,"48":0.4039367437362671,"49":-0.7960352897644043,"50":2.4785377979278564,"51":-1.0901694297790527,"52":1.341808795928955,"53":-0.8051767349243164,"54":-1.227624773979187,"55":1.3724584579467773,"56":-0.12142479419708252,"57":-0.6118122339248657,"58":0.702559769153595,"59":0.41036781668663025,"60":1.3025873899459839,"61":-0.4450009763240814,"62":0.5450607538223267,"63":0.12286502867937088,"64":0.15185505151748657,"65":1.3128150701522827,"66":0.1499418020248413,"67":-0.8787264823913574,"68":-0.07572007179260254,"69":0.47109732031822205,"70":1.24098539352417,"71":-0.5464004874229431,"72":-0.4347338080406189,"73":-0.1642678678035736,"74":-0.752927839756012,"75":1.3406833410263062,"76":-0.23881955444812775,"77":-0.8258150815963745,"78":0.03319260850548744,"79":-0.04581352695822716,"80":-0.8613982796669006,"81":0.4714066982269287,"82":-1.363754391670227,"83":-0.6765437126159668,"84":1.2035157680511475,"85":-1.292319893836975,"86":0.723584771156311,"87":2.8531851768493652,"88":-2.038043260574341,"89":0.4188295006752014,"90":-1.0557297468185425,"91":0.5319458246231079,"92":-0.8096211552619934,"93":0.13572435081005096,"94":-0.43752971291542053,"95":-1.147858738899231,"96":0.03695766255259514,"97":1.216896414756775,"98":0.6351439356803894,"99":-0.3528941571712494,"100":-0.7297757863998413,"101":-0.5917342901229858,"102":0.280455082654953,"103":0.4850490689277649,"104":-0.06431316584348679,"105":0.11490271240472794,"106":1.194753646850586,"107":-0.4039054811000824,"108":0.030765637755393982,"109":0.6515911221504211,"110":-0.4376744031906128,"111":-1.2129900455474854,"112":0.8002828359603882,"113":-0.588694155216217,"114":-0.9427117705345154,"115":-0.6768221259117126,"116":0.16242703795433044,"117":-0.6614355444908142,"118":0.3666984438896179,"119":0.5924463272094727,"120":1.0913153886795044,"121":-0.45302337408065796,"122":1.1152217388153076,"123":-0.25132304430007935,"124":-0.7536056041717529,"125":1.8803335428237915,"126":0.09561005234718323,"127":-1.107794165611267,"128":1.1739436388015747,"129":0.08465687185525894,"130":1.196878433227539,"131":-0.2589269280433655,"132":1.1019562482833862,"133":0.4812445044517517,"134":0.2577754855155945,"135":1.597236156463623,"136":-0.49635836482048035,"137":-1.3127667903900146,"138":0.7612224817276001,"139":-1.448861002922058,"140":0.029016774147748947,"141":-2.5682921409606934,"142":0.3646504282951355,"143":-1.0657680034637451,"144":-2.58278489112854,"145":0.6725165247917175,"146":0.07980100810527802,"147":-0.6804414391517639,"148":2.7923738956451416,"149":0.01359239500015974,"150":0.26456546783447266,"151":-1.9262648820877075,"152":0.8795309662818909,"153":-1.684311866760254,"154":-1.4062913656234741,"155":1.0308998823165894,"156":0.06145592778921127,"157":-0.647553563117981,"158":1.025078535079956,"159":0.6245652437210083,"160":-0.3509891629219055,"161":-0.44133254885673523,"162":0.8490718603134155,"163":-1.2401506900787354,"164":-0.37564677000045776,"165":-0.8940860033035278,"166":0.464302659034729,"167":-0.8869203329086304,"168":1.286399245262146,"169":0.2743401527404785,"170":-0.2534009516239166,"171":0.34753337502479553,"172":0.5960536003112793,"173":-0.42383092641830444,"174":0.33412572741508484,"175":-0.21232351660728455,"176":1.2652984857559204,"177":0.027416452765464783,"178":0.048914387822151184,"179":1.129008412361145,"180":-0.8468851447105408,"181":0.8057385683059692,"182":-1.2224448919296265,"183":0.3761834502220154,"184":0.8869338035583496,"185":-0.18331559002399445,"186":2.017012119293213,"187":0.10458231717348099,"188":-0.5265783667564392,"189":0.8914316892623901,"190":-1.383284091949463,"191":0.45521000027656555,"192":-1.2191041707992554,"193":0.10499291121959686,"194":0.035858798772096634,"195":-0.7076019644737244,"196":0.43082964420318604,"197":1.1504535675048828,"198":0.22262327373027802,"199":-0.07805103063583374}},"cellActivationHidden":{"rows":20,"columns":20,"weights":{"0":-0.5796279311180115,"1":0.9059383273124695,"2":0.7828242182731628,"3":0.6564579606056213,"4":-0.40101397037506104,"5":-0.2070653736591339,"6":-0.24421414732933044,"7":-0.24989934265613556,"8":-1.0373915433883667,"9":-0.7354559898376465,"10":0.9269624352455139,"11":0.7819353342056274,"12":0.5520970225334167,"13":0.6052629947662354,"14":0.56246018409729,"15":0.5484824180603027,"16":0.8217476010322571,"17":-0.037527602165937424,"18":0.6817142963409424,"19":-0.7929773330688477,"20":0.8070588111877441,"21":0.6631131768226624,"22":-0.7302305102348328,"23":-0.2280702292919159,"24":-0.6895949840545654,"25":-1.336439847946167,"26":-0.7208278775215149,"27":1.2286453247070312,"28":0.4169415235519409,"29":0.33109429478645325,"30":-0.6055525541305542,"31":-0.7798612117767334,"32":-0.46032002568244934,"33":-0.42919591069221497,"34":0.7544949650764465,"35":-0.29799434542655945,"36":-0.029211534187197685,"37":1.268898606300354,"38":-0.05796920508146286,"39":0.9514259696006775,"40":-0.2567238211631775,"41":-0.021370090544223785,"42":-0.06154083088040352,"43":-0.27875036001205444,"44":-1.1402298212051392,"45":-0.43327924609184265,"46":-0.21537360548973083,"47":-0.2820134460926056,"48":0.30764392018318176,"49":0.3085058033466339,"50":-0.779434084892273,"51":-0.853226900100708,"52":-0.5248574614524841,"53":-0.4362791180610657,"54":-0.3955317437648773,"55":-0.9142372012138367,"56":-0.2455075979232788,"57":0.24610131978988647,"58":-0.5095425844192505,"59":-0.12551115453243256,"60":1.0934447050094604,"61":1.151726484298706,"62":0.45675691962242126,"63":0.9176831841468811,"64":-0.04867379739880562,"65":0.06240111216902733,"66":0.49960216879844666,"67":2.5719943046569824,"68":0.775842010974884,"69":0.6427212953567505,"70":-0.7224929928779602,"71":0.0807022675871849,"72":0.6123557090759277,"73":0.37692752480506897,"74":0.4486141502857208,"75":-0.5614221692085266,"76":-0.7593356966972351,"77":1.5097672939300537,"78":-0.16139699518680573,"79":-0.18332594633102417,"80":0.052622511982917786,"81":0.41002658009529114,"82":-0.4065534770488739,"83":-0.032491859048604965,"84":0.20556066930294037,"85":-0.03919718414545059,"86":0.40134117007255554,"87":-1.059421181678772,"88":0.1989198625087738,"89":-0.09746547043323517,"90":0.2797476649284363,"91":0.1577083170413971,"92":-0.23813427984714508,"93":0.3830665647983551,"94":0.20841163396835327,"95":0.5206074714660645,"96":0.14893333613872528,"97":0.14292111992835999,"98":1.2434157133102417,"99":-0.23156601190567017,"100":0.3067616820335388,"101":0.3845475912094116,"102":-0.45053017139434814,"103":-0.2336447685956955,"104":-0.8895621299743652,"105":-0.9917810559272766,"106":-0.8128485083580017,"107":-0.48876193165779114,"108":1.4611878395080566,"109":0.7441805005073547,"110":-0.04414723441004753,"111":-0.16841551661491394,"112":-0.23787753283977509,"113":-0.2965181767940521,"114":-0.7420143485069275,"115":-0.004965669941157103,"116":-0.09032490104436874,"117":0.8131113648414612,"118":0.012247346341609955,"119":0.38788798451423645,"120":0.23141096532344818,"121":-0.9577674269676208,"122":-1.632285475730896,"123":0.028903106227517128,"124":-1.2530442476272583,"125":-1.2261158227920532,"126":-1.3603663444519043,"127":1.4694215059280396,"128":0.7840878963470459,"129":1.2314549684524536,"130":-0.687599778175354,"131":-1.0451432466506958,"132":-0.5884047746658325,"133":-0.4500843286514282,"134":-0.3568997085094452,"135":-0.8432952165603638,"136":-0.8977569341659546,"137":0.48176634311676025,"138":0.7698065042495728,"139":0.45412373542785645,"140":0.47568395733833313,"141":1.103777527809143,"142":-0.1767740547657013,"143":0.32576867938041687,"144":0.3935633897781372,"145":-0.3675284683704376,"146":-0.6117495894432068,"147":0.19284918904304504,"148":-0.6440969109535217,"149":0.240303635597229,"150":0.036136556416749954,"151":-0.4568343460559845,"152":-0.32640719413757324,"153":0.07060422748327255,"154":0.45857805013656616,"155":-0.6825405955314636,"156":-0.22840285301208496,"157":-0.22094030678272247,"158":0.4022796154022217,"159":0.37123727798461914,"160":-0.35250258445739746,"161":-0.28584590554237366,"162":-0.29906606674194336,"163":0.13181918859481812,"164":0.861830472946167,"165":-0.056619465351104736,"166":0.5835480093955994,"167":-1.8022866249084473,"168":0.01206026691943407,"169":0.03969701752066612,"170":0.6128997206687927,"171":0.46712690591812134,"172":-0.16477978229522705,"173":0.1275671124458313,"174":-0.28911009430885315,"175":0.49257391691207886,"176":-0.7125102281570435,"177":-1.1760221719741821,"178":0.3537442982196808,"179":-0.5594214797019958,"180":0.6159411072731018,"181":0.026845252141356468,"182":0.48217636346817017,"183":0.3465099632740021,"184":0.29218387603759766,"185":0.4046885073184967,"186":-0.02009279653429985,"187":-0.7592202425003052,"188":-0.5325303673744202,"189":-0.4745781719684601,"190":0.5913540124893188,"191":0.8527522683143616,"192":0.5741658806800842,"193":0.3133184015750885,"194":0.43324971199035645,"195":0.42846161127090454,"196":-0.11350548267364502,"197":-2.0729713439941406,"198":0.10000547766685486,"199":-0.41596081852912903,"200":-1.0577887296676636,"201":-0.9311392903327942,"202":-0.1942705512046814,"203":-0.5459944605827332,"204":0.6704743504524231,"205":-0.11249872297048569,"206":-0.453044056892395,"207":0.24310599267482758,"208":-0.19162537157535553,"209":0.4607762098312378,"210":-0.41811978816986084,"211":-0.09387584775686264,"212":-0.008523884229362011,"213":-2.300487518310547,"214":-0.539734959602356,"215":-0.7234153151512146,"216":-0.4775674045085907,"217":-3.152111530303955,"218":-0.35995718836784363,"219":0.5874457359313965,"220":0.8133535385131836,"221":-1.4276132583618164,"222":-0.18390052020549774,"223":-0.9326391816139221,"224":0.6790580153465271,"225":-0.16037613153457642,"226":-0.2248610258102417,"227":0.8743890523910522,"228":1.3310471773147583,"229":0.8391842246055603,"230":-0.4299088716506958,"231":0.10081492364406586,"232":-0.42942944169044495,"233":-1.3394113779067993,"234":-0.7379860877990723,"235":-0.43073856830596924,"236":-0.5298893451690674,"237":-2.001866102218628,"238":-0.8246258497238159,"239":0.5489891171455383,"240":0.857322096824646,"241":-0.0441642627120018,"242":-0.4418341815471649,"243":-0.12434075772762299,"244":0.3315378427505493,"245":-0.5667080879211426,"246":-0.5036475658416748,"247":-0.7578319907188416,"248":0.04351088032126427,"249":-0.2018686980009079,"250":-0.23067530989646912,"251":-1.442964792251587,"252":-0.16051948070526123,"253":-0.20762963593006134,"254":-0.14446452260017395,"255":-0.5269324779510498,"256":-0.6998962759971619,"257":0.9937158226966858,"258":-0.4036119282245636,"259":0.9136923551559448,"260":-0.306945264339447,"261":0.16805140674114227,"262":0.022790316492319107,"263":-0.2751077711582184,"264":0.10608404129743576,"265":-0.4633754789829254,"266":-0.535579264163971,"267":0.40516871213912964,"268":0.2650420665740967,"269":0.5623509287834167,"270":0.0826071947813034,"271":-0.5353584289550781,"272":-0.21385464072227478,"273":-0.4328870177268982,"274":-0.1034657210111618,"275":-0.5183202624320984,"276":-0.4248604476451874,"277":1.9975515604019165,"278":-1.1276147365570068,"279":0.6387788653373718,"280":0.6055262684822083,"281":1.144132375717163,"282":-0.4763124883174896,"283":0.1272314190864563,"284":0.4490378201007843,"285":0.42547109723091125,"286":-0.46044594049453735,"287":3.9984183311462402,"288":-0.14284393191337585,"289":0.16649197041988373,"290":-0.46294814348220825,"291":-0.6778212785720825,"292":-0.020210588350892067,"293":-0.40032997727394104,"294":-0.4869600534439087,"295":0.1826699674129486,"296":-0.09795644879341125,"297":1.714447259902954,"298":-1.4498341083526611,"299":-0.2537064254283905,"300":-0.3980366289615631,"301":-0.2006327509880066,"302":-0.360543429851532,"303":-0.642630398273468,"304":2.6208255290985107,"305":-1.1141270399093628,"306":0.1875525712966919,"307":-0.3179374635219574,"308":0.7816468477249146,"309":0.9420551657676697,"310":-0.05454975739121437,"311":-0.16038179397583008,"312":-0.15291115641593933,"313":-0.5239622592926025,"314":-0.6548340320587158,"315":0.2875894010066986,"316":-0.470474511384964,"317":-0.5582398176193237,"318":-0.9078301787376404,"319":0.14102503657341003,"320":0.7944381833076477,"321":-0.47300323843955994,"322":-0.08272147923707962,"323":-0.5057804584503174,"324":0.7432591915130615,"325":-1.1392240524291992,"326":-0.953058660030365,"327":0.43779629468917847,"328":0.7415961623191833,"329":1.4152922630310059,"330":-0.6840911507606506,"331":0.2802233397960663,"332":-0.3935930132865906,"333":0.20426300168037415,"334":-1.2035822868347168,"335":-0.2730358839035034,"336":0.08179295808076859,"337":0.28349584341049194,"338":-1.9812501668930054,"339":0.4944627583026886,"340":0.3200054168701172,"341":-0.04710133746266365,"342":-0.2474835067987442,"343":-0.4364281892776489,"344":0.5987732410430908,"345":-0.19098956882953644,"346":-0.4466107189655304,"347":0.5714313983917236,"348":0.7648333311080933,"349":0.5522517561912537,"350":0.060207825154066086,"351":0.4358214735984802,"352":0.06967514008283615,"353":-0.7134482860565186,"354":-0.2089768946170807,"355":0.25617897510528564,"356":0.09645290672779083,"357":0.2999122142791748,"358":-0.53843092918396,"359":0.43761366605758667,"360":-0.14356088638305664,"361":-0.5784252882003784,"362":0.29944202303886414,"363":-0.23896917700767517,"364":0.05882354453206062,"365":0.3503565192222595,"366":-0.13058249652385712,"367":-0.2892075777053833,"368":-0.24043577909469604,"369":-0.36570656299591064,"370":-0.23530831933021545,"371":0.04051058366894722,"372":0.08970045298337936,"373":0.1752263903617859,"374":0.11825717240571976,"375":0.4263119697570801,"376":0.03153138980269432,"377":-0.28856873512268066,"378":-0.641144871711731,"379":-0.29139235615730286,"380":0.6156647205352783,"381":0.3842410147190094,"382":0.415365993976593,"383":-0.17474615573883057,"384":0.0971156433224678,"385":0.992362380027771,"386":0.35767850279808044,"387":-1.085357427597046,"388":-0.5899837017059326,"389":-1.5687317848205566,"390":-0.10652144253253937,"391":0.06559067964553833,"392":0.22102388739585876,"393":1.2813701629638672,"394":-0.38435694575309753,"395":0.3292665481567383,"396":0.25529584288597107,"397":-1.9612241983413696,"398":0.5088903307914734,"399":-0.6920365691184998}},"cellActivationBias":{"rows":20,"columns":1,"weights":{"0":2.5628199577331543,"1":2.6718928813934326,"2":0.9459035992622375,"3":0.7198558449745178,"4":1.3043824434280396,"5":0.23354582488536835,"6":0.3037155270576477,"7":-0.26193228363990784,"8":-0.2405349612236023,"9":1.157715082168579,"10":-1.2161282300949097,"11":1.416773796081543,"12":0.5231869220733643,"13":-0.8663000464439392,"14":0.09966500848531723,"15":-0.44252675771713257,"16":-1.1549090147018433,"17":1.2871540784835815,"18":0.12174773961305618,"19":3.1953396797180176}}},{"inputMatrix":{"rows":10,"columns":20,"weights":{"0":3.3698887825012207,"1":-0.7076547145843506,"2":-1.7727863788604736,"3":0.38385075330734253,"4":2.917975425720215,"5":3.5807509422302246,"6":-0.5971523523330688,"7":0.5754024386405945,"8":2.349766492843628,"9":1.2683409452438354,"10":-1.649817943572998,"11":1.9781345129013062,"12":-1.2153735160827637,"13":-1.4989198446273804,"14":-1.9229466915130615,"15":-0.7040427923202515,"16":-1.013424038887024,"17":1.1057898998260498,"18":-2.6409687995910645,"19":-0.9418210387229919,"20":-0.6097463369369507,"21":0.11790157854557037,"22":-0.9443393349647522,"23":0.011605046689510345,"24":1.9944660663604736,"25":0.7962778806686401,"26":-0.3661462962627411,"27":-0.7117511630058289,"28":2.8754639625549316,"29":-0.1384040266275406,"30":-1.0703380107879639,"31":1.113692045211792,"32":0.22951990365982056,"33":-0.6773719191551208,"34":-5.434900760650635,"35":-1.1749228239059448,"36":0.12527240812778473,"37":-2.6593213081359863,"38":-2.6203396320343018,"39":0.9259834289550781,"40":1.9097366333007812,"41":1.938868761062622,"42":-0.7004985213279724,"43":-0.37769004702568054,"44":3.503972291946411,"45":1.0662630796432495,"46":-2.7992372512817383,"47":1.437441349029541,"48":-1.336156964302063,"49":5.668432712554932,"50":-2.655991315841675,"51":-0.171469047665596,"52":0.793182373046875,"53":3.118208646774292,"54":-1.4886894226074219,"55":2.264312267303467,"56":4.341221809387207,"57":-3.394019842147827,"58":-2.5346860885620117,"59":0.49052101373672485,"60":-1.103193998336792,"61":4.188786029815674,"62":-0.37265828251838684,"63":-1.2164406776428223,"64":3.6182119846343994,"65":-0.8012922406196594,"66":-0.07891547679901123,"67":3.3172483444213867,"68":4.753065586090088,"69":2.601397752761841,"70":3.245440721511841,"71":1.0127949714660645,"72":-0.8225036859512329,"73":-1.9259237051010132,"74":-1.6762869358062744,"75":1.0468552112579346,"76":0.49197298288345337,"77":-2.513383626937866,"78":-1.8098806142807007,"79":0.9780824780464172,"80":0.15307551622390747,"81":-2.414651393890381,"82":1.5495765209197998,"83":1.8271055221557617,"84":-2.5887577533721924,"85":1.077216625213623,"86":1.4865010976791382,"87":1.5900906324386597,"88":-1.2696335315704346,"89":-0.9932021498680115,"90":-1.2372500896453857,"91":-1.7541640996932983,"92":3.7126877307891846,"93":1.1978520154953003,"94":1.008817195892334,"95":-0.38833633065223694,"96":-0.46000009775161743,"97":0.22014625370502472,"98":0.32227954268455505,"99":-2.599416494369507,"100":0.03955478221178055,"101":-3.6139984130859375,"102":-2.469843626022339,"103":0.04256558418273926,"104":1.26134192943573,"105":-0.07135923206806183,"106":1.2000277042388916,"107":-1.0185861587524414,"108":2.80399227142334,"109":-1.4273377656936646,"110":0.22556087374687195,"111":-0.20746175944805145,"112":1.3578433990478516,"113":2.7269179821014404,"114":0.5220977067947388,"115":-1.59946870803833,"116":-0.9280877709388733,"117":-2.0695552825927734,"118":-3.4283056259155273,"119":2.329984188079834,"120":2.5512449741363525,"121":-2.072916269302368,"122":-2.699655532836914,"123":0.6179736256599426,"124":0.7144291996955872,"125":-0.15064384043216705,"126":-8.316439628601074,"127":-0.29081854224205017,"128":1.8652586936950684,"129":1.6685497760772705,"130":0.2893903851509094,"131":-1.5901058912277222,"132":-0.3250969350337982,"133":-1.8962478637695312,"134":-0.11841737478971481,"135":-1.6014360189437866,"136":-0.29705747961997986,"137":-1.2092784643173218,"138":3.8267502784729004,"139":1.729338526725769,"140":-0.0562291294336319,"141":-4.011883735656738,"142":-2.626676559448242,"143":-1.1228599548339844,"144":5.127564907073975,"145":1.7365752458572388,"146":-6.9485650062561035,"147":0.5770514011383057,"148":-4.734006881713867,"149":2.415735960006714,"150":2.029111385345459,"151":-1.0022221803665161,"152":-1.7260324954986572,"153":-0.009824331849813461,"154":1.8761287927627563,"155":2.9259040355682373,"156":-3.9787991046905518,"157":-0.11145318299531937,"158":-2.43399715423584,"159":-3.1348557472229004,"160":-2.0463509559631348,"161":-2.4740521907806396,"162":-2.4877703189849854,